<?xml version="1.0"?>
<opencv_storage>
<opencv_ml_ann_mlp>
  <format>3</format>
  <layer_sizes>
    57 128 64 32 1</layer_sizes>
  <activation_function>SIGMOID_SYM</activation_function>
  <f_param1>6.6666666666666663e-01</f_param1>
  <f_param2>1.7159000000000000e+00</f_param2>
  <min_val>-9.4999999999999996e-01</min_val>
  <max_val>9.4999999999999996e-01</max_val>
  <min_val1>-9.7999999999999998e-01</min_val1>
  <max_val1>9.7999999999999998e-01</max_val1>
  <training_params>
    <train_method>BACKPROP</train_method>
    <dw_scale>1.0000000000000001e-01</dw_scale>
    <moment_scale>0.</moment_scale>
    <term_criteria>
      <epsilon>9.0000000000000002e-01</epsilon>
      <iterations>100</iterations></term_criteria></training_params>
  <input_scale>
    2.2202126839881015e-01 -5.8758388035898816e+00
    2.0287469955927523e-01 -6.9047599520167964e+00
    3.7757049104107638e+00 -6.0349710380885284e+00
    1.2265070576035654e-01 -6.1558237192838270e+00
    2.0740602346459611e-01 -9.3502882070182363e+00
    3.7079506382218130e+00 -2.3993410737534804e+00
    4.1672667462044032e-02 -5.5126115017334127e+00
    9.4641680824863961e-02 -8.6948305197094413e+00
    3.4615928816996284e+00 1.8366329675998783e+00 1.9339356892872679e+01
    -1.6584472733929349e+01 1.5875801261126945e+01
    -1.2651330877014763e+01 2.0517006949827067e+01
    -1.7401415450546285e+01 1.6331513400663457e+01
    -1.3022033572798605e+01 1.6698100679481044e+01
    -7.4430214527207710e+00 1.8912338825169869e+01
    -7.4945660172528976e+00 1.7062277664043311e+01
    -7.5899636609069807e+00 1.9090810149833093e+01
    -7.5747910225829687e+00 1.0490074690315590e-02
    -3.3352930930280844e+00 7.4078130075012211e-03
    -3.4081940612164470e+00 8.8886185774819330e-03
    -3.0682579075193956e+00 7.4099120383403095e-03
    -3.4073518510206124e+00 2.4155426537687969e+01
    -5.8899881260338391e+00 2.5217813302711246e+01
    -5.7756803293418528e+00 2.4522795894388075e+01
    -5.9570274349359247e+00 2.5252525276847706e+01
    -5.7809482399952872e+00 3.1141948269972406e+01
    -2.8102200544447516e+01 2.2559323054846111e+01
    -1.9311009012665625e+01 2.7954049716768264e+01
    -2.4979094659167863e+01 2.2422872440231586e+01
    -1.9197135965298806e+01 1.7043465568061222e+01
    -7.5152596850742377e+00 1.9619234744328498e+01
    -7.7539370580525810e+00 1.7377139166120877e+01
    -7.6432922158802281e+00 1.9404162694391697e+01
    -7.6830104604777905e+00 6.3026423639560561e-03
    -2.4875071033306160e+00 4.8016363268189467e-03
    -2.7796183075974614e+00 6.3603322345648517e-03
    -2.7159324758554351e+00 4.8188877856619227e-03
    -2.7869518217137648e+00 2.6949874585776584e+01
    -5.7478193023480078e+00 2.7447025888562493e+01
    -5.5935942402354151e+00 2.7440573652984174e+01
    -5.8085845533118023e+00 2.7494247870228286e+01
    -5.6002784166943815e+00 7.1326121136309382e+01
    -6.9063915276077438e+01 5.0892773546270050e+01
    -4.8334481956823097e+01 7.2929657518961264e+01
    -7.0410824220699112e+01 5.1583440805406383e+01
    -4.8997013232675769e+01 1.5319035027469418e+01
    -6.7684451834601740e+00 1.7362274443447578e+01
    -6.8708585415263350e+00 1.5418113953672712e+01
    -6.8060420170162583e+00 1.7218676662725144e+01
    -6.8261271336422125e+00 5.4621947436351952e-03
    -2.7784220384431197e+00 3.8736037567243036e-03
    -3.1241541292845376e+00 5.3209864729705904e-03
    -2.9814637782609283e+00 3.8797249866004482e-03
    -3.1245747737267373e+00 2.5733305718746049e+01
    -4.8335770000720952e+00 2.6388148436206222e+01
    -4.7454975782335485e+00 2.6115418406235104e+01
    -4.8821804125586050e+00 2.6315437113122208e+01
    -4.7328579628547605e+00</input_scale>
  <output_scale>
    5.2631578947368418e-01 4.9999999999999994e-01</output_scale>
  <inv_output_scale>
    1.8999999999999999e+00 -9.4999999999999996e-01</inv_output_scale>
  <weights>
    <_>
      -3.2694882918584293e-02 1.6004361390071283e-02
      2.7975907823558389e-02 -6.7362761902382473e-03
      1.4373361974882471e-02 1.0202723883590172e-02
      1.8909393024755982e-02 -1.7393373665282812e-02
      -6.5791844744666960e-03 3.2989975366218192e-02
      1.2402626863925608e-02 2.4156814698336811e-02
      2.4393675333306747e-02 2.4206104242532424e-02
      -3.7059816979137114e-02 3.4777500572465758e-02
      -7.8619461662910051e-03 4.9235903080560904e-03
      -2.2730997478010391e-02 -3.5062476760746364e-02
      -2.6629418938049525e-02 -1.8897601485973133e-02
      -7.1875308291252989e-03 -2.7935096003661924e-02
      3.6833004115194586e-02 -1.2138641648511202e-02
      -3.8992094443421471e-02 2.3361214719517066e-02
      -1.4307497884209264e-02 -1.4269309631152782e-02
      -1.6410374685226513e-02 -1.1887301990546544e-02
      -2.0711464139268224e-02 -7.8540973563664043e-03
      -1.9148811474504160e-02 -1.3956919692810479e-03
      -1.5799105991740191e-02 -4.3867962773763557e-02
      -8.0952716448407045e-04 -3.3587472528458190e-03
      1.5086400466852249e-02 1.8060976177372218e-03
      2.1600394740318569e-02 3.2121260251574364e-02
      -2.7453775229409377e-02 -2.0582756034931111e-02
      -3.1054998074849901e-02 -1.2740194110298754e-02
      2.8711723605695273e-02 -8.1382054487649357e-03
      -1.4850785720061864e-02 -1.2687713684718998e-03
      -3.1020790878489992e-02 3.0762852179772857e-02
      1.9150499012623841e-02 1.6898881227605581e-02
      -2.1439301730328601e-02 -1.0374557260993792e-02
      3.8367300532076852e-03 -2.1941676301381711e-02
      8.5172524146139086e-03 -2.2846319053538757e-02
      1.4281175994120822e-02 1.7683111536297050e-02
      -2.0034020187926261e-02 -3.2176913392563150e-02
      2.9396970576355663e-02 1.4592711692719654e-02
      1.5959646847213810e-02 3.2201715367715170e-02
      -4.0464021847012026e-02 -1.5385774190799992e-02
      7.5123370716057743e-03 -1.6642238324886396e-02
      1.0228646005362840e-02 -4.2054419889249066e-02
      1.1860481107995116e-03 7.0389747570155951e-03
      -3.7302422409159715e-02 -1.4896531589837440e-02
      2.8228654670879400e-02 5.1670683232829763e-03
      -3.3896165381569282e-02 -3.6698345372914241e-02
      -1.6610760770027627e-03 7.0548357879727120e-03
      -1.7788637646860308e-02 4.4588760427725065e-03
      3.9090126475506692e-02 5.0942639724634786e-03
      -1.0598952299014372e-03 -3.4451132251813857e-02
      -9.1458888724619582e-03 1.4800930017065417e-02
      -2.0736955085990921e-02 -2.3758958641494382e-02
      3.5561789344956789e-02 1.2359096504522250e-02
      5.2582669877057992e-03 -3.5147054188357285e-02
      -3.2980519374868907e-02 2.1651156563726247e-03
      1.6749127372442103e-03 -2.3814449923525244e-02
      3.4124026840525457e-02 -2.1345698024696460e-02
      -4.9795485222418230e-02 -1.5966451930978048e-02
      9.8453648556970606e-03 -1.0155257964500421e-02
      1.8273442010747851e-02 -4.5969288766715188e-02
      -7.4869651991251998e-03 9.1146214832978564e-03
      1.4542529680970305e-02 -1.8603631105507286e-02
      -9.6967452790201469e-03 3.5062639831620265e-02
      -1.8971564555548621e-02 -2.8704443730926264e-03
      2.5001698450802686e-02 -1.2113998835362374e-02
      -1.4601795979739386e-02 -8.6117828436579735e-03
      2.8735072113783306e-02 -1.0499327260232810e-02
      1.2031049035355949e-02 1.7027038089090316e-02
      -1.2568120304031857e-02 -1.6463231287421345e-02
      5.6974237188314764e-02 4.3267637103508741e-02
      6.4687934964066602e-03 7.3603440010960169e-02
      -1.1274181289424260e-02 2.0675358854867779e-02
      -1.7542851608586707e-02 2.5325404308633937e-02
      -4.8312182170274408e-02 5.8404554620675647e-02
      5.8989394717357792e-02 -5.2367959791169705e-02
      -7.1188298042320339e-02 -1.7790408212359648e-02
      5.3510329815529924e-02 8.2974431466889438e-03
      2.6776770827873182e-02 -1.7198612555671254e-02
      -1.0541212529361643e-03 -4.6784402898837875e-02
      -1.1808478099039038e-02 -1.3579602365294265e-02
      2.6527185559211450e-02 8.6837048948725931e-03
      -6.8411284634641759e-02 2.5090064184136281e-02
      2.4500327361511322e-03 2.2612727146074259e-02
      2.0156481563141444e-02 -2.4342741735408006e-02
      -2.0602710998505164e-02 -2.4124524428974187e-02
      3.0654285318702000e-03 -5.5280630707476408e-02
      -2.6778932995688107e-02 -3.2213498556993611e-02
      6.6706182794513985e-02 -1.4607388396146248e-02
      -1.0829370568606715e-03 -2.7507819647558940e-02
      -6.3334319175680637e-02 2.6319871296648081e-03
      -4.1921091424891059e-03 -3.8424154485218312e-02
      -1.6121805876663162e-02 2.1609751157909095e-02
      4.0536459982415132e-02 -4.6676204282748809e-02
      -2.8632152390698187e-02 -5.8436977485496297e-02
      -5.5695941117843345e-02 -4.2967839226702607e-03
      -9.8863778310395046e-03 2.5439347424050886e-02
      -1.2725494747259350e-02 3.0694348301927028e-02
      1.3556363704076493e-02 -1.6803108154751938e-02
      -1.9382450302874100e-02 -3.3885876034880982e-02
      5.5379166588770193e-02 4.1932009621612034e-03
      -4.7632719574315127e-02 -1.7909026900355517e-02
      1.5350715067405610e-02 -3.8233424289798659e-02
      -7.8345388654838158e-02 2.8823319574999336e-02
      -8.1040064235183312e-02 -2.2514278535499952e-02
      -3.7261482731156745e-02 3.7637182334878894e-02
      1.3594675296035492e-02 -6.3547587156792207e-02
      -1.7265294778054496e-02 -1.4786465490417835e-02
      -5.4012576406073903e-02 3.2296673507651606e-02
      3.1172678654371393e-02 -3.2464354480070748e-02
      1.2514473695328557e-02 -2.4314436868942080e-02
      1.5600720496762425e-02 -2.9312737358878897e-02
      4.1872476070461805e-03 3.5145033664955673e-02
      4.7771327716110923e-02 -7.8434002425532123e-03
      2.0150871631867226e-02 -7.2621616768478142e-02
      2.1715475931759966e-04 -1.0421351352773132e-02
      1.2166106141718300e-02 -6.4843220492830630e-02
      2.3867537491018456e-02 -5.1540439014747169e-02
      -6.2833918436094108e-02 -2.7900253597228624e-02
      2.8216950281609827e-02 3.0876704660826190e-02
      2.3442291810717927e-02 -4.4216012315581033e-02
      -1.5789441682248263e-02 2.1985937307831577e-02
      -4.3788380649153788e-02 -3.2936222041688792e-02
      6.0159804304656533e-02 -2.0178284057706108e-02
      2.7541597997804604e-02 -6.3282689053419966e-02
      -4.2021552393256986e-02 -4.2682137152067375e-02
      -4.2485621304460902e-02 -2.4983756399040404e-02
      1.9189687212133596e-02 6.8275326499342886e-03
      -7.8362161029501609e-02 -2.9084336760179394e-02
      -5.3202364086348940e-04 1.2744851306718881e-02
      -7.6601203430110721e-03 2.5582740195942245e-02
      2.3884765177508781e-02 5.4861911732463825e-02
      -1.1470696291240864e-02 -3.3613441163725798e-02
      -2.7991692323161191e-02 4.8867344247473113e-03
      -1.0028852021837870e-02 8.2076042483560582e-03
      4.1092458239683965e-02 4.4109706640061835e-02
      -1.5948380452196449e-02 -3.6023706787481050e-04
      8.5513137589539236e-03 5.0412176336882684e-02
      -4.0752596098811135e-02 -5.9625781405073346e-03
      5.2252121873848645e-02 -4.9680685250905576e-02
      -3.6927354479531993e-02 -1.4452944058310930e-02
      2.9290164813258204e-02 8.0060371141405916e-03
      3.6446665826287028e-02 1.8336466155992787e-02
      3.2608088491358482e-02 -3.7183647316001905e-02
      3.4575963009587499e-02 -2.2666146884802969e-02
      2.6114540941054275e-02 -4.0762633323741408e-02
      -1.7435486560486119e-02 1.5172700558231748e-02
      1.9764314090900723e-02 1.4700822135677581e-02
      2.5752562195262559e-02 1.8583742102605307e-02
      1.2174785776034123e-04 -1.4866734253751001e-02
      -1.6717876102148005e-02 -1.4298081702709128e-02
      2.5499936415292229e-02 -1.0079499225348371e-02
      6.1134606776613629e-02 7.3757675196900255e-03
      2.9193541807174414e-02 -7.8624146618311436e-03
      -2.3652446560913538e-02 1.7448118323299393e-02
      3.0588813472879825e-03 4.8426145665040644e-03
      -1.2304641945347330e-02 1.2874004385045067e-02
      -1.7191659913210666e-03 -2.4697260215472473e-03
      1.3986120666639016e-02 -4.9188247856218704e-02
      -4.1389505528642172e-02 -8.3733255026984879e-03
      -1.3346697442983141e-02 1.2080036946790376e-03
      1.5909331872953358e-02 2.4503103952277394e-02
      4.6304468835203635e-03 -2.0224283246640773e-02
      3.2065604635262895e-02 -3.8580098871042216e-03
      -1.5047950167356362e-02 3.3761222702997147e-02
      -2.8237737396168791e-02 -2.8488958423176676e-02
      2.3021562293285239e-02 -2.5282314219962259e-03
      -1.0175421180917316e-02 -7.9405687026195219e-03
      -2.1004310336902692e-02 -2.0217220323733513e-02
      -2.8666795417393198e-02 -1.3030328068191689e-02
      3.8785781308363493e-02 -1.3531509430569552e-03
      2.9111658524880110e-03 -2.6376133489190219e-02
      -3.5281006589828932e-02 4.8379466805355389e-02
      1.1815218777995741e-02 -3.9106828961183511e-02
      -3.0023389513210215e-02 -3.6951731853576981e-02
      3.3323415062519235e-02 -1.1446114658947644e-03
      2.4530199285128725e-02 9.5591392365177684e-03
      2.0969075077908361e-02 3.7168135314823887e-02
      4.3099392679441144e-03 -4.1696634139120267e-02
      9.5889421510634305e-03 8.8361648520271004e-03
      3.7345718477005505e-02 5.1041052412071786e-03
      -5.2196841989670265e-03 -1.5206965678573612e-03
      -6.1354419628102397e-02 -4.0569133488083428e-02
      2.4536574507400565e-03 -1.6662667623717247e-02
      2.7365850111794272e-02 -5.3748200763150594e-02
      -8.8280567217324680e-03 4.6327325817843851e-02
      -2.7677266774922802e-02 4.6522984547916263e-03
      3.7796502727757149e-02 1.6154728504080309e-02
      -1.7085342137912726e-02 -4.0263128319200391e-02
      -3.9581046896199998e-02 -3.9944846541156334e-02
      -4.2338018859626091e-02 6.7504489227113483e-03
      1.0752109420842286e-02 6.0440519221650647e-02
      -3.4895554301028781e-02 -2.0435333621971110e-02
      -6.6011960773175102e-03 -2.7207742656758287e-02
      3.6297350349405746e-02 -1.2814159928111532e-02
      -1.7461175636940142e-02 6.1679123282435973e-02
      -3.3083549555039324e-02 -3.2575833262438812e-02
      -3.2979190226391196e-02 -2.4964719923441330e-02
      3.6791999227985678e-02 -2.5036323351509321e-02
      -2.2233030604070985e-02 5.6949289139948175e-03
      1.1638951212600836e-03 -6.2890205373687495e-03
      7.3933702807286159e-04 -1.3983131551661650e-02
      -7.1472307090980495e-03 3.4353415199319184e-02
      -2.6899664633345029e-02 -1.5962130323054574e-02
      -3.1560670479733557e-02 8.2708692658774799e-03
      -1.9263110471422182e-02 -2.6210090190956801e-02
      2.3790542587594592e-02 2.1112537915342891e-03
      -2.4979780017146680e-02 -2.5025893941024786e-02
      -5.2907371216651912e-03 -5.6516900266427271e-03
      3.4108461360221123e-02 3.1280386412909783e-02
      6.4839154577500712e-03 1.5324450484992968e-04
      3.2966696527230374e-02 1.2679039145860776e-02
      1.9947746752703749e-02 2.9654936899385489e-02
      1.1358588619159716e-02 -3.5079190478181109e-02
      1.3000582914021447e-02 -2.2019942147897285e-02
      -1.2144317770401711e-02 -3.2386292145149945e-02
      3.5277880577724789e-02 -6.0032888898535102e-03
      -1.6606542959895245e-03 -1.4465937848246489e-02
      -3.1614486913079026e-02 -2.1472619987861982e-02
      2.3970307700287966e-02 -2.9989785270438940e-02
      8.0325362094227550e-03 -3.4538411417133201e-02
      3.5419814635058396e-02 -7.3558807880939349e-04
      -3.3626052850857608e-03 -4.1231887339419952e-02
      -1.0192939658976502e-02 7.1487311105115578e-04
      2.2361271527487465e-02 -7.1468303206990384e-03
      2.6605925113248295e-03 7.0218524609344931e-03
      3.3962852246668042e-02 1.2498691063345599e-02
      2.2584309873691442e-02 -1.2730949317979998e-02
      1.8783222632102192e-02 -2.5729563540282416e-03
      -3.2073786752073521e-02 -1.0762837787936744e-02
      1.0916032538827095e-02 1.7501465191333408e-02
      -7.1530565850050857e-03 -1.0582526427830535e-02
      7.8846046335646078e-04 -1.6806305191364952e-02
      -2.8947796348032281e-02 -3.0912710296621963e-02
      -2.9128309185729135e-02 -3.4678628022123056e-02
      -5.9824916648298053e-03 -2.2822896441158414e-02
      1.9088482807691990e-02 1.0063274600586491e-02
      2.0934032263513012e-02 1.8078595039180946e-02
      1.8953340555894586e-02 1.0350551743551539e-02
      -1.5124879955212020e-02 -6.2488649637820826e-03
      -1.9958178852148560e-02 2.5401710238279196e-02
      -2.4214132010057839e-02 2.6132755372943878e-02
      2.3559362276799427e-02 -3.6824254395975739e-02
      -3.8721195617132914e-02 -1.7826021548936734e-02
      1.5919576652838541e-02 1.5410737979239419e-02
      7.2340912452274137e-03 4.5917116238908522e-04
      -3.7085177184576820e-03 9.4712457625232612e-03
      -3.1880358403378217e-02 3.2964153180174698e-02
      -1.5716356267295221e-02 -5.5075496826305992e-03
      2.8005986842522243e-02 -5.2062392013275663e-03
      -1.0922125380876139e-03 -2.8362662086803482e-03
      4.4712080895000747e-04 2.9351158379751455e-02
      -7.6513416048893980e-03 -5.5862448519494699e-03
      -2.7974799671396815e-02 -2.8148705170710830e-02
      2.5042187772702659e-02 2.1562285611388766e-02
      -2.1289977279272974e-02 -3.1889059662826513e-02
      1.4494926812704131e-03 -5.3794058683828217e-03
      -2.6484698722829669e-02 -1.6178752360095781e-02
      -2.4888903314895501e-04 -1.0469754434016371e-02
      -7.0525027839996451e-03 1.7622879143766403e-02
      1.4495223685294890e-02 -2.7842784420024805e-02
      -3.4417073471831719e-02 -2.3550759027223252e-02
      2.5584294530379945e-02 2.2418423450088643e-02
      -1.5910562762495885e-02 1.0761655745211842e-02
      3.5737466625579604e-02 2.3349030095555282e-02
      -3.5831521902708170e-02 -2.4021012855569311e-02
      -2.7969800144612249e-03 -8.2006560073461625e-03
      -1.9487308521570182e-04 -3.2539334701572060e-02
      2.5868847720951871e-03 6.7769406936658335e-03
      -9.9131791652898767e-03 -1.0346257938303256e-02
      3.1457044557446509e-02 2.1807960824003308e-02
      1.7386015134460121e-02 -1.1742936052852577e-02
      2.2961599550292564e-02 3.3140356837687207e-02
      -2.4692165367230023e-02 2.8653245227867830e-02
      -4.7397391942741972e-02 1.8672038563952179e-02
      1.1159340491427028e-03 -2.9423754529769482e-03
      7.8178419578469327e-03 -3.4021712704128348e-02
      3.8229457590139319e-03 -4.1821043980078201e-02
      -2.8448590443952586e-02 -4.6721202146544807e-02
      2.1897265908608472e-02 -3.3542259056983026e-03
      4.2998576186935179e-02 1.0770008613069017e-02
      -3.8184785490973025e-02 -1.4289985965864182e-02
      -4.5430276377115449e-02 1.5990524063961137e-02
      -9.1191774308522020e-03 -3.6076840050172886e-02
      -2.9339888577424405e-02 -6.5548378432259214e-03
      3.1155480854647890e-03 -2.9798512794278545e-02
      -3.2782431257197528e-02 -4.4307146197250243e-02
      -1.6365812878531939e-02 -3.8418638588125859e-02
      -1.4640796820953404e-02 1.4209969491679514e-02
      -3.1832295623075685e-02 2.5082225218217531e-02
      -8.0163809183758043e-03 -1.5756143559770862e-02
      6.8081007316936093e-05 2.7841361795843842e-03
      -1.6068248001354361e-02 -2.4280812475659507e-02
      2.0024617610253426e-02 -3.6638013674342537e-02
      -1.9396430079105537e-02 1.2055525242383106e-02
      -4.0494934945931385e-02 1.7226859656142877e-02
      -3.2278886618726306e-02 -4.8807030162627317e-03
      -3.0363576046832007e-02 -9.2698079575813767e-03
      3.4626299700376686e-02 -3.4948297693375714e-02
      -6.2144926267971475e-03 -1.9718233329809088e-02
      -3.4494296437309065e-02 3.4262184104759244e-02
      -7.5151849244844797e-03 -2.4506127565688044e-02
      1.2407645954493028e-02 -5.7675514832555858e-03
      -7.6396453941868477e-03 2.3267894072597023e-02
      -1.9035213470180914e-02 -3.1368151830807996e-02
      -2.3486753915082776e-02 -1.2084432202170634e-02
      4.7642815907304025e-03 -4.4918573763405384e-02
      -3.0806568888789843e-02 1.4829409472658038e-02
      -9.4454224961502600e-03 5.3763292586613051e-03
      2.0915991551559789e-02 1.1926620598493864e-02
      -3.8691609511209313e-02 -3.3948020741359271e-03
      2.1919622036671197e-02 -1.6887982169116935e-02
      1.6553065472794629e-02 -3.2646469432329760e-02
      -2.3924681534270333e-02 4.4871862275024141e-02
      1.3406222738434384e-02 -1.9441960285496444e-02
      1.4660432235740191e-02 -1.2602422836861850e-03
      2.8361243752685984e-02 3.7376917956227335e-03
      1.0762433030985697e-02 -3.3687573967108503e-02
      1.6303801930317566e-02 1.6717720172948137e-02
      -3.2724050694081727e-02 -2.1815158223469005e-02
      8.9106120720181554e-03 -3.1167297079850054e-02
      1.1698064790897415e-02 6.1131136846209666e-03
      4.4351215577087032e-03 5.7223313658955246e-03
      -9.2376012610101519e-05 -9.6318285410897497e-03
      6.0996058956638809e-03 -3.1187198433962469e-02
      -2.9729034880916601e-02 -8.8711820447941198e-03
      1.3833815991717608e-02 3.2526481181933728e-02
      1.7241035847127519e-02 5.3665486091433637e-02
      3.3331021715934786e-02 1.6842887894146702e-02
      -2.5548521752496500e-02 2.0423227629007992e-04
      1.2079442839911508e-02 3.5071862587811226e-02
      3.7160687910395875e-02 -5.1652862961938641e-02
      -5.5013684778715205e-03 -2.1396294958145785e-02
      -1.3612526048508551e-02 -2.6940462142921125e-02
      -4.4139172479093266e-03 -2.2826252286841830e-02
      -1.1719496351516910e-03 -5.1563730393085816e-02
      -1.8094042940000318e-02 2.4543774528199860e-02
      4.0515140584627553e-02 4.4105305824755411e-03
      -2.2194737481409936e-03 2.6998923903103801e-02
      -2.5617020132209668e-02 2.7591468238815912e-02
      -6.5186505344272862e-03 -5.8288864612080719e-03
      -6.5331902256350769e-03 -8.3932388277561804e-03
      1.3911479938593695e-02 -1.4437686441044652e-02
      -1.9018038753134325e-03 -2.1899342366629153e-02
      5.9745977627310341e-02 -1.5968086340208212e-02
      -1.6340153251325804e-02 -2.6487643611886276e-02
      -2.9241307492702807e-02 4.6772270835834497e-02
      -3.5374527417874564e-02 -4.0390937391874548e-02
      1.0521126082044651e-02 3.2470779809112775e-02
      9.3583002325549249e-03 -1.8178145521905570e-03
      -1.2097825894542804e-02 -8.1498724694125339e-03
      -6.4850201627265916e-02 -2.6475619374396030e-02
      -4.0738639378651138e-02 -2.5303962212790042e-02
      -2.6038649885391257e-02 3.0122241493455083e-02
      -1.2767730233304918e-02 3.3962113039431635e-04
      2.5777986983104607e-02 3.7989177740750260e-03
      4.7281877155774782e-02 3.0988520115348087e-03
      -3.0152191480101453e-02 -3.0427521489438860e-02
      1.4864319743391020e-02 -1.8305323421575936e-02
      -5.7187103370807540e-02 2.7057266576374871e-02
      -5.4881217245876468e-02 -1.0897916012182948e-02
      -3.0573768509528025e-02 -3.4656786266681902e-03
      5.1104405077074880e-02 -6.2890140154068059e-03
      2.5752361359802717e-02 1.3341570607458896e-02
      -1.2885730371703416e-03 -9.6167159690673729e-03
      2.2732702112002578e-02 -2.9610910769860055e-02
      -2.4407916869016034e-02 -2.6859069019024018e-02
      1.7210465670120974e-02 -3.5007518267908128e-02
      -7.7531111301888563e-03 4.3356555349612922e-03
      -1.3099046912367952e-02 1.8509239857174242e-02
      5.5967561953035809e-02 -4.1627245009847040e-02
      3.2029162055738823e-02 3.7453385310481896e-02
      4.2516646015112444e-02 1.3021072766275364e-02
      5.7463760891573292e-03 -2.3866160802272537e-02
      -5.0499120884840216e-02 -3.6221202183010628e-02
      1.9645773131429303e-02 -8.1527782438279705e-04
      -1.2639033761919763e-02 -2.2226159527720141e-02
      -1.1428698279174008e-02 1.9162334570654875e-03
      -5.2568655203412964e-03 2.2686919255476078e-02
      -5.9643677449885630e-03 -5.1978718080929473e-03
      2.9138356923039049e-02 -2.4223275197909880e-04
      -2.2011192229787414e-02 -3.0676889092362682e-02
      -2.2206779635343739e-02 -4.4546452324622829e-02
      -3.4636613411941415e-02 8.5939806019511809e-03
      -4.6906163402318742e-02 2.9398858245551582e-02
      -3.8498444588310740e-02 2.1641636088913330e-02
      -5.2221201305660174e-03 1.8443772009827674e-02
      4.6538933488672911e-03 4.0210910983117146e-02
      -2.3705422144090976e-02 -2.2537224401061869e-02
      1.2015137894592829e-03 -4.2913658333329080e-02
      6.3187568683427092e-02 4.8572278209521647e-02
      2.3366657258894113e-02 5.5785450857581832e-02
      5.5743747815344934e-02 5.0401752756880656e-02
      -4.2021636179284345e-02 4.2135916736523546e-02
      -1.3231407521384417e-02 6.1267467485262204e-02
      4.3785586240271776e-02 -5.3297128634927207e-02
      -1.0025933062033589e-01 4.2005904078712943e-02
      1.2342401133687420e-02 -2.2831406384117098e-02
      -5.5446397428398578e-03 -6.5246316735408399e-02
      -3.7795700823965894e-03 -7.5628513470848938e-02
      -1.4887951349560977e-02 -5.3919225311085846e-03
      -7.3634585786637868e-03 7.9998677785274828e-03
      -5.5935985152709311e-02 5.2861900609913463e-02
      -3.4359523898503655e-03 2.0600138658697267e-02
      -4.2237338172498522e-02 1.0764834040536533e-02
      -4.0553392580482850e-02 -4.0068277761509077e-02
      -6.7240749989868768e-03 -5.2475871982597712e-02
      6.1696008215584809e-03 -3.6154702310929265e-02
      5.7523595599670144e-02 1.3929700311783063e-03
      2.4320309174116700e-03 -2.0741254883609679e-02
      -8.3091681738514930e-02 4.5325590811837339e-02
      -5.4789024485273716e-02 -2.2056059260400784e-02
      -1.5971324998701485e-02 -2.9763236589571741e-02
      1.0527420749177001e-02 -3.8651719253945616e-02
      -3.5764428053315138e-02 -5.1128106888220524e-02
      -9.9616373159697263e-02 -5.1270482104756564e-02
      -2.6627884109149388e-02 9.0055226827588791e-03
      2.3036693859713762e-02 3.6659161643231998e-02
      -2.3809436451118202e-02 -4.1844070947186784e-02
      -1.3864652135777478e-02 -5.6078080559245555e-02
      4.7134229525726282e-02 2.2703934165925602e-02
      -5.2570430239957507e-02 -3.9050434253177460e-02
      2.0368186001336892e-02 -4.3013396432241641e-02
      -4.6570555030945947e-02 3.5832163098352611e-02
      -6.1192783281007093e-02 -4.5701262481270911e-02
      -2.1008634199898086e-02 9.9093634713012906e-03
      6.3839652940996416e-02 -4.6524938284446843e-02
      -5.4459054547145672e-03 8.5759764981830928e-03
      -4.0441686230929093e-02 2.6108140243760829e-02
      4.5619379206247292e-02 8.6657657465137091e-03
      -1.5157232935722945e-02 -7.6687900199838135e-02
      -3.1760895969618050e-02 1.2911571777541380e-02
      4.0354688760072491e-02 4.2621139689740774e-02
      6.9414960696374428e-02 5.2143220228098711e-02
      6.6391481170748945e-02 -7.0697847949892811e-02
      5.5465243191177857e-04 1.6045727296594387e-02
      1.4091072868213903e-02 -3.3864362103203129e-02
      2.3479538986608491e-02 -8.5394840001618719e-02
      -3.1892098715956267e-02 -8.9755690194821491e-02
      -1.9665380105282845e-02 1.1225152670440181e-02
      3.0805205760619590e-02 -4.6874060074384091e-02
      2.3701360938551547e-02 6.3837330575636647e-02
      -8.9843442029350171e-02 -3.2190340429645616e-02
      6.4555246978942021e-02 -2.9395982016832713e-02
      1.8908478467715800e-02 -7.0264655825688471e-02
      -6.4384671149757183e-02 -2.2857719447535396e-02
      -6.3430495390475100e-02 -6.8920060767457353e-02
      1.5585750515450135e-02 6.6985857493147463e-02
      -5.6121903533562563e-02 -9.9433460146081936e-03
      -6.4346865495015252e-03 -2.3365495098442459e-02
      -6.0584337235350073e-03 3.2744428896856692e-02
      4.6255771509180615e-02 8.2036334361088578e-02
      -6.0919755389408151e-03 1.0467796724411267e-03
      -5.0166431268681526e-02 -6.4339360862179992e-02
      9.9587729723501051e-02 2.5922947087168954e-02
      7.3257997072551109e-02 1.0919309066447214e-01
      6.2691296327005305e-02 3.0913662440486881e-02
      -7.0957987143143633e-03 3.9200957796954788e-02
      -4.0606968006368573e-02 3.6109978145919611e-02
      7.8490821144497583e-02 -8.3603067596344047e-02
      -1.3725300682108380e-01 -5.3276400848382543e-03
      4.7186463344369697e-02 -1.9963128736191781e-02
      3.1673968856600739e-02 -5.9005873707845324e-02
      6.7752443039402810e-02 -5.2599148310890013e-02
      -1.2783022815581304e-02 -2.6152658046317577e-02
      1.5939280656270607e-02 -7.1803840251970334e-03
      -5.5189368683112791e-02 3.2768067800369033e-02
      2.4326838873985925e-02 8.8639178565897883e-02
      9.4899164801352208e-03 -3.6632409963564105e-03
      -5.9039094889369523e-02 -4.5697284400737198e-02
      -1.2874487664613941e-02 -5.4100566781496759e-02
      2.8493096947439324e-02 -3.3780871089414938e-02
      9.6967716826963826e-02 -1.8734398557290295e-03
      -1.7363672999837713e-02 1.9008719963552568e-02
      -1.0456066145130874e-01 6.4086802690756658e-02
      -2.3139464635892542e-02 -7.3439291712894414e-02
      2.1900508371765517e-02 -2.1871057023195445e-02
      6.4523361172996674e-02 -1.3064628909505969e-02
      -1.4309747715922739e-02 -3.4175713973953123e-02
      -1.2384619531627805e-01 -1.0470051222017452e-02
      -6.3261796395757894e-02 -3.0025755958014239e-02
      -2.9840728729492418e-02 2.3927858148661163e-02
      -4.1966151834477154e-02 -8.5845660084170036e-02
      -1.4443538752035986e-02 -4.4907898198841847e-02
      7.3283578906294458e-02 9.9948629238687751e-03
      -1.1729966584457553e-01 -3.6032987788431184e-02
      2.9475973694033847e-02 -7.7188422587035135e-02
      -9.2602922413340644e-02 -2.6237295940263295e-02
      -1.3800007990540838e-01 -8.2877023873519473e-02
      -1.1958075841924544e-02 2.4601166577064584e-02
      3.3087447477548722e-02 -8.9642053507301145e-02
      2.8509338953271901e-02 1.9865143761459949e-02
      -3.3775956200859672e-02 1.0098902726058052e-01
      5.9032848241675762e-02 9.7098365307703213e-03
      -4.8972637070569078e-02 -8.4513168606845893e-02
      3.3771047562079562e-02 -1.1571303037123686e-02
      1.7958377710125893e-02 -6.2766008255943050e-03
      8.7548775115339317e-02 5.8054709939945805e-02
      9.1199224817836863e-02 -7.1762821942629701e-02
      2.3008204220025745e-02 -1.4891060825825003e-02
      5.2118452042723265e-02 -3.7403800213571828e-02
      6.6181613960934013e-02 -1.1680821001705891e-01
      -1.1792219834043653e-01 -1.3360695788710616e-01
      -6.7171863381207042e-03 3.9806097774647255e-02
      3.9256108132811371e-02 -1.0979533239904354e-01
      2.6682974302633326e-02 5.5500096949458753e-02
      -9.7081796048248639e-02 -2.6416987588002618e-02
      7.8209064667056155e-02 -7.7850554872928206e-03
      2.9552512014481818e-02 -1.1452532009693575e-01
      -7.7815705401397026e-02 -6.2261335815191055e-02
      -3.4894108585975032e-02 -3.4705562166328842e-02
      -2.8565899440559515e-02 7.1095328588146364e-02
      -8.2411005752302424e-02 2.6213616610061129e-02
      -4.1493703706460473e-02 -4.6868538151809122e-02
      2.0042673890704066e-02 3.2450074510226350e-02
      3.6688796051809934e-02 1.1597104450073849e-01
      -6.7525566293538217e-02 -7.3981762026129341e-02
      -1.2063118896684632e-02 3.6245761518252970e-02
      -4.3570437924019288e-02 -5.4693438818153870e-03
      -3.6384126962136047e-02 -5.5130776332319352e-02
      -2.6896690709254416e-02 -2.9187874603368202e-02
      7.4232610720280003e-03 -4.3139264290615743e-02
      4.4603563604623378e-02 1.0505555840008719e-02
      2.0261950597874778e-02 2.6926629687048830e-03
      -8.6226764947429386e-03 -3.1100418400206609e-02
      -3.2484736988561422e-03 1.2151516014464792e-02
      3.0409402834612392e-02 1.1372253236346476e-02
      -1.5189561555886076e-02 3.7553178500815430e-02
      1.6257618907941827e-02 -9.8163452462356887e-03
      -3.9366124282165849e-02 1.4386111192944648e-02
      4.5357105551816164e-02 -3.0136288770493489e-02
      -1.9921754525127296e-02 -4.0111692752643258e-02
      -5.6826533250131919e-03 2.8033755498453196e-02
      -1.3734125436195723e-02 1.7632628833488085e-02
      -3.1111721685151975e-02 -4.7209055673451449e-03
      -1.9714946604852807e-02 -2.0320170392595534e-02
      -5.1235038817810809e-02 -3.3787897623690369e-03
      -2.0741057254624152e-02 1.1140881202346976e-02
      2.2105391229433627e-02 -3.8868260825256309e-02
      -2.0858542322673021e-02 -1.1959605985551024e-03
      -1.6970433834381186e-02 -3.8466262946157785e-03
      3.3200562594646690e-03 2.1725796058814965e-02
      2.8462673023928783e-02 1.1798731383707954e-02
      4.9491978572769206e-02 -1.4034478046448777e-02
      1.1361854552929365e-02 -1.7196561078253367e-03
      4.9630160337126097e-03 2.0787610673060394e-02
      4.5124307437289478e-02 8.7788125667582727e-03
      3.1437151490047770e-02 4.4982076038153428e-02
      -3.6652265328954076e-02 -5.5493977409551932e-03
      3.3965192989342606e-02 2.3376350432831646e-03
      -2.6286720178455489e-02 -1.7693491512342837e-02
      -1.9829908020348144e-02 -5.6202120981971694e-03
      1.9394303247460606e-02 3.2659646822680591e-02
      6.6046974572582674e-03 -1.9437549763820165e-02
      -2.6986269160089671e-02 -1.6752354928292128e-02
      2.0631319791041190e-02 -2.5393247525594170e-02
      -4.4828092925039698e-03 -8.8238471465268749e-03
      -8.0170571598616076e-03 1.7168582439054943e-02
      -3.1403935333794253e-03 -1.6309396525383702e-02
      -5.2932830466869913e-03 -2.8256041508661622e-02
      -1.4669029813164288e-02 -5.9788412971283566e-04
      5.1502939104907932e-03 6.0303945214083884e-03
      -4.3809511362534040e-02 3.6016191156062312e-02
      3.5075384314811733e-02 2.1673398073071528e-02
      -1.3934184962139573e-02 1.4808285705318827e-02
      -5.1231314383285370e-03 1.7200606517173242e-03
      4.2361958870289824e-02 9.6094676222745166e-03
      -1.0026217483461830e-02 2.0727010027120889e-02
      2.0664085117711128e-02 2.2019496550816878e-02
      -3.1298623183707651e-02 1.0310211374067253e-03
      2.2603235568993844e-02 -2.1614188140527308e-02
      -3.3478185158741761e-03 1.8484408802519593e-02
      1.3721940877004755e-02 5.6398628880767958e-02
      2.2395390448895693e-02 4.7314388396998329e-02
      -5.4862935079606030e-03 3.0187668418523018e-03
      -1.7377501328431185e-02 1.0464849945855316e-02
      4.5474085480472874e-02 -2.7599854331369314e-02
      -1.2881259150051222e-02 3.9033007307481132e-02
      1.5263096365688702e-02 -3.2413943928052941e-02
      2.8127945234719016e-02 7.6877578357292392e-03
      5.1210540357467249e-03 1.0083080313888619e-02
      1.0575425789567798e-02 -3.6264289970639005e-02
      3.1000012055850180e-03 1.2254486967274001e-02
      -1.6130931602059820e-02 1.8235123249124949e-02
      -8.8970076474206225e-03 -8.1672227497474569e-03
      -2.3620396050089906e-02 2.0844082432110222e-02
      -4.2184380020828534e-02 -7.5767657773420077e-03
      2.1098573939133627e-02 -2.2218790128205313e-02
      -1.8951908993311530e-02 2.2114335892545731e-02
      -1.6681526519309983e-02 -3.2273818728620306e-02
      -1.9724583732164118e-02 2.2706305257873954e-03
      1.1112091693818147e-03 -7.2519426712109279e-03
      -3.2907920721763602e-03 1.8150233715389371e-02
      2.2474306841605847e-02 -3.0299324682350824e-04
      -4.6754101611475828e-02 -1.4623266685768948e-02
      -6.0328230888935823e-04 1.6250996003073656e-02
      -3.7688411984293346e-02 -3.0393426840091310e-03
      -3.8381329186755180e-02 2.2519943654963480e-02
      -1.9666548519663169e-02 -4.2014058872397841e-02
      -6.3291731158950397e-03 -5.1785760240897608e-02
      6.5694587718609504e-02 -7.5008728140510761e-05
      -1.4930992886822685e-02 1.7539294784423759e-02
      -1.4110622369710175e-02 4.8288826896663473e-02
      -4.2151086661316395e-02 1.3786442843089294e-02
      4.3925204295975545e-02 -1.7447859128398698e-02
      1.8256131848875472e-02 1.2096474512140654e-02
      -3.6368112042846979e-03 -2.7446973484957778e-02
      -6.8411737157729482e-02 -4.4278907867961410e-02
      -1.5152648315937885e-02 7.3375799125258660e-03
      -1.7268662847361758e-02 3.3512224389814271e-02
      -2.9104504358601957e-02 -4.0619556359285616e-02
      -3.0825650264903956e-02 3.7869567420376624e-03
      4.7623288921748018e-02 -2.5520668120766744e-02
      -4.2420298038677251e-02 -9.1761831784500161e-03
      -5.3759655003765118e-03 1.0789576507609362e-03
      -4.9669146360362737e-02 -6.1721026131590388e-03
      -4.7707845372426831e-02 -2.8721066383239405e-02
      2.7687152302366029e-03 2.4429689155021597e-02
      4.3983711253965399e-02 -2.1399016577628313e-02
      -2.7280854933435031e-02 -2.5279076810599686e-02
      -3.5124039043906950e-03 3.2889151055493760e-03
      2.9790877418330211e-02 -2.2495795598618980e-02
      -2.1880219112689291e-02 -4.0556741307205213e-02
      -1.1201612390750045e-02 -1.6545064235625958e-02
      -1.8361021323369454e-02 -3.3486167089019515e-03
      1.9203312311319720e-02 3.7955925791191593e-02
      2.9122284950893307e-02 -3.5056427049350004e-02
      1.9408570755876408e-03 -4.6668050905458586e-03
      1.3245973498290636e-03 -4.2961127049688609e-02
      1.8370920455383983e-02 -3.4202704291751471e-02
      -3.6111877779944644e-02 -6.1320577457229478e-02
      3.6362822224840392e-03 2.0232851094560807e-02
      2.3205438242610229e-02 -4.5037610476823406e-02
      3.4297134826868622e-02 4.4919190418500288e-02
      -4.6158859013445443e-02 -1.5946437899574499e-02
      2.3006170185593686e-02 -1.4518621503072326e-02
      -3.9750712889829298e-03 -5.4038697743748011e-02
      -5.0685322360875695e-02 -5.4358164792087257e-02
      -4.0005261867240807e-02 -1.1160557978144196e-02
      -2.0196106430883259e-03 5.7974474137072060e-02
      -3.8031858436240858e-02 2.0995652999018965e-02
      -3.9325607283754192e-02 -4.2270764122967222e-02
      7.3587781690168230e-03 -3.0624332614078336e-03
      2.3439183135450403e-02 1.2231369925142163e-02
      -4.3307630549802328e-02 -2.6300828601446755e-02
      1.5665369490470305e-02 4.5997655821930009e-03
      7.5047503888030758e-03 -4.3259376291722900e-03
      -1.2348370684356284e-03 1.3917353887796472e-02
      2.6504174337963582e-03 2.6551222232887785e-02
      -3.4174570466936727e-02 4.7431735153867748e-02
      1.5077665892141883e-02 4.1225240122885420e-02
      2.3680237090938461e-02 -4.1523363164440288e-02
      -5.0912232564819970e-02 2.5393527535757049e-02
      2.0592040434965580e-02 -1.8174545616118858e-02
      2.8752278293016395e-02 4.5622525611874222e-03
      1.7937357909652698e-02 -4.2748320830805368e-02
      2.5371965948674281e-03 2.2701798632896964e-03
      -5.4092612553852540e-03 -3.4611815891207223e-02
      -3.1781338733701731e-02 -2.6109554501936725e-02
      2.0846998189645784e-02 -1.1565909674176072e-02
      1.1201868519457462e-02 3.3919008201819457e-02
      -2.1840144688987383e-02 1.5673825151691606e-02
      -2.6280588002298669e-02 -3.6603439212419188e-02
      3.4255865670079055e-03 1.3937683443998884e-02
      2.0848859305623083e-02 -2.8668810191021899e-02
      1.1575889603393848e-02 -5.8134027629707877e-03
      -5.6158229306077292e-02 -1.3959987050108501e-02
      -3.4164235990231211e-02 1.5447935060089579e-02
      3.7226874715697092e-02 -2.1539265879055948e-02
      3.2624179622454827e-02 -2.7313052846364795e-02
      -3.5061267045527908e-02 1.3235935969056558e-02
      -1.7747664526613246e-02 -2.3393548356638368e-02
      1.7394145280213772e-02 -1.5811057059975674e-02
      -9.2416011831213778e-03 1.1518407879931832e-02
      -3.3787967503528922e-02 -1.9080776486647504e-02
      -2.3137344613202968e-02 -2.3612257776563884e-02
      -2.4810084323046558e-02 -9.2633545861109754e-03
      -4.2219269837168581e-02 -2.7195612843868955e-02
      2.3795125362601303e-02 -3.3953045364709729e-02
      -1.9473984984299978e-02 2.9676869398154372e-02
      -2.6680137170543631e-02 -1.9906378450957114e-02
      -2.9464772299620710e-02 3.9007431939971665e-02
      -2.4057728893303212e-03 9.0328625426338259e-03
      9.0581423784146260e-03 -2.1773368772959056e-02
      -3.3909425953882452e-02 5.2501185450193208e-02
      8.4646607645665287e-03 -8.3765422968335741e-03
      8.0924908076805569e-03 -1.5594670530341288e-02
      -1.9346062111289294e-02 -1.2444939181931344e-02
      -2.3248120148718555e-02 1.0380670286491791e-03
      3.2754281024181806e-02 -3.5404664551896494e-03
      4.1790145824668945e-02 -1.9589563644938492e-02
      1.4499532896591592e-03 -1.4196273186240988e-02
      4.1254124473678044e-02 1.4330306089402878e-02
      2.6969263794878497e-02 -2.2279131094638728e-02
      -2.5320641240803656e-02 -7.0563832530015896e-03
      7.7949601789797139e-03 9.2035236146835765e-03
      1.8857421424904694e-02 -5.4432842684729588e-03
      -1.9650517761987993e-02 3.4199534311599188e-02
      -2.0288397190979181e-03 -1.7098252080241762e-02
      1.7893420053437036e-02 5.2124886219511802e-03
      -4.9539974708822905e-03 -3.3752185905939432e-02
      2.4825256207464775e-02 -2.2113939481200971e-02
      -3.2170649508564317e-03 -1.2391088886268962e-02
      -2.4353765361519682e-02 4.0282980664947919e-02
      -1.6355570136188966e-02 2.0768771050748071e-02
      -3.3531790559133551e-02 -1.4473241636499056e-02
      2.7194762437053745e-02 -1.5262008995447954e-02
      -1.3944239764440489e-02 1.5433085862551327e-03
      1.4609578431159408e-02 6.1327777158234984e-03
      -1.8310604929528801e-03 -3.2011101557060620e-02
      -6.0714737143805376e-04 2.7824886016439676e-02
      -1.7362628447793113e-02 1.4097842645948166e-02
      -3.1116238465343799e-03 -3.0330545533303849e-02
      2.2220789132621016e-02 2.7314372135208140e-02
      -6.5724899565534111e-03 2.1245564075784797e-02
      3.0933748523270077e-02 1.5567042842468775e-02
      -2.5086538353908975e-03 1.1604381526075796e-02
      1.7929087250604325e-02 -1.8344746474543309e-02
      1.7659792347508831e-02 1.9813801176716248e-02
      -2.5621514302137206e-02 -3.4505443010052109e-02
      2.6131990706356644e-02 -2.0683563894790483e-02
      8.2841041685455530e-03 -3.8449649934085214e-02
      -7.5845122334009946e-03 -1.9041645657348991e-02
      1.5662142754628294e-02 -1.6201425687771484e-02
      -8.9043564666741633e-03 3.2496316058294061e-02
      -1.7263881191722306e-02 -3.0665600312943270e-02
      3.1426878633158427e-02 -3.0150729495138355e-02
      -1.5164415753961638e-02 -2.4917852648242107e-02
      9.6034553535193426e-03 2.8223236333605680e-02
      -7.8414011066826467e-03 -9.1268581433705028e-03
      -1.9457599056482540e-02 -1.9908370812056391e-03
      1.7340023655418618e-02 -2.6347210980570208e-02
      3.7321514315527597e-02 2.0848414116241061e-02
      -1.9465120966528675e-02 2.1957781234040050e-02
      -2.1035796349285492e-02 -3.6949202762283723e-02
      -2.4543823724138616e-02 3.5341074580818857e-03
      -2.2942849526326140e-02 -3.0119188005365567e-02
      9.9352717067715830e-03 -5.5967530979387338e-03
      6.0401778645677653e-03 -8.2055520361899743e-03
      1.7959253832352667e-02 -4.2605139747216213e-02
      -2.2279694598654021e-02 -2.7140752109794448e-02
      -3.8500977555190934e-02 2.2524174309750560e-02
      -3.4829633920046420e-02 -2.6667086472811904e-02
      2.2685463625807960e-02 -5.8454080439402567e-03
      -1.1899337271998038e-02 -2.2663532417436478e-02
      1.5950614458837623e-02 1.5359759815128151e-02
      8.6634186396644247e-03 1.6910128000815153e-02
      1.8984842870346948e-03 -1.4394901773452016e-02
      -1.0489738483416554e-02 1.8270899251128670e-03
      5.1319950515000745e-03 -2.8867456887752822e-02
      -8.9862560751615469e-03 -1.6907329207170259e-02
      2.3902594128843821e-03 -3.0649060739117627e-02
      1.7049225243622710e-02 -2.1994942364394685e-04
      1.5358657352204179e-02 2.7945462103549552e-02
      3.0230452510633558e-02 -3.0940183385797636e-02
      -1.4172822047224060e-02 -2.5468915108928084e-02
      -1.3885487664537281e-02 -3.5741817885535744e-02
      4.0410861264335483e-02 -3.4768881277694889e-02
      9.0400816399792295e-03 7.5546109875694765e-03
      2.6342156066204197e-02 8.4084985599109394e-04
      -2.2546600034678434e-02 -2.3370344434164921e-02
      -2.8665207037087366e-02 -2.1088236720006009e-02
      1.6080331373740243e-02 -2.2812820509879005e-02
      3.4946818609687194e-02 1.7100029822598378e-02
      -1.9249164256559467e-02 -4.0836142135600842e-02
      -3.3876923704975616e-02 -1.4891633930100087e-02
      -1.8048103451418121e-02 -2.8553440520522867e-02
      -3.1165902251546473e-02 -3.7106592363537619e-03
      -1.2909265552766022e-02 -7.0463345440463743e-05
      2.2595561271820868e-02 -3.8749275918811527e-02
      3.2058029810252853e-02 -1.4432652827774616e-04
      1.1626994508010300e-02 3.7551444754874333e-02
      -2.0783803602575597e-02 -2.3859735316509971e-02
      -2.8380987074053413e-02 -3.3691000990558342e-02
      3.1479293175393865e-02 -2.5294908085771943e-02
      -5.7039289179674109e-03 3.5577711404755546e-02
      2.6085341312376015e-02 8.7877314760841929e-03
      -1.5562360672490484e-02 2.6158715626395795e-02
      -2.0150035393442017e-03 4.0294896322838072e-02
      2.3264719974636097e-02 -1.5915771697374060e-02
      2.0570198595320373e-03 2.9124642246306547e-02
      1.5935733892603315e-02 -2.4611083563745192e-02
      2.7296017727706408e-02 -4.0518959069083427e-02
      1.1697753321266234e-02 -3.9721060031905363e-02
      -9.2036227861745472e-03 -2.4273857569837087e-02
      3.1078045190142864e-03 -1.3217127309816888e-02
      1.8312148056174472e-02 1.1063666465822594e-02
      3.5329946932463226e-02 1.7160516752159110e-02
      -3.8033464393589032e-02 -6.3694812982716736e-03
      1.8752779225034169e-02 2.1441070218585791e-02
      2.7615677416335669e-02 -4.3007694423626848e-02
      1.5393443995825732e-02 -8.9003190232893360e-03
      4.7410452945481081e-02 1.8315843445134716e-02
      2.8359743190719416e-02 2.8537778173103195e-02
      3.0015602205745182e-03 1.6548583663701648e-02
      1.0526196970750286e-02 1.0175720533035122e-02
      3.5370154989341984e-02 -2.7970435081226944e-02
      1.0287426966746543e-02 2.5748337203076246e-03
      -2.6900682745944607e-02 8.3583600745102873e-03
      -6.2042225929217702e-02 -2.4746144810802027e-02
      -3.6420578678710180e-02 1.1118173988092919e-02
      -3.1689668664122317e-02 -7.5569837715126799e-03
      1.4396379578788395e-02 -2.0235360655286930e-02
      2.3965882575441737e-02 -4.6973466439426403e-02
      -1.4864509519940682e-02 1.2273978992594753e-03
      -3.3740650831244230e-02 2.5480027399392688e-02
      2.2327856314334510e-02 4.8375119776613660e-03
      -1.4172933956287782e-02 5.8420801300160014e-04
      -3.4091954391197971e-02 -1.1040260936367519e-03
      1.9198468757305395e-02 -1.5721353831339768e-02
      -2.7142834531557365e-03 -2.1039385225382564e-02
      -2.0076856270738012e-02 -2.1366904359984798e-02
      9.2257822306200908e-03 3.9205211760762124e-02
      4.4914548739232681e-02 -2.2812594622219375e-02
      2.6498114487991508e-02 -1.5708740730099143e-02
      1.8009450638453463e-02 2.7132405683551113e-02
      2.6616485338626088e-02 -2.0002619679491539e-02
      4.9853424896234635e-02 3.8098832518630049e-03
      4.3487602985541433e-02 -2.6345265318278445e-02
      -1.0657293581761203e-02 -2.4488584813577448e-03
      8.8418841024940308e-04 -1.7255260451949632e-02
      3.6524340659199579e-02 -1.7522506640399289e-02
      -2.9540356036751605e-02 -1.5942685215976343e-02
      -7.2706480602061909e-03 -2.9366487525674074e-02
      -2.2542386680125388e-02 1.0035769182393899e-02
      1.0050247213802732e-02 -1.8277381748581967e-03
      -2.1260519317907851e-02 2.2016345731865429e-02
      3.6327900528101600e-02 2.8308973266627344e-03
      -2.6463056808953937e-02 -1.4628320540568885e-02
      1.1816885138357094e-02 -2.6123819254372210e-02
      2.1469189293667175e-03 -4.0464467775278873e-02
      -3.3200698464233409e-02 3.5072269121010913e-02
      -4.4149020852175876e-02 -1.1278996860734669e-02
      2.4764744539877419e-02 2.5458103553239523e-02
      -6.1251185765757695e-03 4.3282056809438368e-03
      1.9362745695544721e-03 1.6462241789984709e-03
      -2.8360939201359559e-02 -7.6573016481584089e-03
      -2.3535556466524835e-02 -3.0516794242607132e-02
      2.1717323313913135e-02 2.0544382542961516e-02
      2.7062238719852732e-02 4.5904660722077953e-02
      8.6108911729421110e-03 -1.2823391718659148e-02
      -2.7033382528790777e-02 -9.3376980796173945e-03
      -2.3990425718748827e-02 2.4235272191449230e-02
      -5.7383369260169759e-03 -4.3868634630333039e-02
      -4.2799865993486265e-02 -1.4913920878406900e-02
      3.4593520177558394e-02 2.1746651518245334e-02
      2.3113193522020438e-02 1.2921742651529690e-02
      -2.3604394591066071e-03 7.5740205268832158e-03
      -1.6174108621690796e-02 3.2077877463840547e-02
      3.4010282886770223e-02 2.5516533990391086e-02
      2.0198489919473085e-02 -1.0325646185157951e-02
      -3.6801430964253368e-02 3.7328200100934912e-02
      2.3629916266713371e-02 -3.2489050052563202e-02
      -2.1671662286444269e-02 -1.8436391139384181e-02
      3.0638824446084376e-02 -1.9839933464376965e-02
      -2.9432786523445553e-02 1.0140521835903787e-02
      1.5890233608987222e-02 2.1004781517674088e-02
      3.2328105760999313e-04 -8.5487314394990261e-03
      -2.4876112858497050e-02 1.5356531717007725e-02
      -2.6672237012451409e-02 -1.4243738334442181e-02
      4.1432838537532254e-02 1.9127286300343826e-02
      2.7955099673855264e-02 1.1609363019622193e-03
      -2.2322031509860709e-04 -1.4659099719506234e-02
      1.6693506893557708e-04 -2.7157500865040263e-02
      4.4796729492957788e-03 1.2146950786334263e-02
      2.7031263461529172e-02 3.1935450189968614e-02
      3.0373877482860294e-02 1.7464867546810970e-02
      1.4669761190692587e-02 1.0622870956030244e-02
      -3.1283168059566286e-03 2.3352660124701524e-02
      -4.4272208949400170e-02 2.3959057152403151e-02
      8.7049682035203295e-03 -2.1908782601628665e-02
      -3.5587512866543373e-02 -1.5114993170067271e-02
      2.0893423141274022e-02 2.9719198209860961e-02
      2.6511342350620179e-02 3.5613204337384269e-02
      2.8075559462562218e-02 -1.1294488095073154e-02
      3.1793150965767354e-02 1.5180988410179801e-02
      5.5241541834508577e-03 3.9484415732341481e-02
      -3.2039432472721866e-03 -1.2619320400854228e-02
      -2.6115816868829875e-03 7.3941529272333606e-03
      -2.2824778433424141e-02 -7.1643401913906940e-03
      -7.7801835168045553e-03 9.9321235685210667e-05
      1.5411905773402259e-02 5.3664890663975770e-03
      1.8966481551144110e-02 8.1713022357761487e-03
      -2.0202487050508068e-02 5.3245477438499961e-03
      -8.8448051063135403e-04 2.6162462593082681e-02
      3.1994287519591047e-02 1.0978282425949039e-02
      -3.6882520807261350e-02 -3.3568719526960243e-02
      -3.2877601418025107e-02 -2.1921003958515112e-02
      1.9599489275378933e-02 -4.1534123867171735e-03
      -2.5335853535542675e-02 9.7614503770373732e-03
      -7.8639372587633368e-03 -2.9794348823939290e-02
      2.5041913053089629e-02 -1.6118800500951391e-02
      -1.8534704583883146e-02 -3.7951661929115713e-02
      2.0873510168179617e-02 -1.9076430453569462e-02
      1.7831193349800482e-02 -1.6078779308610090e-02
      -1.9661337331400405e-02 2.3620793634112246e-02
      -3.6125396030514276e-02 2.0572940619873227e-02
      3.2072214699653594e-02 2.1700882098603450e-03
      -3.1650327166056362e-02 -2.7143728788390255e-02
      -2.0408235291713386e-02 3.4007959474029632e-02
      -2.7802126852321876e-02 -5.6403309457372895e-03
      -1.7177599542307829e-02 1.9962399893551232e-02
      1.2689905840882375e-02 -2.2285818980416001e-02
      3.3354236857448161e-03 -1.6616406066911046e-02
      -1.6644356708580561e-02 -2.1306760897878176e-02
      2.5268850151906445e-02 3.3382197731858777e-02
      2.5053860686323492e-02 -7.3588931440778669e-03
      3.4122478147903264e-02 2.7297763008874328e-02
      1.2407229665077239e-02 3.1984229533693717e-02
      -2.8853863613575080e-02 2.5802907534302113e-02
      2.5783139468466873e-02 -9.6166901132258044e-03
      9.1375304625719283e-03 8.0845361901408733e-03
      -2.6583076857754507e-02 -3.5971347478405552e-02
      -1.1088605271822927e-02 2.5439393936130806e-02
      3.5014812103851285e-03 9.9955492790729118e-03
      -2.9005082117895521e-02 3.3711311860534221e-02
      -2.8308749761105940e-02 1.2431717310430364e-02
      1.2101092016011993e-02 -3.1342644884062177e-03
      6.8298858235498168e-03 2.5283811379792256e-02
      -1.6940651209361831e-02 2.4549482990777752e-02
      3.7822029086036123e-02 -1.5205719915891851e-02
      3.5666485435564589e-02 -5.0011836153131236e-03
      -1.7750100126201849e-02 -1.9844086190712852e-02
      1.4198288844706718e-02 1.2209260982916574e-02
      1.9696727966834009e-02 -1.2001588838362044e-02
      2.9716856131774905e-03 2.1097968501114017e-02
      -2.5006151045052293e-02 -3.3159961196197268e-02
      -2.4189573089177980e-02 -2.4069704860762112e-02
      -3.5689158995715363e-02 9.9618099880607967e-03
      -1.8865592625919487e-02 -3.6031998235035397e-02
      -4.2780179381812146e-02 -1.4493473577033719e-02
      -3.4047255654426671e-02 -3.0491932814269384e-02
      2.4003580653980460e-02 -1.0936727150496199e-02
      -1.5720392971126918e-02 1.5288688359099790e-02
      -1.1018835173697408e-02 -1.7271960516513311e-02
      -4.0994328781144972e-02 3.3335030921951864e-02
      -1.8528643743824874e-02 -1.0295668080261071e-02
      7.4318138843755500e-04 -8.0112281140822938e-04
      2.0569020403391421e-02 -5.2709544585164709e-03
      1.0179368831609859e-02 1.4832379250851449e-02
      2.3792285480444930e-02 3.8440774505342203e-02
      1.8489126537937512e-02 -2.0866596652517045e-02
      -1.0378889441312572e-02 -9.9731892194641000e-03
      -2.8314579143475162e-02 1.2884991866982179e-02
      -1.0008888737616307e-02 6.6737355606189906e-03
      8.8922846860231188e-03 2.2350181984055625e-02
      2.6340439015110774e-02 -1.1916110473080839e-02
      2.6146117691969662e-02 -2.7886171908155396e-02
      -3.1883059841491990e-03 1.2895814447396426e-02
      -5.9554752682091216e-03 -3.4915898268523947e-02
      -1.0020485292719612e-02 -1.9213008228667006e-02
      -1.2343876307044071e-02 1.1678995345950927e-02
      -8.2185743031681670e-03 -2.9072562409750067e-02
      -1.4654768181914111e-02 -5.6985273934259855e-03
      -2.1656485664718502e-02 -2.0008257250611585e-02
      2.2238934010636899e-02 -3.9840324709938795e-03
      2.7600529171057313e-02 1.4896608468176607e-02
      1.9759836027153928e-02 -2.1352461342001344e-02
      -6.9828146079640146e-03 -2.5692790011971587e-02
      1.3158701100948430e-02 1.2070613256053866e-02
      -1.0124484853442065e-02 -2.8956075068037265e-02
      2.7804491545464289e-02 -2.7503547415973332e-02
      1.0020914419629129e-02 2.5633062634372279e-02
      -1.6135534287266919e-02 1.6177931556900962e-02
      -3.8068527477404463e-03 -1.4983414594469746e-02
      -2.5799264716156678e-02 -2.2459437741039392e-02
      2.1733272794887133e-02 3.6720103878117291e-02
      7.5082701007355155e-03 -7.3260642719743130e-03
      -1.4825627016997319e-02 -2.2130290703036515e-02
      4.5471180546274373e-03 -3.3585984269356078e-02
      -2.0932293026826452e-02 -1.8625693444984256e-02
      3.2659938934189288e-02 1.8225865605317970e-02
      -2.3288633726969571e-02 -2.1212083682651813e-02
      3.4377861413811391e-02 -2.0094235248442555e-03
      8.1457295197870302e-03 -1.2379377727954064e-02
      3.5276291157280225e-02 -2.1360522161989401e-02
      1.5296274013961979e-02 7.5105905398634527e-03
      3.2460694161481972e-02 1.6401994156643198e-02
      4.7007111517448560e-03 -2.2523446406956381e-02
      3.1434449464194714e-02 3.8033530101957376e-02
      -1.6875966752394823e-02 -1.0526704234702500e-02
      5.7643882262435123e-03 -2.3125624522556194e-02
      -7.3850671697178287e-03 1.2773247434204875e-02
      1.6798505535946105e-02 -3.4347310333798592e-02
      1.3021216305776406e-02 1.5996544104830573e-02
      -1.0353831520624133e-02 -3.1230062429041104e-02
      1.1626932927646440e-02 1.2385180235729428e-02
      -4.0299774852298798e-02 1.2115278851719551e-02
      3.1832904701833066e-02 -2.4472468767801531e-02
      1.5570302112685525e-02 3.8302268485927550e-03
      -2.7716095555138796e-02 1.9243319442678403e-02
      -1.4683771567781171e-02 -1.2420855717398241e-02
      1.6146115322668696e-02 2.1510496810107069e-02
      1.8562257999826463e-03 -1.3417245701463545e-03
      3.6090762786062051e-03 -3.8004913816497760e-02
      -6.0696439151171908e-03 -1.6907528172209297e-02
      -1.5438580431416162e-02 5.3348196532983835e-04
      -1.6958536289169344e-02 -2.3810814222679712e-03
      3.2047902758885360e-02 2.3083554106380955e-02
      8.0500202360827226e-03 1.9172053165459738e-05
      2.4606985102759830e-02 -1.3446796531123028e-02
      2.9576668015349285e-02 1.6460826785292149e-02
      2.7501960486278600e-02 1.5712761594006794e-02
      1.3740782271239144e-02 -1.3619365827559975e-02
      -5.1491997852245123e-03 2.9884588318351290e-02
      -3.0275377863390367e-03 -3.3059028790903271e-02
      -3.4250337964931717e-02 -1.4802522458584407e-02
      -3.4358665935464106e-02 -2.5542589280575533e-02
      1.8515407146033752e-02 -2.7217938332416144e-02
      -2.3320953718057622e-02 -2.5252041954693986e-02
      -2.5948445472776634e-02 2.4728972292719316e-02
      -2.6862270893235791e-02 1.1044744834602847e-02
      3.4727786787298043e-02 2.9580818349860906e-02
      9.1348383624606667e-03 6.4080805411792269e-04
      -4.1119713841826708e-03 -7.3422881661493857e-03
      1.9456175670790937e-03 2.0900839609086241e-02
      -3.1892978720058159e-03 3.0586541025102395e-03
      2.3096774598407307e-02 -7.4551754437614699e-03
      -8.1056292169536543e-03 1.3774417993829811e-02
      -2.1921358274983767e-02 -2.8988163073454646e-02
      -1.1110621334637583e-02 3.8783413787649157e-03
      2.0261901732303904e-02 -3.2926995452507608e-02
      -3.7762690637394083e-02 2.3554263475932855e-02
      3.9148319168211178e-03 6.1147891463209144e-03
      6.7524611272803386e-03 -4.2307328372325308e-03
      3.2014898084494259e-02 -3.6017655225775290e-02
      6.1481751870381589e-03 -2.1262118457531547e-02
      -2.6033417801480736e-02 3.2055504170754909e-02
      2.4065129270870789e-02 2.1635823778106151e-02
      -1.9464120639216601e-02 -2.0996118431657322e-02
      3.2606970440362155e-02 2.4366216732374910e-02
      4.2448629078825906e-02 2.7737653955491510e-02
      2.1229336515114019e-02 3.0414875713396634e-02
      -2.5209216413431757e-02 3.6819579732704933e-03
      2.1466116269694052e-02 2.9857995860238632e-02
      -1.0939571010397118e-02 -1.1341562484589179e-02
      -2.7632537295398767e-02 3.2693137945210268e-02
      -2.5083182677082243e-02 -1.1738658833144063e-02
      9.6229778471834063e-03 1.6382122519186890e-02
      3.2060841425499816e-02 1.0532410941686427e-02
      -3.7413453073095711e-03 2.5122796388565537e-02
      3.6986603462729063e-02 -3.1390416201299384e-02
      1.2124384435383731e-02 -2.2380977626506704e-02
      -6.4573459542197013e-03 1.1954739980632354e-02
      -2.8046832993933398e-02 -1.6360540985425918e-02
      2.9453862749429963e-02 -3.6936797318444354e-03
      -4.6792639513461298e-04 -2.3455961501809050e-02
      -1.9406913228835511e-02 3.3595268635740225e-03
      -2.4482725598543288e-02 3.5385772074318297e-02
      1.6602960087469785e-03 3.3870642595049606e-02
      1.7056081997411352e-02 -2.0146501659853268e-03
      -2.9860559349216543e-02 -3.1758622061112907e-02
      3.7535514615079257e-02 1.6328153313560903e-03
      3.0429785649473618e-02 3.1695781407604734e-02
      2.8973378716229875e-02 -3.2644500912492901e-02
      -1.9830818819231009e-02 -1.2783171984750174e-03
      7.4387293404781594e-03 7.9188262183620059e-03
      -9.4569263447616646e-03 -2.2348648918994979e-03
      -9.3249304709890814e-03 -3.0305099616615296e-02
      9.3069772006358700e-03 -3.2022783514314861e-02
      8.1631535507133805e-03 1.3683271866605814e-03
      2.4326077188017221e-02 -2.1714200469337887e-02
      -3.1230929888030657e-02 -3.5171705317154384e-02
      2.5758108025345982e-03 -2.5766192332013247e-02
      1.0184266332998853e-02 1.7582791399736907e-02
      2.8050391875448513e-02 3.5883878104583863e-02
      2.0629834941562938e-02 -2.6430633114675386e-02
      -1.7496163940613041e-02 -5.8074222449929127e-03
      -2.0553886357438916e-02 -1.3421413878548401e-03
      2.7354448646046909e-03 -1.4865516567031039e-02
      -3.5774735618392282e-03 -2.8379618697031414e-02
      -3.1290397462370723e-02 -3.3713432896600525e-02
      1.6807423998207796e-02 1.1619412432174566e-02
      -1.0744481199484138e-02 1.2648873083112373e-02
      2.0966833646284214e-02 2.3531312506513385e-02
      3.7053897009338414e-02 1.7774613730558768e-02
      1.4688522652514472e-02 -1.4094345032203220e-02
      2.5853579299876757e-02 -2.4035060696424616e-02
      -2.9968065868889948e-02 -1.3394571459955153e-02
      2.4807872859843670e-02 -2.2712489162699995e-02
      3.3153457236950540e-02 -2.0445043491985167e-02
      2.2127344486039046e-02 -1.9058502346358298e-02
      -1.0851147634372300e-02 1.8091447018196351e-02
      1.3794368911962568e-02 5.4023703296970805e-03
      2.9843376470992514e-02 6.1313175005521872e-03
      -1.7552842704984875e-02 -2.6914529712601415e-02
      2.7812466261312990e-03 -3.1811247239004740e-02
      -2.2605859427118829e-02 1.0664481460136474e-02
      -2.5338838265135891e-02 -2.7904285027439180e-02
      3.8120960144404109e-02 -3.2869643444630421e-03
      1.4264287079693871e-03 3.4224672435608741e-02
      3.6968067869020283e-04 -2.6156732341181255e-02
      -4.8485584335223207e-03 2.4852011310661115e-02
      -2.9941676192856829e-03 1.0149927990601407e-03
      1.5685693319107671e-02 8.0277856372179858e-03
      3.6962713716567529e-02 3.1458747047129101e-02
      -3.0526811907813547e-02 1.0051493579204067e-02
      -2.8681274231223085e-02 2.3468971311631327e-02
      -1.5563763160318855e-02 2.5609727067296865e-02
      -3.4873575385580946e-02 3.2382600698812603e-02
      9.7658508501482291e-03 2.5870295357425015e-02
      3.1573594957564101e-02 2.0663436812074058e-02
      7.1614081579809558e-03 -1.7784091646326276e-02
      -2.8577082494144364e-02 -1.0981852220988648e-02
      -8.3238083960832359e-03 8.3584252276637603e-04
      -4.5796105510003682e-03 -1.5810469901011679e-02
      -2.1420489855437878e-03 -1.7968754920732709e-02
      8.2846450672294999e-03 3.6960819416340447e-02
      1.9727103474294704e-02 2.1750032679988332e-02
      -1.4970447907788353e-02 1.0435141063877096e-05
      -1.7675326843617219e-02 -7.3083848872496429e-03
      -2.0753758207137495e-02 -2.3835867102169322e-02
      -5.8710330455323759e-03 2.4304871279072219e-02
      -3.5826669186751134e-02 1.5441478450981190e-02
      1.3665538194981490e-03 7.1878398695620965e-03
      1.2369143623277467e-02 -2.2852418705454649e-02
      6.5910603241560112e-03 3.1818973389289421e-02
      -1.3120785067205796e-02 5.4890406866136398e-03
      -8.7224882881657279e-03 -2.4433254842090614e-02
      5.2124901591277632e-03 -7.2612966314903715e-04
      2.5720334371819999e-02 1.5025178256087016e-02
      1.0625434546562219e-02 2.4764608962976182e-02
      -9.1569918622005399e-03 9.1634296361002582e-03
      1.8400493944248909e-02 -2.6741362523553042e-02
      1.6320602040819476e-02 4.1781122148654018e-03
      1.0626521511497917e-02 3.3072016848216534e-03
      8.3076911139294881e-03 2.1328090657055668e-02
      1.1074925555734439e-02 -2.5579226194653144e-02
      2.1653119259269715e-02 1.5429355107545412e-02
      2.0740097611756388e-02 2.9482583340009416e-02
      3.0980180074836234e-02 2.0444183523758718e-02
      2.7397872586218317e-02 1.8627872665034243e-02
      1.6838927351555899e-02 -3.9600624048821993e-03
      2.6385632708016492e-02 -3.0982072760029535e-02
      2.2205339640531448e-02 -1.8405034154264512e-02
      5.2468827927367361e-03 -3.2116117262606977e-02
      2.2128309588193718e-02 -2.2656069271229755e-02
      1.8722037337882250e-02 -1.1506592721389472e-02
      3.7122309635718526e-02 -1.6332787006923411e-02
      8.7489329953369926e-03 -3.6252542427323932e-02
      -4.4870561375616493e-03 -3.2102566540223691e-02
      1.2837265469758505e-02 2.9266173460380129e-02
      -1.9454591495275668e-02 1.8102102676486133e-02
      1.6670376509978161e-02 3.1507229518199710e-02
      2.8128200911356687e-02 -4.3169521905374840e-02
      1.2176292733527666e-02 6.4668530425539420e-03
      2.4049410107749653e-02 -7.0140817951471583e-03
      -2.6705419879712649e-03 2.3636662228662263e-03
      -3.1894550916192692e-02 -1.7416955356879055e-02
      8.7188027785784043e-03 -3.3445730683232235e-02
      9.1214605650946669e-03 1.9607161281515045e-03
      -1.5220034455608421e-02 3.9129928304136800e-02
      -1.1348148308799118e-03 -2.2841106458640126e-02
      -5.9435992313140113e-03 -1.8759735505851791e-02
      1.7622527994940622e-02 -1.3324368466955672e-02
      -2.4745038839348286e-02 -1.5521838985114507e-02
      -2.9600332231628865e-02 -9.3117227806457301e-03
      -2.1473394843242722e-02 2.2929469404892886e-03
      1.5095063441626097e-02 -2.5027559669230176e-02
      7.9814400693330820e-03 2.2422407380036889e-02
      2.4130843117863314e-03 1.6924066233412771e-03
      1.5729177264389850e-03 -1.1030044305206078e-02
      -2.2483002746758900e-02 -8.0527881596676645e-03
      -4.8983577465207904e-03 -2.5613750247431802e-02
      -2.0425689943596583e-02 -1.9247277236071107e-02
      -4.2506959762733665e-03 -3.0003913866621726e-02
      2.1309926046200276e-03 -3.1366956830827852e-02
      -2.3553300956939433e-02 -3.0581976928243187e-02
      -1.8435708273921412e-02 -3.1982441300215513e-02
      3.4678029924057246e-02 -9.6535907463907600e-03
      -1.7477496765798028e-02 2.3284092079014947e-02
      3.8177644557593662e-02 3.8072720697710970e-02
      -1.3825397843844452e-04 -4.4215626521972298e-03
      2.4897417175018980e-02 -3.8704680967740955e-02
      6.9989971796594773e-03 -4.0774826675788620e-02
      4.9241779614414621e-03 4.4008385769919618e-03
      6.0614642486775019e-02 2.2882591934508732e-02
      -1.7650126800575039e-02 1.2206759376781756e-02
      -2.6243345287727520e-02 4.7223747099719073e-03
      -3.4338217632060054e-02 -7.9451651620064973e-03
      6.1421291255565379e-03 7.6420152977881000e-03
      3.9423430013679955e-02 -2.4846299563547773e-02
      -2.7033909071677727e-03 6.2634422442091222e-04
      -2.0437245164070077e-02 -3.9157271180706249e-02
      -1.4557561082318253e-03 3.2453340030236808e-04
      9.4001772144074822e-03 -2.6596865842609188e-02
      -1.7954119008880502e-02 -3.3075951013569064e-03
      -3.3333689217866842e-02 9.1897377435713641e-03
      2.9513279017167340e-02 3.3447613799159302e-02
      -1.9421561707983375e-03 2.3599309505407643e-03
      3.0908842068857079e-02 -2.1796849657312736e-02
      -5.2021949034949590e-02 2.0694562779454483e-02
      -2.2840022794691311e-02 -2.7958102554006457e-02
      2.4706237552746695e-02 2.9713834158935613e-02
      1.9802661659730610e-02 -1.8077802979603385e-02
      2.4360149527700187e-02 2.1017641672234872e-02
      -2.6578753898259019e-02 5.5827579669749015e-02
      1.0604711457499071e-02 -1.8500961015140763e-02
      -3.9752669700912555e-03 3.1355145750248071e-03
      5.0630216030514283e-03 -3.3355628923045173e-02
      2.7698371229618889e-02 -9.7734327967031465e-03
      -1.4181170074612065e-02 -9.5747507498159697e-03
      3.1327276343706176e-02 4.6768994868881539e-03
      -2.8837489901164949e-02 3.6270982154012199e-02
      4.3852900523802203e-02 -4.8184351502793939e-02
      2.3486374785640196e-02 -2.5874573523830019e-02
      -1.7239340625772100e-02 -5.4398605266303739e-02
      -3.5338441491765044e-02 3.4698780541191236e-02
      -8.7593548214696601e-03 8.4657929326071961e-05
      -6.9917359175655650e-03 3.9488372723333005e-02
      -4.2188854254270047e-02 -1.9020548661190404e-03
      3.0726091270296359e-02 -2.5090201083542058e-02
      1.7893846197368290e-02 -3.8226957543763054e-02
      -2.0583945496801329e-02 -1.9294113762448804e-02
      -3.6507120836113696e-02 1.2082020065980316e-02
      2.7495029641764410e-02 1.8278533494058193e-02
      -6.0334408752591925e-02 4.8867052985254881e-03
      -4.1984163710946897e-03 2.1989298138426216e-02
      -2.4880624770899164e-02 1.5351308600843785e-02
      4.0301656685791588e-02 4.4482918788706936e-02
      1.8607400302559654e-02 -1.9843273774139969e-02
      -1.8802717377921416e-02 -2.5743936462705074e-02
      5.3505417209415845e-02 -2.0781316900859065e-02
      -2.2526846564773422e-02 4.9585524358865478e-02
      1.5640836483604585e-02 -1.5849207463144639e-03
      -2.6014625915948296e-02 1.5591619266751735e-02
      -9.3806567192044957e-03 1.9585711006025196e-02
      -1.5911097536881344e-02 2.1295055760469604e-03
      -2.3204665347565934e-02 -1.7053696900167298e-02
      -1.1358960851940806e-02 2.4682421303753786e-02
      -2.6184795743360799e-03 1.4144433990345562e-02
      -2.8910768093217873e-04 -9.4295818923630301e-03
      -3.3777983288970283e-02 -1.9393368227592758e-02
      2.5192159591791330e-02 1.0103900666760130e-02
      1.4530405727023727e-02 2.7800997447918224e-02
      -1.1932990935126944e-02 2.5199196513686403e-02
      -5.2965205762176316e-03 -1.6176333737459466e-02
      -4.1481347066265273e-02 -1.0941853878134369e-02
      -2.2835560602542496e-02 -1.6950242606244600e-02
      -2.0585030984283107e-02 2.8697349352457067e-02
      4.6668002505668618e-02 -3.4356266985227049e-02
      3.4356262609900580e-02 -6.5310670519495477e-03
      1.1327658779824709e-02 2.6032501028542827e-02
      -2.6200449733123261e-02 5.2201580432157885e-03
      -2.0656005193311653e-02 -2.7501847729277721e-02
      -1.7831790904546153e-02 -1.0398727884458446e-02
      1.0211569565635629e-02 -7.4624479481712382e-03
      -7.3538834947431492e-02 -2.3175144146253927e-02
      -7.0298896845633159e-03 1.4969762091631190e-02
      -1.9436410115762689e-02 4.7449797325059551e-02
      -3.5854110656792247e-02 -2.6233320596042834e-02
      -2.7865104122873748e-02 6.1088240122985360e-03
      1.6237492539986315e-02 2.2285566180783662e-02
      -2.8249956685886392e-02 -1.1721288572260909e-02
      -1.7126375227000737e-02 -3.1012277458560250e-02
      1.4073234658771082e-02 -2.0817256282852508e-02
      -4.5442443068759990e-02 -2.6299673842840991e-02
      -3.6388824111356515e-03 2.9044839312096046e-02
      2.4840333007881306e-02 -3.1322814745444530e-02
      -1.6617104216396211e-02 -3.1079277232652257e-02
      -4.0424900622495624e-02 2.2514244573250238e-02
      4.8328970273183051e-02 2.9643962343379959e-02
      -3.0188694482000272e-02 -2.0327906757216935e-02
      3.3924322062635869e-03 8.5302470943699246e-03
      3.6207778150306721e-02 -1.1681623375721178e-03
      2.1974042463153903e-02 2.7143570235811754e-02
      5.8501933767078716e-03 -4.4244166638262201e-03
      -2.5137511321384191e-02 -1.0274129728616306e-02
      -5.2314151313350007e-03 1.8116537200349565e-02
      -6.0380397510131790e-03 -8.9633527260529894e-03
      -2.6535574039583766e-02 -6.0106281701529374e-02
      2.2100003253366696e-02 2.9776659473435014e-02
      2.8386720346592190e-02 -1.6975483030917754e-02
      -2.1045280947677856e-02 1.8408198090816223e-02
      -6.1906287332766416e-02 3.9330649321067061e-03
      4.0588455440486351e-02 4.7065759649951786e-03
      2.5716238167386281e-02 -1.6985293695771592e-02
      -5.0457654479062260e-02 -4.9078899584680778e-03
      4.6307835887705526e-03 -2.4880490091499181e-02
      2.8311587661205676e-02 4.2359154066668493e-03
      -2.0559893576693977e-02 -2.1481540939567677e-02
      1.8486487547058714e-02 9.8544066718884455e-03
      2.4196151282693607e-02 -1.7714711595203540e-02
      5.8930181733666837e-03 -4.9203904734975226e-03
      8.7914512762179986e-03 -4.2255112340958439e-02
      8.9913705514281725e-03 2.6516870083237946e-03
      3.3205827550315217e-02 4.2475499858053059e-02
      -5.9418675704004213e-03 5.8729890627443979e-02
      2.1882496800782483e-02 2.3663830209911505e-02
      -3.4920435769642238e-02 9.2303186032093414e-03
      -2.5342538555781797e-02 2.4054348030863371e-02
      3.6219857929042781e-02 -5.3077611810402742e-02
      -4.7159590881547218e-02 -5.5406161851459098e-03
      3.6429402496805770e-02 -1.6591030688534250e-03
      -1.6341161573698768e-03 -1.3477097858758894e-02
      6.6018798155498427e-03 -7.4484404294846889e-03
      -1.2651801868010631e-02 -2.7823729370080066e-02
      6.8253661210019578e-03 6.4105037081786274e-03
      1.6736072373518738e-02 1.1074004019146818e-02
      6.9261354529436599e-03 3.1418809044228987e-02
      1.6119438830609273e-03 1.5374753693256693e-02
      -9.9104496020204855e-03 -1.6651459484243878e-02
      6.7645365851088553e-03 1.0488967545434460e-02
      1.2454300093625211e-02 -1.1894094536994729e-02
      6.3422112210480358e-02 5.8828821096383243e-03
      -5.7858217424990345e-03 -2.2748224875207109e-02
      -5.7923304532982473e-02 2.9377964252605641e-02
      1.6299041889202722e-02 1.1226391539441239e-02
      -3.1303107113568096e-02 1.1651142088590969e-02
      9.2051452070670316e-03 9.4700269530632257e-04
      2.8487086562196770e-02 3.7363843870773222e-03
      -4.3172984672871534e-02 -1.2462597414453346e-02
      -1.7940489164184899e-02 1.0401340305354530e-02
      -1.3635068055758948e-02 2.6635745198523981e-02
      -8.0350772533807329e-03 -6.8052794324699236e-03
      -9.5764668868095724e-03 -2.7751035490500560e-03
      3.5802923658465310e-02 3.4798160785181033e-02
      -3.1592641878939354e-03 6.6791758176036262e-03
      -2.3082884209313079e-02 -1.4120453959292222e-02
      -2.0993726169996230e-02 -1.2626331443643049e-02
      -1.4518259246608801e-02 -1.8407782577923266e-02
      -2.9689852051907831e-02 4.9988608289895447e-04
      7.5672984541874030e-03 -5.1571271634135649e-02
      -1.3958066862051205e-02 -1.3332445309120441e-03
      -9.4536995733292637e-03 4.0211938564245132e-02
      2.6050910771140178e-04 -2.1943391903231961e-02
      1.9211263747748085e-02 -4.5353946014247366e-02
      9.6670285331049086e-03 -2.5688958605251555e-02
      1.3976207781982565e-02 -2.4858666683066952e-02
      -1.1298779386708681e-06 2.8087027852947043e-02
      2.0557087417029475e-02 -4.7108040009024077e-02
      -1.5364007240387407e-02 1.1514250972840165e-02
      9.8872482409117605e-03 -2.0511584726217377e-02
      -1.6356728420626566e-02 -1.1451550313657808e-02
      -1.7373609137316986e-02 -2.1236583662708038e-02
      1.1772445191695159e-02 -8.6952993744207653e-03
      1.7282458471182996e-03 -3.6829824565684031e-02
      8.4606912849356716e-03 -6.2234072253162572e-03
      -2.5896790842576768e-02 1.4341798274477974e-02
      1.8611018248711524e-02 2.4249601365003193e-02
      1.9667029482337620e-02 -4.1111960562016546e-03
      -3.7561855021501368e-02 -2.6424635225537840e-02
      4.2526285080580709e-03 -1.6372400136265834e-02
      -2.8220135308722090e-02 -2.0484442784763659e-02
      -2.6629464533505440e-02 -1.6809604017022035e-02
      -2.3061304649444375e-03 8.5614846646572002e-03
      3.5633482289053393e-02 -2.1302563440922143e-02
      3.9290683012116589e-03 1.9003444930584115e-02
      -3.6081296648534981e-02 -4.5855955525179119e-02
      -2.1196093195934837e-02 3.2888517320357265e-03
      2.5701183492507190e-02 1.9941411284715705e-02
      3.3707181456427142e-02 2.8266320112213406e-02
      -2.3861130887224750e-02 -1.3497984204050429e-02
      6.1947007226784215e-03 -2.8082195214060982e-02
      -2.4763499113928344e-02 -1.9888801424093945e-02
      1.9779844341085203e-03 -1.0043599069461154e-02
      -3.2917495904029287e-02 -3.1266368019618303e-02
      3.0251444635570062e-03 -1.5874498908229541e-02
      -2.4871069086005088e-02 4.1316510800187064e-04
      -1.7243528860685454e-02 1.5387433697691752e-02
      1.5347523784976353e-02 -1.4420456646338078e-02
      2.4765713606067753e-02 9.5676426057790115e-03
      -1.1997563137364118e-02 3.3935726708300383e-03
      -1.2733149538111417e-02 1.2841967079011149e-02
      -3.3541059736805601e-02 -2.5267072189509174e-02
      2.3549219054854395e-02 -2.0094291147143652e-02
      -2.0983904264854050e-02 -2.5649746266606148e-02
      -3.5856060112474532e-02 -8.3861659390034697e-03
      -4.4500828915077879e-03 -1.6708288595855620e-02
      3.4764891265791069e-02 2.3587064637453269e-02
      -3.9865472189540091e-02 2.1842050838804420e-02
      -2.1555103685932564e-03 -6.9297322722785084e-04
      -1.9335156088352173e-03 3.4928012733425966e-04
      -2.9766448012298451e-02 -2.3193358095273470e-02
      -2.8029694451802360e-02 -5.1687007106389436e-04
      2.2316344559097478e-02 5.2451077923367914e-03
      -3.4102053164271368e-02 -2.8740281396036516e-02
      3.3931942979187210e-02 3.5295608843942547e-02
      2.4475475487393188e-02 3.3442630704519756e-02
      1.0632385831653308e-02 -2.4405116331108208e-02
      1.8735503762113116e-02 -1.4641799231675268e-02
      -3.4335156729772588e-02 1.9978446109730614e-02
      -1.0428800469041722e-02 -3.3224932835576516e-02
      -2.3504926346200024e-03 1.0106052057934484e-02
      -1.0652329585869116e-02 -3.4620271471336762e-02
      2.1627038246469180e-02 -8.1178196630291317e-03
      4.1195613744136328e-02 -1.5270722754024071e-02
      -1.7053651665963104e-02 1.8631397711822574e-03
      -7.7764099791604703e-03 3.9670676592654303e-02
      1.7527605217202265e-02 1.0214255349550026e-02
      3.1022093446010380e-04 -1.7395997419289610e-02
      -1.5333085292790954e-02 -1.9846013380735005e-02
      2.3379498565811500e-02 -1.1352155751981547e-02
      -2.1667130054827715e-02 -8.6811458528778165e-03
      -1.4443398183871241e-02 -3.4515567189442445e-02
      -3.2997124386771659e-02 3.5742597648775166e-02
      2.3796302956417034e-02 2.8435155600722576e-02
      1.5908241370500700e-02 -3.9079080187401194e-02
      5.8315271362939115e-03 -1.6949018500466697e-04
      1.0651536168254178e-02 -8.6548642258397427e-04
      9.9941476108832399e-03 2.9431931998113971e-02
      1.7818023103227773e-03 1.3941832050146347e-02
      -7.2534833785528711e-03 2.3825526506262001e-02
      -1.8639405345783563e-02 -3.1577314263516787e-02
      -1.4835483196173595e-02 -2.5928407079751699e-02
      -2.8889262728055776e-03 -7.8709469888346689e-03
      2.8192072080523031e-02 -1.3411618536985208e-02
      -1.9680225020350547e-02 1.6512512911436850e-02
      -1.8858360314093346e-02 2.8301998796081241e-02
      -3.3570574328713257e-02 -1.0549086220640656e-02
      2.7860047109938422e-02 3.9287647265741380e-03
      2.9076472123288229e-02 2.0011364539084597e-02
      -1.5396096731843983e-02 2.0769130882662249e-02
      -1.0359540373533002e-02 -3.1712844218027718e-02
      2.6983030452895487e-02 2.5461144141747929e-03
      -3.0593331596066416e-02 3.8081870952718019e-02
      3.0456851114203961e-03 -2.3236725086525530e-02
      -1.8165739199713538e-02 2.3999240502692995e-03
      2.2189889330973413e-02 9.1564419910045835e-03
      -1.0790320789789814e-02 2.7355346793379358e-02
      -2.0659718709526771e-02 2.2042519618929078e-02
      2.9536808782123104e-02 3.4853051756429186e-02
      2.8999574100019614e-02 2.5179283076462368e-02
      8.2678900963428486e-03 3.3381815332752647e-02
      4.1914936835856197e-03 -5.2886695326120467e-03
      2.5830746361964318e-02 -2.8535660257793628e-02
      -3.5414179174321096e-02 1.5971505420567595e-02
      2.0785346676792427e-02 3.4542372303257393e-02
      -1.6768307199534051e-03 3.1400673663261526e-02
      3.0538776917643080e-02 2.6268764632158048e-02
      1.8052246466209058e-02 7.0178918961918534e-03
      -2.3787541489146753e-02 6.4438561374026600e-03
      2.3654739869829609e-02 4.7644334863467634e-03
      3.9709261660340099e-03 1.3233383989964154e-02
      -1.1295913696005924e-02 -1.0463139812688328e-03
      -3.3577768008005660e-02 -1.4017262952200694e-02
      -1.5894711728603732e-02 2.7361482696815612e-02
      -2.4985415203751017e-04 -8.3337848455413560e-03
      -3.1788400506276022e-02 2.0241659169093395e-04
      -5.8900724540267811e-04 -2.2431906368466776e-02
      -2.7938046825121778e-02 -2.5633684426857567e-02
      1.1374175593381459e-02 1.1227120086168718e-02
      -1.1693809306227413e-02 3.5828974493254513e-02
      1.3659588996313849e-04 1.8322023031133273e-02
      1.9350432939619971e-04 -1.4474251091642257e-02
      -8.2188271398850946e-03 2.0881653085932182e-02
      1.5776754133651150e-02 -2.1677029203906278e-02
      -9.6999970641845640e-03 -1.3313066559593034e-02
      -3.7209550172901583e-02 -2.7352277992755789e-02
      3.1259223954922401e-02 9.4120728081454972e-03
      2.1341811081334150e-02 -3.8418172720808254e-02
      -1.4580402587700144e-03 1.6676093520754122e-03
      -2.2908084029478179e-02 2.7180172910906714e-02
      3.5618290058413500e-02 -2.7608188046357583e-02
      1.7287398090180708e-03 -1.0196347336801036e-02
      -2.5623118809239197e-02 9.4289711910978367e-03
      -1.0858524567613456e-02 -2.0496602326696933e-02
      -1.1912775480311192e-02 -1.8120075001111881e-02
      -1.2469474579279530e-02 -1.1110184251092288e-02
      1.2064627049541773e-02 -2.4030010914229259e-02
      3.6100583461579287e-02 -6.2332381682108084e-03
      3.4224585460134425e-02 1.9423199368426465e-02
      -1.8235911875010915e-02 -1.9422179360615442e-02
      1.7649172437972701e-02 -1.5128960623231789e-02
      -5.5692223580039854e-03 -3.6146211857301419e-03
      -5.1097629803881321e-03 9.0838516878853030e-03
      -8.6114500580729142e-03 1.8807675517737599e-03
      1.2001673392044374e-02 -1.8252841128825161e-02
      4.7105776832355858e-03 3.5231737129256960e-04
      -1.4391173785007843e-03 2.8037301412767869e-02
      -1.6587674564957539e-02 -5.9920151270560018e-03
      2.9720812678271204e-03 3.0471120288283120e-02
      1.7621458989974918e-02 -2.1003752030978533e-02
      3.1521695773910459e-02 -3.6619476475701608e-02
      -1.4851728579064048e-02 2.4778578962643773e-02
      -2.3171615075533992e-02 3.2980019264387309e-03
      -1.4948351642372607e-02 4.2482924422337798e-03
      -2.5879272554259879e-02 -2.6904927038750678e-02
      -1.6287916392651484e-02 2.1261781964608262e-02
      -3.3316259273901499e-03 1.1728998583588416e-02
      2.7490897211075956e-02 1.1328786639622761e-02
      -2.0684196042456322e-02 -1.7944967469050660e-03
      2.1571502174398207e-02 1.5811301100375777e-02
      1.7344418941243160e-03 -1.6825764901453257e-03
      -1.3865006441396696e-02 -1.4896711726993745e-02
      4.2284844974476620e-04 -1.0908978762774716e-02
      -2.7401212515786099e-02 3.2607296185034232e-02
      1.0332414950330913e-02 1.3225274264886358e-02
      1.8468229454262283e-02 2.6930193707819548e-02
      -2.7755301869211903e-03 7.1402304715587549e-04
      -1.4840807646305089e-02 -1.7553592320522771e-02
      3.4735503535645314e-02 3.6877732512895257e-02
      3.1753500979485746e-03 -4.2099070722063370e-03
      -1.5567216224275971e-02 3.1994385465702241e-02
      -7.2874165434303056e-03 -1.6907168930694719e-02
      1.9930949319673923e-02 1.5657087337336766e-02
      -2.4387044654828490e-02 2.0343616994759912e-02
      -4.5896328613962483e-03 -2.9445243679784173e-02
      2.8156798125211571e-02 3.2284599898422792e-02
      1.1620663936831652e-02 -2.0942319795503320e-02
      2.8372494477899662e-02 -2.3232167638079643e-02
      2.3718428740639078e-02 -3.2137696011060334e-02
      -1.4217819206768820e-02 -1.7230662630920038e-03
      -3.1300616577130513e-02 1.9835054232062953e-02
      2.4765613766442332e-02 2.9220202853616335e-02
      -7.5491598186716415e-03 -7.4807332033706413e-03
      -1.7375331146364081e-02 -2.7873750375539373e-02
      -2.6862169360890302e-02 -2.5682265402681051e-02
      -3.4883214702549577e-02 -5.2929263126849325e-03
      1.2272933393655795e-02 -2.0341109402973422e-02
      -3.4282552016757735e-02 -3.0321801235406152e-02
      -2.1268020622716724e-02 1.4308457903031415e-02
      -2.8118430054591331e-02 1.0032361361292036e-02
      1.4557812216577818e-02 3.3758483358194931e-02
      -1.1811485540603670e-03 -3.9925812304338885e-02
      -3.9561185783573167e-03 1.5156369092236849e-02
      -5.6010538510903214e-03 -5.6602012986350326e-03
      -3.2743702588764870e-02 -3.6085868128230454e-02
      -2.1974612710797526e-02 1.4965815833134262e-02
      6.1267526084505773e-03 9.1751703289482730e-03
      4.1967465785881976e-03 -1.3875883562104948e-02
      4.1261895908372627e-02 -1.8054344284672050e-02
      -6.1918634396171974e-03 3.1982774948539198e-03
      3.4560149412826745e-03 -2.8425863793375240e-02
      2.9782668739442027e-02 -4.3291292209028500e-03
      7.9208350320468315e-03 3.1766650795311312e-03
      -3.6228190606330493e-02 -2.9780092262619840e-02
      3.0550183309840242e-02 1.8884654530829451e-02
      -1.9115800074736060e-02 2.7093968461502471e-02
      9.8895821791051136e-03 -1.8638693491264104e-02
      -3.1193298407073109e-02 -2.2915355092116989e-02
      2.8050964037106742e-02 -3.4403184703387324e-02
      1.6897099759591229e-02 -2.9327404669080865e-02
      1.9169340192315747e-02 -2.8163936912445817e-02
      2.3221672123421175e-02 -2.4797105810864317e-02
      6.9682690700243811e-04 -3.0197322355215973e-02
      3.0550819900162080e-02 2.5920680958708905e-02
      4.3870777540278901e-03 1.4444069748245447e-02
      3.2996018909643973e-02 1.9937560988063111e-02
      1.2474067339880096e-02 -1.2777815405929311e-02
      -2.2273812816479683e-02 2.0912486803977115e-02
      1.8630359031572497e-02 -1.0984638773102266e-02
      1.7996445299209261e-02 1.7169396761140661e-02
      2.2480486165582410e-02 -3.1318463596729074e-02
      -2.6690362577193715e-03 -1.7543844469270157e-03
      -2.8617694684805559e-02 -1.0476936063968784e-02
      7.9881542739254161e-03 1.9653516699923278e-02
      1.1976151646036102e-02 5.8391345362509466e-03
      1.5965581335202792e-02 -2.2121097418985391e-02
      -2.7190928068700940e-02 2.5140010573756703e-02
      -2.4433755280996658e-02 2.3738208813145801e-02
      -1.9671046656661292e-02 2.2448716486481685e-02
      -4.9246899293436223e-03 1.7343694852012703e-02
      2.5258828314029709e-02 1.8821442056060885e-03
      8.1554711983381823e-05 -2.1439919587537947e-02
      -4.1300431403352725e-02 -4.6279892249094928e-03
      -2.2892525848349120e-02 -1.9705868297902378e-02
      3.1076517504875660e-02 -2.9698627145925610e-02
      -2.6519909158076269e-02 -1.8647104548906911e-02
      -2.7709672379614105e-02 2.3396036966600083e-02
      2.5101493047504305e-02 1.9455658314679013e-02
      -2.1510613206613294e-02 1.0592421173598154e-02
      -1.7536310467553780e-02 -1.0376068658080205e-02
      5.3010929492528229e-05 -5.0652718356495536e-03
      -2.7596370405542398e-03 3.4176137297747361e-04
      -2.1847867697583279e-02 -2.6311008834749388e-02
      -1.9940632485764952e-02 3.2333641327811857e-02
      1.0573690409569476e-02 -2.7625397145114895e-02
      -4.7511132449576526e-03 -1.6314357318936837e-02
      2.0221092938846139e-02 -2.3859874465316264e-02
      1.9853691002349308e-02 -1.4212742882447362e-02
      -7.6901488702198484e-03 2.5692831675390056e-02
      -3.3548409834831289e-02 -1.6401202136714699e-02
      -3.0894801874391961e-02 2.1440568993067372e-02
      1.0719943719054844e-02 -1.5283929774001078e-02
      3.0425750091833053e-02 7.8528056798457604e-03
      -9.4990727681834534e-03 7.1577604398709209e-03
      -1.2370256027595236e-02 -3.5786593320175544e-02
      -1.3750189784314079e-03 -4.3404747656215874e-03
      2.5847085750687164e-02 -2.7692014049894301e-02
      5.5739418719889019e-03 2.6412541059653547e-02
      1.4274935362033919e-02 -2.2418897394370422e-02
      1.8744073449619876e-02 -3.6069202051692291e-02
      -1.3836151739049216e-02 4.3275078558546827e-03
      2.8256656721896277e-02 2.5696918133627240e-02
      2.5294145286829349e-02 -1.3054258678670515e-03
      -1.5504436365336733e-02 -1.5608654217301158e-02
      -6.6877148534294339e-03 -8.4064885515210078e-03
      3.5095787115716447e-02 1.8426085816019462e-02
      7.9452272100373322e-03 2.1256823788110335e-02
      -3.5712802888001396e-02 1.0203567479888029e-02
      -2.0516129945538863e-02 -2.4590160970444083e-02
      3.3155388264582072e-02 2.5980674617522841e-02
      2.2369558081170759e-02 -2.3281450449656765e-02
      2.4560494354112207e-02 1.1340840861094157e-03
      2.1220530552125989e-02 -2.3181421619218202e-02
      2.1813821281213813e-02 -1.5185401902977241e-02
      1.5276936750184152e-02 -3.7050106937384997e-03
      2.8582707548877595e-02 5.2508349515212002e-04
      -2.5842863426336165e-02 2.1554797376222821e-02
      3.1850498590719811e-02 2.2130987183406114e-02
      1.7481057705988512e-02 3.1840316187272448e-02
      -7.8014843729028536e-03 -2.4322158242037761e-02
      1.3226751876669614e-02 -1.0664655810162202e-02
      -2.5380821717766597e-02 1.5450811596816598e-02
      -3.4251316179237504e-02 -1.9543132205825983e-02
      1.8323591943058923e-02 2.8749127256573508e-02
      1.3311160539706929e-02 5.0019350263512882e-02
      3.2627659798484712e-02 1.8804645208121223e-02
      -1.2113157016510211e-02 -1.8857828380636453e-02
      6.7296632502488497e-03 3.8725953608994466e-02
      2.1196856353325248e-02 2.5066994934784925e-02
      -2.9945623332000976e-02 -1.6641563858385316e-02
      2.5875980949015335e-02 2.3206470598216868e-02
      4.5930777922679926e-03 2.8314548227331940e-02
      1.9853526208007705e-02 -8.9824264593546255e-03
      -3.4681408932291706e-02 -2.2072133392143981e-02
      -2.6464728971583119e-02 8.4622489404014055e-04
      -3.1404527508223777e-02 1.8227807684919495e-02
      -2.6291670958302510e-02 -5.7213669719933732e-03
      -4.8795574916966943e-03 -2.9227483108895457e-02
      -5.4173179253234538e-03 1.9235999017424524e-02
      2.2802260947021345e-02 -4.1322605564116967e-02
      5.4681730974179086e-03 -4.0631953283331766e-02
      1.5029125706173386e-02 -3.4659508622062172e-03
      -1.8816275570420482e-02 9.5799403271997461e-04
      -2.7604423979209470e-02 3.8124288045171151e-02
      2.8274225217777175e-02 -2.7224776896002875e-02
      -1.8528163249121654e-02 -2.3137559007887557e-02
      2.4717231910588357e-02 1.2311489040944612e-02
      1.9325342267902123e-02 -4.0051800526910528e-02
      2.8574381821521149e-03 -2.9245321245333324e-02
      -1.8357278682331266e-02 1.3618046234593329e-02
      5.2312988283981770e-03 4.0795677125231487e-02
      -3.5011226190377037e-03 1.7487402130263657e-02
      3.0328409670894198e-02 1.3394526760092450e-03
      2.1833260620873669e-02 3.5069085846377600e-02
      -2.7501450441117077e-02 -1.3728307270440191e-02
      1.9644684396324719e-02 -2.4305488756257574e-02
      -4.0705615620842704e-02 5.8335908447465796e-03
      -5.0452302955976400e-02 -1.9893701382437488e-02
      9.8340986683955380e-03 -1.0824809625740933e-02
      -2.3808421552149125e-02 -6.6439322566771257e-03
      -3.5257009088367694e-02 -2.1828877389832062e-02
      1.4642356767670709e-02 1.7281074077114027e-02
      4.6104907250726919e-02 2.3226793312230522e-02
      1.1926770777276901e-02 -2.2676454287805424e-02
      1.6676918116127211e-02 2.4203974729711759e-02
      -3.6252136508515675e-03 1.3708780739641387e-02
      -1.0205956274559126e-02 -4.8190460367349289e-03
      -2.3185972537192661e-02 -4.3654938749388444e-02
      -1.1979838727707269e-02 3.7785735139931318e-03
      3.5983244818582026e-02 2.5547343711364117e-02
      2.7977541697806474e-02 -2.0604995970882594e-02
      6.0485599597494364e-03 6.0813505743987396e-03
      -2.4850141115408158e-02 -1.5085035175530155e-02
      3.1573103904652074e-02 -4.3009613960694311e-02
      -1.3708495539659495e-02 2.5035717792426238e-02
      -4.7570225367246095e-02 -2.4071502516299515e-02
      2.5221743020793132e-02 3.2438366911736488e-02
      1.8019344186795822e-02 -4.9649001234228475e-02
      2.1315373873613201e-02 -1.3031162704623390e-02
      1.1497836663493482e-04 2.0698941412384122e-02
      -2.2391270186072218e-02 3.6164741829915878e-03
      -4.2060462703217567e-02 -5.3102551864861946e-04
      2.2617313529547239e-02 4.3084474805876530e-03
      3.7050704023302125e-03 2.4752757269830061e-02
      1.2763378784006198e-03 4.1146699773740393e-02
      1.1094960914255880e-02 -1.8278247063282953e-02
      -2.7687846902771839e-02 -2.3726982150633149e-02
      -1.1032282902999966e-02 1.7258686490649596e-02
      -6.3295381161795564e-03 2.4170643301648840e-02
      1.2401500727046905e-02 -1.5544910729433096e-02
      7.8444706664027343e-03 -1.6871497185820320e-02
      9.1685498030764541e-03 -1.8222133670857760e-02
      7.7741138296351367e-03 -1.4783231038931050e-02
      -1.9415393763546764e-02 1.8773284155931610e-03
      1.9601686594598874e-02 -1.3807198009735620e-02
      -6.6664192288089482e-03 -1.3709320469021947e-02
      3.1819973425323278e-02 -2.1683657086709204e-02
      -2.9783585576055264e-02 2.4815881343320433e-02
      -4.5827512533940179e-03 -2.5821211397965043e-02
      -3.5404114305038349e-02 -2.8551489056603489e-02
      3.5412765534105502e-02 -1.3034508473015027e-02
      -2.6544587796469534e-02 -9.4693016311839708e-03
      1.4797934072774049e-02 2.8764336179377566e-02
      -2.9842722393206317e-02 -2.7769561358909435e-02
      -2.2851805984255846e-02 4.3731261212440033e-03
      3.2199576345620179e-02 2.2269127014378352e-02
      1.9413359722098216e-02 1.4851182349161284e-02
      2.2190855440837550e-03 -4.8887390762360657e-03
      -1.1280777134698012e-02 -1.9340775464484896e-02
      3.2017138909812413e-02 -2.3839592430258849e-02
      -2.9721263130407717e-02 3.2624150829425200e-02
      -4.4482725943887540e-03 -1.6358521014503972e-02
      -1.1306547996713621e-02 -7.9048930751989092e-03
      -2.6396162698534394e-02 -1.5800912178608847e-02
      3.0701689290825538e-02 2.3638366886362283e-02
      -3.3189848329911514e-03 -3.5300821359478041e-02
      -1.0020407633544127e-03 -1.2425437286757619e-02
      2.0184087873012593e-02 3.7214962197663448e-03
      2.1543697871519527e-02 2.0803328163550724e-02
      1.6033902502519324e-02 -2.8928494893607673e-02
      -5.3128899952363650e-03 1.1081362688308132e-02
      1.7303431558412762e-02 4.8322427696784872e-03
      2.9226935523632192e-02 -2.3728927236091255e-02
      -3.5245587274534648e-03 1.1707277446283689e-02
      2.2361122064693460e-02 -7.9178823438984178e-03
      -3.4905637988533633e-02 -1.1739696606890967e-02
      1.9120271538464628e-02 3.0993044859774527e-02
      -2.5806609349337376e-02 3.2298943848054783e-02
      -2.8380103953246732e-02 2.0465430560880488e-02
      -1.5733151790558609e-02 -3.4465017737377070e-02
      -9.0770912890489417e-03 -2.6368111835091631e-02
      1.0649088604103848e-02 -3.7103556559611964e-02
      3.5439004804802658e-03 2.7729074538390287e-02
      -3.5673314627797034e-03 -8.5420027522610849e-03
      -2.9439424355613721e-02 6.2156669975295636e-04
      -7.4126834830139359e-03 -2.1364468909219461e-02
      -6.7390048677707448e-03 1.7778794232134350e-02
      -7.8038212038855949e-03 -2.2574953351962870e-02
      2.6111232730514286e-02 -5.8868289518986781e-03
      -3.9636930078110415e-02 2.9153354661070063e-02
      1.3584308648665742e-02 -8.1869328378503178e-03
      1.2487837638591053e-02 -3.3711531826692231e-02
      6.1564216988857379e-03 -2.1592665688181238e-02
      2.3890872241457358e-02 1.8977700945784059e-02
      -3.8413168214583716e-02 5.3784945957410131e-03
      3.2519078086344431e-02 2.1325213846848157e-02
      3.5440430909359395e-02 2.1311151732411930e-02
      -1.5121399860354316e-02 2.1871301219187175e-02
      -2.9565345653153989e-02 -1.7839894276509012e-02
      -3.0094241158364274e-02 -1.2350175080117431e-02
      -2.6854107650221174e-02 -1.3841857988534385e-02
      6.8954419842924457e-03 -1.4789670021135732e-02
      1.9909361081760120e-02 -3.8076541124921745e-02
      -1.1739328382331216e-02 -2.7561515793947469e-02
      -3.0944393233178880e-02 -1.7280679963636913e-02
      1.5781989259319410e-03 -1.8206132061484220e-02
      -1.5512968936884041e-02 -1.4025899727778346e-02
      -8.1402998983027891e-04 -2.0234966780076729e-02
      4.1581151645519645e-03 -2.7039265894343387e-03
      -1.8219404070817964e-02 -8.5019156736904737e-03
      -3.2831935955606024e-02 2.2719560649801712e-02
      1.4925535451163787e-02 -3.5421663000199076e-02
      1.5762543017321325e-02 2.2940627463930080e-02
      -1.2438530129264401e-02 -2.6947663961694488e-02
      1.5781323444341570e-02 -1.6182749692722601e-02
      2.1910944708985806e-02 1.4736086666547202e-02
      9.8020661072191397e-03 -1.9389764722727184e-03
      -2.6860230052627818e-02 -1.5073276858965926e-02
      1.5535427978151200e-02 -1.0412933470965125e-02
      -6.2034058050798114e-04 -3.3742388566303627e-02
      -1.9964526672865818e-02 -1.7624878998530366e-02
      -9.8599583738440588e-04 7.8708246610322691e-05
      -8.3456058493823534e-03 3.4831848130549500e-02
      7.5957626209560295e-03 -2.3845167466171636e-03
      -3.4053659223626957e-02 -2.2012909643600611e-02
      4.0703451571243096e-03 5.6695523811865524e-03
      -1.4924831499210839e-02 -2.3567108252082875e-02
      -2.2773743053889284e-02 2.1983660162965116e-02
      -9.8195392875185458e-03 2.5471471097004658e-03
      9.7195309599416736e-03 -1.4222484534088618e-02
      1.6344301126672723e-02 -2.8439269293704397e-02
      7.4068040838915189e-04 -3.3516790429086708e-02
      1.6358663629754597e-03 -2.7118206259299039e-02
      -2.2106425701944970e-02 -2.5950617964470561e-02
      -1.4254458026421982e-02 -3.0997797923686055e-02
      -8.3154124527692903e-03 2.7321708962268976e-02
      1.6227787304516347e-02 1.9789959408571173e-02
      -1.1533515200857635e-02 -5.6489977036649932e-04
      -3.4498530647208960e-02 -2.2548682200679997e-02
      2.1079726361857953e-02 1.0098525809436296e-02
      1.5958748832506031e-02 1.7397657028193941e-02
      -2.8111903174661369e-02 -1.4738530949229892e-02
      -2.7186422899697499e-02 -1.2232524530414381e-02
      -1.1689757155278651e-02 3.1242169472484160e-02
      1.6049709827850325e-02 4.3876031940158836e-03
      -1.6991603202800357e-02 3.9378601635430908e-02
      -7.4602829499489779e-04 2.4387606336951431e-02
      -1.1051300238649028e-02 2.7164409231583133e-04
      -1.5229693445299177e-02 3.1194160829818924e-02
      2.1503561523216825e-02 3.2302688804657677e-02
      -1.6051793260205876e-02 3.6171242244879631e-03
      1.3591190090019833e-02 2.2981517452136356e-02
      1.4190849603515035e-02 1.2247762059243788e-02
      -1.1697067230752175e-02 -2.8297240177387419e-02
      8.7590262188228553e-03 -1.2805936900172947e-02
      5.0705914449411665e-03 1.2871773545564706e-02
      2.4161441301053691e-02 3.4936194206372805e-02
      3.2194902666776583e-02 2.5718192530149286e-02
      -7.5456976004499065e-03 -1.4215686518263815e-02
      3.0383577303553101e-02 1.3051025515125441e-02
      2.3775051197288559e-02 7.6343117106546319e-03
      1.2257943038175284e-02 -2.0130937899282227e-02
      -3.3614385694540637e-02 -2.6576944455851841e-02
      -3.0229897294943155e-02 -2.7539318752694115e-02
      2.2720525922737142e-02 2.9841617351527187e-02
      2.3725853075493485e-02 1.9095279798545833e-02
      3.3851727595783934e-02 2.3415098530348424e-02
      -1.7884045944396548e-03 2.5293927107003681e-02
      -2.0887655405465628e-02 3.1004665459367191e-02
      -2.3041576428288753e-02 -1.0061703578276489e-02
      9.1385721877728122e-03 -1.3442667499174301e-02
      -3.0368478944796003e-02 -3.0693400813345689e-02
      3.1393131698621290e-02 3.3162814331130795e-02
      2.8973565813580595e-02 3.1234647430073335e-02
      3.2498942042275124e-02 6.9655150643735163e-03
      -2.9682479086331391e-02 5.5147495693772079e-03
      2.4229609389069852e-02 1.9253724559285191e-02
      -3.3066657116621358e-02 1.9929908583530061e-02
      -3.4670411814639252e-03 -1.7539504336054051e-03
      2.3569836348423225e-02 2.8555363500796432e-02
      -1.7265832836758841e-02 -4.7383202212191210e-03
      2.4817206780214686e-02 6.4367140493611832e-03
      -3.3174504466345421e-02 5.5867157707462541e-03
