<?xml version="1.0"?>
<opencv_storage>
<opencv_ml_ann_mlp>
  <format>3</format>
  <layer_sizes>
    57 128 1</layer_sizes>
  <activation_function>SIGMOID_SYM</activation_function>
  <f_param1>6.6666666666666663e-01</f_param1>
  <f_param2>1.7159000000000000e+00</f_param2>
  <min_val>-9.4999999999999996e-01</min_val>
  <max_val>9.4999999999999996e-01</max_val>
  <min_val1>-9.7999999999999998e-01</min_val1>
  <max_val1>9.7999999999999998e-01</max_val1>
  <training_params>
    <train_method>BACKPROP</train_method>
    <dw_scale>1.0000000000000001e-01</dw_scale>
    <moment_scale>0.</moment_scale>
    <term_criteria>
      <epsilon>9.0000000000000002e-01</epsilon>
      <iterations>200</iterations></term_criteria></training_params>
  <input_scale>
    2.5979405526939475e-01 -5.0533327732962778e+00
    2.6101901244312664e-01 -5.7358932465065386e+00
    2.6709920246874059e+00 -5.3099956282766021e+00
    1.3925368583664632e-01 -4.8333466731908361e+00
    1.8199585971981100e-01 -5.2401424289332494e+00
    2.2116254968830424e+00 -2.3173962540105530e+00
    1.1031280739442488e-01 -1.2930737016218380e+01
    1.8178603735343188e-01 -1.2270018765587819e+01
    6.0233989825382412e+00 4.5998006683746695e+00 2.4590766406870998e+01
    -2.1159089370577110e+01 2.0743356540028810e+01
    -1.6940730046967250e+01 2.2906491603883662e+01
    -1.9866509807491177e+01 2.0222596996118757e+01
    -1.6443566418382350e+01 1.9054580748207950e+01
    -8.7574655841640077e+00 2.3182905571459880e+01
    -9.4682087701595901e+00 1.8893649100892286e+01
    -8.7934320671859236e+00 2.2806031618773655e+01
    -9.3440787075926330e+00 2.0475941220019517e-02
    -2.7326446766226846e+00 1.6268887854178949e-02
    -2.8615161015287938e+00 2.1278129962280196e-02
    -2.6799995430096177e+00 1.6330644430286798e-02
    -2.9200380230319194e+00 4.6274503334633685e+01
    -7.8057270499128455e+00 4.6426086756938659e+01
    -7.4026750805278372e+00 4.5521117849659781e+01
    -7.6865370597920730e+00 4.6482059428392112e+01
    -7.3998726190200488e+00 3.9577020051459222e+01
    -3.5987612057888562e+01 3.0432794416313108e+01
    -2.6722801020441100e+01 4.0646018950194161e+01
    -3.7150471778608654e+01 3.0470871668792743e+01
    -2.6699271425717516e+01 1.8646535048813757e+01
    -8.6716473628640447e+00 2.2015846423084312e+01
    -9.2135116141344913e+00 1.8479444625028179e+01
    -8.7105147418949223e+00 2.1538760522558153e+01
    -9.0427735031733132e+00 1.6884726197490350e-02
    -2.5149989914797382e+00 1.3337782904819137e-02
    -2.6532568064569317e+00 1.7652257666128289e-02
    -2.4965575601072127e+00 1.3413463634019821e-02
    -2.7054534409293534e+00 4.9071431757562308e+01
    -7.6276278300886702e+00 4.8461477036381275e+01
    -7.1903116817902806e+00 4.8722279554607042e+01
    -7.5734693357291087e+00 4.8715665834420520e+01
    -7.2156934966193322e+00 1.7594563455644388e+02
    -1.7223479263566205e+02 1.3417316610465389e+02
    -1.3004671733089293e+02 1.8497474495005918e+02
    -1.8125212361159168e+02 1.3505312868191572e+02
    -1.3083312966562488e+02 1.9174971671823691e+01
    -8.4990966593610384e+00 2.3752199125604065e+01
    -9.2728268777923564e+00 1.8711972567170303e+01
    -8.4043667870618677e+00 2.2834506264328486e+01
    -9.0848736884194992e+00 1.4632630337942648e-02
    -2.8122731409576489e+00 1.1066624622578437e-02
    -3.0638942921081780e+00 1.5655390184393204e-02
    -2.8723938914395037e+00 1.1251032878084866e-02
    -3.1617263621924629e+00 4.8250211683758437e+01
    -6.5492250678709985e+00 4.8596592872257382e+01
    -6.3187498019155139e+00 4.8363632189077535e+01
    -6.5699324094850446e+00 4.8736729816731483e+01
    -6.3294948027006042e+00</input_scale>
  <output_scale>
    5.2631578947368418e-01 4.9999999999999994e-01</output_scale>
  <inv_output_scale>
    1.8999999999999999e+00 -9.4999999999999996e-01</inv_output_scale>
  <weights>
    <_>
      -1.3457012576629326e-01 -2.4667895716445183e-02
      -7.9478627478036315e-02 9.2120777880370833e-02
      -3.4178481226669198e-03 9.3765290384779293e-02
      7.8418878795392125e-02 2.8274704412095803e-02
      1.9870977681409607e-02 -7.3348671546422411e-02
      3.9524417469283472e-02 7.6372041432495749e-02
      1.5614024471615867e-01 1.3716281192241147e-02
      1.9051705083617799e-02 9.3802250936134618e-02
      7.9191816478979618e-02 9.5355532687043748e-02
      -1.6901377021942701e-01 -9.1594902234414785e-02
      -2.7565687662947803e-02 9.4982495388620351e-03
      -9.2769325552260765e-02 -4.1743606932420255e-02
      9.6416254146205332e-02 7.1147507254767567e-02
      2.7786665158273157e-02 1.1490688073724906e-01
      -1.3400959621998837e-01 -2.6957062076670400e-02
      1.0171325368469569e-01 8.6064045467899343e-03
      -1.4370788678251449e-02 1.2865843119401510e-01
      -1.3802197839374777e-01 -2.8675207030077754e-03
      3.9821436889352323e-02 -2.3742788686009670e-02
      1.0628225122367829e-01 2.6677468623510911e-03
      3.4519806603187297e-03 1.4118428416799431e-01
      1.2144466403121794e-01 -3.7450126908092039e-02
      1.2381287222391615e-01 -4.3017495995357133e-02
      -1.6971315180197133e-01 -1.1284155053125343e-01
      1.2111657855419240e-01 -7.7391445020065147e-02
      8.4399538258427137e-02 -7.4656165939643374e-02
      -6.2669452698745132e-02 1.8481506251553596e-02
      3.1316162295964400e-02 4.9305459205441493e-02
      1.2638136035864703e-01 2.0036524447326631e-02
      1.4260492895040439e-01 9.1245031836050414e-02
      -9.9072650595956269e-02 -1.5441630914924228e-02
      1.3656337710911320e-01 1.1590059362588533e-01
      -3.2579576979325668e-02 2.1562507554446220e-02
      8.5736422530502399e-02 2.7672555298911905e-03
      -7.8133370190719226e-02 7.5166300704092956e-02
      -8.3971998130212541e-02 -8.8562948733580033e-02
      -1.3595610083310500e-01 -3.3232330543747052e-02
      -9.6206870498351346e-02 -7.7103569084719020e-02
      -9.0973392224790353e-02 6.6616237019719832e-02
      -4.1858820482906185e-02 -1.0631093588360783e-02
      3.8237574680750376e-02 1.8325806713648619e-02
      -1.6935808372746766e-01 7.8423613482801996e-02
      2.0153334292591338e-02 6.3218031058480562e-02
      -9.0917245957198647e-02 8.2057013986891914e-02
      5.9909068260604263e-02 9.6019789802180039e-02
      -1.1396813164930313e-01 -1.6961524888206855e-01
      3.8742815912380504e-02 -7.1773638102298420e-02
      -8.3163065369575628e-02 1.2769457307914250e-01
      1.2791821314663068e-01 1.3595074920986966e-01
      -6.6596555534658763e-02 -1.0591716808634441e-01
      4.2543907696009180e-02 -1.1656875701044785e-01
      1.4027332384995264e-01 -6.8755048764751442e-02
      8.9115980555008453e-02 5.4482429519107589e-02
      -1.0424439938477631e-01 -5.8664378500253717e-02
      1.2269594816032217e-01 -6.6974209626425724e-02
      -1.5797838895572364e-02 1.0897972614073869e-02
      1.3791895161190459e-01 -4.0555970356180658e-02
      7.0464854814088929e-02 -6.7764643842181310e-02
      -2.3528272237261182e-02 -6.6942384968550733e-02
      1.4279228312617230e-02 -1.2129037245851759e-01
      5.5346646640483756e-02 6.2058062462782525e-02
      -1.2192985691480650e-01 -7.3875061118948801e-02
      1.1410130950465466e-01 -1.0246791637601510e-02
      7.8087529012266337e-03 -1.1174666152113052e-01
      1.3610977655233714e-01 6.2770734555865557e-02
      1.4975091508580332e-01 -1.0112305543152242e-01
      -1.8925940655065338e-03 -1.0085590661515766e-01
      -1.0870587064787832e-01 -5.4807734633310783e-02
      -3.8187224366174694e-02 1.2422818864228073e-01
      -4.9350084315049475e-02 -5.3335083846912983e-02
      -1.5869717681630141e-01 6.6818882280698507e-03
      -6.7354260450974007e-02 -9.7281169373514623e-02
      -8.6009956923493433e-02 -1.0061937389888746e-01
      1.9454141481408854e-01 8.6469573480646045e-02
      -2.6413846937423220e-02 -2.8584460991824712e-02
      9.5128612247309285e-02 1.1807249990439986e-02
      -7.6646057768931602e-02 -7.3381809064678352e-02
      -1.0637659214187282e-01 -1.1421347782943797e-01
      1.4090756450237973e-01 -9.8415628749678463e-03
      -1.1119190542582613e-01 -4.8351740804568437e-02
      3.3698139734902665e-04 -1.7843502837810613e-01
      1.4689992318849357e-01 -9.6042653371196177e-03
      -1.0959185050177858e-01 -3.3087362622095016e-02
      -1.3313675414256257e-01 -1.5832947551869175e-02
      1.1564547368103249e-02 -2.0221821957379693e-01
      -1.2329115374785117e-01 4.7139612650396477e-02
      -1.6144353108069884e-01 2.5913214019373770e-02
      1.4194713831037065e-01 1.4263164321227548e-01
      -9.9595304976880933e-02 5.2948758708447834e-02
      -1.3675299215534698e-01 6.6319428996242713e-02
      6.8221507428669823e-02 3.3184900643139489e-02
      1.4736525881728672e-03 -9.9937658836947701e-03
      -1.8525627175452286e-01 -2.5497573117624406e-02
      -1.3011958379661823e-01 -1.2290259738549898e-01
      1.1789163592589300e-01 2.5553632486830526e-03
      -1.2773760394741379e-01 -1.3471820554791972e-01
      2.6279907766147921e-02 -6.2512287068042682e-02
      -5.5994200959561112e-02 1.2660935938334887e-02
      9.7966399952172808e-02 -3.2266357715039995e-02
      4.7511205819473955e-02 1.0798211354410482e-01
      1.5433190881250106e-01 4.4046285795863206e-02
      1.0059366974370096e-01 1.6118020368211198e-02
      9.1245291217239483e-02 -9.9504761799418542e-02
      -9.4207961896465540e-03 -3.2954994932821308e-02
      -2.8801128456565815e-02 -3.2010292450804119e-02
      1.9932777393222539e-01 -1.2050420728111018e-01
      -1.4026597976864588e-02 -7.9883395432496271e-02
      7.6525502724408320e-02 -7.2791529312203895e-02
      -1.9694914861065067e-02 -1.4281046101790765e-01
      1.0460233929980296e-01 1.4622562622506913e-01
      -5.5832971626557405e-02 9.1809450539167184e-02
      4.8935486895759564e-02 -2.0954154232597097e-01
      -1.2634858623375064e-01 -1.3867629541284685e-01
      8.9437067104276291e-02 1.3328869364154705e-01
      -5.8038572907879019e-02 1.7199987085385957e-01
      -1.7114834515131544e-01 6.1673562775154865e-02
      -9.6833619709535745e-02 -1.1155045906715494e-01
      9.4859603118925329e-02 4.5710298474440185e-02
      -1.2495787168964331e-01 6.1276118487869076e-02
      5.2616055334376827e-02 -6.3042072841329913e-02
      -1.8236575133502309e-01 7.2126008702765504e-02
      -6.7206096087801578e-02 7.9936958119169885e-02
      4.1875469626137786e-02 8.4463649269347033e-02
      -5.0915997860183235e-02 1.1944847665661172e-01
      -2.6563734683804442e-02 -5.6852037390817386e-02
      1.1455625089645222e-01 8.7434821377760263e-02
      -9.7314822687824987e-02 -5.7790473787841645e-03
      2.5994130007927680e-02 1.6036673324815054e-01
      -8.5997159463329469e-03 2.3351563166802085e-02
      -2.8924344379357092e-02 -8.8789459749103218e-03
      2.8275662762649111e-02 2.7439701280182211e-03
      -3.3398244050288108e-02 -1.4265196635942183e-02
      1.4440796995854275e-02 3.7950995022323970e-02
      -2.4474687537096390e-02 -3.2954732477957736e-02
      1.7570271203218076e-02 -2.6372951239014366e-02
      -6.6244017410104915e-04 -2.3327567638406817e-02
      8.9843012218281566e-03 4.9260404167205995e-03
      3.5629624420381714e-02 3.8562815113011954e-02
      1.8855773363219423e-02 -1.0443080030001377e-02
      4.1520056049970978e-02 -1.6619910397276592e-02
      8.3649499816204256e-03 -3.8657704302462542e-02
      4.5381709645274781e-03 -3.2650280519440434e-03
      2.1099015202082082e-02 -6.8571542051200848e-03
      2.5616983455736677e-02 1.6993609028953777e-02
      1.6021920722781875e-02 -1.3312404094226907e-02
      -1.1710302589372052e-02 1.1170600515305384e-02
      1.7186429535191197e-02 2.4249202328026167e-03
      1.9816080141727019e-02 7.8367899808823357e-03
      2.9102788566581363e-02 -1.5266821726329287e-02
      4.7435886403179488e-03 -7.0522210695765208e-04
      7.8875245248234156e-03 2.3280522600456412e-02
      -1.1519777612818593e-02 2.2245186911257823e-02
      -2.0511476925623520e-02 9.0856181249340615e-03
      1.4538326018375129e-02 -2.5875210718016680e-02
      5.5458201839057959e-03 6.5229892149452143e-03
      -4.9397221950359842e-04 2.5059735157168797e-03
      1.2454900934541683e-02 1.3606299499165142e-02
      1.1775753593124451e-02 -6.6420842463363024e-03
      4.1366647623291973e-02 1.8272418066928382e-02
      -4.0330504727456223e-02 2.1783314958306293e-02
      2.0697111271304157e-03 -1.8498951647766621e-02
      1.8277988963591375e-02 1.6057099332030141e-02
      2.5215232686632168e-02 -1.3092622446534224e-02
      1.9152085984252002e-02 2.9009561895431946e-03
      -1.4865046517098799e-02 -1.7184342550740059e-02
      2.5989812837063881e-02 2.1225578501904003e-02
      6.0331761639240934e-03 -3.1925073147779218e-02
      -1.5187412228978722e-02 1.7271222000863142e-02
      -1.5863063764237836e-02 -3.4429877827508962e-02
      -1.3846132881587935e-02 -2.0353193306590106e-02
      3.3138291270195290e-02 3.7030064088205005e-03
      2.1957620499536274e-02 -6.8790328684819322e-04
      -2.0942513624136296e-03 2.3140619051516723e-02
      -1.8803353037229964e-02 -4.2669543132490880e-03
      1.1027935094312094e-02 1.1514558215587488e-02
      2.3843721886042141e-02 1.8329326462400094e-02
      -2.8907322815299168e-02 2.3438433956063889e-02
      -2.6934649004722300e-02 1.0010470469306101e-03
      2.3449508107484646e-03 -1.5296502103178617e-02
      5.9616336445375570e-03 -2.2328701388548380e-02
      -1.9649500501716748e-02 2.1924651394225333e-02
      1.1460129299351978e-02 1.9669221384714733e-02
      5.6722425724531813e-03 2.4704507026742668e-02
      -2.3083659662173545e-02 -5.8088800208849498e-03
      -2.5304171709370226e-02 -9.6270095781609971e-03
      -2.6515002172676768e-02 3.1647050635228761e-02
      1.7890668798311648e-02 4.2803005188510872e-02
      -1.1814698603473841e-03 -1.4123576801729406e-02
      -4.2130232858827027e-03 -1.7945117741335045e-02
      3.8313881089414227e-02 -1.8754282952676608e-02
      -3.2215649714734916e-02 3.0024570715152191e-02
      -1.6473691874359091e-02 -7.5578726915252227e-03
      -6.6046594241738574e-02 -3.4897131982331991e-02
      -5.4022000710534923e-03 5.7640966866142141e-03
      -2.8290437053765296e-02 2.5651758109323238e-02
      1.8752674468505960e-02 6.4963974466117425e-03
      9.7371344213426983e-03 -5.8006493803235942e-02
      8.7401159514910575e-03 4.6704293791220430e-02
      1.3142113300529916e-02 -1.4252871810826614e-02
      -4.4992250405822805e-03 2.4905731017980721e-02
      9.8693836684052311e-03 9.0468812693789546e-03
      -2.8432362933871348e-02 -9.4883598188526819e-03
      -2.6217912299091744e-02 -4.7805209611457402e-03
      -3.4214824314998220e-02 -9.7581871842513917e-03
      5.1054255499825854e-02 5.9905553950745580e-02
      3.4101898451415834e-02 2.8411889319921585e-02
      -8.0905583759926947e-03 5.7795260694129772e-03
      5.9967314141697127e-02 3.6347083213978650e-02
      2.0714068597154880e-02 1.4231007672580171e-02
      -3.0673937411078947e-02 -1.7050530390039273e-02
      6.4107408051920093e-03 -2.2172113694336734e-02
      6.3196564228422097e-02 -2.9314406149826703e-03
      -3.0187785591353727e-03 3.7430738274987128e-02
      9.9943979479600216e-03 -5.0648271073015907e-02
      7.7632921512872988e-02 -3.5628395859598108e-02
      -4.2069897566400206e-02 -6.8077481590857733e-02
      6.1803682638991990e-02 -2.3638200983441247e-02
      3.1074292949436214e-02 -6.0629111154959441e-02
      -8.6284160703995003e-03 -1.2763679421896415e-03
      2.7654727722049372e-02 4.9548636101799685e-03
      5.8107928150451710e-02 1.4576082903951475e-02
      8.6171938046668520e-02 5.6220297538345357e-02
      -1.1667260963171200e-02 -5.0790724563049691e-03
      5.5058036493633236e-02 3.0393606340075482e-02
      -2.9978824204199485e-02 1.2619810894510395e-02
      2.8246451800747412e-02 1.2420815318725999e-02
      -3.5741138790031005e-02 4.2935758756539495e-03
      -8.1623115978155386e-03 -3.5882606745427245e-02
      -7.6216726950379496e-02 -3.8473989777014050e-02
      -6.6391786662871974e-02 -4.1684675612806851e-02
      -3.6827078259487306e-02 -1.2871486284519653e-03
      2.1857207351739044e-02 6.8829898580763747e-03
      1.7080190807444971e-02 2.3666440987987224e-02
      -2.5719661132047739e-02 5.3464261941659152e-02
      -6.6364309862766355e-03 1.3970785972365353e-02
      -4.5224585536376705e-02 4.8565746023764497e-02
      -2.0546635405593951e-02 5.6369954815679885e-02
      -2.5889168141681299e-02 -7.5563714512808133e-02
      -1.7857636905612574e-02 -4.7764777252905920e-02
      -4.8564102895995590e-03 7.5290705996117688e-02
      3.2028150255315010e-02 4.8824178091174848e-02
      -2.2391326491933518e-02 -6.4784391570683972e-03
      -6.9000214222030990e-03 -1.0561470231053017e-02
      2.9917083967497773e-02 -1.1850844598193072e-02
      4.4566119651597930e-02 1.9814451510931894e-02
      -1.4019494937699089e-02 -1.5502567856547642e-02
      3.6128239506365845e-02 8.1711573265133373e-03
      -1.7305950750791183e-02 2.1886753031411195e-02
      2.7302397114702039e-02 -3.7432622198922905e-02
      4.7887971142455306e-02 1.1559344930708110e-02
      -2.5575115016735511e-02 -7.2324420355692212e-02
      2.3628086037978245e-02 -4.4838307889865127e-02
      -1.4234073960948510e-02 1.3152019270328120e-02
      -3.6478322431360934e-02 -3.5682021454416825e-02
      2.2105545228863675e-02 9.4923538265553609e-03
      1.4546125254407089e-02 -7.0663978243087788e-02
      -4.5173090309476936e-02 -2.1856213561604790e-02
      -7.4503266132023129e-03 3.2299228067440615e-02
      -2.3333919324847924e-02 3.7867646518417487e-03
      3.8098791744849883e-02 2.4946082410146220e-02
      -2.7998746440213423e-02 -5.5086448648164983e-02
      1.3355635216695097e-02 -1.2044603793590835e-02
      7.6174167118725654e-03 -2.0425201978533186e-02
      3.3161858279153397e-02 1.3654212495747216e-02
      -2.3127756014949459e-03 9.3818524557703065e-03
      1.7136112272698656e-03 2.3857551995128783e-02
      1.1406677177113713e-02 1.1069069944826610e-02
      8.8113657197772637e-03 3.2947971984520749e-02
      -2.2391475942687793e-02 4.5534718577120804e-02
      -2.3874265722200489e-02 2.5541148758912002e-02
      -2.1332729268008641e-02 -1.7292216089006721e-02
      2.9529632075061544e-02 -3.0957738391118012e-02
      1.5646713805200541e-02 -1.1690930008607702e-02
      -5.0467180156548858e-02 -3.2948950683710329e-02
      2.8763903076524423e-02 6.1996431068165195e-03
      4.0048368241382248e-02 1.2557359202690159e-02
      -3.7706230478600403e-02 1.3150580385939114e-02
      -9.4651559860782983e-03 -8.4821860631559848e-03
      2.3432745087545111e-02 -3.0447987475375467e-02
      -5.5371239137660108e-02 -2.2041316141383303e-02
      9.7965472727856197e-03 -3.6436871711044691e-02
      -1.2704790275240820e-02 -4.5151041176042662e-02
      4.4602558141788509e-03 -3.4119616358396276e-02
      -6.2280726992193459e-03 2.1328098334631215e-02
      -9.0839546088062294e-04 2.2939548581825613e-02
      2.4209268261329350e-02 1.5155002615883494e-02
      -1.5522008264960885e-02 1.5412526514227995e-02
      -7.4337980086547038e-03 -1.1015169451908823e-02
      3.4376579953559229e-02 -1.8301439405651650e-02
      -1.1944695850245707e-02 1.7519333680546881e-02
      -4.1506618534358372e-02 2.4303329420674372e-02
      -2.0237420755706611e-02 -4.7157580284706976e-03
      -5.0491541544560849e-02 -1.6429677300784887e-02
      7.1369410302024525e-03 -2.8060559114364135e-02
      -2.2684124375241480e-02 -1.0154287355891748e-02
      -2.3600996684910447e-02 1.8294822524008710e-02
      -2.0307536790824986e-02 -1.9064956589745174e-02
      -6.6614379773305421e-03 2.6651531788263613e-02
      -4.2969592655198834e-03 3.7440222115923349e-02
      -3.6662530842046237e-02 -2.2525766959901015e-02
      -3.1276109275962569e-02 -2.0294053851890293e-03
      -3.3750390769733268e-02 -5.1112705677322803e-02
      -1.8165486666356128e-02 -7.9733573015474215e-04
      -2.7969650961848145e-02 4.5684323549799739e-02
      2.5156038614678959e-02 4.9668731095129169e-02
      -3.2870685714117866e-02 6.8185543053069439e-03
      3.4511363635307948e-02 -4.2082364198051114e-02
      3.3809768202538629e-02 -2.3142943087773173e-02
      -1.8429698303909836e-02 4.9008430493602428e-02
      2.2349025521157959e-02 -2.0054902522162649e-02
      2.1397965737955205e-02 -1.0511517547793683e-02
      1.9412115971921533e-02 3.3822572274763783e-02
      4.9941305136072291e-02 -2.6166659680349438e-02
      3.6712118179507772e-02 2.1545825681306956e-02
      -3.3067710712861492e-02 -5.1971657981098110e-02
      3.7089555461898509e-02 -5.1015079243675772e-02
      2.1696426635094301e-02 2.7019778687416975e-02
      -1.5918221678621235e-02 -1.1205175174872413e-02
      9.4982377201527687e-03 -2.9622959068643911e-02
      1.3047946457390148e-02 -4.4369039149727223e-02
      -4.9870540843058177e-02 -1.1424274224487257e-02
      -3.5000400793717898e-02 5.4462215790419627e-02
      2.0518702712493957e-03 5.4612235043081665e-02
      4.1309547025888890e-02 2.3333271541770239e-02
      -1.1220939138098206e-02 -4.0479693239376190e-02
      2.9260334623594526e-02 3.6063318137803169e-02
      5.7387652871645399e-02 -3.9259381852720883e-02
      3.6861687904046821e-02 -4.1310340742950020e-03
      -9.8297385311193618e-04 -1.4436160713668426e-03
      -5.3133264468791637e-02 -3.2377531835027736e-02
      -1.1651854136282292e-02 -2.9446477207547790e-02
      -4.2435214945919085e-02 2.4182361227649253e-02
      4.9610445623291283e-02 3.3616345296788461e-02
      3.3331873826615406e-02 4.4458850767010109e-02
      -6.5438572481893956e-02 6.4625295224162082e-03
      3.2740705676754141e-02 -2.6055605721117813e-04
      2.1810336432076085e-03 3.8735433874844252e-02
      -1.8620752455479221e-02 2.0436771134139152e-03
      1.0400271583882006e-02 -9.2677537627787448e-03
      6.8272897975529601e-02 -1.4905302976266410e-02
      -2.1332793837850670e-02 1.1775896934025613e-02
      2.2081799411770464e-02 1.2961941713550291e-02
      1.8181413144912211e-02 -3.3711308428856050e-02
      -3.2566281857505763e-02 6.0515406813682737e-03
      2.9684114011678336e-02 -1.4551191941333726e-02
      2.1892808853788134e-02 -1.8379150047997960e-02
      -4.7907766020931997e-02 -2.0991666049717094e-02
      -2.6889510377093577e-02 -1.4185091446875731e-02
      1.7636988784766876e-02 3.2123866969160100e-02
      3.5331785178869847e-02 4.6237217319853773e-02
      -5.2314268155934781e-03 1.8678460324826937e-02
      7.1714201939464789e-02 2.7296297501532330e-02
      -1.4536407661368921e-02 -7.5883636905292005e-03
      3.1457829509614135e-02 -5.0006137212006731e-03
      -6.2528889425091022e-02 3.8429412076926461e-02
      -4.1160165215244252e-02 -2.0888741413733012e-02
      -6.8548420469319304e-02 -1.1870695222591997e-02
      4.1067798782223096e-03 -2.3401139822401612e-03
      -3.7236432507021431e-03 2.7992438353756789e-02
      1.0680253274637126e-02 -3.1230152254662517e-02
      1.0820112070192839e-02 -2.2111421561063847e-02
      -5.9464300858350999e-02 2.3629741067412044e-02
      2.2021725498120225e-02 -1.2160149698415293e-02
      -3.6958704532448705e-02 2.5458414281129532e-02
      -2.2495288715567014e-02 3.7369836362126964e-02
      7.8186891133104394e-03 -6.2800789353067238e-02
      4.5834248528298337e-02 1.1121330749883269e-02
      8.2190296515125341e-03 6.8954351582928550e-02
      2.3960790332247871e-02 3.2894913543846681e-02
      -4.9694078650638615e-02 -3.1677687577362820e-02
      4.4385718243986405e-02 -3.9116924187248332e-02
      1.8699471768715319e-02 -1.9676332405141442e-02
      7.8621108926392555e-04 8.4012908892224375e-03
      3.2437214137032971e-03 1.9029173778883603e-02
      7.5449307398480899e-03 -1.6549215969832554e-02
      9.8114282547166597e-03 4.0834014288354856e-02
      3.6026117753350136e-02 -2.9684739191925571e-02
      6.8783273782372402e-03 -4.7440885208936474e-02
      -3.4243862847479739e-02 -3.5294655595434488e-02
      -1.6248884251729864e-02 -6.9066803947239862e-03
      -2.5563508040965598e-02 5.1276731236930662e-02
      -4.1418012873298014e-02 -5.9017979380867050e-03
      2.0284114999747683e-02 1.9613136875436768e-02
      -1.2663383675810047e-02 -4.5599184889827372e-02
      -9.3247006087839451e-02 -6.5178785837972444e-02
      -8.8362143162735024e-02 1.4186312732129025e-01
      -1.4156492441797831e-02 9.7266509532838746e-02
      1.0286129146333629e-01 8.5517418281588611e-02
      -3.7004632008620256e-03 -1.0146153016375042e-01
      4.2119902207390758e-02 8.5429292848738125e-02
      1.5228824609847702e-01 -3.3982820396920042e-02
      1.5096810650381856e-02 9.8101742993393970e-02
      8.8607655189933909e-02 8.1641138502414501e-02
      -1.7955881363125481e-01 -1.0252483295694366e-01
      -2.2508521705953518e-02 -3.3532364354255341e-03
      -1.0661698862704057e-01 -1.3824582625172867e-02
      3.8143036326152020e-02 1.0893217708962115e-01
      5.2819453309308227e-02 1.3651362031081746e-01
      -1.4239475386426342e-01 -2.2602761730432241e-02
      9.6111305673577577e-02 3.2803598535105435e-02
      -9.6629856270920318e-03 1.2253031275751539e-01
      -1.4143622314583845e-01 -1.9550508468670118e-02
      6.0690630247723150e-02 5.0824293174035482e-03
      1.2696233247789518e-01 9.8789502220219053e-03
      -1.0186755701856171e-02 1.3530586586679025e-01
      7.2876779609232001e-02 -6.1522914278453064e-02
      1.2982218772787688e-01 -2.4041612143802311e-02
      -1.8246974538924346e-01 -1.3570546342596435e-01
      9.2692203246250868e-02 -1.0530753689767983e-01
      8.2263378507041740e-02 -1.0503656111627829e-01
      -7.1789655675627645e-02 -4.5962366446449340e-02
      4.1440779084026009e-03 4.8926146643584544e-02
      1.9461705654493319e-01 5.7875818775830652e-02
      1.4959074740408401e-01 1.0991736755534844e-01
      -1.2700081993157919e-01 -1.6154403920361580e-02
      1.5767734396829039e-01 1.2273956156956485e-01
      -2.6084656762505248e-02 3.8478358060724381e-02
      8.0002805483554720e-02 -3.4373170012912194e-02
      -1.1086061472317704e-01 7.9349734455469431e-02
      -5.8895231114921009e-02 -9.9671942501576377e-02
      -1.7077118330688715e-01 -1.5466608314510980e-02
      -7.8549425502083103e-02 -5.7319201870550583e-02
      -1.0871164181472066e-01 7.1977441077029455e-02
      -1.8305267665730093e-02 -1.0247820012370559e-02
      1.9074311256663787e-02 3.0873028515384343e-02
      -1.5290912521817362e-01 8.0364312978472394e-02
      -5.3157325479754342e-03 8.5554673816905416e-02
      -4.8416406417680330e-02 1.1927635689093631e-01
      6.3370334190821567e-02 1.4110749806227735e-01
      -1.0050993391452623e-01 -1.7837786212534457e-01
      6.1150304431057782e-02 -8.1943000734964966e-02
      -7.6257589384966643e-02 1.6484593237368159e-01
      9.8357302950901712e-02 9.3885029913943013e-02
      -6.9916060038518191e-02 -1.1688070858563233e-01
      6.8549350189197417e-02 -1.2716680344649428e-01
      1.6609570188598355e-01 -5.6223880927140660e-02
      7.3179221081483656e-02 1.2156628552184283e-01
      -1.0151024701557140e-01 -6.2211545648665073e-02
      1.5558586954458112e-01 -8.5912885690327026e-02
      -2.7295222490390868e-02 4.3806879699115543e-02
      1.2535147279488815e-01 -3.8891250848439828e-02
      2.3650054250956388e-02 -9.2088667086994452e-02
      8.5514365492905045e-03 -7.7802201283085418e-02
      3.0471861837227068e-02 -1.3986420405768141e-01
      3.2692677007996288e-02 7.6779766366520119e-02
      -1.2931175727109456e-01 -5.2756284556635683e-02
      1.2875994224427803e-01 3.9653767138288269e-02
      1.0385735232804692e-02 -1.1822692103269529e-01
      -3.9960830291627898e-02 -3.1872012863035155e-02
      1.5751538624682468e-02 1.7573550163665713e-02
      3.2130250498679243e-02 3.0958218322169904e-02
      4.1078390253161116e-02 1.2724810653135216e-02
      1.5078454098530420e-02 -3.3084453196292003e-02
      1.3187145060179629e-02 -1.5345625953439411e-02
      3.6656974924251545e-02 -2.5183139317999439e-02
      -2.4203186180466695e-02 -6.2442800885807821e-03
      2.7197133658353127e-02 7.0790166491059014e-03
      -2.1611544366166136e-02 -2.3935149261385531e-02
      3.2402851267601770e-02 3.0243571087325439e-02
      -2.8130255732386387e-02 -1.7230659871053891e-02
      -9.8576090814018868e-03 3.2823774537733899e-02
      2.3177020246652337e-02 1.7719934145196160e-02
      -1.4407013371107964e-02 2.6142672684392163e-02
      5.1889864687917543e-02 8.0702670902869705e-04
      -1.4163874516368765e-02 7.0590156824982871e-03
      -4.6368669733806551e-02 8.0115466005114700e-03
      2.5228635358017188e-02 4.9796952339336243e-03
      2.7632755496361343e-02 4.7654203467325778e-03
      -2.0656634215306866e-02 5.3133452035046894e-02
      5.0426679149030706e-03 -9.0007747555408517e-03
      4.5716658746446918e-02 -3.2588709250576949e-02
      -2.8564496863630669e-02 -4.0701307888386384e-02
      4.8049134654937133e-02 -1.0404014701294692e-02
      2.4501762531013424e-02 -2.3469641414176835e-04
      -1.2748934379820222e-02 2.0240679178225973e-02
      -2.6456475990662268e-02 -1.5170665853746920e-02
      1.8192585076590422e-02 6.1893594679177976e-03
      2.8405468504711158e-02 -1.1157961908445924e-02
      -3.0121518045765430e-02 1.7458225553297561e-02
      5.3434354569569568e-02 1.1809025999793438e-02
      -4.2601773283368977e-02 9.8000022234490496e-03
      3.7659233203771701e-02 -3.6392123152398703e-02
      -3.7512733890418003e-02 -2.4676032718622513e-02
      -5.1007016115392968e-02 -4.6066513826564209e-02
      -2.6347645060903809e-02 5.7532093844232879e-03
      -4.1586635547759127e-02 -4.5523067324504729e-02
      2.9933646805465979e-03 2.4429548810528157e-02
      1.7392251837859286e-02 2.2659361156199636e-02
      -8.2388965259759493e-03 2.9388179849098191e-02
      -5.4577235183558094e-02 4.1647059799489216e-04
      3.9969345809668960e-02 2.2396760883796406e-02
      -1.7092608903479668e-02 -6.5326653732787950e-03
      3.6910533495167798e-02 5.2530536686539245e-02
      -1.4166790806802557e-02 -2.6470397751201441e-02
      4.4429365285610659e-02 -4.0226132449469258e-02
      -6.9331425197564269e-03 5.5862286381462817e-02
      3.6442836482315250e-02 -4.7671986296911589e-03
      -5.2560212327341753e-02 -5.0118711341438228e-02
      1.9983405862300810e-02 2.1233754640037454e-03
      3.6455089612046521e-02 -4.4757275801657205e-02
      1.8719632373240452e-02 2.1325739807491442e-02
      -1.5079561263611022e-02 -2.6579723898661465e-03
      4.1649664489816732e-02 -8.2328506858592495e-03
      3.1082906328829814e-03 -5.5563388302175111e-03
      1.1178874445110162e-02 2.7424162272109706e-04
      3.1004789393999813e-02 1.4165705319468034e-02
      -1.9897678104051096e-02 -1.5041936475024085e-02
      1.9735604951036750e-02 1.9338345529492796e-03
      -2.2025059235740135e-02 4.1104581777755720e-03
      -1.4569018187233364e-02 -8.4037202623666995e-03
      3.4995574500489797e-02 3.2154247127317001e-02
      -2.7096667984732922e-02 -5.8549379004567227e-02
      8.5680207136724806e-02 7.2887078864543223e-02
      6.7567315065870687e-02 -1.0116990196715391e-01
      -1.8277798137493664e-02 -1.3123296099877554e-01
      -8.3103742240111647e-02 -7.2066799882956251e-02
      -2.0256336233957728e-02 6.6088008514316274e-02
      1.4339960071902778e-02 -3.6076764057066536e-02
      -1.0515789073155933e-01 9.4239217522647627e-03
      -7.1368178089310605e-02 -8.6843325778822936e-02
      -8.6918969376478167e-02 -7.8902607768982336e-02
      1.7744471557029085e-01 6.3270464693280432e-02
      -1.2865835574725802e-02 3.2325578523411413e-03
      9.9883960159801402e-02 2.5888092980921110e-03
      -9.5966930492474664e-02 -6.7347769778004496e-02
      -2.6745524932885061e-02 -1.1955401824826313e-01
      1.0005868381090045e-01 -2.6052029039521890e-02
      -1.2276533492931384e-01 8.3472422403246850e-03
      -2.4454651638034182e-02 -1.1885150796560935e-01
      8.5900906890557807e-02 -9.6201481451216632e-03
      -7.4479070388383722e-02 -4.3633406586565046e-02
      -1.5011098158528213e-01 -9.2622828271270736e-03
      -1.0293421807339505e-02 -1.2613887153171802e-01
      -8.2082919710976712e-02 3.2890374110587137e-02
      -1.7120616467273014e-01 1.9114599683832785e-02
      1.2343377932719299e-01 9.1836642587652853e-02
      -8.4712247493856155e-02 8.8388651421195855e-02
      -7.0102911278203159e-02 7.9773886737881550e-02
      7.2068579508247771e-02 -4.9894945109107778e-03
      -2.3526272641891570e-03 -3.4419334826685882e-02
      -1.4269483979790043e-01 -7.6089598884239414e-03
      -9.3113507933506104e-02 -1.0733262060138032e-01
      1.3594041028466211e-01 3.3442315554613120e-02
      -1.5412592248622367e-01 -1.0343208048959406e-01
      4.1068180447392293e-02 -5.3239544343631692e-02
      -8.1251745729085625e-02 -7.8905332540042655e-03
      6.7759912239357956e-02 -4.7595526308677936e-02
      5.5454365260689142e-02 1.0192182710453511e-01
      1.4713303975726297e-01 -2.4870416564448518e-03
      7.9075090630560826e-02 1.3643320656220351e-02
      1.1040103108313631e-01 -8.5791947690920536e-02
      -3.3550871039573892e-03 -8.3466052847601998e-03
      -1.2169395863685827e-02 3.8971469556335890e-03
      1.3003153820731939e-01 -1.3292906117599473e-01
      -2.7916062832209512e-02 -8.4296498659643865e-02
      5.7136266830308070e-02 -7.5855089868915621e-02
      -1.1229795924767876e-02 -8.3142882648118879e-02
      7.2900762584761233e-02 1.6201128946543308e-01
      -1.4914289097075310e-02 1.0641242446931130e-01
      4.8395450962522332e-02 -1.3946782543256592e-01
      -9.1817795686121279e-02 -1.2434678239304986e-01
      1.0895846113290836e-01 7.3896407169537784e-02
      -8.4723571493869790e-02 1.4052254261686006e-01
      -1.1434524616234230e-01 6.0156381645172584e-02
      -8.3407276441310185e-02 -7.1209110277009283e-02
      7.0915407051964696e-02 1.8372733285258399e-02
      -1.0883151553741288e-01 7.4066972294702077e-02
      4.7213817342902566e-02 -6.8824550162120681e-03
      -1.2407776474678472e-01 9.1157804463975048e-02
      -6.1836638418793236e-02 4.8022273027596485e-02
      -6.7176169961343417e-03 1.1446490046793846e-01
      6.3127856855461004e-03 8.9015532521438678e-02
      -4.3271044316209525e-02 -3.6119832420381810e-02
      1.2161117456068060e-01 3.2921567694827188e-02
      -5.3664022386413573e-02 1.1619221670777101e-02
      7.1505599042155366e-03 1.3345935250557059e-01
      1.3009421934112622e-01 2.3531780428490447e-02
      8.9880894519891813e-02 -1.0318863114472085e-01
      -2.0259558662827939e-02 -1.1191928910535785e-01
      -8.5159890516318670e-02 -6.6634085704730645e-02
      -4.2808896664399132e-02 1.1133077032855979e-01
      -5.0752108254360523e-02 -9.1109540536218919e-02
      -1.4913743099214813e-01 1.8027969992203189e-02
      -3.0433066850887404e-02 -4.0995812042607237e-02
      -1.2667001326709393e-01 -1.2519195960325619e-01
      1.2253980012567409e-01 8.0958827657444263e-02
      -1.6423042124149807e-02 -3.2565388468664396e-03
      8.4388982186542671e-02 3.6785305430764123e-02
      -5.7783839446506023e-02 -7.0271330841359225e-02
      -8.6825374839276312e-02 -1.2480450322066759e-01
      1.1653490927858422e-01 -2.7243734864237801e-03
      -1.4764369809565905e-01 -2.1991928712875076e-02
      -2.7854785303795024e-02 -1.0908789604262818e-01
      1.0017835030753242e-01 -1.4012331236398591e-02
      -7.3352674039889348e-02 -5.6893627980643610e-02
      -8.5557977400367566e-02 -1.2152635468368881e-03
      -5.6029510533684296e-03 -1.2821182701625630e-01
      -7.6354406974174213e-02 9.2326431521387323e-02
      -1.7589268285667936e-01 6.1399508435392977e-02
      1.7612868318903882e-01 8.0857254727429148e-02
      -9.1702791784613588e-02 9.0673275194114750e-02
      -9.4490280668992843e-02 6.8344974988535645e-02
      1.6697324409226146e-02 -1.7446827901830133e-02
      -9.6983573636636837e-03 -2.2918915367944222e-02
      -1.6344460289388413e-01 -8.6223220123531272e-03
      -1.5361846467753387e-01 -1.3621448450379994e-01
      7.9848306697431121e-02 2.6470299205385114e-02
      -9.6409025638269891e-02 -1.3882853402908979e-01
      6.9869191194433045e-03 -5.0853048252233940e-02
      -6.2836276217703796e-02 3.7465823871811695e-02
      8.6183811214177009e-02 -5.6410526275699799e-02
      4.4990116932511433e-02 7.1033513359340647e-02
      1.5840143191671352e-01 3.3293853185245553e-02
      1.2158684739567849e-01 3.5840062494222037e-02
      6.2624525178457111e-02 -9.5374443504116696e-02
      2.5899195832958011e-02 -3.9202297248136835e-02
      -1.0167375963640101e-02 -2.4571728660384876e-02
      1.3050880188948213e-01 -1.2850061321158496e-01
      -3.5201837773060213e-02 -6.1564203201235054e-02
      4.5266742947824422e-02 -8.9764491128810783e-02
      -2.7861895020687977e-02 -6.9839134465745079e-02
      1.1072389958424593e-01 1.3422254145849677e-01
      -4.7394105608770457e-02 7.9430025806408233e-02
      3.7378033435641174e-02 -1.7209821991563615e-01
      -9.7922584762637419e-02 -1.1812007721961550e-01
      7.8168928252099076e-02 5.7884767347983403e-02
      -6.7545772031776433e-02 1.4112888377396038e-01
      -1.3374496458197843e-01 3.1894565321500548e-02
      -2.9981588629570750e-02 -5.9583074185170289e-02
      5.6332294837000842e-02 4.4829378513870810e-02
      -1.2014404098418797e-01 5.2160220984404662e-02
      1.8531395740645735e-02 -6.8236968588819863e-02
      -1.7628867513452076e-01 3.0545676805013203e-02
      -6.7256509194120170e-02 6.7300226379138253e-02
      1.5374602746026813e-02 1.3071096679277697e-01
      -2.9350113588571529e-02 1.4419280468986354e-01
      -6.4229666328116025e-02 -1.0505717238531598e-01
      1.1006558964298248e-01 5.1192863550818091e-02
      -7.2363999469046036e-02 -2.5504952333028102e-02
      -1.7602928617272973e-02 1.2804086227538666e-01
      1.2136469047569254e-01 5.5826909963389480e-02
      9.0161346309084164e-02 -1.0613803073894160e-01
      -2.7161654311606180e-03 -9.6687044497794208e-02
      -6.3889113633347705e-02 -2.4125269111105671e-02
      -5.2408396772249212e-02 1.3289282444181985e-01
      3.6608974449109022e-03 -2.9913555048065157e-02
      -1.2488117940864010e-01 -9.4785706378144423e-03
      -6.8184944993308252e-02 -3.0626398531176779e-02
      -7.6063627677931442e-02 -1.0285719871544673e-01
      1.5856502182292415e-01 7.1971496209770516e-02
      4.3651484702775731e-03 -4.4566481611769709e-02
      8.1297184177158852e-02 1.8061010017545207e-02
      -7.5004405903074861e-02 -9.8931743912998776e-02
      -7.2041072803117306e-02 -1.2308350075883522e-01
      1.2724733430208601e-01 -2.4649501228137277e-02
      -8.8857817776016979e-02 1.6998328459315759e-02
      -1.5589725042841210e-02 -1.0468722440839320e-01
      8.2320228979023066e-02 -1.5572617223744048e-02
      -5.6239156941704380e-02 7.0384642522340621e-03
      -1.0892978370140266e-01 -3.0008484567072648e-02
      1.9827758013146585e-02 -1.3786200766290979e-01
      -1.1834101813062259e-01 2.9653617453110473e-02
      -1.5708190161917962e-01 5.5578719568076980e-02
      1.5825984105034094e-01 6.6842236963825061e-02
      -6.3848632500345517e-02 4.2164283700334655e-02
      -1.1806414979938649e-01 9.6114187801848341e-02
      5.0602489875496204e-02 -1.4056874679858145e-03
      2.0075120140237063e-02 -4.3797662452933706e-02
      -1.4240516393844999e-01 -2.4525294691051188e-02
      -1.4890084442673773e-01 -1.0879258103231441e-01
      7.5783420062585496e-02 -6.8850949656790216e-03
      -1.5103636500450413e-01 -1.1030878749946635e-01
      -3.1551542282812371e-03 -6.7202696044325341e-02
      -2.7329542562198734e-02 -3.9275188066222469e-03
      9.8038362898501333e-02 -1.5253839078059630e-02
      5.0439740113545684e-02 6.6179696388320539e-02
      1.0963318751982280e-01 4.8367693441012945e-02
      7.0786053949477207e-02 5.6877189155699358e-02
      9.0624406869870527e-02 -8.4691927996416907e-02
      -1.0872664916420988e-02 1.9541852692297499e-02
      -2.2666078545188550e-02 -1.1717420591404255e-02
      1.4379648076307491e-01 -9.9097232824003081e-02
      -4.0927058455592524e-02 -5.4753087981089625e-02
      3.5613150905659315e-02 -7.5458868557725406e-02
      -5.8799263747187341e-03 -9.8871238986460469e-02
      1.2110659299762615e-01 1.2783615479213492e-01
      -4.3903839026468057e-02 6.2063131430259155e-02
      7.6794327306834470e-02 -1.0623281962404549e-01
      -7.4362016699561065e-02 -1.0366400419828709e-01
      7.2081097859105062e-02 9.3573051811051383e-02
      -5.6660517979871122e-02 1.1949486470921990e-01
      -1.2036372654322743e-01 5.8518932187692350e-02
      -7.6343353557360369e-02 -5.7006431311495326e-02
      8.4323901985633998e-02 3.5759279473230453e-02
      -1.0694807114883052e-01 6.4683595898811244e-02
      1.6292261785426268e-02 -5.3375640467043413e-02
      -9.2756852192957137e-02 4.9487429143398237e-02
      -3.1587312593742221e-02 5.4218990694152619e-02
      -9.2553792750602500e-03 1.1036984806567281e-01
      -1.5354530829269476e-02 1.3186228863704208e-01
      -5.7196774632419463e-02 -7.3511007759415201e-02
      1.2037351660123800e-01 3.5374536269935940e-02
      -9.8742774958155741e-02 -2.6312545434357598e-02
      3.4939081173370745e-02 1.4240401133997768e-01
      1.1666513228286245e-01 2.2372420558145888e-02
      1.0196627019248314e-01 -8.6431513551646341e-02
      -1.4302800536782404e-02 -1.0230206278152644e-01
      -7.6216181585907553e-02 -8.5897793171570119e-02
      -1.0257528436484354e-03 1.3178293756938883e-01
      -2.5272996341828089e-02 -5.3450202810904276e-02
      -1.3231884210922268e-01 4.5096833186670252e-02
      -3.4524314392038104e-02 -5.2103612984989452e-02
      -8.8977261254145526e-02 -1.1712082619173114e-01
      1.7045581655374314e-01 9.2565437131924638e-02
      -3.6965224938079418e-02 -4.5523960741727265e-02
      1.1725480268643347e-01 -3.8289688865245663e-03
      -6.7409530797574668e-02 -1.1625390276422888e-01
      -6.1564715791027430e-02 -1.2715888792340957e-01
      1.4037404830475816e-01 -2.3555313202336749e-02
      -1.2714551249690026e-01 1.2745276426086843e-02
      -1.4831876421819299e-02 -1.7258102318572188e-01
      1.5798914210611326e-01 -1.3272496454212470e-02
      -8.2108574280723046e-02 -3.6937890835348056e-02
      -1.2965608034087223e-01 2.5779138624458096e-02
      1.9531982153081283e-03 -1.6242597166079081e-01
      -1.0200115871776690e-01 5.5547912089123443e-02
      -1.3009831650866041e-01 1.4123107036843828e-02
      1.7989284293367780e-01 1.2370448788446643e-01
      -1.2691055824350839e-01 1.0028626208273747e-01
      -1.1976888052822740e-01 5.3372604362847298e-02
      4.0675850652686904e-02 2.5050316089178463e-02
      -2.4203927535076438e-02 -6.3330376626612353e-02
      -1.4623940180734024e-01 -4.4257648227094507e-02
      -1.3203508038256925e-01 -1.1777143076074086e-01
      1.3181234969412192e-01 -3.0678015874858036e-02
      -1.6328743342360152e-01 -1.4147002961280414e-01
      -2.8037735326861329e-03 -2.7611382637945128e-02
      -9.3832226409674827e-02 2.2763807417385193e-03
      1.4923510741364623e-01 -5.6667737158534542e-02
      6.5456746353927772e-02 7.0581994702783354e-02
      1.7491039666164676e-01 2.8378751486462739e-02
      1.0086256102895934e-01 6.6235036220267954e-02
      9.7248966892986122e-02 -8.5759869239352651e-02
      9.7221813836051458e-03 -2.6432610383454559e-02
      -2.2989190208550933e-02 -3.5471444952225900e-02
      1.4519448612410837e-01 -1.2124936113551160e-01
      -2.2368250207671275e-02 -8.2812559841335259e-02
      8.8040143264201218e-02 -8.7086714898612735e-02
      -2.2658561435018449e-02 -7.9060674460923130e-02
      1.3166536553956665e-01 1.3125121939610496e-01
      -6.7380048675145882e-02 6.3746433292614924e-02
      3.3804827156777600e-02 -1.8272413516947192e-01
      -7.0958798618439942e-02 -1.3958906544825048e-01
      1.1146551341026679e-01 1.1207574737163487e-01
      -4.9302419170709336e-02 1.2951722127430740e-01
      -1.7995583304730065e-01 4.2376124104078830e-02
      -9.2297867197115732e-02 -1.2030822961520533e-01
      1.0466248549792687e-01 3.4162402042556009e-02
      -1.0252361162515398e-01 8.4284770569348619e-02
      8.1899658424799890e-03 -7.5183215476188114e-02
      -1.7664148456442114e-01 5.9173113375486343e-02
      -5.8054815203986691e-02 4.1303416022368027e-02
      -1.4878822455628736e-02 8.5442218349759236e-02
      -2.3215599706533155e-02 1.2833686761915433e-01
      -6.5669886258303920e-03 -1.1097278646788168e-01
      1.4169161564375723e-01 6.1739277356284608e-02
      -8.4365519166996306e-02 1.5251630228980347e-02
      -2.5730479332907422e-03 1.2863592123995080e-01
      7.4071454230786052e-02 1.5887052709113007e-02
      1.1285341212326984e-01 -1.2420251456440816e-01
      -7.1150210261159549e-03 -7.1000251175477175e-02
      -3.8048920123657098e-02 -4.0136337985567275e-02
      -3.3630958526859378e-02 1.0951216839029237e-01
      -1.3412924657346987e-02 -2.8701559218814163e-02
      -1.2070024638493307e-01 1.4615076693155187e-02
      -1.5673002083973667e-02 -2.5461602878763947e-02
      -7.7323223623383855e-02 -1.0692124272888413e-01
      1.5375519835244117e-01 2.5061325303140897e-02
      -1.2459797461937185e-03 -4.1540541774413547e-02
      6.7363409891991938e-02 -8.9785405352306030e-03
      -6.4631659900357366e-02 -7.5550883822997822e-02
      -2.1113357788700032e-02 -8.2323569954442413e-02
      1.3902586936465999e-01 5.3969097194581416e-03
      -1.3505011200055966e-01 -2.2698036893154520e-02
      2.4866753384649970e-02 -9.6303682976840901e-02
      1.3270982140289153e-01 -2.3205645739326951e-02
      -4.2363962037396119e-02 -1.5253650646845805e-02
      -7.7898962261893745e-02 1.7326387681580537e-02
      3.6265339119142308e-02 -9.9708586202508512e-02
      -5.8201577612846868e-02 5.9378680237213793e-02
      -1.0902776373251181e-01 4.8469422666305335e-02
      1.5259425298274340e-01 5.7433207517785613e-02
      -8.3282454506665507e-02 6.9213842015908272e-02
      -1.0758105057077062e-01 8.8526581917138261e-02
      3.9136926879943836e-03 -3.3801893234408080e-03
      -3.4069171401895595e-02 -1.6011053192523949e-02
      -1.6088667919940502e-01 -4.2173079142607872e-02
      -9.7474777070743146e-02 -1.0790567592123516e-01
      1.1995119807080638e-01 -3.0757011117152930e-02
      -1.3711430275987188e-01 -9.6696484872918306e-02
      3.6774048187614124e-03 -1.3719862994327819e-02
      -2.7390827817451932e-02 3.3179825070533527e-02
      9.9332941330218236e-02 -4.3471101281538360e-02
      4.0030853501518915e-02 8.2139301261723058e-02
      1.5411982141596681e-01 -6.4597797651184561e-03
      6.9321705961020150e-02 2.4559398215423477e-02
      5.9266736051396228e-02 -8.2275566072624040e-02
      3.1056917829349998e-02 8.3618257108816155e-03
      1.4796474723972360e-02 -2.5679147430609773e-02
      1.5870447735253149e-01 -9.7398240336854902e-02
      -2.5813800255270890e-03 -1.4114039070733671e-02
      8.4744970410573023e-02 -9.4559070232120387e-02
      1.2978869381946262e-02 -8.8582038865207630e-02
      1.2075433967118221e-01 1.1620886232001296e-01
      -5.4868917113673317e-02 7.1360302382019292e-02
      3.6173218110466261e-02 -1.3466187545123887e-01
      -6.1876808121683925e-02 -9.7089082177494151e-02
      6.4094122378835564e-02 8.0702792112447727e-02
      -6.9733115735919185e-02 7.8282810522094085e-02
      -1.5754334965716246e-01 7.1946321043564035e-02
      -4.4895921172264888e-02 -8.9750595100156538e-02
      6.1845536180433605e-02 7.3051432499240954e-02
      -8.3991335706661188e-02 6.0637216752230147e-02
      -5.1408167469345380e-03 -3.4473469251233041e-02
      -1.0353624676263516e-01 4.3159136325906573e-02
      -2.5563432522997333e-02 2.4219899248089611e-02
      -1.8573131015878239e-02 1.0315120806830452e-01
      -4.3765175691033928e-02 9.6905213546055219e-02
      1.0742259706084244e-03 -3.2387486140011294e-02
      8.4890980222542128e-02 5.3730061506043092e-02
      -7.9651104375090973e-02 -2.4509154167951144e-02
      -8.8935730336087010e-03 1.2405180139466969e-01
      -1.3602445661577375e-01 -7.6465480864318161e-02
      -9.8824801570454354e-02 1.3145104072416525e-01
      7.4395831598956103e-03 1.4272946964910468e-01
      7.4319984460816141e-02 3.8155291357354230e-02
      3.4744540252444256e-03 -1.2618830350326649e-01
      4.2595938815160207e-03 8.5001121856916537e-02
      1.4439006525425463e-01 -5.8490742946233173e-02
      1.7869995267819211e-02 5.1039761765394077e-02
      1.3356371649564794e-01 1.2071196931521219e-01
      -1.4065090652044598e-01 -5.3679852181932851e-02
      -3.7916792801259490e-03 3.6202829657705445e-02
      -1.1087209645623128e-01 1.6483814972152712e-02
      1.0209461815117116e-01 1.1579061469687651e-01
      9.4618926299036801e-02 9.3023934411821871e-02
      -1.6977397777967149e-01 2.5811017962000034e-02
      1.5517676348159506e-01 -9.6946821330702159e-03
      -1.6528571860452482e-02 1.3430635804207805e-01
      -1.0197979639942678e-01 -2.2402799728331268e-02
      3.4778583113442771e-02 3.2229067790029861e-02
      1.3852909844755631e-01 2.5654073264949499e-02
      -1.4179671404856830e-02 1.4776492087728371e-01
      8.4755209162410666e-02 -6.1740168445450716e-02
      1.4034256847930315e-01 -4.0889784506803070e-02
      -1.1255200974705415e-01 -8.9980591766893020e-02
      1.3327076879459546e-01 -7.7064156153451607e-02
      1.1009124251344764e-01 -9.7359115251468814e-02
      -3.8715449532173492e-02 -3.9360027908308892e-02
      1.7825813500165492e-02 4.8552806600610933e-02
      1.9013160982067515e-01 6.7330335874089958e-02
      1.8476579510844504e-01 1.4382904024754528e-01
      -1.0696075398257514e-01 1.6399076219842924e-02
      1.3402865804358446e-01 1.3455623394267693e-01
      -6.1722107661835141e-02 8.3951215426334783e-02
      7.1971082505703970e-02 -3.5658415042274835e-02
      -1.4325218990464086e-01 3.3456334118225829e-02
      -3.1306075045514588e-02 -5.5543544936952419e-02
      -1.3594643637021425e-01 2.0348842153836543e-02
      -8.7469218314557826e-02 -5.1230562529135548e-02
      -7.1400966961821508e-02 8.3757400069788795e-02
      -1.1978380851427987e-03 4.6510843144726151e-02
      8.3883450705551903e-03 -8.3175320355262383e-04
      -1.5481710195701964e-01 1.3416853006422783e-01
      3.8318826775712283e-03 5.3680330873447604e-02
      -8.6264068109366654e-02 8.8225194022671607e-02
      4.0676924555500100e-02 1.0954965784266470e-01
      -1.0492070683302729e-01 -1.4397518625836569e-01
      3.2930998792584168e-02 -9.2212157565895070e-02
      -6.7646736100010763e-02 1.9196452501944286e-01
      1.3837557552838348e-01 1.4527636496680488e-01
      -1.2123190793450543e-01 -1.1568040149210772e-01
      5.2860313037702916e-02 -1.5399148733785223e-01
      1.7369892947837592e-01 -5.5024737899030833e-02
      3.6381186653565371e-02 9.5238144699614516e-02
      -7.1034621968455780e-02 -7.8855183670974424e-02
      1.5221464582915187e-01 -7.9096460061026108e-02
      -5.6867795715602236e-02 2.2827452160814436e-02
      1.8263705614164202e-01 -7.7111533057453996e-02
      7.6151583537124562e-02 -7.3650857433816358e-02
      -3.2705449832594304e-02 -8.7565394179179801e-02
      -2.7189594377242869e-03 -1.1309155944470529e-01
      6.2448743982635078e-02 8.5533749826413499e-02
      -1.5031070900449792e-01 -9.9713968876710787e-02
      7.5026570934558695e-02 3.6337346958616158e-02
      -3.2997369687373497e-02 -1.5101251115857672e-01
      -9.5075828422129929e-02 -1.2586823140031620e-02
      -6.9351889100921216e-02 5.4930345335781589e-02
      -1.0233785284054477e-02 5.2364331561498112e-02
      2.8926625785414935e-02 1.4265451929354583e-02
      4.6214819030904908e-02 -4.5886046297436353e-02
      4.3311219138981345e-02 3.6069834192993200e-02
      1.3935484578530946e-01 1.5936936882264951e-02
      5.2441270916630187e-02 7.7994823826956980e-02
      4.0082052434882373e-02 9.3166119966747327e-02
      -8.6652643253150724e-02 -5.6937137492378456e-02
      8.2640202384915568e-03 2.6000226850519545e-02
      -9.1983847175920189e-02 -4.7172830991088474e-02
      3.6918557767530953e-02 8.7339897528260685e-02
      5.3903580589695264e-02 8.1753181643412567e-02
      -1.2054126485105818e-01 2.6794335606635761e-02
      6.2246091728850365e-02 2.8324138422962792e-02
      1.4419433610962883e-02 1.0205386694445862e-01
      -8.4597838942114867e-02 2.2099396364709721e-02
      2.7583014089043262e-02 3.9070192821704521e-02
      1.2439892544950253e-01 -1.2274646418406783e-02
      2.5146159344438323e-02 1.0247960218976530e-01
      5.6381120167913627e-02 -7.2149211391750609e-02
      1.2850135973160476e-01 -6.8488651437777310e-03
      -8.5410071385596767e-02 -8.7152726306771650e-02
      7.6779926339788709e-02 -3.3457342805872120e-02
      5.0719465697068977e-02 -9.1098990135113106e-02
      -5.3741888310265287e-02 -3.2961060403780371e-02
      -2.6857375895154474e-02 3.4988901917575033e-02
      9.2661728008509692e-02 -1.0876002765053249e-02
      6.3042314309591244e-02 7.1870395997135142e-02
      -1.1888958919258757e-01 -2.7582131940281550e-02
      1.1944492044173260e-01 6.5846031805568472e-02
      -2.9624559688019584e-02 5.6168520491669427e-02
      3.2952267040081605e-02 -2.7271997829872649e-02
      -1.1675561689092942e-01 6.7065458203658057e-02
      -5.6439287871863253e-02 -7.0492818490618406e-02
      -1.1195187647608494e-01 -1.0351368019380284e-02
      -5.7988240110262324e-02 -3.3955634677493608e-02
      -6.1073206685742877e-02 6.2176819165469618e-02
      1.8090433569878769e-02 4.4730137608271596e-02
      2.7692466557758741e-02 -1.3780277457611024e-02
      -1.1572849947613800e-01 7.6374347150909433e-02
      -9.7056257733990417e-03 5.3932445579292700e-02
      -6.3448397203285378e-02 6.7975604922258237e-02
      2.7524152787499426e-02 9.4786695551249828e-02
      -5.7384317116657514e-02 -1.1855567830177662e-01
      6.2269144889653565e-02 -9.5401953394072592e-02
      -4.8307506967242037e-02 1.2569871587474352e-01
      6.9081634322567823e-02 5.6122536977507471e-02
      -7.0130812285680050e-02 -7.7744940442619759e-02
      4.7463321118245784e-02 -7.8775889848192740e-02
      9.8433153832963846e-02 -6.5395491400509029e-02
      2.8158963058493237e-02 5.3697202407942665e-02
      -6.6532690963095886e-02 -5.4434605712727339e-02
      1.1121171072533659e-01 -4.7454408458524035e-02
      1.0222350627603618e-03 5.4730600633995610e-02
      1.3045020954184003e-01 -6.3000517124032984e-02
      3.2039611807062822e-02 -6.7004268161535221e-02
      4.1897927601898047e-03 -6.3311631428691381e-02
      1.0525380927487645e-02 -1.2132621718590959e-01
      4.7941381112045232e-02 2.9658992281879050e-02
      -7.1784119195377707e-02 -2.4100899697828686e-02
      5.0302448709141689e-02 1.9239480299635660e-02
      -8.0571971176134488e-03 -1.1597388213886613e-01
      -5.1134424259434819e-02 -3.1410620685028916e-02
      -1.3907738345512382e-02 6.2847519028758764e-02
      -1.8783582933045019e-03 1.0712631637771617e-02
      -1.3154267142529417e-03 -1.1119680647247188e-02
      1.4644724436391868e-02 -6.5357456568603506e-02
      -1.1779802448635810e-02 -7.3059920343090763e-03
      6.5580523999554829e-02 1.8843819491148141e-02
      -3.7438700210721805e-05 -3.9573165409753450e-03
      5.5711522983457898e-02 2.1531240836067531e-02
      -3.5201427146140996e-02 -2.8121133339777313e-02
      3.1062195699616650e-02 -1.0524579891805214e-02
      -8.6199060514265749e-03 4.2327088895761323e-03
      4.7305874547389271e-02 4.1367524435891354e-02
      2.8557106984052782e-02 8.4713096958417724e-04
      -3.5852386459538487e-03 2.9369435102576065e-02
      1.8631177701019269e-02 -4.4077973732289475e-03
      8.2809824171638236e-03 1.8012581369515890e-02
      -4.0519580079195400e-02 1.6537630970929029e-02
      3.2013863363400868e-02 -2.6760154818482540e-02
      3.7907313423489984e-02 1.6851566313617942e-02
      -1.5602601438691910e-02 7.2986922335765130e-03
      4.6230245561642631e-02 -1.1844501751551769e-02
      5.2358769829738564e-03 9.8107720066070332e-03
      -7.4440674783984914e-03 -5.1724876447115750e-02
      4.1139783567345579e-02 -1.4286479626230607e-02
      2.2646380606754541e-03 1.2742224472479975e-03
      -1.7210661485355026e-02 -1.2448210575481320e-02
      2.3123175658667231e-02 3.1203451423400138e-02
      4.2622363132636863e-02 6.0682426726608538e-03
      4.5261943544856589e-02 -2.0155927631163857e-03
      -3.8210397944124140e-02 -1.1298106023672665e-02
      1.6506039709135452e-02 2.6879089347256760e-02
      -1.6133376076270755e-02 1.4984638211641300e-02
      4.8691409973656556e-02 2.5257155985055482e-02
      -1.2458175970656963e-02 1.1702764423296005e-02
      1.9252478506672589e-02 -3.2324373533120836e-02
      -1.1179203630455364e-02 1.2365957560800570e-02
      -7.2695341385534658e-03 9.3222690806551173e-03
      -1.3826253479591748e-02 2.5745350040633748e-03
      -2.8057180981437098e-03 2.4809378494222704e-02
      -4.5295746607796686e-03 -2.9389678022035508e-02
      -7.1494451222269620e-02 2.2828070924315401e-02
      -2.7521490919073952e-02 -8.3827606588750218e-03
      -3.3406685652563710e-03 -4.8226962389845470e-03
      -2.1230765928319181e-02 -8.3584683473558350e-04
      -6.1668483052313677e-02 -9.1503281873150464e-03
      -1.4262160285056190e-02 -1.4762663737239974e-02
      1.2566047585705833e-02 7.4460173828410442e-02
      3.4646963338851706e-02 4.1356023634103151e-02
      -1.9256547456771994e-02 -2.0504782118492233e-02
      2.5651319365302214e-02 -1.2782643406671608e-02
      3.3043709729019384e-02 -5.3725371777386642e-03
      3.7773658825570364e-02 8.8602395627315148e-03
      -1.6058912123980463e-02 4.0104852095776992e-03
      4.8688113255724889e-03 -4.2847643907033897e-02
      -2.4407898977572808e-02 2.6295146180763576e-02
      6.6191436113793509e-02 -4.3175444843876212e-02
      -1.8955265729570205e-02 1.2313954755127582e-02
      2.0235009197161068e-03 -2.6612904343577597e-02
      2.0979201837398952e-02 -3.9012799691185068e-02
      3.9793253826881841e-02 -1.2144549106019706e-02
      -2.5676049901242646e-02 -4.1782171576980776e-02
      -4.2044252520731830e-03 2.6422961586871838e-02
      2.6857664578927631e-02 -1.0988465515602688e-02
      -1.0013085395035023e-01 -5.5182662402670106e-02
      -4.9917189600235688e-02 1.0424318636445756e-01
      2.9023546039337701e-02 1.0058663882904109e-01
      6.8931974382442862e-02 6.7665830088672482e-02
      -4.0938040346320658e-03 -7.6411278108954053e-02
      3.9100210769804015e-02 7.5470983940701314e-02
      9.8222160620431528e-02 -2.4293778190301152e-02
      1.1301174632545727e-02 8.0159651184480166e-02
      4.6349467010485021e-02 5.7136872518886647e-02
      -1.0521887299492040e-01 -3.3244570666088186e-02
      3.1825354722474400e-02 2.7329035971131389e-02
      -7.1019525941022482e-02 1.3456301807208275e-02
      8.6848722712536616e-02 3.2104739986866380e-02
      6.2666265147949859e-02 5.2263618646267850e-02
      -1.0017467798889956e-01 6.0926793241291308e-03
      6.4792029107607146e-02 -6.2973080240344888e-06
      3.0835654883147972e-02 1.0333978542472877e-01
      -9.4212019408942430e-02 -2.8007664368009305e-02
      2.6431767222427804e-02 1.7817461628158168e-02
      6.6304315454769391e-02 3.8439443774439253e-02
      -9.2864183333949291e-03 1.4382216745226120e-01
      9.1197489546514549e-02 -5.4325135453601937e-02
      8.6810211313852428e-02 -5.2241038365902215e-02
      -7.0236782234753534e-02 -7.5886825094674940e-02
      1.0691049562267854e-01 -2.4916330868702718e-02
      1.0644515673934557e-01 -9.3208327885553166e-02
      -5.2611839499381509e-02 -1.0981629717880187e-02
      1.5868485149856209e-02 3.3355622271128663e-02
      1.0461467473882949e-01 2.4317828919324061e-02
      9.8388782556339968e-02 5.7086132200641758e-02
      -7.7939532232273359e-02 -2.9918359085531993e-02
      1.0737734119922634e-01 8.0583147679520628e-02
      8.5742540099660661e-03 1.9295598937549865e-02
      1.4135967908147714e-02 -4.6240249918100065e-02
      -7.6582270395644150e-02 8.7089091346806719e-03
      -3.0505718362313600e-02 -4.5337326812860262e-02
      -8.7892248540504536e-02 2.6358238609151530e-02
      -5.9063756660364591e-02 -5.7276319305012716e-02
      -9.0368663317426989e-02 4.2851942461339436e-02
      -2.7498955433994061e-02 6.7696781390392110e-03
      1.3669282462610196e-02 -7.5905950755020615e-03
      -1.1199999681680725e-01 5.8969960276727608e-02
      -1.2169026491594164e-02 8.0751649440128845e-03
      -3.7518122559944959e-02 7.4863020971678226e-02
      9.4460334388830388e-03 8.7402933836468299e-02
      -6.3215020319840706e-02 -8.7478515030399329e-02
      7.3767864937241079e-02 -5.1364528546646797e-02
      -3.0880814578745044e-02 1.0058772481039401e-01
      1.0365734873243722e-01 6.7876721983897298e-02
      -9.3390806506330304e-02 -7.5705673000366638e-02
      8.6084338060311336e-02 -1.1493758361510137e-01
      1.4330623475554730e-01 -5.9480417060954263e-02
      6.6471272255113553e-02 4.2743948822865904e-02
      -5.8681116778846860e-02 -1.7761543234840624e-02
      1.0640505925527279e-01 -3.9262575386171894e-02
      2.9804171182569207e-03 4.5063969699267910e-02
      9.4370679156086795e-02 -7.1103618599248755e-02
      4.1938950118182876e-02 -7.5296153028887758e-02
      -3.2091363472425215e-02 -6.5600464711858417e-02
      -6.2134690917475472e-03 -1.2248874635591729e-01
      5.8367359344912932e-02 5.4446207614441376e-02
      -8.2306975148754541e-02 -1.6157204548202055e-02
      6.9194864862881719e-02 -2.0938980458193934e-02
      -9.9663553292807777e-03 -7.9660003962346237e-02
      6.7855181526000521e-02 3.3389095885584093e-02
      7.5073577712918699e-02 -6.1852899922232162e-02
      4.2429110563663476e-02 -4.0381092228475170e-02
      -7.5232809165972733e-02 -2.5078542683405598e-02
      -4.4152660535269055e-02 8.3404142659984637e-02
      -2.4075953537662800e-02 -1.8622929418442426e-02
      -1.3301730082925076e-01 5.0630506390162720e-02
      -9.0747644648727366e-03 -1.3779162570309325e-02
      -3.2446718854331612e-02 -3.6209630224509078e-02
      9.9981485409483942e-02 2.9257896571565155e-02
      -3.3273287106572895e-02 -1.6434650005354282e-02
      4.7949184760538541e-02 1.1916708113242231e-02
      -4.9802218953520015e-02 -6.6531190022626752e-02
      -3.6359076317810678e-02 -8.5333154411798520e-02
      8.4132864961046411e-02 3.3652877177041129e-02
      -5.5154623650310167e-02 8.5349556188238657e-03
      -1.1144464468621938e-02 -8.4100080797713112e-02
      5.8814047859573698e-02 3.2905812451593701e-03
      -6.0170325375013628e-02 -3.2393938799733797e-02
      -9.2056613495222817e-02 2.2040195758567811e-02
      -2.7005112358390350e-02 -7.5262608969003983e-02
      -4.8196140755852990e-02 4.3082299046269042e-02
      -8.0169254966386008e-02 1.7967126099022933e-05
      9.4102143052629192e-02 9.7379752454548232e-02
      -8.0255136588126427e-02 5.5127754204095443e-02
      -7.0936178908189887e-02 3.2021509010780908e-02
      4.6180446640145395e-02 1.0613063405393492e-02
      2.3036653844212975e-02 -4.6542125148609989e-03
      -8.2348438872382815e-02 -5.4216784004350522e-04
      -9.2349406702466053e-02 -5.6418682982804093e-02
      9.0512464468659959e-02 -2.2229715144276619e-02
      -7.3165463388124782e-02 -6.4243657161457829e-02
      3.2725279398989116e-02 -2.5808582204625952e-02
      -3.0299343807089960e-02 3.6425695259026239e-02
      8.5681998596292344e-02 -5.4117580099205302e-02
      6.7493183206437990e-02 7.4167734904592206e-02
      1.1848331320909519e-01 3.5814207918357689e-02
      9.1275003396634580e-02 5.3208278140012437e-02
      8.5892710046737084e-02 -2.3192125648913462e-02
      2.8834475758505129e-02 -2.0710938961414828e-02
      8.6960732265397682e-03 -3.6169642032604220e-02
      1.1496797929254957e-01 -8.2483053422702082e-02
      -1.0915435609597639e-02 -6.4581920931122749e-02
      6.4138679976408861e-02 -7.7458257689688836e-02
      -4.7102012494349066e-03 -7.7036157598650012e-02
      9.7182906649609227e-02 8.3948412733343497e-02
      -2.0692099573794875e-02 1.9325552496242022e-02
      2.7505458119909221e-02 -1.2042804303354204e-01
      -5.5843911185045579e-02 -3.5774938827417280e-02
      4.2812420973918262e-02 8.2619530891324858e-02
      -3.1449440161083829e-02 1.0545080876467321e-01
      -6.7440333400646632e-02 -8.3709376185215527e-04
      -2.7312672059350038e-02 -5.0979032989413073e-02
      7.6000119392802670e-02 2.6219333664431025e-02
      -8.7185384342191349e-02 4.0916140837514069e-02
      -1.2916825765760163e-02 -3.7383629448307629e-02
      -7.5265847698421567e-02 1.1018069368073384e-02
      -1.6900563078309578e-02 4.3888621772087133e-02
      -6.4790743140212773e-03 9.4488585310676970e-02
      -5.6990104692248109e-03 5.4877352129282929e-02
      -2.0950999473735119e-02 -6.1613514251070221e-02
      8.5499392500643687e-02 2.4826528368415837e-02
      -8.4780102489522433e-02 -3.1750982414655841e-02
      -2.0215145442603236e-02 8.2953924514109462e-02
      6.6452053867048472e-02 4.6793849722356236e-02
      7.5085393861123770e-02 -1.1151372783385134e-01
      7.8738644921804088e-03 -7.7032454166193157e-02
      -5.4907685316660036e-02 -4.3455924671815110e-02
      -1.3553044881910866e-02 5.1380104599556289e-02
      -2.5129051488318895e-02 -7.0188948493486225e-02
      -1.3155876454840681e-01 5.6110146297235390e-03
      -2.6234621099131508e-02 -6.7284579794054361e-02
      -8.5643702899835999e-02 -9.5548483902150566e-02
      1.0678665497032028e-01 3.0378540534831324e-02
      -3.5041330457251094e-02 -2.4994719875092841e-02
      4.7568804242969130e-02 -1.6944911713492435e-02
      -2.4781007978917167e-02 -6.4427362923543841e-02
      -4.7188134748053834e-02 -6.0503847421814118e-02
      1.2453519842963369e-01 2.3974924222574173e-02
      -8.4125615277230115e-02 -1.9817714423311077e-02
      3.5778102166335563e-02 -1.3368078630755709e-01
      9.5377868964329995e-02 -1.8232467360127260e-02
      -4.3697556791085536e-02 1.3388801611411181e-04
      -5.4907919192280892e-02 2.1159456660595821e-02
      -8.0861741212192827e-03 -9.3496380589945652e-02
      -6.9968003677502014e-02 3.7210457652744326e-02
      -1.3566580988212909e-01 2.6358223102334509e-02
      1.0473080702735017e-01 8.3808870015787393e-02
      -4.4490636484229455e-02 3.5896766811914317e-02
      -7.1993345009268489e-02 7.4005875754536099e-02
      4.6469981729059744e-02 -2.0067386083853646e-02
      1.4414636675095444e-03 -2.1441869543490710e-02
      -9.6676207147433274e-02 -6.0027614816411660e-02
      -1.0872819192704071e-01 -7.1951420007576428e-02
      5.1869658879174788e-02 2.4413260383122751e-02
      -8.1679630931119337e-02 -4.9585261214357926e-02
      3.6765877793618860e-02 -2.6665491419709177e-02
      -1.4448754283376313e-02 3.8596171741684393e-03
      4.8067048204654537e-02 -1.4410951223853956e-02
      4.6790435232667592e-02 4.8896184384141873e-02
      1.4138636934396259e-01 3.4318247821715421e-02
      8.0420698163266108e-02 2.8115835189780908e-02
      9.1392271052689933e-02 -2.9320677237566428e-02
      -4.0448456686167289e-03 2.3052593617799128e-02
      -2.0956257372399433e-02 -2.0736922738739300e-02
      1.0824272408265044e-01 -6.1371172015668635e-02
      -1.3776513241224116e-02 -6.6885525810518334e-02
      7.3248193136557838e-02 -7.6020080857320954e-02
      -5.0756708165995902e-02 -9.0404207718250959e-02
      8.8829318385353781e-02 1.3350994462039353e-01
      -6.2310284332611772e-02 9.9975826058648354e-02
      7.2432072430671568e-02 -1.4174996036925022e-01
      -6.4651077010843716e-02 -8.7511135697561679e-02
      6.9052561142581723e-02 3.6849503189738467e-02
      -9.0101381899817812e-02 1.1956374330607870e-01
      -1.2555194260812680e-01 6.0757815943007609e-02
      -5.5707876727244067e-02 -3.6196777292645636e-02
      3.3736034386705249e-02 4.2334928974053408e-02
      -7.8054961128149511e-02 2.2425891753286482e-02
      3.6490116140649662e-02 -4.5740025780660852e-02
      -1.0953020004168275e-01 4.4442254833854979e-02
      -5.7359347404315364e-02 7.0976421463503192e-02
      3.9608092312506511e-02 7.2022882546231515e-02
      -5.0338284394785347e-02 9.5590697140495479e-02
      -1.9689045467442979e-02 -2.2789908395172143e-02
      5.2173004648632851e-02 5.5699361257379107e-02
      -3.3255829660026513e-02 1.2284606776528997e-02
      3.6953202933295695e-02 9.5093142301227340e-02
      4.2601378773745792e-02 8.3151605213651319e-03
      8.5232791259854584e-02 -8.1427364293065241e-02
      -2.6384385626929085e-02 -2.7856577147503479e-02
      -2.6058563714507349e-02 -3.4805381698297777e-02
      -3.4215153032087497e-02 5.0014765301941988e-02
      -4.7285346571844999e-03 -2.8754715181106245e-02
      -1.0786392293303798e-01 3.0345592071343987e-02
      -1.4688521306386077e-02 -5.0156795173136794e-02
      -6.9676282756897787e-02 -1.6777315968228738e-02
      6.3542922383176131e-02 6.0901242767241376e-02
      -1.1690700513194107e-02 3.6623166643795376e-03
      1.0025501359283406e-02 -7.7692403392571373e-03
      -1.8616872460707260e-02 -2.3553337835986086e-02
      2.2543159528096435e-03 -3.1783037718571938e-02
      4.3251980647412036e-02 8.5676002554541802e-03
      -5.8884514314211732e-02 -2.6526084076303955e-02
      -2.8730752098615624e-02 -7.0378927472953337e-02
      3.4372643088782830e-02 5.6018246465403335e-03
      -5.4298744211290884e-02 2.9782556676338636e-02
      -4.0955838765471486e-02 -3.4824949746132330e-02
      4.1138624961211359e-02 -7.5133996114137208e-02
      -6.6257332982540967e-03 4.0613392500613792e-02
      -8.8534570489484987e-02 3.3183623813443509e-02
      4.1344015844598063e-02 2.3055775032349127e-02
      -7.7840830458484500e-02 3.2213339653463055e-02
      -3.3416387940162703e-02 4.6983161609134218e-02
      -1.5065009375643420e-02 -6.9960728092732204e-03
      -1.2474964857920937e-03 1.6717693495211807e-03
      -8.6555714411327339e-02 2.1927150914422218e-02
      -9.0482909405813397e-02 -6.5264536731137315e-02
      2.9739906367288033e-02 2.2851062373056511e-02
      -6.3070018508910003e-02 -3.4557464650562440e-02
      6.9649936478609646e-03 -2.6625034599071958e-02
      -4.7932076096927338e-02 -9.0053908279469110e-03
      8.8910431746150140e-02 -4.4541216837890009e-02
      1.2139364464657708e-02 3.1219015354797548e-02
      7.5529192120726438e-02 2.9485158697816163e-02
      5.8570009881828179e-02 5.9268329217308253e-03
      2.6740061177087413e-02 -6.5053907953870727e-02
      -1.9222212463698693e-02 -8.8554938585821193e-03
      1.9217296894061299e-02 3.0630239782013968e-02
      4.6412577190178668e-02 -5.5288497740187736e-02
      -9.4524568631800376e-03 -1.0512690140949132e-02
      6.3174760894383800e-02 -4.7086458303789769e-02
      -8.9996324493155939e-03 -2.9475123988089838e-02
      3.3602152849998741e-02 8.9540070749231801e-02
      -4.5589465922033015e-02 3.1050564633350843e-02
      7.8746733899723673e-03 -3.5701508961781599e-02
      -7.0368223409414704e-02 -3.9148974479457706e-02
      4.0489858403003627e-02 1.2131081871485708e-02
      -1.3445663020378347e-02 8.3329335540213822e-02
      -5.2244739990674333e-02 3.2133513720949435e-02
      -5.5356667313269360e-02 -3.7022224329848669e-02
      -1.0191100564997046e-03 3.6832145779762709e-02
      -3.8536746936504565e-02 3.7032640564688239e-02
      3.5841354150887322e-02 -9.8900631068760732e-03
      -1.0153466709514763e-01 4.5797237396585366e-02
      -2.4045758872311778e-03 2.0976939889378422e-02
      3.7318907920587931e-02 3.1802342331429083e-02
      -2.0217537032548938e-03 3.8258538852237137e-02
      1.0792959926491732e-02 -1.5452699169806941e-02
      7.3495575463144128e-02 5.7905717611759621e-03
      -4.5324872110417011e-02 -3.6833315074613661e-02
      2.5781215764685984e-02 3.8624986716529544e-02
      1.0691482925569389e-01 5.2019697779103945e-02
      1.0003680100135971e-01 -5.3506497978646414e-02
      -5.6841714836932955e-03 -5.1642088876228003e-02
      -4.2127083664292526e-02 -2.6555736487540359e-02
      -5.1632748832659739e-02 7.9121106748885922e-02
      -2.8604099576322213e-02 -4.4636361467839877e-02
      -1.0436889404430209e-01 -1.8381074969089972e-02
      -5.4049883085946035e-02 -5.8889952295823077e-02
      -5.4327944761891352e-02 -7.4779281994069829e-02
      1.1504159718422116e-01 5.4869742861321284e-02
      -6.0756097011690187e-03 -1.7610399368478676e-03
      6.0745541783936201e-02 -1.1368062474403735e-02
      -5.8845804395418096e-02 -5.4877905185914823e-02
      -1.6589935023526070e-02 -8.2511044049383919e-02
      1.0302204659673624e-01 1.5798220271578279e-02
      -9.2297771952955437e-02 -1.7692548941639792e-03
      1.8379138518857209e-03 -1.2209130735036297e-01
      1.0563728805661932e-01 3.5477909609295727e-02
      -4.1830386726444756e-02 -1.7196188519565433e-02
      -6.4997539927497655e-02 3.8094787638441379e-03
      5.0138858986982556e-03 -1.4066403956316570e-01
      -1.0700349941551904e-01 6.5762727336235963e-02
      -9.6927162506390260e-02 4.9578717974988550e-02
      7.9160375368912642e-02 9.6752541957437932e-02
      -8.4055465236429691e-02 6.8920745662730196e-02
      -4.8873399264739353e-02 8.5402901323374636e-02
      3.0375186814611207e-02 8.4281024880361044e-03
      -1.4867257664129696e-02 -1.3984109655575684e-02
      -1.3212704224712335e-01 -1.0670975084995440e-02
      -1.0968321307895490e-01 -8.3373624134970112e-02
      8.5154168205834074e-02 1.3795067519240305e-02
      -8.7884950023025973e-02 -5.7769217234163422e-02
      3.9466362233148061e-02 -2.5645156027898096e-02
      -7.3425257793571841e-02 1.4461695108913960e-02
      9.0220140104052285e-02 -5.1409790691149926e-02
      6.2625200448894816e-02 6.6928459926515235e-02
      1.0030093663223613e-01 5.8475201961324446e-03
      7.5079278080136258e-02 -4.5102491971651971e-05
      6.0853242193585469e-02 -5.7478646189551237e-02
      1.5552019176748630e-02 3.7392758331857637e-03
      -3.4404278147638870e-02 -2.5097879312459583e-02
      1.4379514634354504e-01 -1.1755870344844134e-01
      -1.1543017885450429e-02 -6.3405516089579755e-02
      6.4444930303691667e-02 -9.8317284591389623e-02
      -4.0558537006244746e-02 -6.1827668002692904e-02
      8.5207049371744448e-02 9.6218437774494070e-02
      -5.2603562647944892e-02 8.2698382101121848e-02
      4.1872956841782223e-02 -1.2506319040113226e-01
      -1.1413242546994583e-01 -8.0769806265013469e-02
      7.8551732527084292e-02 8.0145975464158234e-02
      -4.9342156509209069e-02 8.5781043125522288e-02
      -1.2823260507578174e-01 3.0368458179287981e-02
      -4.5796423597630552e-02 -9.0618772767432978e-02
      5.8353411115833871e-02 6.3634797918113051e-02
      -1.0250349630173604e-01 7.6919113165404104e-02
      4.0037583198759462e-02 -1.3112168108863412e-02
      -1.3655693127545446e-01 4.4194263926757384e-02
      -1.9475274359604663e-02 4.8580063892857545e-02
      -1.4635624116885357e-02 4.0120637292810991e-02
      -1.6177735751113007e-02 8.4195697814197085e-02
      -1.9255933540661296e-02 -4.1310387560177214e-02
      1.2111491640409412e-01 2.3728253560940576e-02
      -7.8175993884060643e-02 -1.6599865838913180e-02
      -1.5942424117887863e-02 8.2332855569107480e-02
      5.2429517975831695e-02 3.6719214073932270e-02
      9.1405270959292170e-02 -5.1446923279621644e-02
      3.7875985455102450e-02 -4.2056240695129900e-02
      -6.8805891933874541e-02 -4.8002835315734446e-02
      -9.7190593383751512e-03 3.7895879424392813e-02
      -3.6376804618270316e-02 -6.4210321250253985e-02
      -9.7503203335172789e-02 5.9968483001844094e-03
      -5.6154078532744227e-02 -7.2202631304104578e-02
      -6.1865077835655424e-02 -7.7671195754737021e-02
      7.1807269485803002e-02 4.4585990707126918e-02
      -2.3280690607374706e-02 6.9456364564024729e-03
      7.3143888980568061e-02 -3.6247818327800599e-03
      -2.1533966962334616e-02 -4.1418700833833373e-02
      -4.8123182692686804e-02 -6.3491483204109897e-02
      6.6939810742046135e-02 1.1717859726143745e-02
      -1.1017378395948921e-01 -3.8692767109301175e-02
      2.4601579311639515e-02 -1.1017451657711361e-01
      5.7065352677416956e-02 -1.6876671007190903e-02
      -7.6405061884645756e-02 -1.6806225492744031e-02
      -9.0175525822500727e-02 -1.9417004310332907e-02
      4.1008934053409711e-02 -7.0042382089606572e-02
      -9.4259116556341185e-02 6.0003299792515709e-02
      -9.8821525779362582e-02 2.1983525930027829e-02
      8.9041948883861563e-02 6.6050657893414730e-02
      -9.6847663813806231e-02 2.4393840834645700e-02
      -9.2053237144233691e-02 5.6184440526802132e-02
      6.0358322451362058e-02 1.8573727840501861e-02
      -3.6618964893843406e-02 -4.9497152466756816e-02
      -6.4619190589737141e-02 1.1724342031875341e-02
      -6.2432564873690283e-02 -3.6360900360702088e-02
      8.2694995515570066e-02 -1.9660752188528394e-02
      -6.9990091252386352e-02 -8.5392489316934120e-02
      -1.4669128595981700e-02 -1.1734575450000069e-02
      -4.8234573440712074e-02 -1.8293536565261528e-02
      7.1905176282603678e-02 -2.0708037652593558e-02
      3.2487785290240927e-02 2.2618070764863409e-02
      1.2108198993248676e-01 1.5138322578605902e-03
      1.0503791500334103e-01 1.4740182349223004e-02
      4.3806417916094159e-02 -4.0609759290984204e-02
      3.0336770642828380e-03 2.4980774839852348e-02
      4.7332220274084037e-04 4.2361852263075759e-03
      9.6983038437910965e-02 -8.6214314055385766e-02
      -2.9586219023773550e-02 -5.4397922071134856e-02
      7.0539173053406998e-02 -6.6386818773985862e-02
      -4.3218444974896367e-02 -7.4496946663829930e-02
      4.9283992929794303e-02 6.6201554879177074e-02
      -6.5404635481335599e-02 9.1946575637899264e-02
      5.8081955157815002e-02 -6.5383208070191920e-02
      -5.3058203174035506e-02 -1.0879010718023072e-01
      6.6223199518817305e-02 6.2260445898822445e-02
      -3.7281825449401909e-02 8.0007260608510072e-02
      -8.9326835617930450e-02 7.0508797200945009e-02
      -3.7941667409526370e-02 -4.5786045863677245e-02
      4.4428530344723667e-02 5.8008848655817478e-02
      -1.0198045897681414e-01 8.9504073028213033e-03
      4.5485230700265692e-03 -5.0815546527874060e-02
      -9.3604945622064437e-02 3.6608627391416945e-02
      -1.8983641780675426e-04 2.8439553528648076e-02
      -9.3460410260561965e-03 7.4836244507444763e-02
      -2.8127776205735665e-02 1.0905922362158317e-01
      -5.3435663539043471e-02 -5.5182489509766154e-02
      9.8411749527687276e-02 4.3420587939443339e-02
      -2.9310613905634910e-02 6.8649418231932534e-03
      -5.7065989020217396e-03 1.1351051195578972e-01
      5.8711507317744036e-02 -1.1601048684673906e-03
      9.1868630109543520e-02 -6.4486461996238989e-02
      -2.5551137659078217e-02 -2.5676898815204047e-02
      -3.8633041079791840e-02 -5.5187510161605467e-02
      -3.4001089125543942e-02 6.6929097008896113e-02
      9.6097956004421274e-03 -3.1048982286519831e-02
      -1.0320474380786589e-01 4.0586537606992802e-02
      -4.6253432628000045e-02 -1.6679882082775606e-02
      -3.0876051072457007e-02 -2.4358644860258249e-02
      1.2194399981595150e-01 6.5844967058018289e-02
      3.6108685771174985e-03 2.3014818115445090e-02
      5.9145947848999438e-02 4.5480996672412595e-03
      -1.7095059782333041e-02 -7.7687873296876944e-02
      -7.1914750690768012e-02 -4.6571297571024045e-02
      9.7245889189903123e-02 3.5567620990406126e-02
      -7.5234260513042883e-02 1.8658271065653480e-02
      3.0221776919902112e-02 -6.0519354156613595e-02
      9.2382371318585649e-02 1.3169854883990566e-02
      -6.2004969376563017e-02 -2.5764465682956285e-03
      -5.4945205715223391e-02 2.1188219837733452e-03
      9.8577487163641030e-03 -7.6026852252767924e-02
      -6.6066351496999284e-02 3.7186293508534883e-02
      -1.2697651737745042e-01 6.0097366302773103e-03
      7.1588319805498082e-02 8.9686216380858635e-02
      -6.3023582116774710e-02 3.6087154139919225e-02
      -9.3472026836642852e-02 5.2664798412669009e-02
      3.1788233459454328e-02 -1.0808813291386327e-02
      -3.1493971351106542e-02 -4.5651639962482254e-02
      -8.3075458012828049e-02 -1.0267905415314535e-02
      -9.5677571755000149e-02 -3.2423293463684451e-02
      6.8484628676691889e-02 2.1056313973625753e-02
      -8.2818974328423209e-02 -8.1384492907948053e-02
      7.8760231614635398e-03 -1.0431076158508138e-02
      -2.0081484772096172e-02 -9.1592806636091127e-03
      5.8343204929096594e-02 -4.2506089102662098e-02
      5.0884584926036869e-04 2.5457649732964872e-02
      1.2544934127191398e-01 1.9231541406237018e-02
      8.4123929118672003e-02 -1.1729134695705258e-02
      5.6784085806015766e-02 -3.8549576594263481e-02
      -1.4386783613286484e-02 1.5985193573121729e-02
      2.1517540819640146e-02 -3.3912601575156263e-02
      9.3239092363780071e-02 -7.7895755317110030e-02
      -3.9100916348071689e-02 -2.4388001535947352e-02
      3.4982463544910830e-02 -7.2490914097119233e-02
      -3.0487535991939277e-02 -7.9948297650337619e-02
      5.0703732067743139e-02 8.2323662470043038e-02
      -1.9152791316587200e-02 2.9640569742174279e-02
      7.0546792360688892e-02 -9.7526210850806011e-02
      -2.9958552256358011e-02 -4.9771321401267034e-02
      3.6439782568604306e-02 3.6714775056915595e-02
      -2.8169304655163350e-02 6.2607970552465503e-02
      -9.9195520229195880e-02 3.3251958174678055e-02
      -4.2385237274353720e-02 -4.6162933327779793e-02
      3.7560626290769214e-02 3.3371081586533659e-02
      -6.5068081396387797e-02 1.9919297562429647e-02
      2.3965738477987397e-02 -2.6694054643772589e-02
      -8.9920685404664538e-02 6.8133013894940628e-02
      -4.5342918385401741e-02 3.2077010711972873e-02
      1.2384396222850508e-02 8.8045195441130195e-02
      5.6337369410544326e-03 5.6070662864434885e-02
      1.1959258409185913e-02 -8.0231321599106870e-02
      5.2847500211593387e-02 6.3200228371104297e-02
      -7.7748778589194725e-02 -6.4463236081249847e-03
      -7.1393455950404857e-03 9.0992678394114249e-02
      6.0045862152686612e-02 1.1749175553372538e-02
      6.1370972906200472e-02 -6.2125117082518624e-02
      2.3251267489344547e-03 -6.9655303776310323e-02
      -2.4817768566299320e-02 -2.8823176418435102e-02
      -3.9501562437881256e-02 7.6137466840387746e-02
      7.2849679009620392e-03 -3.5475117319833410e-02
      -1.1417133847151323e-01 1.6371158242608999e-02
      -4.2404095488518437e-02 -6.2801621424204035e-02
      -7.5233596703778091e-02 -8.3321157866838039e-02
      8.6244502528921463e-02 8.4056165347782000e-02
      3.9844054854510542e-03 2.3495945554871879e-03
      8.6319209003399081e-02 3.9478540199473028e-02
      -5.6634898543519004e-02 -5.9575593299322958e-02
      -5.8127834829929753e-02 -9.5660702668086239e-02
      1.2832022443216523e-01 3.6272303653474169e-02
      -8.6979419515523251e-02 -1.9955149457464513e-02
      -1.4795307201357332e-02 -7.3841619069368092e-02
      8.4646446807360762e-02 -7.3201888000418531e-03
      -2.7396668247673221e-02 5.2581114852455445e-03
      -1.2373870303594366e-01 1.7107923591900873e-02
      2.9731907693368131e-03 -1.3950754797705603e-01
      -3.6861072301655411e-02 7.7837552947567917e-02
      -1.0214621403075941e-01 5.0680632606588585e-03
      1.3539282778846917e-01 5.4021745311736029e-02
      -5.4624046321643492e-02 2.3816044900862504e-02
      -8.9557130647612962e-02 6.4072509190442037e-02
      1.1920784322209433e-02 3.4906085706346596e-02
      2.1273646043188019e-02 4.7074277601168854e-03
      -1.2327668151839152e-01 -3.4947537727344026e-02
      -1.2005025183902791e-01 -1.1043337337656828e-01
      5.7856795344023708e-02 -2.0980900253017139e-02
      -1.3850016390139580e-01 -8.7965170029111722e-02
      3.4429911173585431e-02 -5.8028286239078825e-02
      -7.8719824439995728e-02 -1.3319540679866718e-02
      6.5136548233647784e-02 -2.1721232580887758e-02
      2.1435241437836237e-02 7.6588592382857951e-02
      1.3107157260162514e-01 4.4992821897096476e-02
      7.4186247020693943e-02 -5.2123334156750209e-03
      6.7541238452153929e-02 -3.4638739873262513e-02
      6.4445591246627080e-03 -2.1890323562163184e-02
      -5.1708140496988089e-02 -4.3224560104428218e-02
      9.0913252319488588e-02 -6.6475510342147021e-02
      -1.0782352741882068e-02 -3.1549465954733638e-02
      5.9503956784150845e-02 -7.8212030557594764e-02
      1.6554583473621105e-02 -9.4951400403165340e-02
      6.9856077211944395e-02 1.2051971695778108e-01
      -3.4597669543281667e-02 3.7825206117876174e-02
      7.0570621132810610e-02 -1.1520491905915226e-01
      -7.2430054724144197e-02 -7.9786985988947554e-02
      3.3789643821029822e-02 4.2309400146630934e-02
      -2.6099744831045303e-02 1.1361981909367705e-01
      -1.3506866887541163e-01 7.4210063715603694e-02
      -3.6472250975012312e-02 -8.7931711111956662e-02
      2.8156092798634832e-02 1.6739632484526191e-02
      -6.9268937168182484e-02 1.3024577942882839e-02
      3.9934386482979839e-02 -5.9633610255773038e-02
      -8.7924991785463896e-02 2.3050451111446185e-02
      -1.0816528216257698e-02 2.3675195555820299e-02
      1.2599421520046073e-02 3.9194812490325935e-02
      1.8656226795682709e-02 1.2060932054418125e-01
      -1.8825942286460902e-02 -3.8554586484817778e-02
      1.1594053229371244e-01 6.6704373803924313e-02
      -5.6182135115163949e-02 -2.6971139602626690e-02
      -1.1507550271072555e-02 1.2935280870784788e-01
      8.6832337087137737e-02 1.9335566343533530e-02
      8.1584567105437669e-02 -4.8985603747726925e-02
      2.7148869428525100e-02 -9.4542966510492238e-02
      -4.3788582285273381e-02 -3.3271623194146310e-02
      -4.4070067950623688e-02 5.2853881033422520e-02
      -4.2098105038439306e-03 -2.0262049391239292e-02
      -7.9347776167522768e-02 1.9078287292316847e-02
      -8.6388222669733297e-03 -6.0266147777369168e-02
      -8.6808965473064104e-02 -3.3166143256525532e-02
      6.6845105322898946e-02 6.3873126756788925e-02
      -2.4498833986856365e-02 1.2578435550417039e-02
      4.9179634159370704e-02 2.7127530929281926e-02
      -1.7260677735730250e-02 -4.6308290531019085e-02
      -3.5469499355724333e-02 -8.2982933579010404e-02
      3.3913051830258646e-02 -3.9200546736225068e-03
      -9.5051264923927264e-02 -3.2244349779038943e-02
      3.0916696119218608e-02 -1.1509342615836531e-01
      4.6526984304501730e-02 -1.2280080109661664e-02
      -6.5297912523113982e-02 1.4795942899723264e-02
      -5.2592469971136625e-02 1.6862509879988496e-02
      -1.5847490301309351e-02 -7.7134215901483061e-02
      -7.0972759598341789e-02 2.6884012031665586e-02
      -9.1502901638106010e-02 1.4861777039098113e-02
      8.2889486869380302e-02 6.1587935863286668e-02
      -8.3714144489133016e-02 1.7354309007618515e-02
      -8.0408255503739104e-02 8.4125262332693004e-02
      4.3082963546425629e-02 -1.5861791108670496e-02
      -8.0158717622430559e-03 -3.5961533105509959e-02
      -7.2654059602541107e-02 -4.5075211980024663e-02
      -6.2500436551689312e-02 -8.1136423020692447e-02
      5.9535269798785449e-02 2.8726225186936190e-02
      -1.1533720371542086e-01 -8.2285345409371657e-02
      -1.4654806991884109e-02 -9.2534174026254173e-03
      -2.4514290909010396e-02 -2.6511883434377115e-03
      9.7788943728985986e-02 -2.0983168326945204e-02
      2.8056968077722112e-02 5.9283962609098656e-02
      8.0280912272706839e-02 -2.6156485716846995e-02
      6.0028800791639324e-02 2.2109868081763483e-02
      8.3057357321681291e-02 -6.7248867332842105e-02
      1.4227524593176801e-02 1.4980524929577821e-02
      1.6300708851459976e-06 -2.8420285919418579e-02
      1.0899228914469142e-01 -1.0233495461009592e-01
      -2.6941039627828876e-02 -2.8706179231205841e-02
      7.3399951928075677e-02 -2.5490537431231523e-02
      6.7816044606613130e-03 -6.2169153562844838e-02
      4.6197590158732336e-02 7.6624897742746098e-02
      -3.7447717409168094e-02 4.4264530318993349e-02
      6.8656852079643310e-02 -7.1151186472481906e-02
      -5.5401799393151131e-02 -4.6343969714413888e-02
      1.8467810852099743e-02 6.5880869206975154e-02
      -6.5497353023909147e-02 5.1959701064604222e-02
      -5.9195584091736253e-02 6.2557427098441531e-02
      -1.4334932318927726e-02 -7.7879490286134903e-02
      7.0457784999960665e-02 3.2292512839117528e-02
      -5.4846023002394780e-02 1.4525644106241213e-02
      4.0647160059586296e-02 -4.1245969552297805e-02
      -7.1627206680697261e-02 3.6129414684003915e-02
      5.8394776922833112e-04 3.8323103269883252e-02
      -1.6440988180299841e-02 7.7784700841691493e-02
      2.0546572730567002e-02 9.7913342400224312e-02
      -1.9173897183629640e-03 -1.0892002153585609e-02
      5.8793547342534343e-02 1.3312036771217029e-02
      -4.0475200082594531e-02 -2.0591249639573331e-02
      -1.7374398671695004e-02 1.0089876295975911e-01
      -1.2656259509111353e-01 -5.4078500620903150e-02
      -8.2007531871663999e-02 1.1884539036882198e-01
      -3.1458446521791250e-03 1.2418303796169415e-01
      8.6907061879090669e-02 6.0805370199193708e-02
      1.3242328719312468e-02 -1.1902470042830493e-01
      3.3272791369253880e-02 8.3780601651701633e-02
      1.4015788842612992e-01 1.6828895201009247e-02
      2.3937036998355237e-02 3.5349831450598175e-02
      1.0630513923770006e-01 1.0761636012962229e-01
      -1.3215919205631779e-01 -2.3150606898987985e-02
      1.8003677491894392e-02 2.1523603228741476e-02
      -1.1358776604688130e-01 -3.4647326243725553e-02
      2.6324928222895290e-02 7.8875469061093328e-02
      3.2610296747691912e-02 1.0313487314109722e-01
      -1.3626404362193731e-01 -1.7741809344243759e-02
      1.0489670563772968e-01 -1.0690302140062976e-02
      2.3996564975273323e-03 1.4461399195616381e-01
      -8.8456394184741619e-02 -3.9571014799515705e-02
      5.6818663481087224e-02 -1.9639990426195027e-02
      1.1051325896746286e-01 1.8722121000353223e-03
      -3.0095840431650159e-02 1.3210895309626575e-01
      6.6850500052315007e-02 -2.8804652085518686e-02
      1.6935207574473429e-01 -4.7299329045337415e-02
      -1.4731664046792303e-01 -1.1600474605304577e-01
      1.0834864243841613e-01 -5.2906559038039085e-02
      1.1182075032244901e-01 -1.0590409034055590e-01
      -2.1246443417496621e-02 -3.7099367834956661e-02
      -5.8627583249364667e-03 4.3585302695918177e-02
      1.4320579940213599e-01 6.8654224065720221e-02
      1.2618152576537345e-01 1.2391203387476983e-01
      -6.8400074601663141e-02 1.1346592494826044e-02
      1.3453246402772825e-01 1.2591118893550879e-01
      -3.6785250397426403e-02 3.7477315984659643e-02
      7.2125713929479265e-02 -3.5130020238950663e-02
      -1.2608618809675953e-01 4.4448930769937452e-02
      -8.9150368088047868e-02 -8.6580414838228939e-02
      -1.2291213575428049e-01 -2.5630114990183309e-02
      -1.2307672238617626e-01 -3.8264245710583289e-02
      -1.1947241648780477e-01 3.4872229453181018e-02
      1.2317634944002806e-02 1.9453894133026464e-02
      5.2217110620642805e-02 3.6443506789924078e-02
      -1.1259918762114864e-01 8.4705210092843639e-02
      3.9042727490375420e-02 7.6721145538927629e-02
      -6.9334787507062456e-02 8.5312210261651325e-02
      7.9608017053790052e-03 8.0120306525860302e-02
      -1.3243097643689969e-01 -1.6470456947742251e-01
      3.3475446239417624e-02 -7.6406767617110780e-02
      -2.1380098975187525e-02 1.6877817273293386e-01
      1.1002671708611161e-01 9.5349987321275101e-02
      -5.8620576083902573e-02 -5.6993361798431355e-02
      4.4309183454134850e-02 -1.2370693112953143e-01
      1.5830286700779056e-01 -8.1682023092159148e-02
      3.7083975945510869e-02 9.3870006925358310e-02
      -9.6034973047005603e-02 -6.2287614563920152e-02
      1.2868627947320882e-01 -2.0181520395746524e-02
      -1.2683358540661337e-02 5.2559813361625551e-03
      1.5651502365925640e-01 -5.4946003628874557e-02
      5.2940701341317592e-02 -2.0637976290425072e-02
      -3.3181556659284447e-02 -9.3129935939549116e-02
      -7.4332611476270113e-03 -1.0956189282042095e-01
      4.8985043596264481e-02 7.4736830123706369e-02
      -9.5084315903929267e-02 -3.6843714954482729e-02
      8.1128467037949861e-02 3.9527856259355919e-02
      8.6619212711630429e-03 -1.3769191611496545e-01
      -1.2180740360680804e-01 -6.2354781318935334e-02
      -1.0200423519118303e-01 1.0916563153814507e-01
      -1.7728534048615477e-02 1.0840101568094879e-01
      6.9368917047197692e-02 2.8788601861364369e-02
      3.0595579502056752e-02 -1.0902619677555943e-01
      2.9495360525821093e-02 3.3479323390222519e-02
      1.3305348604137907e-01 -3.0230184988425911e-02
      2.1159730537158541e-02 5.3977784024096385e-02
      1.0316873279527258e-01 6.7983092763033645e-02
      -1.3774911814525195e-01 -6.9358811876716678e-02
      3.4367823981667718e-02 -7.0084171575546218e-04
      -1.0729257435417816e-01 1.0893202710600656e-02
      5.1956323587956925e-02 4.7562823612166023e-02
      1.9782311746590849e-02 5.8513967270034148e-02
      -7.0623857737726878e-02 -1.7186168840726202e-02
      7.8542102035441791e-02 8.6961045037475589e-03
      1.7544105951246069e-02 1.4882530808910627e-01
      -1.3803744348188871e-01 -3.3489188841651557e-02
      2.9188355486569974e-02 2.0810575138901229e-02
      1.3673668270209771e-01 2.6863345128103549e-02
      8.7351736940788089e-03 1.4286591396571463e-01
      8.4067983648795780e-02 -6.3427859682429907e-02
      1.2192441721659691e-01 -4.4501701382699009e-02
      -9.1220556895762986e-02 -1.1461275287918582e-01
      5.6292544804073176e-02 -3.3466125869620111e-02
      8.3709748601511161e-02 -8.6415767273942609e-02
      -4.9149406788570840e-02 -1.9735159824409588e-02
      -1.8522974254401015e-02 1.2526635251349430e-02
      1.6381764046586869e-01 5.3939118531734769e-02
      1.1877839502260147e-01 6.2910570793238821e-02
      -9.8547862978204989e-02 -9.6932622194531790e-03
      1.3579796489911369e-01 9.4895377756601909e-02
      2.8538551857035586e-03 6.7112842739173770e-02
      6.7851805052568895e-02 -4.5364890014288221e-02
      -9.8336390794046172e-02 4.9991974522334698e-02
      -3.2433782199298891e-02 -6.6718560485083442e-02
      -1.0263306250989732e-01 -3.6018906368986053e-02
      -9.3575503489949502e-02 -2.5367916966876843e-02
      -5.8994160102022505e-02 4.8656657087942826e-02
      -4.3448162939776769e-02 1.7941682573626566e-04
      3.3248536062530872e-02 4.1141655784070467e-02
      -1.5060182239075839e-01 1.2970077786365386e-01
      -6.3981148465837127e-03 6.8600132236000991e-02
      -7.7295995224194211e-02 3.7449054199988140e-02
      1.5529854428855124e-02 6.0035413177015169e-02
      -8.6878804817681676e-02 -1.6427680285583071e-01
      4.7243641360922142e-02 -4.9865312288057857e-02
      -5.3270791775109912e-02 1.2463286625130396e-01
      5.6703693803511521e-02 1.0355420058534774e-01
      -8.0824552017697310e-02 -9.5022796747682367e-02
      6.0011169793651793e-02 -8.7084845542113501e-02
      1.2011861403040049e-01 -6.8950353758631677e-02
      7.7820773806736313e-02 6.7598674486455151e-02
      -9.8265939196702234e-02 -1.2093944724170462e-02
      1.2236179807684343e-01 -6.1432209579236244e-02
      -1.5041173486883741e-02 8.1700829880928406e-03
      1.3143904753792346e-01 -7.1269891193559060e-02
      6.8575524059902970e-02 -2.8752956460227682e-02
      -5.0224352670916350e-02 -8.1276969463687454e-02
      5.4935260114262245e-02 -8.5270412290616632e-02
      5.9506971582131800e-02 8.6273081626878190e-02
      -1.1029543296385122e-01 -3.5324377801325225e-02
      5.1297726963271256e-02 -9.3063144578347384e-03
      -3.7886574190852389e-02 -1.3453947314537690e-01
      -8.8933629865667496e-02 -4.1792632152921519e-02
      -4.3781350768463255e-02 4.5962865783408809e-02
      1.5854825495913001e-02 2.4266859017036152e-02
      2.7459430583074051e-02 3.3675285221638979e-03
      -1.8029248193283127e-02 -6.9972682147388346e-02
      9.1522546733029345e-03 1.9991907556849844e-02
      6.9859895679814515e-02 -2.9757850499435089e-02
      1.4600808356216119e-02 1.3629458449724095e-02
      6.0529081058257161e-02 4.7446765590515867e-02
      -9.8501637199829392e-02 -4.8411516869843220e-02
      -2.8081950359191581e-02 2.8670117539729884e-02
      -3.4209823206913209e-02 -4.5689791911161452e-02
      5.4800038317754943e-02 6.7628589069131106e-02
      1.6114160117542613e-02 3.1373037638612149e-02
      -4.9364272313760546e-02 -1.3171920420373051e-02
      8.6742082608803353e-02 2.6334644694855084e-02
      7.0140038528908486e-03 7.0872857999105768e-02
      -9.4243463064528021e-02 -2.4868089451812792e-02
      4.9484926065125716e-02 -3.2343941662395571e-03
      7.4255395585872297e-02 -3.1290333269793275e-02
      -2.7149057424745476e-02 6.2320892027598530e-02
      4.1741282111216971e-02 -3.1528735060700051e-02
      7.2248160309869150e-02 1.4859411205324963e-02
      -6.7545247125909230e-02 -6.0288692555639060e-02
      2.3762302222389304e-02 -6.5813027899061557e-02
      5.8128747741704914e-02 -4.3426085803335138e-02
      -5.0041973702140433e-02 -3.3776313547323043e-02
      -2.0871285969539449e-02 3.8819633948008289e-02
      7.1922552219262623e-02 2.4359815992346000e-02
      8.2433392579801409e-02 4.2545601010634176e-02
      -4.6196475850532250e-02 -3.1821874836414868e-02
      7.8655229904112875e-02 2.5310452057390950e-02
      -1.7816027459647988e-02 -1.3779780317852730e-03
      1.1393582549417719e-02 -4.0358871277102144e-02
      -7.9792145682007376e-02 -6.1944961354616053e-03
      -4.9046822172202256e-02 -2.3048205600531165e-02
      -6.8486099039988230e-02 1.3973676359619979e-02
      -6.3748099144497611e-02 -2.9530832602555571e-02
      -8.5004175962476572e-02 1.3602384024177464e-02
      1.0828455749443872e-02 2.5342721817880758e-02
      3.1696014141397152e-02 2.2190166852792254e-02
      -1.0885082286090592e-01 4.0573191495003227e-02
      -1.2977088847310534e-02 1.5893844465479617e-02
      -4.8160650003622740e-02 7.8414366926631382e-02
      3.7082389623212753e-02 6.1468419372336706e-02
      -7.0664852664444958e-02 -4.7880958877637533e-02
      2.5396609946442241e-02 -2.3852004534931737e-02
      -3.7993151974711314e-02 7.8120848850426375e-02
      4.3801455379539576e-02 8.7811311806423112e-02
      -3.2456214117012529e-02 -2.3503491184689355e-02
      2.5259757747496045e-02 -6.0178632348935626e-02
      9.7118192189642655e-02 -1.3752420930374322e-02
      4.8768512028798373e-02 6.2898947509590561e-02
      -5.7273039104044118e-02 -5.7127452650076821e-02
      8.3334503330172477e-02 -4.7209933905451959e-02
      -1.0493334740011715e-02 2.9488463102333586e-02
      9.6929014478119552e-02 -2.9688612806854555e-03
      5.5346015500023403e-02 -9.4144849089076409e-03
      -1.5990891711342301e-02 -6.2727736500331033e-02
      3.5358019426139232e-02 -5.3913745721295384e-02
      3.6893394967803847e-02 4.5211405744138719e-02
      -4.6556189420637675e-02 -5.3854890717248326e-02
      1.9682130682244548e-02 -1.2632409925329212e-02
      -3.8972550045862572e-02 -1.0873280157362876e-01
      -7.2967967507400991e-02 -1.0452633370970525e-02
      -6.4202900863984114e-02 1.1231097316353204e-01
      2.3487708637438480e-02 1.1196014874166776e-01
      5.7177286766308941e-02 7.1155300856860199e-02
      1.1902500178928982e-03 -5.8981114273805306e-02
      -4.9245903778166828e-03 4.3914873631055722e-02
      1.3724470365550592e-01 -3.1824063565877525e-02
      5.9276944918463526e-03 2.1890838871099005e-02
      1.1691243120535053e-01 1.1452832270102896e-01
      -1.0145767852420902e-01 -2.6661529360671590e-02
      3.6419454845243511e-02 2.4834877797376236e-02
      -1.0740200541163274e-01 -8.7185383672648224e-03
      8.1964154332389988e-02 9.2384960697942484e-02
      1.9746608989190277e-02 1.0935884059816588e-01
      -1.0900245514155128e-01 -3.2263440438182450e-03
      1.2871719527447401e-01 4.6795377417820569e-02
      -1.6416875457032295e-02 1.1366165949085857e-01
      -8.3598906678154006e-02 -2.0478886212555811e-03
      1.9728330692234855e-02 2.1229526253869542e-02
      1.1249359416180263e-01 2.9832967494043353e-02
      1.2408898969085855e-02 1.5051788995038093e-01
