<?xml version="1.0"?>
<opencv_storage>
<opencv_ml_ann_mlp>
  <format>3</format>
  <layer_sizes>
    342 128 1</layer_sizes>
  <activation_function>SIGMOID_SYM</activation_function>
  <f_param1>6.6666666666666663e-01</f_param1>
  <f_param2>1.7159000000000000e+00</f_param2>
  <min_val>-9.4999999999999996e-01</min_val>
  <max_val>9.4999999999999996e-01</max_val>
  <min_val1>-9.7999999999999998e-01</min_val1>
  <max_val1>9.7999999999999998e-01</max_val1>
  <training_params>
    <train_method>BACKPROP</train_method>
    <dw_scale>1.0000000000000001e-01</dw_scale>
    <moment_scale>0.</moment_scale>
    <term_criteria>
      <epsilon>9.0000000000000002e-01</epsilon>
      <iterations>100</iterations></term_criteria></training_params>
  <input_scale>
    3.4664503417971043e-01 -6.8083843324719373e+00
    3.8375995834591792e-01 -8.3136172256711145e+00
    3.5795618872536661e+00 -7.2622816349355741e+00
    1.8726444262095077e-01 -5.9314436149708047e+00
    3.2796899007083563e-01 -8.6496735087112135e+00
    2.2334654539873560e+00 -2.6816986702546202e+00
    1.3341146722424815e-01 -1.5326134376348438e+01
    2.9918758059469958e-01 -1.9302268960802724e+01
    5.9687732845071935e+00 4.8588132625744240e+00 3.4549074083082210e-01
    -6.6707781368310304e+00 3.4437783460446880e-01
    -7.4841710530364987e+00 4.0112828507003080e+00
    -8.5780060773049183e+00 1.7102241699760706e-01
    -5.4414747182129926e+00 2.4511826427417358e-01
    -6.4967986806262239e+00 2.6260505108383803e+00
    -3.3568640835080465e+00 1.1544214694348837e-01
    -1.3455187196807733e+01 2.4098373855664079e-01
    -1.5659702735214294e+01 5.8969244199612039e+00
    4.8521903914143607e+00 3.1894729061494786e-01
    -6.1564287967646356e+00 3.0148366002840177e-01
    -6.6329008530947524e+00 4.3251614257907391e+00
    -9.2324982483690921e+00 1.6223133116603689e-01
    -5.1515077683701724e+00 2.7276125415648961e-01
    -7.2401433217482492e+00 2.1587350500580302e+00
    -2.7124801407031320e+00 1.1413104608666673e-01
    -1.3080661444256835e+01 2.6568631945372650e-01
    -1.7310659657604358e+01 5.4625903429364415e+00
    4.3316121546686626e+00 3.6219941679038953e-01
    -7.3045298721592973e+00 3.6382649290980762e-01
    -8.0587140189582698e+00 4.0366393343600553e+00
    -8.1285551576175852e+00 1.9372828956345373e-01
    -6.3220034829100236e+00 2.8320976416218868e-01
    -7.6590134380435035e+00 2.5747815214542982e+00
    -3.0964907966470840e+00 1.2286504908079661e-01
    -1.4380761801343729e+01 2.7732479183164166e-01
    -1.8127607260666846e+01 5.7758473058410003e+00
    4.7409044039702497e+00 2.8211478350791785e-01
    -6.1234213488637037e+00 2.8893719018526293e-01
    -6.7479200405449680e+00 4.0098253748938939e+00
    -6.4361199921649170e+00 1.6211895707202548e-01
    -5.6643599153780810e+00 2.0116355229454816e-01
    -5.7722933580656388e+00 2.8592822160633458e+00
    -2.4556357979202583e+00 1.2080782903866065e-01
    -1.4301739058655707e+01 2.5427612958923418e-01
    -1.7644349291200520e+01 7.1490387534650708e+00
    5.2034413685895595e+00 1.9761785885243266e-01
    -4.3443905772742362e+00 2.6004673932105865e-01
    -6.6611599617626993e+00 3.6233916471981180e+00
    -6.7327558376279795e+00 1.6264323097318290e-01
    -6.1776968726476049e+00 1.9127137423349042e-01
    -6.6760524649805291e+00 2.6712130581084170e+00
    -3.1163285084569594e+00 7.8873022085330813e-02
    -9.4263642841685105e+00 2.3201294241304363e-01
    -1.6969803855696568e+01 4.1981212459124393e+00
    2.5890176848222137e+00 6.5912579269052557e+01
    -5.7442858822293196e+01 4.3614488360738257e+01
    -3.6144141489401392e+01 4.3617360619758792e+01
    -3.8391211458740429e+01 4.1036049374264060e+01
    -3.3931080818154776e+01 2.0787236766979099e+01
    -9.9430920815649007e+00 2.5511416798852288e+01
    -1.0835819874572953e+01 2.1127972656944138e+01
    -1.0333446808111905e+01 2.4148558628242572e+01
    -1.0283616612181884e+01 3.7138952965928153e-02
    -4.4919915671837982e+00 2.3744055013000771e-02
    -3.8434639906065389e+00 3.4591307023436858e-02
    -3.8657771790834383e+00 2.7141652489055524e-02
    -4.4094058463782453e+00 5.0660817415760278e+01
    -8.3102616614278695e+00 5.1297749976989095e+01
    -7.9415491938331364e+00 5.0636154128535281e+01
    -8.3130535444290352e+00 5.1971883708710322e+01
    -8.0306428742642613e+00 6.1573678190950588e+01
    -5.5720537385598028e+01 4.0291293520645162e+01
    -3.5125256463265977e+01 5.2733859431862847e+01
    -4.8057225161076609e+01 4.2728607364719259e+01
    -3.7197566683476197e+01 2.0434476990245464e+01
    -9.8913468870593579e+00 2.4467973126223676e+01
    -1.0655715932652207e+01 2.0767230121940614e+01
    -1.0276909549131139e+01 2.2968950115421794e+01
    -1.0041414514377475e+01 3.5323054689603658e-02
    -4.6266211924692158e+00 2.2633770670775741e-02
    -3.9913972829510551e+00 3.3391502225721501e-02
    -4.0505082296866277e+00 2.6370146867362960e-02
    -4.6725416781156106e+00 5.3601698941880514e+01
    -8.0986039060493518e+00 5.3797661099796130e+01
    -7.7297372066577372e+00 5.4140431257727904e+01
    -8.1730730964087996e+00 5.3761510252908153e+01
    -7.7071834030864599e+00 2.4859688161278353e+02
    -2.4338467063828475e+02 1.6337089943943914e+02
    -1.5836742551330153e+02 2.5143234066111265e+02
    -2.4653460228323144e+02 1.8553197763062821e+02
    -1.7978263717124679e+02 2.1780966146623577e+01
    -1.0092792462154140e+01 2.7750263431711115e+01
    -1.1277604082131473e+01 2.3423929983559471e+01
    -1.1047723867940473e+01 2.7496684738064147e+01
    -1.1369380222636194e+01 2.8254880679955043e-02
    -4.8705288937975215e+00 1.7917520680387992e-02
    -4.4722453272958518e+00 2.8092317532416252e-02
    -4.5077626018703736e+00 2.0527035247224920e-02
    -5.1772935554775925e+00 5.3522832127025218e+01
    -6.9866498577725560e+00 5.4686657658514555e+01
    -6.8200659505987558e+00 5.4277957180687231e+01
    -7.0901985571159116e+00 5.4532928582482903e+01
    -6.7997706708459642e+00 3.6644280269080731e+01
    -3.1767126306675678e+01 2.5530744235053213e+01
    -2.0996381434459103e+01 2.9153897912933388e+01
    -2.5505690446083069e+01 2.6914939065460509e+01
    -2.2018748350421102e+01 2.7621271863334716e+01
    -1.3346771108738523e+01 3.3962898205365121e+01
    -1.4513168749780512e+01 2.9518379776826077e+01
    -1.4587998509725336e+01 3.5422850793513021e+01
    -1.5147450243787729e+01 2.9384411832315167e-02
    -3.6694711954254706e+00 2.1037885154992567e-02
    -3.5079966786596941e+00 3.2811593766487353e-02
    -3.7958762964880117e+00 2.2311350979595145e-02
    -3.8022950821598074e+00 5.4807180435899568e+01
    -8.9179688171315039e+00 5.5106783337957140e+01
    -8.4161576152919881e+00 5.4656697607319408e+01
    -8.8864009181577188e+00 5.5837781030535417e+01
    -8.5184030368162578e+00 4.2005096117018347e+01
    -3.7863305253302663e+01 3.0031557582290933e+01
    -2.6036210027906023e+01 4.3545420742487103e+01
    -3.9545194502612802e+01 3.2910222235452174e+01
    -2.8437163985685114e+01 2.7254322874278113e+01
    -1.3373225798069704e+01 3.2421105979173163e+01
    -1.4285790556845699e+01 2.8544920478004002e+01
    -1.4320040845887887e+01 3.3434633671297135e+01
    -1.4720815371985152e+01 2.6363166347131088e-02
    -3.5660859275448651e+00 1.8498034041692635e-02
    -3.3747893988998867e+00 2.7733377370231103e-02
    -3.5036789496045091e+00 1.9229708490497391e-02
    -3.5857371229732578e+00 6.0009777056628479e+01
    -8.9870697806016508e+00 5.8479858441593464e+01
    -8.3301067434668656e+00 6.0053903809208343e+01
    -8.9841828897850231e+00 5.9658331017021503e+01
    -8.4678583389768463e+00 2.2475700263724386e+02
    -2.2003456272697457e+02 1.4504080449091779e+02
    -1.4056618253906268e+02 2.3947029121791806e+02
    -2.3469098920548205e+02 1.5694870859709187e+02
    -1.5193822230232891e+02 2.7854403115149985e+01
    -1.2937412311581307e+01 3.5084194561078803e+01
    -1.4268368710325284e+01 3.0146836255767909e+01
    -1.4335524557474365e+01 3.6850522727469574e+01
    -1.5256333696403571e+01 1.9917802917013932e-02
    -3.5075235284901538e+00 1.2946871810645390e-02
    -3.3152203841490921e+00 2.0890466588966723e-02
    -3.5051102246724275e+00 1.3627300247812873e-02
    -3.6082205319013068e+00 5.5778706229203451e+01
    -7.1350158972034521e+00 5.6425459218629491e+01
    -6.8985598173446032e+00 5.6864304207322192e+01
    -7.2929817567158652e+00 5.7164384875724942e+01
    -6.9770036997750111e+00 3.8571523382635775e+01
    -3.3717560712386302e+01 3.4488159556420960e+01
    -2.8678570256999482e+01 3.5303697239270491e+01
    -3.1195405940865896e+01 2.9752929844507840e+01
    -2.4706170987462361e+01 2.0406589745183968e+01
    -9.7772574227711821e+00 2.5325514266160337e+01
    -1.0771561946712467e+01 2.1580245548413743e+01
    -1.0534765203906330e+01 2.5041007084853074e+01
    -1.0718777136301057e+01 3.7043798512062465e-02
    -4.4181729559921354e+00 2.9990852426443809e-02
    -4.8168379196895144e+00 4.7292225782069867e-02
    -5.1621098734774584e+00 3.1654812826294711e-02
    -5.0834933455764686e+00 6.9271010969384690e+01
    -1.1649286912734913e+01 6.7708568147210002e+01
    -1.0750745993302541e+01 6.7380785226465136e+01
    -1.1350252566329081e+01 6.9013356880418385e+01
    -1.0943432817044473e+01 5.7342324352218832e+01
    -5.2013408783832972e+01 4.5504385284206784e+01
    -3.9758865963322584e+01 6.2226835871551820e+01
    -5.6881819218716764e+01 4.2824242383334692e+01
    -3.7358499272957324e+01 2.0289137383998764e+01
    -9.8414199641522639e+00 2.4414642457422836e+01
    -1.0645041466715323e+01 2.1294891048309470e+01
    -1.0524619901444330e+01 2.3673166973322509e+01
    -1.0401105472112999e+01 3.4782644923715259e-02
    -4.4663549884470957e+00 2.9208396553726569e-02
    -5.0766444586951343e+00 4.4947653623412756e-02
    -5.3128775736837417e+00 3.0663548168287574e-02
    -5.3693171467518059e+00 7.2388302493548977e+01
    -1.1229799106927700e+01 7.0479110295668903e+01
    -1.0413585279709572e+01 7.0989501020875551e+01
    -1.1037157536687680e+01 7.0601030385869535e+01
    -1.0429548802575034e+01 2.7869388646889882e+02
    -2.7304727999033179e+02 2.2143903135014932e+02
    -2.1479727175677311e+02 3.9774455910865282e+02
    -3.9025218600196769e+02 2.3154107798218845e+02
    -2.2453414062369976e+02 2.1486930709958678e+01
    -9.9787774993514660e+00 2.6915429473566757e+01
    -1.1009974240205212e+01 2.2853921258486366e+01
    -1.0852425356607483e+01 2.8187035161993020e+01
    -1.1808784798459623e+01 2.7700749069660510e-02
    -4.7166951504757915e+00 2.2023678193870508e-02
    -5.4890354398346899e+00 3.8819268359437061e-02
    -6.1456856705103649e+00 2.4400433247207528e-02
    -6.1254878191349134e+00 6.7666934693718062e+01
    -9.0320254816883985e+00 6.6681326491970594e+01
    -8.5244724927992159e+00 6.6888602716912658e+01
    -8.9626642582582985e+00 6.7122653321724883e+01
    -8.5756175793706291e+00 3.7112315602637310e+01
    -3.2245224274040353e+01 3.2473743777878468e+01
    -2.6861169197266094e+01 3.4903521670767113e+01
    -3.0632262306651384e+01 3.0751772743771028e+01
    -2.5299803463241449e+01 2.1234923860677213e+01
    -9.8999921115402785e+00 2.7328460705091089e+01
    -1.1298566508663930e+01 2.1156229607999549e+01
    -1.0092240132006351e+01 2.5689865731030544e+01
    -1.0672392457612974e+01 3.0454776350951999e-02
    -3.9025649314373965e+00 2.6723659485600411e-02
    -4.5026397356835943e+00 3.8377207987057779e-02
    -4.5250529133225834e+00 2.4570871359547965e-02
    -4.2535147422392026e+00 4.5957416064230550e+01
    -7.3748133280809922e+00 4.6212689629279737e+01
    -6.9863375223796744e+00 4.4562161095167269e+01
    -7.1714792358030275e+00 4.6012683480448196e+01
    -6.9555238040934544e+00 5.0081685739655690e+01
    -4.5287016371684572e+01 3.9915956661025675e+01
    -3.4785867503008120e+01 5.0213120365982647e+01
    -4.5710065138692286e+01 4.0233680951253042e+01
    -3.4952649889827633e+01 2.0043910585549973e+01
    -9.4543134858282958e+00 2.4865511079639855e+01
    -1.0544959734168270e+01 2.0672124073966934e+01
    -9.9774099533064273e+00 2.3946530724195931e+01
    -1.0197257029693789e+01 2.6729452631398240e-02
    -3.7253463400741493e+00 2.3569366041096336e-02
    -4.3630196868299445e+00 3.4565868997934124e-02
    -4.4480637511773446e+00 2.1836635688865114e-02
    -4.1415089073373208e+00 5.0086953513368137e+01
    -7.4423671875552859e+00 4.9387335987331696e+01
    -6.9741406568662141e+00 4.9888878688556211e+01
    -7.4147563306808664e+00 4.9765566686790635e+01
    -7.0273679851961814e+00 2.4512883983363935e+02
    -2.3991017582722830e+02 2.0157361837231994e+02
    -1.9531337470883642e+02 2.9268867097232726e+02
    -2.8683859549761638e+02 1.9864640621301112e+02
    -1.9233545668407464e+02 2.2882446062245005e+01
    -1.0327411497586617e+01 3.1251281974336038e+01
    -1.2376580848374420e+01 2.2431022566816299e+01
    -1.0327025600041098e+01 2.7180243820479770e+01
    -1.0979998401977527e+01 2.4396898317936504e-02
    -4.3983888997858989e+00 2.0655882867194521e-02
    -5.3601696759221333e+00 3.0413886727298479e-02
    -5.1451986078465097e+00 1.8915488409991823e-02
    -5.0326089950060888e+00 4.9965233792761722e+01
    -6.3888089220846602e+00 4.9908299522793335e+01
    -6.0871329269085823e+00 4.9705613943099983e+01
    -6.3593035397141993e+00 5.0078083474951427e+01
    -6.1087984999867766e+00 3.1862993819002568e+01
    -2.8259120531930446e+01 2.8606416131587547e+01
    -2.4238415938709430e+01 3.3623174358296538e+01
    -2.9977958839200806e+01 2.7551403165755183e+01
    -2.3260493476978795e+01 1.6273143392712079e+01
    -7.6127561683055003e+00 2.0134805786039330e+01
    -8.3062182818691905e+00 1.7650752830694337e+01
    -8.2574545265425900e+00 2.0090174218754822e+01
    -8.2900914739655267e+00 2.1403159413385373e-02
    -2.6572546011195013e+00 1.8048326245690846e-02
    -3.0216804071125445e+00 2.2995205849600589e-02
    -2.7243839166784105e+00 1.7814343551409650e-02
    -3.0359786271893454e+00 5.6640287005996690e+01
    -9.8821135847732915e+00 5.7565415269544808e+01
    -9.5260920039680403e+00 5.4408005445478452e+01
    -9.4841743752112926e+00 5.8274237087264197e+01
    -9.6147922697807235e+00 8.7869773923392657e+01
    -8.0793722397398497e+01 6.8368501328503754e+01
    -6.0783334431813877e+01 1.0278480262894358e+02
    -9.4882685965085543e+01 7.1060667703450690e+01
    -6.3070980721302064e+01 1.5989847216212228e+01
    -7.5382779596597906e+00 1.9287869621435199e+01
    -8.1343681832865879e+00 1.7193927502904383e+01
    -8.1376943369197168e+00 1.9128321715469834e+01
    -8.0611512655442610e+00 1.6573125477345747e-02
    -2.2811226793254211e+00 1.3888101475614145e-02
    -2.5916291844647361e+00 1.7951793399348610e-02
    -2.3515476315969948e+00 1.3659501467213493e-02
    -2.5847571718792701e+00 6.3963588066698932e+01
    -1.0279432178661226e+01 6.3679548802619372e+01
    -9.7926939103809190e+00 6.2635387464806968e+01
    -1.0047142139173438e+01 6.3427382730140863e+01
    -9.7235628033832562e+00 2.0235344997679417e+02
    -1.9875852143842695e+02 1.6545276170381413e+02
    -1.6110424732001431e+02 2.2544783912928895e+02
    -2.2158056149794368e+02 1.5838190182968913e+02
    -1.5416129278279539e+02 1.6590348171999359e+01
    -7.5215163438268382e+00 2.0890050546019253e+01
    -8.3156005392835066e+00 1.7639282274217059e+01
    -8.0197991421930723e+00 2.1377717443087349e+01
    -8.6172860108192264e+00 1.4818212205464655e-02
    -2.5653534252030963e+00 1.2098452842253500e-02
    -3.0489782754381594e+00 1.6087510412255892e-02
    -2.6879406312018679e+00 1.1520012410895744e-02
    -2.9485677254190286e+00 6.7265548713300234e+01
    -9.5747198821087895e+00 6.7252320483945923e+01
    -9.1885825418118774e+00 6.5657777154087768e+01
    -9.3385891474303708e+00 6.7345565637880568e+01
    -9.1903046359700138e+00 2.7859742287634813e+01
    -2.3997227308598447e+01 2.2223640045279851e+01
    -1.8233931730673302e+01 2.9086610668049115e+01
    -2.5186418932223933e+01 2.4201395057744623e+01
    -1.9762391777760730e+01 1.9049775379873068e+01
    -8.4294343660997075e+00 2.1559772660547488e+01
    -8.5414502280646794e+00 2.0085266959822953e+01
    -8.9476460700995695e+00 2.1948760075333695e+01
    -8.7114030798996307e+00 1.5157852751496496e-02
    -2.8071950101959291e+00 1.2443816804232630e-02
    -2.9627117886382517e+00 1.5696740887314431e-02
    -2.7948591084472647e+00 1.2445625603187762e-02
    -3.0399630766475623e+00 2.9193043689142836e+01
    -5.4112526674260808e+00 2.9248354956927876e+01
    -5.1606873935385495e+00 2.9174196730731452e+01
    -5.4168132417007691e+00 2.9204245767283272e+01
    -5.1412441530830755e+00 5.2263468061648489e+01
    -4.7781025776459700e+01 4.1746851226188326e+01
    -3.7028271628443790e+01 5.8494553820933703e+01
    -5.3670568471186158e+01 4.3770459139439026e+01
    -3.8715870529705995e+01 1.8927043665117438e+01
    -8.4821957951706963e+00 2.1018959732782744e+01
    -8.4979655718067715e+00 1.9043907967635860e+01
    -8.5821285664665723e+00 2.1037947342197928e+01
    -8.5438402476113122e+00 1.2336017706938618e-02
    -2.6670633244854445e+00 9.7115423207564562e-03
    -2.7468920223354245e+00 1.2650383626104428e-02
    -2.6234005747110070e+00 9.7604994718974540e-03
    -2.8192916474576024e+00 2.9258524012004546e+01
    -5.0189742678541922e+00 2.9191543771428670e+01
    -4.8100167609537481e+00 2.9365648740402438e+01
    -5.0437326136507963e+00 2.9007330137234455e+01
    -4.7753100637181509e+00 1.4455155713778311e+02
    -1.4094090829020766e+02 1.1263040092489605e+02
    -1.0865494905811546e+02 1.6296343658628493e+02
    -1.5910632810378726e+02 1.1476082638688735e+02
    -1.1065281072975453e+02 1.7700728087244940e+01
    -7.4612110475391207e+00 2.0067476440288029e+01
    -7.4592926606800329e+00 1.7951114801799648e+01
    -7.5461825502254554e+00 2.0211025436885301e+01
    -7.6386676023526787e+00 1.0634538162729044e-02
    -2.8749903340436531e+00 8.1017334364509464e-03
    -3.0610773657402985e+00 1.1328563596863343e-02
    -2.9061240979517629e+00 8.1782545951558684e-03
    -3.1333179511637703e+00 2.8918791829118426e+01
    -4.3849893283345818e+00 2.8838935614506394e+01
    -4.2088433851100016e+00 2.8818567700721758e+01
    -4.3636591301025849e+00 2.8974107385807514e+01
    -4.2202617191060892e+00</input_scale>
  <output_scale>
    5.2631578947368418e-01 4.9999999999999994e-01</output_scale>
  <inv_output_scale>
    1.8999999999999999e+00 -9.4999999999999996e-01</inv_output_scale>
  <weights>
    <_>
      1.6967614014514267e-02 -3.6022158003417080e-03
      -1.0496951178527270e-02 -3.2758196866514162e-02
      -2.5585258719107423e-02 -2.0961767209951559e-02
      -5.2664634156299401e-04 4.4704168345686066e-03
      -2.4335714036297786e-02 -5.9611082772577321e-03
      -5.6813595293141988e-03 -1.8898548173381751e-02
      7.9369614017093179e-03 3.2895962329807611e-03
      2.3817165961006106e-02 -2.3912413933023471e-02
      -3.3146887686247108e-02 -5.5649117925882213e-03
      7.4916225813252144e-03 1.1001204911207872e-02
      -4.1348465938979805e-03 6.7325997839037584e-03
      -4.1477094653652978e-03 3.4308761027273406e-02
      5.2666618714724495e-03 1.5483124603318382e-02
      -3.2889662086701833e-02 -9.5767377283797524e-03
      1.4226158597528191e-02 5.8180336836569516e-03
      2.4517922161154386e-02 -3.1818693465024202e-02
      9.9270654294609986e-03 1.7966509234111468e-02
      -1.1785967751883064e-02 -3.2091277435950347e-02
      -2.1926038327170607e-03 1.2644486764363855e-02
      -7.1235438160497343e-03 2.4542376193152030e-02
      1.0785817821987747e-02 4.0258004044880702e-03
      3.2582151511293962e-02 -3.2160985139416218e-02
      6.4965679986671971e-04 6.1128252586536451e-03
      -1.7963749340478889e-02 -7.8944553502764900e-03
      -1.5091266876849377e-02 -2.5800614651447163e-02
      1.1820726757571506e-02 -7.5216333638268495e-03
      -1.1733583719540832e-02 3.2288601097299932e-02
      -6.1103320700020064e-03 1.7170706215700850e-02
      2.9093279381791928e-02 2.3541018518987055e-02
      -9.9923838305685051e-03 -1.9189415064444305e-02
      2.4445234693213666e-03 2.4994623172169401e-02
      -1.1779221536673075e-02 2.5971361018013048e-02
      6.5493330454532246e-03 -4.3998435614162106e-04
      -1.1371467438593940e-02 -5.7101462568968165e-03
      3.1765501517374485e-02 7.6744838935517900e-03
      -1.8827744714056537e-02 -1.8954503520292605e-02
      1.0815454874775636e-02 2.0131954312735446e-02
      -4.1489722287589952e-03 2.2322937449365719e-02
      1.8642908171686599e-02 -6.6665095626704972e-03
      3.6344802269426945e-03 1.8172919220427724e-02
      -7.5156616130221425e-03 -2.7884129153750024e-02
      1.3187377603641275e-03 -1.4936406471110377e-02
      -1.3341669322887008e-02 -3.8977440884435265e-04
      -1.5869591886599557e-02 8.6319883070881641e-03
      3.0040571795760803e-02 -2.0872988867278078e-02
      -2.7616262971923433e-02 -2.1854327485647296e-02
      -7.4779143894404187e-03 -8.4039897422540626e-03
      2.9246201396523341e-02 2.5157563308013862e-02
      2.5359044198072802e-02 -7.3195393665328613e-03
      3.1687935248058414e-02 2.4061994038270820e-02
      1.9136627312667385e-02 -2.6995740024443909e-02
      6.3154554848823775e-03 -2.1301999047840945e-02
      1.1901913027037803e-02 6.3990493569569653e-03
      2.5716847223973299e-02 -1.0788174328987733e-04
      6.9393273850999948e-03 -2.5183620511360001e-03
      2.1327982940756735e-02 3.1522587750266083e-02
      2.4211331828994376e-02 -2.6927757148279972e-02
      1.2683265927798630e-02 9.8657646508854748e-03
      1.1369952887211850e-02 2.6463431077415948e-02
      1.6261065840710385e-02 -1.5924945907054552e-02
      2.8862228504174678e-02 -1.3888409450738824e-02
      -1.1173823702033112e-02 -7.5442662654164388e-03
      -2.3856462316114765e-02 2.8911685823500594e-02
      2.2549720865933029e-02 -1.0143821105630552e-02
      2.4939936320108214e-02 -6.3304952788718295e-03
      -2.0692252584976409e-02 -3.6055931528488877e-02
      -3.5997702662527699e-02 -1.8119753817169171e-02
      -4.2459201294392235e-03 1.1286871940424926e-02
      -3.1721646337719921e-02 -5.9340374963071209e-03
      -9.5106293481098548e-03 -2.3868040426713328e-02
      7.6805305026531046e-03 -1.9546868465680515e-03
      1.6487433035718597e-02 -2.0733355966307845e-02
      -3.0519445476419462e-02 -8.3173925189131241e-03
      1.1112347277262650e-02 1.1513015751870961e-02
      5.5039483970107815e-04 5.3294624364150075e-03
      -6.0946156101514600e-03 3.7629820818931001e-02
      4.5097351288318705e-03 2.0618336525490878e-02
      -3.3188881383278905e-02 -1.4575077537328514e-02
      1.9177192951814151e-02 1.0099602820293117e-02
      2.3337998705690324e-02 -3.6652464175538135e-02
      1.4639408034640145e-02 2.3584403001103631e-02
      -1.5970555610481052e-02 -3.4418942028059112e-02
      -1.4580876810986785e-04 1.3666210740219509e-02
      -6.5748161359435193e-03 2.7667464889668557e-02
      7.8453638360939000e-03 -1.2645774119408922e-03
      3.3486040432500273e-02 -2.5966193021912019e-02
      5.8203140039508796e-03 3.5982632749564235e-03
      -1.0915169864182540e-02 -1.2340146671102050e-03
      -1.5166953298511691e-02 -2.9399879093014371e-02
      9.4538579221904121e-03 -8.8165776541275238e-03
      -1.2702281051489165e-02 3.5809181559641273e-02
      -1.1913745128648689e-02 1.3379953837573646e-02
      3.8101071826712463e-02 3.0594247985410498e-02
      -6.8845452206436559e-03 -2.0966891377795401e-02
      -5.8430011707883709e-03 2.3198409290958823e-02
      -1.4550996310708320e-02 2.6434379173240947e-02
      -2.9142293023671356e-03 -6.7488012902858056e-04
      -1.1161962036629891e-02 -5.2753155402087337e-03
      3.3876062947430979e-02 1.4940132173685520e-03
      -1.4196762276707183e-02 -2.7847470613049846e-02
      3.8538445326669712e-03 1.8040234773798861e-02
      2.7742251995506073e-03 2.9719464166850621e-02
      1.0910319938961958e-02 -5.1404990140476057e-03
      4.4742982666844807e-03 2.3812485320940480e-02
      -1.0234684467268327e-02 -3.0074208525022447e-02
      -3.6000739207317414e-03 -2.3071880503825186e-02
      -1.1043929425240177e-02 -6.7887205923185283e-03
      -2.4985277905056707e-02 1.2021163249751486e-02
      3.3598937599570673e-02 -2.4298911590978807e-02
      -3.7183529109521586e-02 -2.4466053805230540e-02
      -1.6936900167500355e-02 -3.7551664808458040e-03
      2.9159168670413241e-02 2.0219151183262386e-02
      3.1557381168892083e-02 1.6004106651925452e-03
      2.6991271017827251e-02 2.4977644541955158e-02
      2.8108388214206793e-02 -3.5201597798370829e-02
      1.3585005118863255e-02 -2.5819826798885705e-02
      6.7785846653313827e-03 6.2250462304517607e-03
      2.6847065179106535e-02 -3.6716010118590216e-03
      9.5156390361837723e-03 1.8985490937258123e-03
      3.2407086229958568e-02 3.3225728866404632e-02
      3.3188332146372505e-02 -3.6526596174320018e-02
      8.9321946909330027e-03 7.7498180106242041e-03
      7.7778665854022202e-03 3.4206920385351509e-02
      2.0331990454609743e-02 -1.9167721489099489e-02
      2.5818596295914847e-02 -1.0975646824499917e-02
      -1.8157708982174194e-02 -3.2327998993201606e-03
      -3.0250794928951434e-02 2.9007885568164988e-02
      3.4011248479712528e-02 -1.3110220165832734e-02
      -1.2075517422108703e-02 2.5435819193593114e-03
      2.9221430434376600e-03 1.6839967019561388e-02
      1.0835380101311047e-02 1.2624267396786721e-02
      6.3538842955527478e-03 -3.7828773388312851e-03
      1.2951716127635274e-02 1.4552146695733471e-05
      9.7575256829112377e-04 3.4553515910107483e-03
      -3.3995491671432467e-03 -2.3646929395654505e-03
      -4.5115014861590022e-03 1.2239236988403032e-02
      1.6371456485897069e-02 3.7871038973425397e-03
      -8.6585761902709547e-03 -1.1393388480514543e-03
      -5.3202228365478209e-03 -5.7093051103195569e-03
      -1.2148462589210009e-04 -1.8149746267797220e-02
      3.4162367110431350e-03 -6.1258393361605318e-03
      1.6975361280930537e-02 4.1648463192196328e-05
      -3.9960339055392265e-03 -9.5234097059739477e-03
      -4.6564160382324953e-03 1.0882143742434448e-02
      -7.5454108871882558e-03 -1.6491608968610262e-03
      2.8509637152113348e-03 8.5729922416456061e-03
      -4.6431534583458054e-03 -8.9974787110274810e-04
      -1.1295561332157096e-03 -1.0891723753736626e-02
      -5.1790216928821048e-03 -7.2659739386663890e-04
      -1.3442049133469058e-02 1.6191005146324433e-02
      -9.9784497878979247e-05 2.3874797316069092e-03
      1.9430736636183029e-03 2.1397973916541624e-03
      7.3170698808844963e-03 7.0150032026585389e-03
      -4.1494630735446764e-03 6.1224289412224742e-04
      1.0478672822775002e-02 -8.4055000106464071e-03
      7.2279427016388020e-03 -1.4396703512598809e-03
      -1.7135092022163931e-02 -7.0874165932419807e-03
      8.1488190559197496e-03 2.1643806892086503e-03
      -9.9317595322142736e-04 -3.4360009509953565e-03
      4.6558171978171381e-03 -1.5826900170158923e-02
      -2.6093544108372209e-03 1.0883699712532658e-03
      1.1212780708609704e-02 7.9646019830780217e-03
      -1.7935893676064473e-02 1.7960159279532101e-03
      9.2652318486514812e-03 9.3768109845572736e-03
      -7.8668721443026484e-03 -8.6620693489246198e-03
      -2.2464826086615037e-03 -9.5067154296363809e-03
      -2.9945360136082321e-03 2.6554094356138554e-03
      -6.1411641689325166e-03 -1.0457008833599849e-02
      4.4575367789689777e-03 1.2329510008165746e-02
      6.0712965005984242e-03 8.5635668002366390e-03
      1.4960728551884684e-03 3.7382038699922018e-03
      1.1258576845944342e-02 -1.0856090432403665e-02
      -9.0763231272006743e-03 5.0525844365537139e-03
      1.6113778326836737e-02 6.1658773960836886e-03
      6.5463204741206286e-03 8.2883322805379152e-04
      -7.9474584834581669e-03 -1.3253655641146186e-02
      -1.3004668657901239e-02 3.6120837633472212e-03
      -1.4151802181118991e-02 -6.9240131852752037e-03
      -4.3848966987460403e-03 1.5147671738206803e-02
      -6.1243177128893480e-03 5.7305170279719226e-03
      2.7010829594022521e-03 -5.0104855418310976e-03
      -5.8197888735934270e-03 4.5915301566617824e-03
      -7.3607720648641572e-03 2.4601264636668857e-03
      -1.5882914633375180e-02 -1.2629624649002635e-02
      -1.5541587415724348e-02 1.3458636208674858e-02
      -3.3743913809267771e-03 -6.5190912706863877e-03
      5.3995439758845038e-04 -1.4537168482114780e-02
      -2.9442854724176584e-03 6.6037766103440006e-03
      -1.5350085210553800e-02 -9.3498189217879101e-04
      3.3518353720546103e-03 3.7404928415888548e-03
      1.3654874849642874e-02 -1.6171788919553540e-02
      -1.6294656317748631e-02 4.0408829540599352e-03
      2.5010706388954033e-02 -1.4805342429687939e-03
      -2.0964607259155305e-02 -3.9378226846232670e-02
      -4.7876226690466574e-02 -2.3112168517148313e-02
      -4.3689957538508061e-03 1.4570080386649819e-02
      -3.5378271880011435e-02 -3.0892441578071294e-03
      -7.7705551360975293e-03 -2.7597584103094014e-02
      8.4420062296630041e-03 3.7239688537647761e-03
      2.7941524299944853e-02 -3.0647766674577678e-02
      -4.3067774291853642e-02 -2.0939309333206590e-03
      1.3101376659993400e-02 1.7584810187801704e-02
      3.9172425540687721e-04 4.5584199548290745e-03
      -1.1326441270603432e-02 3.8550758793644425e-02
      7.1166827057363262e-03 2.2392001236544327e-02
      -4.3232922121928662e-02 -8.2082746873535107e-03
      2.8840028840012192e-02 1.3633393323124743e-02
      3.2931165974617829e-02 -3.8210297378286219e-02
      1.7639333181173753e-02 2.4257309169143045e-02
      -2.4444114162058793e-02 -3.5252665235715359e-02
      1.0205684232450898e-02 2.0192566356909851e-02
      -7.7450858889069225e-03 3.2547668025441963e-02
      1.9306523133663278e-03 2.6578051071935987e-03
      4.2650521462377529e-02 -3.4530018765417600e-02
      8.4480997880532864e-03 3.8104090589442786e-03
      -2.0117497158822314e-02 -1.1322394712041934e-02
      -2.2080332580839426e-02 -2.7242476687520962e-02
      1.4359010740184440e-02 -1.1538710019632879e-02
      -1.6274423741080811e-02 4.3885503464154915e-02
      -6.4700860815439390e-03 1.6616859398713962e-02
      4.0854218264080623e-02 3.5038740144464786e-02
      -1.4606439017555723e-02 -3.0562502899321591e-02
      -1.9368636063308324e-03 2.7156956877127124e-02
      -1.5104522928901668e-02 3.4657841063144526e-02
      8.9314122031069927e-03 1.1096898611882627e-03
      -2.6149122924516086e-02 -1.4041265062004316e-02
      3.9990382204401848e-02 -2.0656453542960396e-03
      -1.4408209741111342e-02 -3.1717023273588836e-02
      6.3672908121385355e-03 2.5607281000756644e-02
      8.2516760164867420e-03 3.9235767944350269e-02
      1.2167878689010463e-02 -1.0229209988395851e-02
      9.3208181813615437e-03 2.1538466204410672e-02
      -1.4555436682818217e-02 -4.5595123138554038e-02
      -5.2160722414651278e-03 -2.9938429430268809e-02
      -2.5102777243467603e-02 -1.2056842933078564e-03
      -3.2932098569869062e-02 1.7703497124576043e-02
      4.1958127268467579e-02 -3.5445701957096953e-02
      -3.9194634290202424e-02 -3.8575368123468047e-02
      -1.9043161280978837e-02 -2.7638290191506353e-03
      4.1207718376926786e-02 3.5959561983633453e-02
      3.7005477551947510e-02 -6.0045763345481220e-03
      4.2741208285168704e-02 3.8219269963938672e-02
      2.7047586458648323e-02 -4.2687413809172278e-02
      2.0119430401825497e-02 -2.9817693317894075e-02
      5.5842583504380058e-03 -3.0421493435619563e-04
      3.4552472292837949e-02 -4.6777509596931692e-03
      2.0742108095728143e-02 -2.4529202495371452e-03
      3.4454170344486425e-02 4.0793164482892538e-02
      4.4724175375791611e-02 -4.1450556576375225e-02
      1.2259720472226508e-02 9.0694699833894585e-03
      1.2119899789508318e-02 3.5796418408745499e-02
      2.3182353524009224e-02 -2.5987300649281262e-02
      2.9820124559871059e-02 -1.0131536536852021e-02
      -2.2191120478444275e-02 1.4436965260631129e-03
      -3.8777186085824443e-02 4.1270024694288712e-02
      3.7080573696610407e-02 -2.0953722362992231e-02
      2.4639139291704911e-02 -1.1193216967109905e-02
      -1.6976744189826563e-02 -4.1447950261822020e-02
      -3.8522082074644137e-02 -2.3704964138018220e-02
      -3.9689824880834862e-03 9.0292509028980852e-03
      -2.9733914447362345e-02 -3.3866016629598913e-03
      -8.8136258639843618e-03 -2.4289242209699087e-02
      6.7847622236814698e-03 -1.5821651930652899e-04
      3.0703356652529910e-02 -3.1891420602526893e-02
      -3.5954677631336460e-02 -2.0998693677027128e-03
      2.2424784542482725e-02 1.9173483662566836e-02
      -6.6130326996165895e-04 2.6904677638499978e-03
      -1.0268590586521572e-02 4.2313066224549528e-02
      9.1168996186769199e-03 2.6072005916920424e-02
      -4.3295531257336539e-02 -1.6835039746424814e-02
      2.7119931551637243e-02 1.2036121606665366e-02
      3.1060676316480556e-02 -4.7368612099656662e-02
      1.0738797940806006e-02 2.5260927580511867e-02
      -2.3121967394248846e-02 -3.4924893482668376e-02
      5.4962278239125443e-03 1.3993294013899945e-02
      3.2644550278092964e-03 3.2271166913148540e-02
      2.9555910416109226e-03 7.5388152765594550e-03
      3.4070842498273773e-02 -3.4493702025684678e-02
      -4.6626980963661020e-04 5.9692410990925208e-03
      -2.1797800564198052e-02 -2.9302408144681997e-03
      -2.4438621224931800e-02 -2.5460000826029477e-02
      1.9519091697323118e-02 -2.0139816515685178e-04
      -1.8638165735749276e-02 4.4316371435329439e-02
      -1.1336316025961453e-02 1.8510833600811079e-02
      4.3884055164607534e-02 3.9882427972900765e-02
      -6.3980626326989717e-03 -2.7586574717589227e-02
      4.4606051211416742e-03 2.1733304349505520e-02
      -1.6366064672983672e-02 3.7116498636729854e-02
      3.1050103573962021e-03 -4.1911878787017813e-03
      -1.7415250202978128e-02 -1.5534710568172886e-02
      3.6031520636981215e-02 6.8504589401472268e-03
      -1.5503424033994155e-02 -3.0026093988133339e-02
      5.3994802518823378e-03 2.2988519653966588e-02
      7.2272958698610208e-03 3.5280749326364054e-02
      1.4354824484154051e-02 -5.6863141263073609e-03
      3.5052335507038870e-03 2.6194685693129553e-02
      -1.7704738347989506e-02 -4.0335541628861972e-02
      -7.1925099235736530e-03 -2.5483702965424706e-02
      -2.3794836517306968e-02 -1.2238082249860208e-03
      -2.3675288904609508e-02 1.7579329669172895e-02
      4.0507855807855951e-02 -2.7275650746434916e-02
      -4.1653425653635355e-02 -3.2344195552750622e-02
      -2.0040964345949076e-02 -1.1650990233275493e-02
      3.4998023408074862e-02 2.9913601834645694e-02
      3.4169204573386167e-02 -1.6826248062013746e-04
      3.2364150242867484e-02 3.1906650535554373e-02
      3.3665394083732196e-02 -3.1962438685535687e-02
      1.9444295925331076e-02 -2.5474240105223086e-02
      5.4486726118663700e-03 5.4505832005994886e-03
      3.3279962327979931e-02 -7.7386709743363005e-03
      1.9312803639300560e-02 3.9737617067105479e-03
      3.9779415788633504e-02 3.2326534627635350e-02
      3.3751935565917393e-02 -4.0779376464418204e-02
      7.8579459533905608e-03 6.8050035178069124e-03
      4.1241628478011433e-03 4.1876029194576211e-02
      2.2009454674038687e-02 -2.1018562424778526e-02
      3.3565863961294969e-02 -1.5221833141343781e-02
      -1.8890906340434527e-02 1.8485491959794893e-04
      -3.5665179308491550e-02 3.0696324282833098e-02
      3.2877279443709433e-02 -1.6286903948192853e-02
      -2.5310628230506383e-02 7.3824240369950982e-03
      1.1987327848458356e-02 3.3617566276467420e-02
      2.9948237875788972e-02 1.6827019412576891e-02
      -3.4104452104462856e-03 -5.4668423339716554e-03
      2.0897542005718094e-02 -2.6854512205281181e-03
      8.6414191633711179e-03 1.6487433093463826e-02
      -6.5197348848721704e-03 -3.4878821749669475e-03
      -1.3636330375798455e-02 2.0042372190318656e-02
      3.2463686867088129e-02 7.7475274933652537e-03
      -1.0027424979908847e-02 -9.6210482733953342e-03
      -1.6277885295370993e-03 -5.2042346761001371e-03
      1.2873777041117269e-02 -3.0367757274471024e-02
      -4.1587288470518909e-03 -1.4776315845306606e-02
      2.3845726020429409e-02 1.2471932576997044e-02
      -1.4691606471056174e-02 -1.0556952184768542e-02
      -2.3631259883929775e-02 3.6411525111528564e-02
      -4.3364816466854150e-03 -1.6766583569867492e-02
      1.9843521752557144e-02 2.2243410839853685e-02
      -3.5198081372954885e-03 -1.1470888818459805e-02
      6.8440746450105778e-04 -3.2507075420621978e-02
      -4.4001288354112702e-03 -8.2349692821465249e-03
      -2.8604575492302085e-02 2.6658072935464711e-02
      -1.8874977513409464e-03 -5.1862872884082031e-04
      8.6837614582660778e-03 1.1393336514308185e-02
      1.6905794922964453e-02 1.7623872906356901e-02
      -1.1897577074839962e-02 1.0190884148712154e-02
      1.1793536939534168e-02 -2.6675554319627291e-02
      1.1913166878915027e-02 -7.9235856650199492e-03
      -2.6039844077310560e-02 -3.0462464732360649e-02
      9.0098463165098619e-03 1.3951312283411703e-02
      -2.1845253065281873e-04 -2.0918872506564695e-02
      1.0936036696002282e-02 -2.4166778740491023e-02
      -7.6928892277645308e-03 3.5506495460494178e-03
      1.6950739647959047e-02 9.6654496557989633e-03
      -3.1512411580577965e-02 2.2177593877841851e-03
      8.9012206354375546e-03 1.6492831598668493e-02
      -2.1339735220000850e-03 -1.6889275784449462e-02
      1.0198182366173737e-03 -2.5824843186433875e-02
      -1.7888667983416807e-02 1.1964962433402126e-03
      -6.8650954942860616e-03 -1.3309200473555062e-02
      1.1208594302059015e-02 2.5383691699158162e-02
      6.6311719159337376e-03 1.8463290190900150e-02
      1.4617385904466866e-02 3.2990923292109163e-03
      2.5576270589008188e-02 -1.3726891763250232e-02
      -3.1577615289680804e-02 1.7929908570465999e-02
      3.3550464633100963e-02 2.8438041671007802e-02
      1.4561061388964874e-02 4.5011241637361258e-03
      -2.1332636302140832e-02 -2.3791568669536634e-02
      -2.4692011679670181e-02 -1.7358388308295102e-03
      -3.0439521574061979e-02 -2.2798229553320521e-02
      -2.7459156386902262e-02 2.1304819722154079e-02
      -7.2268378954271750e-03 2.2085923633857592e-02
      -2.4932014354366251e-03 1.1856389215728110e-03
      -2.9168691253431193e-02 2.4233921918592979e-03
      -1.5112365261408679e-02 -2.4145412310414703e-03
      -2.5869297313869732e-02 -2.1564127361313353e-02
      -3.0223972196817588e-02 3.3143146547229121e-02
      -3.1814823126917005e-03 -1.8409112925074228e-03
      -3.0751008926892909e-03 -2.6161192928545466e-02
      -1.4753479108499426e-02 2.3930538736093677e-02
      -2.5739930891651615e-02 1.2604271311949118e-02
      1.8656089550725660e-02 4.4463375844438343e-03
      2.4509026370358809e-02 -2.8685452420023846e-02
      -3.1255743500524173e-02 1.3048539092406976e-02
      3.9731107929972809e-02 -1.3234745587670332e-02
      -2.6268282366357455e-02 -4.7864510083485502e-02
      -5.0899461389118918e-02 -2.2910359612741796e-02
      2.4117704673896681e-05 1.0157047580825904e-02
      -4.0768411607957786e-02 -6.5404880023555356e-03
      -1.0366445956951346e-02 -2.8253469173551118e-02
      9.7157610240241974e-03 -1.2674831107709211e-03
      3.1324878699649276e-02 -3.5811151730492936e-02
      -4.0282093110306727e-02 -8.7401323926860220e-03
      2.2329332713267955e-02 2.0286049657205062e-02
      1.9814081022253341e-03 4.1965158185183630e-03
      -1.6416344277348456e-02 4.8556029587938601e-02
      8.7173743511706654e-03 2.6903130411500480e-02
      -4.5043447067252440e-02 -1.1979325273810897e-02
      2.9682867441611988e-02 2.1162179705971642e-02
      3.2012355885717374e-02 -4.5678373406182665e-02
      2.0306218612907549e-02 2.6759429302063546e-02
      -2.2450133011324327e-02 -3.9229265542682495e-02
      5.1201436573081725e-04 2.2842606404528697e-02
      -1.5475723722826839e-03 3.9636792090610114e-02
      4.3891188486949563e-03 4.0595767791352655e-03
      5.0033025791151930e-02 -4.0944088394106681e-02
      4.2750056254211273e-03 7.4261638018153159e-03
      -1.8273450286419347e-02 -7.4866516675757043e-03
      -2.3411446954396228e-02 -3.6835627218809966e-02
      1.3452784264687954e-02 -4.1799030044533626e-03
      -1.9193104590807388e-02 4.4679597336999388e-02
      -1.0100340600153527e-02 1.2088400990001563e-02
      5.4046863924861376e-02 3.5492236431353387e-02
      -1.6219605981383712e-02 -3.2320734934358906e-02
      -6.3170579920876040e-03 2.9511848413587990e-02
      -1.8227780040238638e-02 3.4974829793232062e-02
      5.9151170938712208e-03 -6.6324969958769027e-04
      -2.2701706579409779e-02 -1.3097094231060011e-02
      5.0521761694902113e-02 8.3111939673501146e-03
      -2.2490696531324610e-02 -3.3086514548704385e-02
      1.3629526874429764e-02 2.0400747613686813e-02
      3.2876129388242957e-03 3.6912368167123837e-02
      2.1539506586986053e-02 -7.7496949574394442e-03
      7.6102335700311682e-03 2.7913676312842216e-02
      -2.3647547281646426e-02 -4.4881451150910710e-02
      -2.9055275971651357e-03 -2.5910425912661142e-02
      -2.9268508480065913e-02 -8.7767800057935354e-03
      -3.3734782818173423e-02 1.9182434881746615e-02
      5.0584819026765704e-02 -3.7594442460368901e-02
      -5.1000314581844459e-02 -3.3228087737949115e-02
      -1.7608185551009656e-02 -7.8995027199457359e-03
      4.7559447693843425e-02 3.6747264344878121e-02
      4.2740058550873060e-02 -4.6971855344068959e-03
      4.8528671000245667e-02 3.8027824812174177e-02
      4.0097747819100860e-02 -4.0529367773607383e-02
      1.8509866091727632e-02 -2.7052479910909186e-02
      1.2148978722078744e-02 5.6020327783965389e-03
      4.7941120536245219e-02 -5.1042602586686883e-03
      2.2490856951745918e-02 -2.9117856173816337e-03
      4.0071000809819728e-02 3.8034137961238119e-02
      4.6537606176806336e-02 -4.4168480226226603e-02
      1.0220405111809539e-02 1.4416480452473261e-02
      1.3363154436183034e-02 3.9258181742736986e-02
      2.3806393310538472e-02 -2.3490725312460502e-02
      3.7478394471620102e-02 -1.5517906939377182e-02
      -1.6202164758041666e-02 -3.7097273628316956e-03
      -4.7460948118259613e-02 4.6335878808162034e-02
      4.7330515596234191e-02 -1.6549635581872418e-02
      5.7561771110304388e-02 -1.8872188210482279e-02
      -3.7708811605118187e-02 -8.3717453270822348e-02
      -8.5101943092298779e-02 -4.9865721146686914e-02
      -3.7933947079467102e-03 2.8102046528607455e-02
      -7.3993443652668786e-02 -7.8233495348567095e-03
      -1.9741267711711998e-02 -5.2392218481515845e-02
      1.4880550775711245e-02 -1.8394553355096715e-03
      5.5466754471706868e-02 -6.3757335015220351e-02
      -7.2596848567329855e-02 -4.1027917490422368e-03
      3.9721740160016707e-02 3.3642370924186753e-02
      3.8033431894841509e-03 1.9370112908778148e-02
      -1.6527312829010002e-02 8.5896360426157295e-02
      1.0085229050055785e-02 4.4617025161912641e-02
      -8.3451104976578538e-02 -2.4386353009148553e-02
      5.4362195538527364e-02 2.8625249134543559e-02
      5.9887670583708710e-02 -8.0961732632016475e-02
      2.8257929136323034e-02 4.7111546212552757e-02
      -4.4528138421644638e-02 -7.3563993593656313e-02
      7.5211624134093064e-03 2.8667217809055873e-02
      -1.7120911052936427e-03 7.3773260772891425e-02
      1.0628748755263991e-02 1.3107678379349858e-02
      7.5322233582754958e-02 -8.1003930504497820e-02
      5.5302797652881644e-03 -1.5189838486264491e-03
      -3.5681032652931433e-02 -1.7296540191258793e-02
      -5.1695473019422677e-02 -5.8632803350191026e-02
      3.3810908862021163e-02 -1.2844780569694646e-02
      -3.2142261648328022e-02 8.2430133079741189e-02
      -1.7212840493089146e-02 3.1417009328356373e-02
      8.8699696277809006e-02 7.2632062491755134e-02
      -1.5873163030900358e-02 -4.8720642593095401e-02
      -4.6625605918483581e-04 5.5669108531595207e-02
      -2.9864771879562747e-02 6.8334319770450541e-02
      9.3231349183201181e-03 2.1849051123688642e-03
      -3.7030163055974077e-02 -2.9409125570519105e-02
      8.4821459722269926e-02 7.8738171581751830e-03
      -3.9749817328785873e-02 -5.9504216501449457e-02
      1.7476510630314423e-02 3.7473879245145017e-02
      8.5104459352285718e-04 7.1782895069581798e-02
      3.0494623901145091e-02 -1.7935370168999411e-02
      1.1224084698001549e-02 4.2129737808709253e-02
      -3.9104260853975129e-02 -8.7213339632399633e-02
      -8.9674191112507524e-03 -4.2734825987514935e-02
      -4.0010098735109384e-02 -9.4145371298750852e-03
      -6.3381594329821989e-02 3.0323222244527780e-02
      7.6442394249831083e-02 -5.4411195863200021e-02
      -8.3927271246977353e-02 -7.1214512914908143e-02
      -3.4118401073554967e-02 -7.7581471920623469e-03
      7.7568005879798160e-02 5.8622895841800950e-02
      7.4009931188371098e-02 -5.0683753166150154e-03
      7.7252335098399738e-02 7.4208542986287873e-02
      5.9179700855642538e-02 -7.6017011039406571e-02
      3.7085729908865869e-02 -5.3855453509390180e-02
      2.3843301383494064e-02 8.6629809595950829e-03
      7.7457560117776075e-02 -3.7125359845647478e-03
      3.6132521189399927e-02 -4.1189961097147874e-03
      7.7170135498684442e-02 7.7758971949364153e-02
      8.0824187943356385e-02 -8.2841017066504610e-02
      1.9038809615219712e-02 1.7958654066321224e-02
      2.1563957036005284e-02 8.0026804025938036e-02
      4.1854494660388715e-02 -5.3504647014305587e-02
      7.1810977664008541e-02 -2.0099915665722275e-02
      -3.3207155630651200e-02 -1.0641567650299569e-02
      -7.4338966447999436e-02 7.2056449328851427e-02
      7.5250307250243370e-02 -3.0411032724745692e-02
      -3.5856020941885626e-03 -6.8289645589065726e-04
      -3.5705059558483435e-03 1.9781854118656665e-03
      1.1683401391433172e-03 5.3145362712853231e-03
      -3.2108907583763787e-03 7.8113122753336022e-05
      -4.0111599242949898e-03 1.4780661142220672e-03
      -4.2205366223438097e-03 4.6662571660177664e-03
      -1.6254024823817179e-03 -3.4450075356178131e-03
      -2.5782798877930476e-03 -2.8137258344402361e-03
      -1.1791941910478728e-03 -2.2162342874621722e-03
      -3.3789760136501245e-03 -1.2123348056958525e-03
      5.4515745868920096e-03 -3.1789197180347406e-04
      1.4540535988633678e-03 9.1863996546180117e-04
      4.3574557257450254e-03 -3.3130802979677628e-03
      3.8012144405289035e-03 3.0509257776359135e-03
      -3.2325772072977043e-04 4.3508221707893426e-03
      1.5392033847535548e-03 -2.6154450567124352e-03
      6.0651526039492607e-04 1.3931727424349536e-03
      4.1752868999084727e-03 1.5098766637516325e-03
      4.5960108508489271e-03 -2.0292965292226643e-03
      -1.9290339772273487e-03 4.9087212943268723e-03
      3.0355900879999341e-04 -2.4847387954560272e-03
      -4.3223273173127021e-03 2.7344774222443362e-03
      -3.8174129163466145e-03 -9.9111641821149213e-04
      -1.2599667572348082e-04 2.9637903942249773e-03
      -1.0975548667878897e-03 -1.7242618539470870e-03
      1.0018601085890746e-03 5.0245584616016147e-03
      -5.7718037717050391e-03 1.0423206324075916e-03
      2.4286677745334532e-03 3.2709327153978137e-03
      -3.7664921673601233e-03 2.3081145393490498e-03
      -3.2857581751854800e-03 -4.7888084585689201e-03
      1.8874323522976946e-03 4.8441545445638166e-03
      2.9035875019703828e-03 3.6714244141457051e-03
      4.6227360170499445e-03 4.1432099686050010e-03
      3.8223681401233463e-04 2.6435912233434269e-03
      -1.7279407228030590e-03 9.2635565427242705e-04
      5.4601250342743981e-03 1.0738173378651433e-04
      4.6344300935379449e-03 -2.0058188214975382e-04
      -1.5303279253411368e-03 -4.5879898459199597e-03
      3.1483002611773269e-03 -1.6006518769655612e-03
      -1.7321029055844257e-03 -2.1277847869408963e-03
      -4.5978236393923750e-03 1.7601493341758434e-03
      -2.3679183365899869e-03 2.5214537250800705e-03
      3.5871980883480366e-03 1.4727604987667231e-03
      2.2240306246296138e-03 -2.2949625688085135e-03
      -3.3283954495998518e-03 5.5681981775482737e-03
      -2.0300951338990330e-04 3.6067265905654240e-03
      5.2030979069879191e-03 -4.6848671633572042e-03
      4.3716831228344600e-03 3.4259745846278926e-03
      4.5156446856175238e-03 -1.4685449706424926e-03
      3.6706397648051223e-03 -9.6285782437937012e-04
      -2.4485379031178060e-03 -5.4417898630268365e-03
      4.3673042731753172e-03 -3.1994525633534665e-03
      1.8111924424740371e-03 5.0973134655885382e-03
      4.0925558646069202e-03 -2.2671563232101845e-03
      -6.4356587224413274e-04 -4.3716204751180938e-03
      4.7361191001548258e-03 3.7684610927682886e-03
      4.4176127611814083e-03 1.2457498452956098e-03
      -4.8033238929406094e-03 -4.2580258932271367e-03
      -5.3108588824362797e-05 -2.3015454878679647e-03
      2.3628957699576019e-03 -3.1122002118231023e-03
      3.4018394855604624e-04 -5.1351471011096977e-04
      3.3254950028903068e-03 -4.0662516902537065e-03
      5.4122403523744018e-03 2.1015413770762584e-03
      -1.5240328530578512e-03 -3.3329315800456551e-03
      5.2483965150521540e-02 -6.9839254060649900e-03
      -3.0456449816680071e-02 -5.9459411533273589e-02
      -6.9292733992673328e-02 -3.9960462608870609e-02
      1.5134865827835923e-03 1.5218955581359727e-02
      -5.6333297641365840e-02 -8.8487003509545078e-03
      -9.7250433644678700e-03 -3.3171149281449527e-02
      6.5058055729928267e-03 -7.1372601301509441e-03
      4.2376137718573674e-02 -4.8246570428164111e-02
      -6.1652317773015199e-02 -4.5440224754834738e-03
      3.3299074647417271e-02 2.4987205986242635e-02
      -6.0212705299164627e-03 1.0843573264982836e-02
      -1.6059197212007516e-02 6.2590578005814079e-02
      1.4174156964474053e-02 3.3354876644008664e-02
      -6.2904614657181640e-02 -1.7127983410551807e-02
      4.1040353622912328e-02 1.7840050362040200e-02
      4.5126147004670734e-02 -6.7725976616484052e-02
      2.0999493134400207e-02 3.7110076497778810e-02
      -3.7304989952623963e-02 -6.4647681851405389e-02
      1.2292116870022206e-02 2.7069526484737389e-02
      1.2321765091018147e-03 5.7806313893672703e-02
      8.9808520038674403e-03 8.9005022555906591e-03
      5.5949833768730653e-02 -5.6275709379058521e-02
      4.8417794849616013e-03 5.7264524774687008e-03
      -2.8287043049615566e-02 -1.6649625179008795e-02
      -4.4507134718274735e-02 -4.4815999860185696e-02
      2.8913088672139119e-02 -8.5233945328662391e-03
      -2.9511877792367230e-02 6.2760669293589810e-02
      -2.0761945199846681e-02 2.1705140557371785e-02
      6.7635435330106713e-02 5.0235220828232112e-02
      -1.9552347851095483e-02 -4.1298105000438970e-02
      3.4901197296407630e-03 4.8764556792932061e-02
      -2.4743097952609972e-02 5.6728774425541723e-02
      5.9164089799308419e-03 1.9168341429247238e-03
      -2.9447369048950737e-02 -1.5758639860022568e-02
      6.0404563407937879e-02 8.6924521352593782e-03
      -3.2366029822084849e-02 -4.7189702280942922e-02
      1.5147999800352592e-02 3.1394649072716212e-02
      5.9469035322337535e-03 5.6625830728985832e-02
      2.7508529769469183e-02 -1.5300946442708475e-02
      1.1265560494057995e-02 3.2891463261696757e-02
      -3.1249194214530141e-02 -7.0592718537697732e-02
      -7.9874626805143401e-03 -3.3175505044557393e-02
      -2.7785502143198970e-02 -5.7569398902100897e-03
      -5.1425683876456234e-02 2.3019159226579430e-02
      6.5076685643078350e-02 -4.8189343628287175e-02
      -6.4879418578449588e-02 -4.8070576560655005e-02
      -3.0162612913512060e-02 -1.4021824355703589e-02
      5.6850378774223942e-02 4.5209070365551260e-02
      6.6420816836518112e-02 -1.1893973462303260e-02
      6.5851470707618973e-02 5.1953002332963044e-02
      4.5545093598764193e-02 -5.8096757351499398e-02
      2.8080114979997454e-02 -4.8211467938850651e-02
      1.8558899521072082e-02 3.2459362821159123e-03
      5.5909564859810676e-02 -1.5402997253995774e-03
      2.8219699986086349e-02 -7.2503970353549841e-03
      5.2450124017482967e-02 5.7239528851512823e-02
      6.8500166805207124e-02 -6.7861374787924936e-02
      2.1956805956373535e-02 1.4738651764660842e-02
      1.4074845475397200e-02 5.5260700481136009e-02
      3.2452183383334207e-02 -4.5175886621526828e-02
      5.2076848750892538e-02 -1.6263142424622588e-02
      -2.8154961770261864e-02 -6.4046923441259422e-03
      -5.5451057014302162e-02 6.2093153486661404e-02
      6.1336554557975230e-02 -2.4929879974387111e-02
      7.9283469689105129e-02 -1.3581606401604027e-02
      -4.7725986902359727e-02 -1.0385837319215888e-01
      -1.0599619273584954e-01 -5.1452594688228701e-02
      -1.3883786184485201e-03 2.6882682516492482e-02
      -8.4285620873122427e-02 -4.8626016909125982e-03
      -1.6755025205545507e-02 -5.5135385535007721e-02
      2.1036745317422570e-02 -7.3054154368130042e-03
      7.0057865080212556e-02 -7.3059247129321936e-02
      -9.4273968530518615e-02 -1.4144102631930732e-02
      4.6360128659188024e-02 3.1990350151700042e-02
      3.3508745712697461e-03 2.1758331121387406e-02
      -3.1471990869545587e-02 1.0167919146832298e-01
      2.0095261218639925e-02 5.0443234363688735e-02
      -1.0155768192597765e-01 -3.3370951280926771e-02
      5.7577350356007591e-02 4.0260713820846651e-02
      7.0043723237114178e-02 -1.0713160168286137e-01
      2.5417006351171226e-02 5.9251849135671379e-02
      -5.1185022941091361e-02 -9.5623908770326366e-02
      7.4210873173901036e-03 4.2448498262018949e-02
      -3.8836603560950373e-03 8.9508709312767151e-02
      1.5952455311413767e-02 1.0603999759954122e-02
      9.4077950322157045e-02 -9.6368331281391231e-02
      5.0024607338902344e-03 3.3082729737226734e-03
      -4.6944383931436469e-02 -2.3122453697955712e-02
      -6.4782102438135855e-02 -7.5927170535236149e-02
      4.2427155700264937e-02 -1.8042406343408181e-02
      -3.5796262909789753e-02 9.6530306762215717e-02
      -1.7829955058462445e-02 3.9440983512298675e-02
      1.0700425613074921e-01 8.9457649142435966e-02
      -2.1949418620870829e-02 -6.1935801200152060e-02
      2.1826174369164969e-03 6.9454957557562966e-02
      -4.0222955896596482e-02 8.2727677383319834e-02
      1.3054316446813045e-02 6.1824688386866351e-04
      -5.6408100376921400e-02 -3.2715376464904904e-02
      1.0181746061877464e-01 1.0741925717858224e-02
      -5.1930776961732150e-02 -7.5945971027104445e-02
      1.4345011404622580e-02 5.1080863316617334e-02
      1.4864405303240211e-03 8.9958613599362372e-02
      4.1304668676010542e-02 -1.2301197682250626e-02
      2.2235838004469717e-02 5.6438618337539902e-02
      -4.4933645669456235e-02 -1.0062096444663302e-01
      -8.4048614225631403e-03 -5.7838880938530381e-02
      -4.7372274719049097e-02 -3.6169041095058451e-03
      -7.2219442939310111e-02 4.7694843348590830e-02
      9.4612526799385199e-02 -7.1259292776595734e-02
      -9.8421274390882094e-02 -7.6569066882444498e-02
      -3.4824333557695958e-02 -1.2119293272114969e-02
      9.5112887332924084e-02 7.8112745347437132e-02
      1.0117358398925111e-01 -7.2519215439988760e-03
      9.8224550923902199e-02 8.5500883011737472e-02
      8.2538218662701363e-02 -8.8645621782042106e-02
      4.0894022291918831e-02 -6.6995528125286030e-02
      2.0434589548950634e-02 1.1698198128564314e-02
      9.4784879125451554e-02 -3.1591928647586994e-03
      3.8265267156930773e-02 -4.2477821230835237e-03
      9.1586604648221714e-02 9.6257619118929549e-02
      9.3612703555439145e-02 -1.0664154532474426e-01
      3.2342118781012709e-02 2.4062065995024674e-02
      2.4971008107192466e-02 9.3115125979691099e-02
      6.0034970110830539e-02 -5.8964648406961841e-02
      8.2935411566300701e-02 -3.3925909196090155e-02
      -4.0902121299870732e-02 -5.8555773528458045e-03
      -8.7363213362137412e-02 8.7793338524139716e-02
      9.1120077125126528e-02 -3.9085053849691277e-02
      -1.8298698348256804e-02 9.6883917060514285e-03
      1.5068345389582141e-02 2.4564626177075381e-02
      2.7556441498430079e-02 1.2986263858974997e-02
      1.0039156789602374e-03 -5.7366320838967274e-03
      2.2568802024319854e-02 -1.8373090024679994e-03
      2.9596426101179637e-03 1.8035325490946344e-02
      -6.5013812769974619e-03 -2.7336420889078352e-03
      -2.0288230085639371e-02 1.8937577735986706e-02
      2.5084210953587725e-02 1.8130111145086803e-03
      -1.5282022683135643e-02 -1.1186529000137297e-02
      4.2437439141960881e-03 -8.1396969249150995e-03
      1.0597702562282176e-02 -3.2501544334179969e-02
      -1.4769371443965125e-03 -1.4999759021891348e-02
      3.0825828131043002e-02 1.1124421636429689e-02
      -1.4729820137285547e-02 -1.2794876645304326e-02
      -1.6146797153506597e-02 2.6744195609663256e-02
      -1.4112103441017588e-02 -1.7235249312611802e-02
      1.1539093412771959e-02 1.9414400737350703e-02
      -4.2218196087327924e-03 -1.1733173427166432e-02
      1.5533223867787635e-03 -2.3038217983334400e-02
      -9.2241154054218868e-03 -6.6442803673907348e-03
      -2.6359141945996090e-02 2.1389482624296269e-02
      7.3795252297434433e-04 -2.7300531962557617e-03
      1.2843435849273117e-02 1.1890158141757254e-03
      1.4830591009369152e-02 2.1724297267427937e-02
      -4.6592378528347040e-03 6.4890196860108960e-03
      8.7785938426556062e-03 -2.2468032090853039e-02
      1.0653054230054247e-02 -1.2644358349111389e-02
      -2.3538378327594797e-02 -1.9603829584879474e-02
      9.6769981174957900e-03 2.0396659499202718e-02
      4.9364320144499232e-03 -1.2523212484283624e-02
      9.8129602532230180e-03 -2.5556793035963844e-02
      -5.3188795215802255e-03 1.5315891945848104e-03
      9.4370830283877095e-03 9.8808007692117172e-03
      -2.1741038542059190e-02 -3.0865019407223236e-03
      1.0511219801775485e-02 2.3950129267024126e-02
      -7.8667748843521089e-03 -1.8146272738953931e-02
      -5.9600547514701814e-03 -1.7735750167683331e-02
      -1.0730315559233728e-02 5.1378850169260951e-03
      -1.9804440107811941e-03 -1.3465535191578434e-02
      1.3656700020780111e-02 2.2253347753800681e-02
      -3.3753593752119020e-03 1.5812637006767247e-02
      1.5388025015507409e-02 9.7031072457228439e-04
      2.2379338118675620e-02 -1.0329031451731521e-02
      -2.9389862402945617e-02 1.4021970931871946e-02
      2.9436460093949068e-02 1.4789342404946077e-02
      1.1705522006753450e-02 8.3508650749672363e-03
      -2.1184418462317993e-02 -2.0903209185944158e-02
      -2.8316850936162676e-02 7.1061840071338931e-03
      -2.7503593991994195e-02 -1.6986821575030422e-02
      -2.0635579600634137e-02 2.0164364198532819e-02
      -7.1249285113535238e-03 1.3959557192378720e-02
      -4.5672914525689712e-03 -2.0502534489986275e-03
      -1.9854635923830279e-02 -1.5867320758017498e-03
      -6.8187307443480956e-03 1.7201269242707619e-03
      -2.2559423195128693e-02 -2.1221344766137011e-02
      -2.2225416968538737e-02 2.7488139335979673e-02
      -1.0131995695100910e-02 -3.7424162924683336e-03
      -5.1822722340088131e-03 -2.3869900181108582e-02
      -1.3421176460943277e-02 2.1178056541138308e-02
      -1.8398759701847830e-02 1.1016624907565935e-02
      5.9154884575601833e-03 4.9317127251773309e-03
      2.0851155239361790e-02 -1.8711761072342945e-02
      -2.5506846553654278e-02 1.5500652949202725e-02
      3.8759007890478800e-02 -5.6025940850762982e-03
      -2.4782833983958478e-02 -5.1149007047479322e-02
      -5.6302257839312995e-02 -3.1636509293757657e-02
      -7.3752012342251415e-03 2.2098609329848373e-02
      -4.7163604390436729e-02 -8.6702803680096079e-03
      -9.2597034192622284e-03 -3.4374297237174986e-02
      8.4677657649240845e-03 -1.4660581774101459e-04
      3.2881620292955833e-02 -3.7107598928590668e-02
      -5.1497161643811858e-02 -1.6209987772153505e-03
      2.0317750184008370e-02 2.1043477764930724e-02
      -4.6253059159415870e-03 1.1707639753537171e-02
      -1.9460147462591608e-02 6.5955826214535856e-02
      1.4119233728149621e-02 2.5025076492439045e-02
      -6.2141190974424700e-02 -1.5341381698312092e-02
      3.5212077161528875e-02 1.7170163885358716e-02
      3.6941624621484002e-02 -5.7682208643582707e-02
      2.4119612738267682e-02 3.6682171315349475e-02
      -3.3569639468346416e-02 -4.8508072491967300e-02
      9.1940499571806517e-03 2.7937083949738310e-02
      -9.1707440000514603e-03 5.7081384773834766e-02
      1.0570570734225690e-02 1.2405281994517920e-02
      5.0296371860317268e-02 -5.4561793354530486e-02
      6.9171910865636682e-03 6.8767252454964307e-03
      -2.8120051004492688e-02 -1.5645126604816970e-02
      -3.1518650634549755e-02 -4.1296342224296206e-02
      2.4377829236535264e-02 -6.0214151264893949e-03
      -2.7988014583522083e-02 6.2399859267781993e-02
      -1.4296507174624218e-02 2.7567748663123753e-02
      5.5397542129620871e-02 5.2425527164749873e-02
      -1.5359178723946435e-02 -3.9833659202657266e-02
      4.0564005869875323e-03 3.5361894703798614e-02
      -2.4803854316939867e-02 5.0698285675753990e-02
      9.5541330754197566e-03 -2.8543453109618009e-03
      -3.3095281907018492e-02 -1.6306615044631999e-02
      5.6649181659659154e-02 2.0143802946196755e-04
      -3.1688620823715555e-02 -3.9648549705276523e-02
      1.2798512594081244e-02 2.6275847984774423e-02
      -2.3296860684698310e-03 4.8665708281546018e-02
      2.0126573231059396e-02 -8.7016606434056898e-03
      1.1211904265598472e-02 2.7639435122398120e-02
      -2.6331476248440525e-02 -6.4038585667496109e-02
      -5.0407511573549871e-03 -3.7826313723834451e-02
      -2.9636748181966911e-02 -7.6322501800421402e-03
      -3.5324893650322424e-02 2.4480499293315854e-02
      5.7002519312932411e-02 -4.5179168954499957e-02
      -6.0704606421105818e-02 -4.6085094229617783e-02
      -2.4729589164972636e-02 -3.7252996652751970e-03
      4.8355077336568617e-02 4.1038693836096117e-02
      6.2135967820822625e-02 -1.3030955575016873e-02
      5.6473845414651162e-02 5.2513354492334297e-02
      4.8821869312270463e-02 -5.3428622650651875e-02
      1.9577253022583573e-02 -3.8287618437737272e-02
      1.8481808714071537e-02 7.4409191061640349e-03
      4.8653336963000747e-02 -1.8019783959164897e-04
      1.9625390766938696e-02 1.4780238845338268e-03
      4.6270650326691067e-02 4.9937120302684365e-02
      5.6708540395460867e-02 -6.1783027825377354e-02
      2.1507949559252299e-02 6.1585692287316109e-03
      6.4372622914863759e-03 4.9646275342054902e-02
      3.5875980768001345e-02 -3.6073607875460288e-02
      4.3964192102280038e-02 -1.4961500562208163e-02
      -2.2586261160728049e-02 -4.5396113871776647e-03
      -5.3951869707328938e-02 4.8066877733319018e-02
      5.3450198106370805e-02 -2.5040689634825117e-02
      4.1006425646499443e-02 -1.3637603622938503e-02
      -3.4651346678306404e-02 -5.6988093346481215e-02
      -5.6592413270266248e-02 -3.6807043204547987e-02
      -8.6703914726332359e-03 1.6147096426610975e-02
      -4.6364113451226173e-02 -6.1131612690241257e-03
      -5.6024938125492606e-03 -3.9623922226998856e-02
      7.6012372109761145e-03 -1.6569837740220441e-03
      4.0242730103709511e-02 -4.1080666700516154e-02
      -5.7281167645404696e-02 -6.8996618842050552e-03
      2.2977380783714797e-02 2.5861866948674244e-02
      -4.3181637093803165e-03 1.2353198496557720e-02
      -1.6914199206416326e-02 5.8798335979750413e-02
      1.4208177496806007e-02 2.9821530212030163e-02
      -5.4944732913388965e-02 -2.0538811659044587e-02
      3.6444859812644288e-02 2.1166249985845688e-02
      4.6901933752093006e-02 -6.5294769144610909e-02
      2.1512262159925567e-02 3.1543256404760189e-02
      -3.3014455605367164e-02 -5.9973983290189346e-02
      8.4624738110206999e-04 2.1853723580363662e-02
      -6.0578429598016964e-03 6.0755597385919638e-02
      7.0283763775780819e-03 4.6688749390858915e-03
      5.3094141675017380e-02 -5.4756845127369690e-02
      2.9054862664821455e-03 -2.4402611735137797e-03
      -2.2500954373270227e-02 -1.3474677898192547e-02
      -2.9938954301074662e-02 -4.9910265222929129e-02
      2.4010393822807917e-02 -1.3511299052094885e-02
      -2.8465123260768836e-02 5.9739321056458988e-02
      -1.1910925628832648e-02 2.5403961229635862e-02
      5.8182137509770394e-02 5.4886593079554312e-02
      -1.6518630627036273e-02 -3.9783305901046111e-02
      1.3795441900084507e-03 3.9026453592580682e-02
      -2.2843727860293126e-02 5.5742177535313082e-02
      4.1191100498201372e-03 2.8959716569262940e-03
      -3.0628037119177623e-02 -1.9118806478847526e-02
      6.0023959231210532e-02 6.1821464212253397e-03
      -3.3668438136328693e-02 -4.1056920251343415e-02
      1.2856845858415492e-02 3.1843567641929207e-02
      -2.3779848968144670e-03 4.6745505460126742e-02
      3.1217547358300027e-02 -5.5551041557872658e-03
      1.3146523228449348e-02 3.8340950346983059e-02
      -2.7808958552272299e-02 -6.2635461070344012e-02
      -3.5125367637121988e-04 -2.9645242196925659e-02
      -2.6370819902170606e-02 -8.4123346357757485e-03
      -4.0477519919511457e-02 2.1437537437503280e-02
      5.8541131879484960e-02 -3.9978463142952843e-02
      -5.8552376526622520e-02 -4.5926786655548092e-02
      -1.9026639022293783e-02 -1.2643388496878278e-02
      5.2313611057667304e-02 4.2795716180525842e-02
      5.6874181796582567e-02 -4.5752578494402171e-03
      6.0738749904474976e-02 5.0091347214471123e-02
      5.2464995150988777e-02 -5.4045381539718197e-02
      1.8835449269576313e-02 -4.4917858503105014e-02
      1.8475593181280375e-02 6.8506085687047745e-03
      5.3993389490358604e-02 -1.2891546481574121e-03
      2.9162373230862772e-02 -3.1963745032478452e-04
      5.0005720119667488e-02 5.6479498040374158e-02
      6.3872350551785112e-02 -6.2265034906579586e-02
      1.6291304358139892e-02 1.4270704746502747e-02
      1.2554751888814783e-02 5.6218917132711398e-02
      3.0146801025326797e-02 -4.0951624278447098e-02
      4.6530913636771566e-02 -1.1170063248847766e-02
      -3.2212761382386483e-02 -4.4429891318878492e-03
      -5.3548693028978529e-02 5.8152270505248356e-02
      4.8138382287415127e-02 -2.4984663759520187e-02
      -2.2654062678337767e-02 1.4609736416028912e-03
      1.0883049518771813e-02 2.9662421522240381e-02
      2.8998244552264161e-02 1.6491016717301792e-02
      -4.5223287163467137e-03 -7.8896871161140605e-03
      2.5222339086925123e-02 -1.7186671523859755e-03
      1.0215755478489708e-02 1.7280867413785882e-02
      -3.1679831289205705e-03 2.5782307352326642e-03
      -1.9566636677793698e-02 2.0330094079631787e-02
      2.9064866938724312e-02 4.1671407506180822e-03
      -9.3377235062342412e-03 -1.4295198583386778e-02
      2.2655197617010617e-03 -5.0197887564681397e-03
      1.6442444184731253e-03 -2.6282752553216597e-02
      -8.5991320364255559e-03 -8.8420092730776990e-03
      2.7869557243195123e-02 7.7919807867297929e-03
      -2.0116556564347833e-02 -7.3028018968543124e-03
      -2.3805245318940113e-02 3.1126294150640461e-02
      -5.5086205509752269e-03 -1.9493448197366960e-02
      1.2715510731384298e-02 2.7508510248858947e-02
      -8.1803143495077692e-03 -1.6164578366762914e-02
      4.5029908805000254e-03 -2.9992279033554153e-02
      -4.5608812061116296e-03 -1.7918113711099309e-03
      -2.3430296363830264e-02 2.9260665978866677e-02
      -3.5750133925097627e-03 -3.9359892976795014e-05
      1.2095665770009671e-02 6.8866372805749324e-03
      2.0980215290575283e-02 2.4378662964494223e-02
      -7.3732310049284162e-03 1.2748478471837250e-03
      8.3221309155962157e-03 -2.6149488813828690e-02
      9.9307882417638254e-03 -1.0837664467111870e-02
      -3.0967405572947346e-02 -2.2188088867850616e-02
      1.6397598898460466e-03 2.0392963545780140e-02
      3.2205578013049102e-03 -2.1596102432665517e-02
      1.5316504505982455e-02 -2.2038590594952071e-02
      -6.3918822217745438e-03 3.6688835226367858e-03
      1.3359368219580434e-02 3.7751541532506120e-03
      -2.1741802891198026e-02 2.0370091806627571e-03
      8.0676298765134154e-03 1.7806653257056444e-02
      -1.3235643224047407e-03 -1.1781074038438736e-02
      3.0293981812314274e-03 -1.9152075905681652e-02
      -1.3147256793268579e-02 8.1967735124202409e-03
      -1.8422807743711362e-03 -1.7010656525116949e-02
      1.4535656854295226e-02 2.5166775912244616e-02
      1.2116434393146019e-03 1.5300123930481212e-02
      1.8267513957138801e-02 6.7961051964020389e-03
      1.9662991289217554e-02 -1.1809032889611154e-02
      -2.6046940016994959e-02 1.5087547154779177e-02
      2.7414821480559692e-02 1.6277415641768361e-02
      1.1987249709947091e-02 1.8942109091557146e-03
      -2.8906434425143474e-02 -2.2423392317943592e-02
      -2.7699336119991973e-02 8.8868077833425541e-03
      -2.0088528032150804e-02 -2.2861121375334380e-02
      -1.7912064349855015e-02 3.0707600245125311e-02
      -1.4041576104455451e-02 2.0728027407839036e-02
      -1.0866747205097329e-02 -2.8390358268814793e-03
      -2.7274944683523612e-02 -1.8982869363246536e-03
      -1.3658648378107650e-02 -4.4021266593828011e-03
      -1.8842871348203876e-02 -2.5604057298499180e-02
      -2.4297475569585440e-02 2.7848149308613596e-02
      -3.8506130881264698e-03 -3.2968889066198226e-03
      -2.6237918921965019e-03 -2.0835987882648541e-02
      -1.2357844704818847e-02 1.6902540950910330e-02
      -2.4347562927216918e-02 5.5846728194483882e-03
      1.1064594731334969e-02 9.8146772071742842e-04
      2.5816082196238724e-02 -2.0065068756062229e-02
      -2.8135070121334812e-02 5.4584622488363854e-03
      5.0370648854842930e-02 -1.3454342161239178e-02
      -3.4135439263325067e-02 -7.6189345875952233e-02
      -7.6280598907785671e-02 -4.0211972466560865e-02
      -6.8305800617661575e-03 2.4903443795149055e-02
      -6.5674854647791325e-02 -1.1739206770223278e-02
      -1.7116637378746302e-02 -4.1549567140345980e-02
      1.8641872422662208e-02 -6.3079388644509205e-03
      5.0040992072588629e-02 -4.7906133858029748e-02
      -6.6830478180863934e-02 -6.1600018681801927e-03
      3.4590784638527640e-02 2.4450507797720514e-02
      -6.4782781653903382e-03 8.4076036492216899e-03
      -1.7646129821048136e-02 7.7277396647129112e-02
      1.9100112803157557e-02 3.8055183678426488e-02
      -7.0030634079800522e-02 -1.8171578988994134e-02
      4.0060524696568019e-02 2.6230474408054798e-02
      4.8554545294956217e-02 -8.1160646928500044e-02
      2.8595675199330154e-02 3.8826078902960116e-02
      -4.0825977507926152e-02 -6.7807421232538453e-02
      6.3593974524307579e-03 3.2578513975023662e-02
      -8.6979895842207947e-03 6.3677085702221539e-02
      1.0514753184921415e-02 1.5032861305074136e-02
      7.0193722094454750e-02 -6.8257155350950352e-02
      1.1087901800156244e-02 8.3149682478547288e-03
      -3.0018024050618278e-02 -1.8301596110830161e-02
      -4.3826022795816016e-02 -5.6281954678871447e-02
      3.0184090869755542e-02 -5.9209708755204862e-03
      -2.8406237733758298e-02 6.7513691390623548e-02
      -1.3377947740007180e-02 2.6400093722139410e-02
      7.8294438843544395e-02 6.0487964529912619e-02
      -1.4490283720621597e-02 -4.8263140072307219e-02
      -5.4395684072456362e-03 5.5135410224971808e-02
      -3.0594961210176672e-02 6.3429648224998816e-02
      9.1480406550391337e-03 3.0279696075101005e-03
      -3.7954017553330346e-02 -2.7104656385457841e-02
      7.8125149896703633e-02 1.4536366193719666e-03
      -3.5276357028986648e-02 -4.9955012395516835e-02
      1.8299484361928575e-02 3.7532473843320369e-02
      1.2420197953555566e-03 6.2737467002877634e-02
      3.5500796079691692e-02 -1.5826080848636119e-02
      7.8750484322058483e-03 4.2133231764185909e-02
      -2.5254577782948272e-02 -7.8331844858267968e-02
      -3.1681193931342340e-03 -4.5646067608235225e-02
      -3.3117715229922400e-02 -5.6402691769438648e-03
      -5.8143050101107860e-02 2.7306694345516993e-02
      6.8738812887814929e-02 -5.8184723992117347e-02
      -6.5985576877231222e-02 -6.1607664019984576e-02
      -2.3988853937897344e-02 -8.5496342772233263e-03
      6.5438815708730905e-02 5.6870617804106426e-02
      7.2501989302086331e-02 -1.4333203712897567e-02
      6.9028240020817519e-02 6.5057714769637329e-02
      6.1892084159916705e-02 -6.4377873322497475e-02
      3.3870751105011553e-02 -5.3031359828245257e-02
      1.1909966468557097e-02 3.0680710589100187e-03
      6.7929385239638138e-02 -7.9948594154640642e-03
      3.3517752378426045e-02 2.8464116557552576e-04
      6.5760512134156970e-02 6.9968701044356638e-02
      6.9658637556001407e-02 -7.8194263127650349e-02
      2.4166496697581901e-02 1.2419911734397668e-02
      1.0986413939240070e-02 6.6270860645126980e-02
      3.6423941931640696e-02 -4.9352464263296085e-02
      5.9284149373154689e-02 -1.7924966247158208e-02
      -3.1985609948500325e-02 -9.5178022266290997e-03
      -7.1098779642804449e-02 6.6694907219071467e-02
      6.1978244689647376e-02 -2.5488586875101703e-02
      5.3408651350192793e-02 -1.4395571576197594e-02
      -3.8354757875806458e-02 -7.2242541665291662e-02
      -8.3960154749200419e-02 -4.5603372193332534e-02
      1.0627411082208563e-04 2.1255174996813279e-02
      -7.1186851559663422e-02 -7.7656430783838680e-03
      -1.5842398028344789e-02 -4.5617040096358114e-02
      1.1858761458505141e-02 -7.4018123447742558e-03
      5.0550384302540496e-02 -5.6970229665627939e-02
      -7.0868600410246285e-02 -5.6962643038727008e-03
      3.1691696493001249e-02 2.7916394311765444e-02
      -2.3598781001335440e-03 8.6979968765604886e-03
      -1.5522421923342689e-02 7.4693550017091562e-02
      1.5736267820561142e-02 4.5192652543844365e-02
      -7.1839720487907197e-02 -2.0830888000614806e-02
      4.8819747465196309e-02 2.5005699698937085e-02
      6.0634389238871426e-02 -8.2637862647881991e-02
      1.8727695423281378e-02 3.8894986693640374e-02
      -3.8291008374175435e-02 -6.6422324632821564e-02
      1.3691818287947773e-02 3.0611286027121661e-02
      5.4084335605021974e-04 7.1018386624167193e-02
      1.1710280664086845e-02 1.0212133209533474e-02
      7.5270053035146028e-02 -7.4376965584882077e-02
      4.0908423423511153e-03 5.3799730957647457e-03
      -3.0858266385435394e-02 -1.8113283076997194e-02
      -5.0622510711225595e-02 -5.6872445352237885e-02
      2.9315513084067286e-02 -1.2638141724193541e-02
      -3.2171608402938680e-02 7.4797850842179700e-02
      -1.4209314570669596e-02 2.5041752165177827e-02
      7.7066331278157915e-02 6.9779275048596628e-02
      -2.3184145450303947e-02 -4.5587622400449154e-02
      -6.1452504985078458e-03 5.2987182023707502e-02
      -2.9988481987042400e-02 5.9455851421903842e-02
      4.7638155173855704e-03 -5.2085115046919704e-03
      -3.3957618148453356e-02 -2.3694115591280800e-02
      7.8893627669727198e-02 4.2980595344845303e-03
      -4.1140889064597959e-02 -5.5090314564718197e-02
      1.8930153967530498e-02 4.0242214402164002e-02
      5.8056643011772918e-03 6.4212184486438811e-02
      2.7357429974137103e-02 -1.5812916528606419e-02
      1.4905309917971380e-02 4.0293977079760020e-02
      -2.8448277262132442e-02 -7.7853899297074744e-02
      -6.3329215109394349e-03 -4.0693349112487023e-02
      -4.1481614302321036e-02 -1.3101660102757193e-02
      -5.9328834131511368e-02 2.8467053520961405e-02
      7.7955614675773305e-02 -5.6720363190664168e-02
      -7.8389400487867120e-02 -6.1566383307688231e-02
      -2.6673686913943184e-02 -1.1147255717289386e-02
      7.3368871363096805e-02 5.9954623814926652e-02
      7.3806969115162518e-02 -6.8357814322906954e-03
      6.5566367274525722e-02 6.5553461266504506e-02
      5.7010909527918929e-02 -7.4462152840708742e-02
      2.8291960584033497e-02 -5.0840164093079565e-02
      1.4404968785655104e-02 7.3988590218104829e-03
      7.2148268106554184e-02 -6.1060053917174392e-03
      3.3021679907656303e-02 -4.2898476967186796e-03
      7.0833179390117712e-02 6.6780418816209774e-02
      7.4951559997903053e-02 -7.9512753601557046e-02
      2.3485046094392066e-02 1.9114198500905347e-02
      1.0764828035426621e-02 7.0018025179858584e-02
      4.1250670878256381e-02 -5.0246974457468993e-02
      6.2500136472314810e-02 -1.9096012141762063e-02
      -3.3320727671338000e-02 -3.8927761636446566e-03
      -6.5002388837378355e-02 6.5075163188181476e-02
      6.6757579454511537e-02 -2.7836807025701089e-02
      -7.1848475008816177e-03 4.8472463411934853e-03
      5.2327986706613297e-03 1.4018688867360794e-02
      9.1673741383477489e-03 2.9479263946155200e-03
      1.9098806061856753e-03 2.2914793364299073e-03
      3.9811780097759198e-03 1.0647899156248472e-03
      5.4151481103583143e-03 8.7000129305842781e-03
      -3.1659115017493768e-03 -3.8209575075449252e-03
      -7.4042521349560672e-03 7.0847724756904701e-03
      3.3264214564950609e-03 -1.4741367903834260e-03
      -7.4957829796136258e-03 -8.7692008727933181e-03
      3.1888470478874583e-04 3.5718955211460788e-03
      4.3713048137910479e-03 -1.3986210883144229e-02
      2.7980143072640941e-03 -7.8500103380843688e-03
      8.8498915517447353e-03 4.7500078469285599e-03
      -8.5739546974491140e-03 -7.4115865342406296e-03
      -2.6623656677377192e-03 1.3883511491088556e-02
      -9.6835068311554166e-04 -4.7697966212177697e-03
      9.7524654755093091e-03 1.4163748407087775e-02
      -2.7899058304960466e-03 1.7344367149163580e-04
      5.9854901895365431e-03 -3.4873905139143802e-03
      2.2295793541436651e-03 -5.0617159929199481e-03
      -1.0696351668162202e-02 6.2769305848523731e-03
      4.9104602814293635e-03 1.0956373948122961e-03
      -1.2498119743201343e-03 -3.3626157751901983e-03
      4.6226124357858275e-03 4.0676566873276967e-03
      -5.4270517627578044e-03 5.7866172130771991e-03
      3.6988757909176217e-03 -1.0906873052851344e-02
      5.1948282272047596e-03 -1.4255715914279681e-04
      -4.2181367648889637e-03 -5.2785752913024732e-03
      -2.3506196620696322e-03 4.1544408378124727e-03
      3.5963769375619227e-03 -5.3003317713708144e-04
      5.8378262585457273e-03 -9.4399940040069425e-03
      2.4897926874659000e-03 -4.4316992293893529e-03
      8.8053974552374965e-03 3.6007222998720354e-03
      -1.4742440359782021e-02 2.8755899986069471e-03
      3.9824738664804020e-04 9.7129356678297245e-03
      -6.4635389760944470e-03 -3.8321305489851009e-03
      3.0281751779517546e-03 -7.5901791154692824e-03
      -5.1100170592397499e-03 8.1391074356897250e-04
      -4.9022044581303707e-03 -8.2013285754547853e-03
      1.6546440167351469e-03 9.7422283985199847e-03
      -5.1345365962488640e-03 1.0714261309902093e-02
      2.4488655942763761e-03 -3.9843051266031330e-03
      4.4441872986959114e-03 -7.8282698855600755e-03
      -1.2579819699038612e-02 1.0714369558136707e-02
      1.0089702800416118e-02 1.0076208216256457e-02
      -2.2018353370210553e-04 6.8933496369073350e-03
      -9.3468408013219866e-03 -2.1196002035226659e-03
      -1.4993236518919520e-02 -4.1500298788561341e-03
      -4.5826532624438313e-03 -1.2918713086245370e-02
      -1.0438878178928574e-02 1.3399571254155354e-02
      1.7693351700779607e-03 1.1939019021118902e-02
      7.3725900214290162e-04 -1.8745688679485792e-03
      -3.2830612295429518e-03 4.6285642389093514e-03
      -9.7421962881860354e-04 -4.4759873252836575e-03
      -5.0155687510283061e-03 -1.4478299018242418e-02
      -1.0476518489573618e-02 7.9520465833461725e-03
      -8.3753120824201915e-03 -6.9846290299502784e-03
      -6.7161255584426540e-03 -1.4085873001973571e-02
      -7.8482371200465177e-04 1.0015541793346449e-02
      -3.0188104055077630e-03 -3.1382146999865451e-04
      1.0245091875166501e-02 2.8397221314224292e-03
      1.3748460956942375e-02 -5.3274432812523793e-03
      -2.9476049406793894e-03 9.9449244968846506e-03
      3.8778035591249260e-02 -8.8340954503088025e-03
      -2.2508057353073856e-02 -5.0965071047297111e-02
      -6.2482220685050202e-02 -2.6604124896700117e-02
      2.2802713844679323e-03 1.3367731440421856e-02
      -4.3369331361939822e-02 -5.1733361700200394e-03
      -1.5079469852103572e-02 -2.9487529236186201e-02
      1.2815925468866802e-02 -4.5983129155494880e-03
      3.0347768210036975e-02 -4.4554408839729658e-02
      -4.7407353220028939e-02 -7.6875874830000836e-03
      2.3081639985941496e-02 2.3550377105009873e-02
      -2.2569297277262039e-03 4.3351111210957801e-03
      -1.1400119575164879e-02 5.6562570707265315e-02
      1.3536203340340433e-02 3.4400228671185799e-02
      -6.0622922351763267e-02 -1.6251437686208826e-02
      3.7355664303750945e-02 1.5024223916315952e-02
      3.4787674797808942e-02 -5.6093096188997590e-02
      2.0988941423671175e-02 2.9493399532045127e-02
      -3.3726084243076181e-02 -5.4716100038235432e-02
      5.2371145810082313e-03 2.6156171846882344e-02
      2.2038952450419876e-03 5.0650685127339209e-02
      1.3967192030563019e-02 8.6846432788604509e-03
      4.7399137198074447e-02 -4.8176770162444357e-02
      -1.8042757443186217e-04 -2.4657432929239666e-03
      -2.5682903509296383e-02 -5.9019091473762591e-03
      -3.2372006433880662e-02 -4.5413235381001615e-02
      1.7599457025018569e-02 -9.4979118126461443e-03
      -1.7845911600293914e-02 5.0421103892480570e-02
      -1.5711788456823399e-02 2.1566816902500084e-02
      6.3485703528082582e-02 4.2729287135644375e-02
      -1.1924317020633396e-02 -3.1759308952214016e-02
      -5.7888960435527890e-03 3.7919692993218408e-02
      -2.3653859278310773e-02 4.5033892309215021e-02
      6.3982920590104414e-03 5.0517329215063467e-03
      -2.7169866500019905e-02 -1.6004663343537992e-02
      5.4244548756576305e-02 1.1511335208510976e-03
      -2.6762833636322040e-02 -4.0077051476771597e-02
      1.5043874672035596e-02 2.4026647737541235e-02
      -1.5023954198762177e-03 5.0175528944330632e-02
      2.6030108995970365e-02 -4.2550614556512833e-03
      6.5763438810827616e-03 3.1610854532843888e-02
      -2.7946612048372173e-02 -5.0737782604799039e-02
      6.9558471430042346e-04 -3.2249644826952584e-02
      -2.6616297666989343e-02 -6.5440332381916117e-03
      -4.4225800260287849e-02 1.9383234899046243e-02
      5.0753515101727500e-02 -3.9522746239521921e-02
      -5.8639042031600044e-02 -4.6410849760749551e-02
      -2.0992991077043881e-02 -5.7723521685453250e-03
      4.7376146100068399e-02 4.7174945180739086e-02
      5.3516301077720159e-02 -9.9427245581535789e-03
      5.3584894304435929e-02 4.2286286025809201e-02
      3.8603997255289020e-02 -4.6943549635161043e-02
      2.0700556953007074e-02 -4.0413451160665761e-02
      9.6428408784584377e-03 2.0932892300230461e-03
      5.2202863876589518e-02 1.1916858708576083e-03
      2.7454255355889245e-02 3.0135135493928847e-03
      5.5113266468489616e-02 4.7827924051576480e-02
      5.4491487257262793e-02 -5.8367043202883884e-02
      1.7745277710134691e-02 1.5444218995503070e-02
      1.6960968377599930e-02 5.1869869728247420e-02
      3.1808729162829404e-02 -3.2750212364013376e-02
      4.7698450025517272e-02 -1.9894737318208434e-02
      -2.0896722680734298e-02 -9.3078765599357519e-03
      -4.6775760102375795e-02 4.6076669885623998e-02
      5.4671400399059988e-02 -1.7882732950995760e-02
      3.7891341085898651e-02 -1.2255139503137877e-02
      -2.7092117637751212e-02 -4.8017557980956284e-02
      -6.0452578899705699e-02 -3.6146541134972697e-02
      -1.1461756420128634e-03 1.9820257203271283e-02
      -4.7712409230090215e-02 -7.3262647843205268e-03
      -1.2382144327927455e-02 -2.8247665063805872e-02
      1.2881308731650878e-02 -5.8102611390486803e-03
      3.1083253724516969e-02 -3.4405614719971819e-02
      -4.6084980307600915e-02 -1.1055724034072761e-03
      1.9071004304322403e-02 2.2185084328869880e-02
      1.3027910949845937e-03 1.4710441802879956e-02
      -1.2051284144126415e-02 6.1251966551226097e-02
      5.9631414412814254e-03 2.9826265413832861e-02
      -4.9042650465406089e-02 -1.6665590894537185e-02
      3.7453279225706994e-02 1.3010099350880093e-02
      3.9265216393017423e-02 -5.2193870534006336e-02
      1.8752844048926080e-02 3.5301675281160697e-02
      -2.2381226558630448e-02 -4.9392270765102816e-02
      1.1757012897388767e-03 1.7412871431575425e-02
      -7.8034932157113931e-03 4.4189929952736802e-02
      1.1647723988724563e-02 3.5448666849628471e-03
      4.7506939847389976e-02 -5.4158340630022596e-02
      8.1242774546232341e-03 7.7676011863365910e-03
      -3.0388138444449750e-02 -1.2828466183862323e-02
      -2.7617800454144470e-02 -3.6500188368664775e-02
      2.3896053377768678e-02 -9.6011952176245363e-03
      -2.0377187520316649e-02 5.0719752179807939e-02
      -1.1265953225696221e-02 2.1026605609747822e-02
      5.3949615530455672e-02 3.9962047420994178e-02
      -9.3411351129718111e-03 -3.6247659885770923e-02
      3.4342492537603386e-03 3.1366845564504170e-02
      -2.3642777734456430e-02 5.0631008298499050e-02
      8.4684309005091957e-03 -4.6126025880479518e-03
      -3.0078939103636279e-02 -2.1324408063247077e-02
      4.7665727643103992e-02 7.7587418029101693e-03
      -2.5571965938856283e-02 -4.0323099266514097e-02
      1.4197240757570846e-02 2.3483575451393259e-02
      1.4423854722506492e-03 4.4727388816857089e-02
      2.1778691381681071e-02 -4.1262665946596548e-03
      1.0373356728521394e-02 3.0810583762579107e-02
      -2.6967342028211581e-02 -5.1784287449025579e-02
      -2.0893834338443378e-03 -2.9554901316908702e-02
      -2.9150080860396044e-02 -1.1730106941313244e-03
      -3.9707689132002080e-02 2.6339701003005245e-02
      5.4538553408072794e-02 -4.2951888605537350e-02
      -5.4847076773074772e-02 -4.4816085672023685e-02
      -2.2250016503780876e-02 -8.4422566709595505e-03
      5.1538560113353490e-02 4.1317826950112276e-02
      5.3004759599262867e-02 -1.0305534322029356e-02
      5.2345081768819066e-02 5.0897332678766269e-02
      4.4286788044084188e-02 -5.1552498430410820e-02
      2.1268554090051770e-02 -3.1046764766979949e-02
      1.3856418225378919e-02 8.0658320154528527e-03
      4.7707533277979976e-02 -6.1762158933561118e-03
      2.4471343442510302e-02 2.5060476090532583e-03
      4.8111991140695344e-02 4.7845901237362945e-02
      5.7466312571203049e-02 -5.1971712326815286e-02
      1.3697528243748005e-02 1.5705015085708863e-02
      1.4218490251456993e-02 5.1777858327465398e-02
      2.9154038063244989e-02 -2.7834306230273165e-02
      4.8238144835139274e-02 -1.5202522883618232e-02
      -1.9676919164559919e-02 -6.1579711849503952e-03
      -4.6050975903550326e-02 5.3021298775327276e-02
      4.7200395712871906e-02 -1.6136890868213738e-02
      -2.1895017321182170e-02 3.0074847424237982e-03
      1.7635534561716640e-02 3.1635877134993863e-02
      4.0492962313761934e-02 1.8544613212317252e-02
      -2.0963753670033142e-03 -1.0240834784137001e-02
      2.8557158881345891e-02 4.3868876624153395e-03
      5.7765253134133658e-03 1.6768737260090382e-02
      -8.0615311124956693e-03 3.4932286392667204e-03
      -2.6315756652171042e-02 2.8578597935911946e-02
      3.5143830073652800e-02 4.6664044608865536e-03
      -1.0111822347660716e-02 -8.1536143537643442e-03
      -4.6064091683209844e-03 -7.0784018574193575e-03
      1.2835596967834578e-02 -3.1139489803458088e-02
      -1.5519017060834487e-03 -2.2113309498577174e-02
      3.0517981695109504e-02 8.8707903255651702e-03
      -1.5182075840463761e-02 -1.7383387844531587e-02
      -3.0556904852281935e-02 3.4028754521101087e-02
      -1.1003660356736162e-02 -1.6724454778458277e-02
      1.5298476642069946e-02 3.3841290689785142e-02
      -3.2640309561267847e-03 -1.7327207109398442e-02
      -1.9247062640332536e-03 -3.2854111382077167e-02
      -7.5894898746553001e-03 -7.1714921014418625e-03
      -3.0301712720100397e-02 2.7553168764524030e-02
      -2.2316856538076011e-03 -7.1632393540098913e-04
      2.0594859675062881e-02 1.1151254594828203e-02
      2.1234788569689720e-02 2.4645552785005645e-02
      -8.5091471658728605e-03 1.2609294711027174e-03
      1.7554400401317585e-02 -2.8853505191198822e-02
      1.1850164135624182e-02 -1.3191308443945535e-02
      -3.9053867768787283e-02 -2.7051890345856144e-02
      4.8980653584764977e-03 2.3953087925768019e-02
      -9.7942060925555762e-04 -2.6075450584191924e-02
      1.5904195686959374e-02 -2.8204962183031493e-02
      -2.8185701709944875e-03 4.9182673478253731e-03
      1.3179060248799085e-02 1.1742020473799616e-02
      -3.9560411003125726e-02 8.3204839430101924e-05
      1.4060290043094404e-02 1.9355530504819217e-02
      -9.6715424079492074e-03 -1.6108126318794824e-02
      -3.2524009834250201e-03 -3.1172801612861113e-02
      -1.3638991294061755e-02 4.8998299378075301e-03
      -1.0867154259758276e-02 -1.5141385567277519e-02
      1.4861780450361734e-02 3.3476539580362674e-02
      -2.4631678385091831e-03 2.2474574624247158e-02
      1.4369962666243042e-02 8.1896319384957440e-03
      2.2843332360185254e-02 -1.6713080027870759e-02
      -3.2949450610825208e-02 2.8257483489842052e-02
      3.5012434900232085e-02 2.3962805522763045e-02
      1.6133637119509360e-02 7.4746041479589525e-04
      -3.5227576327343753e-02 -2.2223999139478534e-02
      -3.5781655793722139e-02 -5.8780839135083823e-04
      -3.3161069121137157e-02 -2.9355921424968623e-02
      -2.3797934952143097e-02 3.1427456935736557e-02
      -1.7054682866579070e-02 2.5183766896947190e-02
      -4.9636162159486536e-03 -8.1261607086865542e-03
      -3.0800872554300841e-02 5.9381958668220424e-03
      -1.0287229092288354e-02 1.7200822387864060e-03
      -2.5145158387468971e-02 -2.6281079149935049e-02
      -3.5982929007446061e-02 3.1338736453564241e-02
      -7.7293793368997292e-03 -4.8335965801056396e-03
      -7.1715490604233531e-03 -2.9425130833370318e-02
      -2.4087540043722461e-02 2.4188305967075968e-02
      -3.1430088838983988e-02 1.1599265055239281e-02
      1.6947058654805523e-02 2.2259287498042814e-03
      3.2828755958356833e-02 -2.5769121641032944e-02
      -3.4627564755579578e-02 1.1402187990278175e-02
      3.3251040046303991e-02 -5.2398474455706600e-03
      -2.1718279073106493e-02 -5.1735143692667150e-02
      -5.0608262531047173e-02 -2.7477817126805023e-02
      2.9537119153562200e-04 1.5316835506830067e-02
      -4.2617938751670463e-02 -6.9994385761209914e-03
      -6.8232802351601762e-03 -2.5736878234635274e-02
      7.0330101630115324e-03 7.6310259125313552e-04
      2.8794735945548038e-02 -3.9314557853980935e-02
      -4.3796332304418671e-02 -2.9937779591450147e-03
      1.6764995648545805e-02 1.7053199695076540e-02
      -3.2310767681568704e-03 6.6419890492920618e-03
      -1.4807092056724962e-02 5.3452697232707035e-02
      1.2068261043059048e-02 2.7859995861245875e-02
      -4.8131550715208478e-02 -1.6179393806829229e-02
      3.5403221802935564e-02 1.3435658339458870e-02
      3.0691961211586981e-02 -5.5615288682823338e-02
      1.8932768589531856e-02 2.6905919439470887e-02
      -2.1111375844597272e-02 -4.4357433795518368e-02
      2.4259941643956515e-03 2.3709295425227751e-02
      1.7064462639801077e-03 4.1490660205318407e-02
      4.1494832215896050e-03 6.4108116053896817e-03
      4.5059635840839232e-02 -5.2687996051752839e-02
      8.3306157042666428e-03 7.1998364324096318e-03
      -1.8178136441014632e-02 -6.0108529623643528e-03
      -2.9754347555074598e-02 -3.3011464790764999e-02
      2.2742695473420109e-02 -1.2069147276229042e-02
      -2.4651454906304493e-02 4.6809288673618388e-02
      -6.7343867776286873e-03 2.2129256488106985e-02
      5.2167127820641368e-02 4.0966453034059283e-02
      -8.0740315689057617e-03 -3.0718324550533568e-02
      3.9661098961549027e-03 2.9088843664504687e-02
      -1.8046942929626535e-02 4.0456130241067999e-02
      1.2403217824327442e-03 -1.4503806186449192e-03
      -2.6041817321335363e-02 -1.4636609745431401e-02
      5.0283783992146246e-02 4.3510943385959419e-03
      -2.3980881360610683e-02 -3.6629008448956703e-02
      5.7567812718837819e-03 2.4456470738831226e-02
      2.2852785354083851e-03 4.5049249457951010e-02
      2.5771034693315865e-02 -6.1634092974104078e-03
      1.4369085997801220e-02 2.7265125630074310e-02
      -2.2116926812441186e-02 -5.1559334735473021e-02
      1.7340246224062378e-04 -2.9125622132086186e-02
      -2.2588604972031405e-02 -2.0945607119471966e-03
      -3.7934837586515273e-02 2.0241221986393481e-02
      4.2610222673011178e-02 -3.8331672231358950e-02
      -4.6207648935080406e-02 -4.0627748328242133e-02
      -1.9524424250543841e-02 -3.7654510549983951e-03
      4.8466401232342235e-02 4.0507602236432967e-02
      5.0829264016080920e-02 -1.1020937832423994e-02
      4.9082945205319896e-02 3.9508919430715966e-02
      4.1979131517437096e-02 -4.6525615981527144e-02
      2.0409871597420304e-02 -3.1827266470617531e-02
      1.5578870723286918e-02 7.8434093662068834e-03
      4.0147095908479667e-02 2.1228878994218597e-04
      1.9336194233868932e-02 -2.8553417291895607e-03
      4.5843883772441932e-02 4.5427172204457723e-02
      5.1380907514077569e-02 -4.9709929577517548e-02
      1.4530188345115679e-02 1.3362338291198247e-02
      7.8228365802625738e-03 4.9629903968067920e-02
      3.2136098568568465e-02 -2.9421183188468446e-02
      4.7434680846371105e-02 -1.9436844410848763e-02
      -2.3529523762322625e-02 -9.4287461829976897e-06
      -4.7647529273227573e-02 4.4647480569812881e-02
      3.9364109371302920e-02 -2.1101431238448515e-02
      3.3847478194919629e-02 -1.3845476622104653e-02
      -2.2737080328085711e-02 -4.5077908695019125e-02
      -4.7491442682115741e-02 -3.1455823894329424e-02
      -7.6137158330683453e-03 1.1950187672399793e-02
      -4.2454049275031262e-02 -1.2290764807256058e-03
      -3.9144433687156935e-03 -3.0110646219852506e-02
      8.0344541270982433e-03 -4.0588918033301197e-03
      3.0584217620242538e-02 -3.3025161253599125e-02
      -4.7278630882547877e-02 -2.7064691194746355e-03
      1.6551672627063609e-02 1.3583308831206752e-02
      2.8792728093115449e-03 6.3895965052671406e-03
      -1.3146494729958975e-02 5.2770095633518338e-02
      1.1118911610931717e-02 2.1831152640585508e-02
      -4.3502187800454624e-02 -1.3642507539608257e-02
      3.4161212991934128e-02 1.7139052993092239e-02
      3.3138565460918971e-02 -5.4854365069050837e-02
      1.5398197816649532e-02 2.3430159532577977e-02
      -2.1137974662856360e-02 -4.8824685007964143e-02
      5.2606668190046694e-03 2.2004179080218657e-02
      1.8508060243812127e-03 4.4764480962730134e-02
      1.3652457957915233e-02 8.5168352104944989e-03
      4.4609272654679726e-02 -4.7319496949236518e-02
      2.5664790116996009e-03 5.9829947310745266e-03
      -2.1077772822320321e-02 -7.2022370734756112e-03
      -2.9741832222396146e-02 -3.6706433807414340e-02
      2.2644329222683827e-02 -5.6492225105457556e-03
      -1.6498079648602434e-02 5.0347635802997018e-02
      -5.3584068926003812e-03 2.3038336688599812e-02
      5.0848287458909729e-02 4.3974657474011872e-02
      -1.5347912846596597e-02 -2.3801210232627715e-02
      -3.3939012108420560e-03 3.8510805194232861e-02
      -1.4322922861511276e-02 4.1694727857936840e-02
      6.9343984008830911e-03 -1.4204427121594578e-03
      -2.4240618503529422e-02 -1.6258209023001863e-02
      4.6028450497950783e-02 -2.9634592401108124e-04
      -1.7749261984814850e-02 -3.6687493292918490e-02
      1.1306538007417927e-02 2.9130020295332917e-02
      5.6659614816051765e-04 3.8348803762543696e-02
      2.0948669572927774e-02 -2.1741307637132678e-03
      6.3358367293465685e-03 2.4788261031210769e-02
      -1.9268928366641052e-02 -5.3860446750321464e-02
      -3.7908596048722354e-03 -3.0472693048068631e-02
      -2.9045748753373821e-02 -1.0212047772775444e-02
      -3.0117614005548288e-02 1.7560690414716772e-02
      4.2606262801818270e-02 -3.6712243612260664e-02
      -5.0561272031166289e-02 -3.9311579479916599e-02
      -1.7063187819705294e-02 -3.9951524281895689e-03
      4.9229066144970642e-02 3.9429056796912158e-02
      4.7946669816927016e-02 -3.6536039839252738e-03
      4.9328174175275671e-02 3.6755056334883081e-02
      4.0015407643462557e-02 -4.6434279032272124e-02
      1.9365464358528893e-02 -3.4331432709830682e-02
      7.0238929763314388e-03 -5.0349352432729722e-04
      4.3276270433967597e-02 -4.5616339787529804e-03
      1.9365677626753196e-02 -4.5134653033903520e-04
      3.6958760268353805e-02 4.2174990549753343e-02
      5.2348973647947147e-02 -5.2344730994107865e-02
      1.4174567735940245e-02 3.9528755253113836e-03
      1.0616534009443167e-02 4.1478175784675872e-02
      2.1600881033017553e-02 -3.4500833197481054e-02
      3.6913970069495011e-02 -1.4261057558799251e-02
      -1.9329528885735255e-02 -4.9182616639860887e-04
      -4.2442209803861868e-02 4.6194641084587873e-02
      4.8103143445099451e-02 -2.4711762943081726e-02
      -3.2837690806920852e-02 5.4630064817173113e-03
      1.6463518194245918e-02 4.3211994992598417e-02
      4.4748321381136422e-02 2.6575947785579014e-02
      3.9561104802484388e-03 -1.6988651673742867e-02
      2.8588679352744322e-02 3.9009077447560922e-03
      8.0422709169991509e-03 2.6590405302257824e-02
      -1.2214868990077805e-02 1.8365609389843756e-04
      -2.5931990503516047e-02 3.3461986019006539e-02
      3.0796769270952717e-02 -9.2047007346343884e-04
      -1.5507291202231179e-02 -1.6293312849627230e-02
      2.4131623701036651e-03 -6.9025723212737498e-03
      1.3682994603003536e-02 -4.4505722051032301e-02
      -9.9373631465506512e-03 -2.1844848074197953e-02
      4.3091829152542671e-02 1.0287739539214077e-02
      -2.3175030090041338e-02 -1.2470947379687155e-02
      -2.9728416493382169e-02 4.4264964310778837e-02
      -8.5253979435782248e-03 -1.6691888510631549e-02
      2.4082798543192993e-02 3.2575863710471199e-02
      -3.7982085228369118e-03 -1.0907559280002806e-02
      2.1658150138589681e-04 -3.5633520581487083e-02
      -2.7921345650234446e-03 -6.4905842406622971e-03
      -3.9960341140682309e-02 3.7869154415709122e-02
      -7.3891018123137539e-03 2.1427292674525583e-03
      2.1278560677546902e-02 7.3787595363621599e-03
      2.3942690399308957e-02 3.0918671234032108e-02
      -1.8770491955817811e-02 5.1462499891093494e-03
      1.9045865071923143e-02 -4.2791716708207354e-02
      1.2032652791773587e-02 -1.6951186821484096e-02
      -3.8076564623586232e-02 -3.6445153462208633e-02
      6.1130066527483587e-03 1.8521364652571540e-02
      -3.4730705084195772e-03 -3.1319179773425000e-02
      1.7182727183415989e-02 -3.8256837031876448e-02
      -6.9756273523298769e-03 -4.1533185051909442e-03
      1.5511978157731652e-02 1.7478887071686273e-02
      -3.3673836265350220e-02 -9.3157724161484125e-03
      1.6109678306586273e-02 3.2129855665888281e-02
      -1.2490608053064935e-02 -1.5926978711795568e-02
      1.2571850911314931e-03 -3.4658782875400404e-02
      -2.2464306087100608e-02 7.2811908791941505e-03
      -6.8752973727592747e-03 -2.1987950118166791e-02
      1.3667544426460393e-02 4.1234880041608010e-02
      -3.1887446215427173e-03 1.7454548187145612e-02
      1.7664086143819556e-02 7.9925839749521617e-03
      2.9898833635634905e-02 -2.1259322350583029e-02
      -3.7108552601120039e-02 2.5438153830027684e-02
      3.1654527605908374e-02 3.0287457884974795e-02
      1.0424436838121616e-02 8.8530562119772604e-04
      -3.1017242805349388e-02 -3.2723685280794196e-02
      -4.0003426267255560e-02 5.4599835609024511e-03
      -3.0788542906520899e-02 -3.5005645536100229e-02
      -3.3129315122162432e-02 3.7369492240101450e-02
      -1.8847783548347114e-02 3.0046277509234089e-02
      -1.0131953194135682e-02 -4.9542037425373085e-03
      -3.6177443774128515e-02 -4.4246435983905739e-05
      -1.7136706346573032e-02 6.9095579273103632e-03
      -3.7094873087314545e-02 -3.0188001032558830e-02
      -3.8287242690482143e-02 3.6057533538308692e-02
      -1.0329748891913577e-02 -8.9698574008449817e-03
      -1.2867912062807923e-02 -3.5992022975358764e-02
      -1.8630336152942701e-02 2.8072715183423899e-02
      -3.7829292812627688e-02 5.1134761751211542e-03
      1.7151280494057865e-02 6.4380806033891812e-03
      3.5145455219689883e-02 -3.7477586676706434e-02
      -3.9315969622844650e-02 1.3658951279526037e-02
      3.1999205003346215e-02 -5.7493930790253290e-03
      -1.4625953249924033e-02 -4.1534218708897855e-02
      -4.4586073384807995e-02 -2.2923031218673166e-02
