<?xml version="1.0"?>
<opencv_storage>
<opencv_ml_ann_mlp>
  <format>3</format>
  <layer_sizes>
    57 128 64 32 2</layer_sizes>
  <activation_function>SIGMOID_SYM</activation_function>
  <f_param1>6.6666666666666663e-01</f_param1>
  <f_param2>1.7159000000000000e+00</f_param2>
  <min_val>-9.4999999999999996e-01</min_val>
  <max_val>9.4999999999999996e-01</max_val>
  <min_val1>-9.7999999999999998e-01</min_val1>
  <max_val1>9.7999999999999998e-01</max_val1>
  <training_params>
    <train_method>BACKPROP</train_method>
    <dw_scale>1.0000000000000001e-01</dw_scale>
    <moment_scale>0.</moment_scale>
    <term_criteria>
      <epsilon>9.0000000000000002e-01</epsilon>
      <iterations>100</iterations></term_criteria></training_params>
  <input_scale>
    2.2643909845819973e-01 -5.9574257778834676e+00
    2.0034115749391532e-01 -6.7966717538499362e+00
    3.7830554486384651e+00 -6.0492021055565601e+00
    1.1939726563440721e-01 -6.0041639642802780e+00
    2.0386017964102882e-01 -9.2099389405826013e+00
    3.6584795976105497e+00 -2.3578832199924480e+00
    4.0641175823853959e-02 -5.3712903315182556e+00
    9.4083590897250144e-02 -8.6267984339471546e+00
    3.3501372025628560e+00 1.7782317897130577e+00 1.9725396219498958e+01
    -1.6941723726765083e+01 1.6061403781600401e+01
    -1.2834616928448460e+01 2.0814420187681915e+01
    -1.7706619408402808e+01 1.6650740382749262e+01
    -1.3317580450307215e+01 1.6299611616970573e+01
    -7.2579013261990424e+00 1.8530382409053939e+01
    -7.3361213951649829e+00 1.6652902661756137e+01
    -7.4156003980277516e+00 1.8634777252464822e+01
    -7.3950325531978809e+00 1.0669402044044677e-02
    -3.3394066847896302e+00 7.4062788561336220e-03
    -3.3493170978617561e+00 9.0369890613829964e-03
    -3.0466511739692193e+00 7.6019360673504881e-03
    -3.4300066302424810e+00 2.3899081460594481e+01
    -5.8347847543417739e+00 2.4979580256714417e+01
    -5.7302215597659671e+00 2.4281977235453873e+01
    -5.9106145391849116e+00 2.5010922856904536e+01
    -5.7370948100757033e+00 3.1818757014113245e+01
    -2.8768501976860737e+01 2.2591040261333394e+01
    -1.9399381768990299e+01 2.8476326877945915e+01
    -2.5521671889590461e+01 2.3136133243282170e+01
    -1.9874292702572138e+01 1.6554372684366164e+01
    -7.2919870550275663e+00 1.9058559630071997e+01
    -7.5269812276216888e+00 1.6871671125519832e+01
    -7.4323661744215848e+00 1.8913273671207541e+01
    -7.4910344317912418e+00 6.4647201529071680e-03
    -2.5128305910787110e+00 4.8763348831114923e-03
    -2.7760392478270530e+00 6.4870978558664210e-03
    -2.7085216388504869e+00 4.9550561538012784e-03
    -2.8175477873958137e+00 2.6333090051958486e+01
    -5.6303245120146723e+00 2.6929539851471535e+01
    -5.5025544501562544e+00 2.6835621618870597e+01
    -5.6977328088751529e+00 2.6975918739242189e+01
    -5.5112947732422581e+00 7.4129028228683438e+01
    -7.1809356622161985e+01 5.2741877203219218e+01
    -5.0129684720807077e+01 7.6132374211849552e+01
    -7.3555822404042303e+01 5.3795752462598728e+01
    -5.1136251230512165e+01 1.5072773766750482e+01
    -6.6540470751376697e+00 1.7201668939725032e+01
    -6.8123777029604291e+00 1.5306071932934735e+01
    -6.7719439327375861e+00 1.7097494379864866e+01
    -6.7877269326232526e+00 5.5997500819831318e-03
    -2.8095109540377106e+00 3.8915974230581962e-03
    -3.0933522011463723e+00 5.4022324888958690e-03
    -2.9674545427085799e+00 3.9924954372787796e-03
    -3.1668792187912516e+00 2.5460016391453497e+01
    -4.7935328906637391e+00 2.6161222302014991e+01
    -4.7193308888675780e+00 2.5862304904280787e+01
    -4.8491864010071968e+00 2.6120058208785039e+01
    -4.7107160661033447e+00</input_scale>
  <output_scale>
    5.2631578947368418e-01 4.9999999999999994e-01 5.2631578947368418e-01
    4.9999999999999994e-01</output_scale>
  <inv_output_scale>
    1.8999999999999999e+00 -9.4999999999999996e-01
    1.8999999999999999e+00 -9.4999999999999996e-01</inv_output_scale>
  <weights>
    <_>
      -4.3503023552293532e-02 1.7543576971079750e-02
      4.7676176311460164e-02 1.4191680260396999e-02
      4.4608438004670355e-03 2.0910890322178018e-02
      2.5517872406885047e-02 -9.3706293664749495e-03
      -8.3819346867790463e-04 4.6362839545321041e-02
      -2.2303119833316738e-04 2.9176699047645919e-02
      3.4657560383886322e-02 3.6561199786303171e-02
      -6.2355134044399727e-02 4.1167794767459090e-02
      -1.2995382900011735e-02 7.4893873731233759e-04
      -1.1072210491682983e-02 -3.5385285387438403e-02
      -1.5718969049753118e-02 -8.9440282388774783e-03
      -2.1844347236798206e-02 -5.2461523062349406e-02
      3.8518812641341847e-02 1.3965155406617242e-02
      -3.2999486934284943e-02 2.3304368151877527e-02
      -2.4836682548142325e-02 -1.8875244217109313e-02
      -9.8473150755342496e-03 -5.1321836825754547e-03
      -2.4706706100280952e-02 -6.6841385100868461e-03
      -1.2051241400637722e-02 -1.4961537464346012e-02
      -2.4710274497525990e-02 -4.3707740974810769e-02
      -6.3611053681214575e-03 7.4647412604491349e-03
      1.5744759321249871e-02 -1.6325822897910160e-02
      2.1199108879161863e-02 2.9048425407801160e-02
      -2.6670867067900370e-02 -1.1288329537805548e-02
      7.4592838707756312e-04 -3.4735987225733768e-02
      3.1494324231636263e-02 -1.2692824744821129e-02
      -1.5247069149209900e-02 -5.2726817367711773e-04
      -7.2411360791499943e-02 1.7526093652454805e-02
      2.2695819715868953e-02 1.1227918562552569e-02
      -3.3498622386913902e-02 -1.0040336975455288e-02
      -1.1111233100229096e-02 -2.8334872056043320e-02
      -1.1799720189160142e-02 6.0289272865356536e-03
      2.0086312243060594e-02 -2.0433846276631477e-03
      -4.5263670370350201e-02 -3.4108748945618252e-02
      4.3895880743762161e-02 8.2946394416168558e-04
      1.9411273698391372e-02 3.0330255221005364e-02
      -3.6602403275591028e-02 -1.4681248118790671e-02
      6.7019035959079813e-03 -1.2040771706664738e-02
      1.0176375783741504e-02 -5.7991516929099166e-02
      1.2916014293524359e-02 -6.3879106261223659e-03
      -3.6055289377583372e-02 -1.8102895305022085e-02
      4.9975626553975479e-02 8.8426587385511714e-03
      -2.9716589060921193e-02 -4.5542214627124253e-02
      -4.2948771906428385e-04 -1.6485306967929218e-02
      -3.6876944660874163e-02 7.0136814206935511e-03
      6.4676897575520753e-02 5.2394465366654829e-03
      -5.9598399648882257e-04 -4.5363518073953939e-02
      -4.7702325680781879e-03 2.1041315539345108e-02
      -2.2323986747942604e-02 -1.1936636971764197e-02
      3.3099198823903948e-02 7.5393171715961004e-03
      2.5677040909745843e-03 -3.8080225238770027e-02
      -2.1457225516894992e-02 2.1610284174726511e-02
      1.0687421300766458e-02 -3.3598260729225581e-02
      3.0500645915798603e-02 -3.9786368152957559e-02
      -4.5541690683900994e-02 -2.8336129069499146e-03
      1.6916908259388967e-02 -1.5823968999463006e-02
      1.6863479798311265e-02 -8.1716253662580174e-02
      -1.5554913196077999e-02 2.1284358349157515e-02
      3.4011775385654565e-02 -1.6730754242756628e-02
      -2.6025305802039982e-02 2.8186822988218365e-02
      -2.8742221566728465e-02 1.4447817502208518e-02
      2.7751532591936624e-02 -2.3816235561112384e-02
      -2.9304801239554441e-02 -7.1585545882937108e-03
      5.1623510367434906e-02 2.1584242167152069e-03
      -3.5915075504762278e-03 2.5335384015325920e-02
      -2.1182133102652996e-02 -6.0623045575612664e-03
      7.3234574113653472e-02 7.3452081679231312e-02
      -9.6479638708286269e-03 6.7038563832378856e-02
      -1.4074246674346201e-02 2.7074204942044582e-02
      -7.1614025915910616e-04 3.4300006063424690e-02
      -5.9537682816337208e-02 5.3300029592906785e-02
      5.6080155109767799e-02 -8.7791778763458422e-03
      -8.8308358917434909e-02 -8.4285600450512248e-03
      3.2179128458608479e-02 8.8627554544318168e-03
      4.1951419195199541e-02 -3.2313145631466161e-04
      9.2104087739242665e-03 -4.5453651541060734e-03
      -3.8177320861346994e-02 -5.5663524612384115e-02
      2.3666802082964448e-02 5.6584835495962597e-02
      -4.3638809119829945e-02 7.0904534488737420e-03
      -1.9117935735339660e-02 -6.1193166783290510e-04
      2.8871884028398048e-02 -1.3793979563016366e-02
      -1.3443813876863081e-02 -6.0151420452950440e-03
      2.0148188265484725e-02 -5.8992112966585533e-02
      -4.8379886226136967e-02 -2.7472103197042328e-02
      2.5902978817071324e-02 4.0005587479288790e-03
      9.0888222209180389e-03 -5.7949194296790504e-02
      -4.0222951674867190e-02 -1.8909156909821034e-02
      2.7911413419195656e-03 -6.1632339802015169e-03
      4.1301013994324863e-02 -1.2526431219520651e-02
      3.3409032030066843e-02 -4.2637884355283200e-02
      -2.8488251602113331e-02 -4.0138396549195453e-02
      -1.0029034846512437e-01 -1.9878468852159683e-02
      4.1940135752203591e-03 1.5780822446373983e-02
      -2.7525298554409119e-02 1.6802345381816589e-02
      -7.4214789090324713e-03 -1.0800342632111553e-02
      -5.5989447249553598e-02 2.9026280482189946e-02
      4.2230991753892055e-02 -3.5749819265776826e-02
      -7.3538119416177786e-02 -4.0758841174652685e-03
      3.8127930212357913e-02 -4.9232256285280274e-02
      -4.9513196752283321e-02 2.8954888089131929e-02
      -4.7626433521446777e-02 -5.2522225215191924e-03
      -3.0735908497906916e-02 3.9957693182753495e-02
      2.7551063604943356e-03 -7.4921751558898561e-02
      3.7501765897330502e-03 -4.1019086080817370e-02
      -3.4652303433392893e-02 3.9188524559254879e-03
      5.4770962045613110e-02 -2.9401806930581163e-02
      2.2245420943201963e-02 -2.3294094488196544e-02
      1.2063991975953082e-02 -6.4997862905141368e-02
      -3.9945258197811639e-02 3.4988502699867266e-02
      7.8944856081660006e-02 -1.8261985451837298e-02
      -1.4025505082130554e-03 -7.0737252966125930e-02
      1.5506988276365732e-02 4.2315760083858826e-04
      2.5786072307902228e-04 -2.2966177339206667e-02
      7.6696955874451149e-03 -4.2711008041438368e-02
      -4.3879087855071920e-02 -1.6508749947861448e-03
      4.6893320676649961e-02 5.6870732922306280e-02
      3.2024733043989034e-02 -4.0167365007089721e-02
      -2.8102477246821213e-02 -2.3187458373184679e-02
      -1.1871415719676716e-02 1.2335549560926582e-03
      5.3371459135578295e-02 -3.3792369421228152e-02
      1.5766652485050672e-02 -1.0193277519289720e-01
      -3.1996071535922620e-02 -3.3273334122399605e-03
      4.5030443666303419e-03 -8.4834163721174138e-03
      -4.3387095688058120e-03 -1.5348157141687236e-02
      -6.7321390942735815e-02 1.1679651480208395e-03
      1.8217773361640661e-02 2.6707517787395306e-03
      -3.8644968604827634e-02 2.3258864206246010e-02
      5.2704510410571545e-02 5.0796833510309274e-02
      -2.8964879168611526e-02 5.5221074039710856e-04
      -3.2388463576689779e-02 1.0254449038151993e-02
      -4.0894053366038524e-03 2.1965167376942981e-02
      3.5009756448384055e-02 3.5272436087216051e-02
      -1.8667492893887094e-02 3.5890899095947981e-03
      1.8822815360693249e-02 5.5618971574468552e-02
      -4.5949626867637705e-02 -1.0740773635486277e-02
      4.8161427399019338e-02 -2.3229652901202810e-02
      -2.8717032077506116e-02 -9.9369544848438695e-03
      1.7632130911234431e-02 9.9585539045340867e-03
      4.6090146732361545e-02 3.1095332996276700e-02
      3.7517097735284499e-02 -9.3001644943377648e-03
      1.9613629178281255e-02 -4.3875902895677638e-02
      2.6388539072443352e-02 -1.2923694244676525e-02
      -1.8035190866308750e-03 3.6994209650872789e-03
      5.9081146620810088e-03 4.1242397768487425e-03
      3.0154045594302351e-02 2.6428160412518324e-02
      6.3324120807045289e-03 -1.8808937748491710e-03
      -6.8145589195499224e-03 -1.1173115022946921e-02
      1.2199645748620378e-02 -6.7702264055153989e-03
      3.5797186389609173e-02 2.0530608581890979e-02
      3.7862607250890273e-02 -2.6258022003206913e-02
      -8.9158451113603883e-03 5.7530528181348175e-03
      5.6193491287796849e-03 2.3711208842333461e-02
      7.1387547272386224e-03 -5.6095969932959885e-03
      -7.7981738422018415e-03 -2.5141463521531095e-04
      1.3486740572480484e-02 -3.7061871093613440e-02
      -3.2954758126863527e-02 -1.5586334964576251e-02
      -7.1099551690370234e-03 -4.9471495507400444e-03
      9.4968837814408558e-03 1.5093762184754122e-02
      -5.5746192816030909e-03 -1.5751339494173195e-02
      1.1945492904774790e-02 3.4325486027713945e-02
      -2.4783184283668082e-02 1.1139606097606492e-02
      -2.9951620005752615e-02 -1.9250297839422885e-02
      3.5835237839402331e-02 -6.7996991095058187e-03
      5.5977697972363341e-03 -8.2211713370871249e-03
      4.5857704884450499e-04 -8.5524490506934392e-03
      -2.3892805870065065e-02 -1.2551869891675020e-02
      3.5867907976693113e-02 -4.8061306578763953e-03
      1.7024636890851052e-02 -4.1357225474165052e-02
      -2.4083616541625361e-02 3.3940189369298331e-02
      1.5345282365060860e-02 -4.0088880374388944e-02
      -2.5758855463298896e-02 -3.5502528150260969e-02
      2.8838807678857242e-02 -1.9018668865948780e-02
      7.6569642867633711e-04 8.9561591892554481e-03
      3.0536425014569706e-02 3.0089294819068597e-02
      -8.7697025230371491e-03 -3.6112331658830314e-02
      2.1050504935014064e-02 1.6127263762333730e-02
      3.4189741867256332e-02 3.3047675093798391e-02
      -1.6099421283578427e-02 6.4250881818958359e-03
      -5.0721226163645279e-02 -2.5916493807824747e-02
      1.4335134087431327e-02 -2.1497458698542175e-03
      3.2836160850972518e-02 -4.8496178874530158e-02
      -1.6844077856579411e-02 2.1011661310985683e-02
      -8.0396713312938049e-03 2.5330898845612296e-02
      3.2771706053910034e-02 6.2730147586253192e-03
      -2.4448439229455374e-02 -3.7157664483126240e-02
      -3.3114810769169598e-02 -1.7039079136278674e-02
      -1.5835999779641143e-02 1.4613704970338199e-02
      -1.5390768018550975e-04 4.9346416371937159e-02
      -2.8192400225011280e-02 -2.2675393473684450e-03
      7.1847459129753908e-03 -3.3465354715672350e-02
      1.6999880863777506e-02 -1.3597514412870914e-02
      -1.1352762940664925e-03 5.7862484777341225e-02
      -4.0597009768862068e-02 -1.1388659967944616e-02
      -3.7167226285712743e-02 -2.4306655375264191e-02
      5.0175745191620838e-02 -1.3250272543465896e-02
      -2.7727633273791911e-02 1.0890735197875418e-02
      4.8222200695211201e-03 3.7673485540664888e-04
      5.6848844127629899e-03 -3.6843888820109602e-03
      -1.7341605348398622e-02 3.4989996542445556e-02
      -2.4049300541868209e-02 -1.1208097212468543e-02
      -4.1460962598863942e-02 1.1208544235887201e-02
      -2.2065451217883308e-02 -3.0632323900691958e-02
      2.9417750920905563e-02 -1.1959601180241712e-03
      -2.0405288227042649e-02 -2.1173955168203095e-02
      -1.2700701135120845e-02 -1.7402030447218261e-02
      3.3850228894323438e-02 4.6848582612542947e-02
      9.3414917823861059e-03 1.3340630214074194e-03
      2.8775233799872724e-02 9.2899816930635919e-03
      2.4958645361549629e-02 3.3951506082312906e-02
      7.4673135426079739e-03 -3.6110260910900943e-02
      1.7983101935961719e-02 -2.7797767648966049e-02
      -1.6642058459684656e-02 -3.1009822567926112e-02
      3.4308043378112503e-02 -1.2649745087109241e-04
      -3.4875390215289171e-03 -2.6229584085340599e-02
      -3.3292183663098732e-02 -2.4506649984307037e-02
      2.6586366004386533e-02 -2.3877683754943826e-02
      2.0491186368063196e-02 -4.7234510342703824e-02
      3.6956869593616007e-02 -3.6677627792325281e-03
      -2.7713461997195799e-03 -4.2958162926183617e-02
      -2.7917809115401399e-02 -4.4489460672262563e-03
      2.4237161088136165e-02 -1.1642436010744002e-02
      -3.6856038893514800e-03 8.1802767279951522e-03
      2.5613603909204315e-02 8.1786682972556455e-03
      1.0969048659576408e-02 3.5417021108595246e-03
      2.4676282700882759e-02 -1.4372330571314434e-02
      -4.3683000967802282e-02 -1.2975821783058901e-02
      1.9917632799558990e-02 1.2058014964230618e-02
      -2.4505806017316714e-03 -1.3921922461895072e-02
      3.8948927759155393e-03 -1.8540580151445062e-02
      -2.9843729656449249e-02 -2.8167337758144350e-02
      -3.2606443977186338e-02 -4.4680897497623377e-02
      -2.3389445830409358e-04 -3.0037248557521670e-02
      2.0776866570545460e-02 7.5373701931037108e-03
      3.0504278521191613e-02 2.0483910553916296e-02
      2.0711481276023794e-02 6.1744400376086321e-03
      -1.4312508414060550e-02 -1.7979089553834864e-02
      -2.8787382483352303e-02 2.9503910017569673e-02
      -1.2543546133154716e-02 2.7494078938701025e-02
      2.5803781969339121e-02 -4.2655816873256577e-02
      -3.8603999677704268e-02 -1.4714875682447805e-02
      1.3415259696084531e-02 2.0707351827072555e-02
      7.0394579091903227e-03 -2.0250367840904848e-04
      -5.0476700115337910e-03 8.2502920444123551e-03
      -2.4936653111348198e-02 4.5458922588129155e-02
      -1.1469494227575490e-02 -1.3332170815097208e-02
      2.8041659834551449e-02 -1.6668881388985656e-02
      3.0022374177695620e-03 4.9373938559516359e-03
      4.2643785026709987e-03 2.7771696247014439e-02
      -1.0507588493148123e-02 -2.0060676925864111e-02
      -3.3488040230843466e-02 -2.1704407086570506e-02
      3.6041648704677645e-02 2.3559842895948632e-02
      -2.8116614089727730e-02 -3.5601964646568625e-02
      -4.3059377219252905e-03 3.6094037511423061e-03
      -2.6578874921204792e-02 -2.3654884752061168e-02
      -8.1074656360228432e-03 -9.5590069479124882e-03
      4.8533262666828380e-03 2.7985482488951330e-02
      8.0048611979515027e-03 -2.3323713840238861e-02
      -4.9645669058838035e-02 -2.5790787214253340e-02
      5.7700502141018739e-02 5.2408848033831459e-02
      -2.3453338663529222e-02 2.8818056837813195e-02
      4.5309738469896409e-02 3.8712475790731518e-02
      -2.6604563426323363e-02 -2.2087462962713296e-04
      -2.6550276135871624e-02 -4.2713549565510662e-04
      1.4086169545870162e-02 -1.9999579174673373e-02
      -2.7235881877822745e-02 1.4898892589670641e-02
      -1.3708878007266587e-02 -1.6903287866639062e-02
      4.9360477134742113e-02 1.9531695744333229e-02
      3.3528327450773443e-02 -5.0575225386906568e-04
      3.8429540270748601e-03 1.1098576773111784e-03
      -2.0016843029010203e-02 6.5176957342038655e-02
      -4.3822613141517371e-02 1.8948252274332510e-02
      -1.0737874270653364e-02 -6.0134071109020958e-03
      1.6134479364315682e-02 -2.2527759780164882e-02
      -3.6166565716357680e-03 -3.9993444494945338e-02
      -1.6535496043367921e-02 -6.5753601898850725e-02
      1.0610823361468975e-02 -4.6354041333261636e-03
      4.0982234229310535e-02 2.6797034808010187e-02
      -3.6715826215642504e-02 -4.2189078728724815e-02
      -5.2845567951980220e-02 1.3255598553600374e-02
      -9.0157919530353889e-03 -2.4349933730130179e-02
      4.9977482110865040e-03 -3.7464707886602465e-02
      6.7412821623527141e-03 -3.6316730450316831e-02
      -3.4235330327333120e-02 -4.7160650662809556e-02
      -6.3531209910026004e-02 -5.6854122665425819e-02
      -1.4269797665107773e-02 3.3343948134046918e-03
      -4.6609881860987440e-02 2.6186098829234613e-02
      -3.1150647659833813e-02 -2.7407377365492674e-02
      -2.8626339427549902e-02 3.9875737978260078e-02
      -6.9092496809879250e-03 -5.2368046088628696e-02
      -1.3032242234060371e-02 -4.0407897055308034e-02
      4.8828355053635256e-04 -6.2455515881662651e-03
      -3.8284310977755052e-02 1.3031466847048907e-02
      -3.1169257999688293e-02 -6.7956654387139820e-03
      -3.2406620442135707e-02 -3.8308838718856086e-03
      3.5376163284471226e-02 -5.9352580258386099e-02
      1.0510898304657883e-02 -3.7931423011480107e-02
      -3.4154927899167707e-02 3.5625793803337517e-02
      2.0918801189906640e-02 -2.3155535121168944e-02
      1.4053416552315949e-02 -1.9726381110145422e-02
      -8.9251110627461428e-03 -7.4874331899386550e-03
      -4.3436662631642295e-02 -2.4595849039324248e-02
      9.1466111077373197e-03 -1.0317752269622451e-02
      1.1080942786497801e-02 -6.2681301539514039e-02
      -2.5451698680818140e-02 2.4811593526670159e-02
      -7.0214363433562053e-03 2.0884267584322019e-02
      2.1062442534227423e-02 3.2495443048651726e-03
      -4.6932023428679789e-02 -1.1560360041342817e-02
      3.7895107771722648e-02 1.1043566842496378e-02
      3.1120310588291462e-02 -5.1090060804739650e-02
      -2.6286789695967289e-02 2.2545463492934188e-02
      1.6343555895306221e-02 -2.5878420000815206e-03
      2.7994902047256433e-02 -1.0571721335479614e-02
      2.4508469904955622e-02 -3.6215646146644048e-02
      -1.4119018916285504e-03 -2.1556972959820821e-02
      4.0145872834324511e-02 1.6808469160477221e-02
      -5.3636726959763445e-02 -2.5696854408442923e-02
      -9.4541683107555018e-03 -7.4951140689345610e-03
      1.6930885240325343e-02 -1.3127771951775734e-02
      -1.5709218017683314e-02 9.2781749272275345e-03
      3.0597740677150109e-02 1.6365790312231517e-02
      -1.4571348249365026e-02 -2.0868021734920039e-02
      -4.6464919682728187e-02 -8.4299874655420666e-03
      3.9732605917853020e-02 6.2069979705945258e-02
      9.0118351287363941e-03 6.5261290072873707e-02
      4.0354217902778600e-02 2.8676259398817374e-02
      -1.5722834941924096e-02 1.9224345309062304e-02
      -5.6042252467781439e-03 4.2223317255435149e-02
      5.1075146453464899e-02 -2.7554858640800671e-02
      -2.6177088385729293e-02 -1.2071750487288044e-02
      -2.1252452072851362e-02 -2.8768325787436488e-02
      1.5881179101456023e-02 -1.5616202344200435e-02
      1.5333443650711662e-02 -2.8233462274606200e-02
      -4.1509058031906666e-02 -1.2512371155153974e-02
      4.7288076053037927e-02 4.4903388169063918e-02
      8.5076123351162970e-03 2.1664258329789549e-02
      -4.4285406135203410e-02 2.3584344540678037e-02
      3.5706373668152619e-04 6.9749286173370157e-03
      -7.9324175085972778e-03 9.0222770443882446e-04
      2.6451486140702019e-02 -2.9388942896511790e-02
      -1.7766245509533062e-02 -2.2944160227398074e-02
      4.5263804454674414e-02 3.9986529562026857e-03
      -8.0417013451790954e-03 -5.5738709803987367e-02
      -2.7261113230966420e-02 4.2448947908202736e-02
      -3.7894195789404200e-02 -2.4411860850096587e-02
      4.9370200902219476e-02 1.5881797421465191e-04
      9.7500169113653896e-03 -6.4884434759410045e-03
      -1.4826518788522999e-02 -2.4095640428468249e-03
      -9.6153642770377329e-02 -4.7169103489980803e-02
      -3.8331677803067794e-02 -3.5161236493510419e-02
      -4.1115619490142911e-02 2.5934071126707970e-02
      -3.5459863443836677e-02 -6.7354586929068315e-03
      -5.9875636921202088e-03 5.0648148896097998e-02
      4.8146122996199067e-02 -2.7861679186626909e-02
      -5.6997715434467765e-02 -2.8528738910410141e-02
      3.5817828673757407e-02 -3.8207302588708338e-02
      -5.3171330472686004e-02 2.6131747445512325e-02
      -4.5986510682778141e-02 -5.2072059952557211e-03
      -2.9463369585866393e-02 1.3925141309762833e-03
      5.6944395567212536e-02 -2.6112854538090258e-02
      4.7391164751729289e-02 -8.0025714775401532e-03
      1.7181191576279811e-03 -1.2423870598286051e-02
      4.7395564311970777e-02 -3.0055264776056655e-02
      -2.0800961855390175e-02 -3.9386160115431813e-02
      1.3685638989098199e-02 -7.0230334359003013e-02
      -3.8589390050653413e-02 6.4425713861800534e-03
      1.8845752636339926e-02 1.5540785089795036e-02
      5.4055038711615523e-02 -5.3288756500283758e-02
      4.4939263760543836e-02 4.9402223521331792e-02
      4.6743927232418298e-02 3.9483222508300074e-02
      -3.7660141464172596e-04 -2.9730738240025773e-02
      -5.4151718169917519e-02 -3.9229722604536658e-02
      3.7881010629208789e-02 2.6637882313717148e-02
      3.2616883376535414e-03 -3.1813254987709476e-02
      -1.9461022455590581e-02 -2.5335933999313918e-02
      2.7531230833895467e-03 4.4731737599485587e-02
      3.5041157715034951e-03 -1.9575930808644334e-02
      2.5694125800532423e-02 -3.0758102937577823e-02
      -2.9316474064445663e-02 -1.0893674440035968e-02
      7.4679456259933059e-03 -4.4105483605220902e-02
      -5.7811709376651442e-02 1.3946060880136800e-03
      -6.0748014907641749e-02 5.7985501564841779e-02
      -2.6067917914870353e-02 3.6023192538277627e-03
      -3.1141734131011862e-02 2.1439813457587747e-02
      3.9200799926189835e-02 5.6187555732801882e-02
      -4.6228192418446612e-02 -5.0575520558892072e-03
      -1.3461570692890581e-02 -3.2894482739436966e-02
      9.3058097508213672e-02 9.0076260358715035e-02
      3.6413509086946501e-03 5.5110838772538376e-02
      5.7918837969965928e-02 6.4263509455439349e-02
      -2.0393181133383988e-02 6.3185728075581787e-02
      -3.4766124729853833e-02 5.8460219349965883e-02
      4.6310880966663116e-02 -5.0810144653007268e-03
      -1.2084695429203424e-01 5.4740599145716655e-02
      -1.0309415020749063e-02 -2.6073588609354246e-02
      1.7287010509777767e-02 -5.1642431310113451e-02
      1.1762734557596291e-02 -2.9382383383230508e-02
      -4.9768147709557675e-02 -5.9570722019667732e-02
      -7.5439428923690845e-03 7.2120042758353778e-02
      -2.8654692420865359e-02 3.7377171334037028e-02
      -3.1113733590476044e-02 -2.0335866389137006e-03
      -2.8945661138840357e-02 2.7217148731977607e-02
      -3.7710745720286459e-02 -2.2550877851531103e-02
      1.5129285663283301e-02 -6.1470842745119506e-02
      -2.0360910091711686e-02 -3.0642382398982589e-02
      1.6903313323322938e-02 2.8158994928870688e-02
      1.2386375958118707e-02 -6.4033602761450245e-02
      -6.2793854703997717e-02 2.3576329531557270e-02
      -4.7623166394982638e-02 1.4738876299641183e-02
      4.8442095180258292e-02 -7.7152032075828603e-02
      5.2650046237703255e-03 -3.9085142599553660e-02
      -3.5658459027651926e-02 -3.4579371422909531e-02
      -1.4692401167079105e-01 -7.3175289348368838e-02
      -1.2469415757325589e-02 -5.4445995834025039e-03
      1.8169107623793002e-03 2.3914803244102757e-02
      -5.3173660650766230e-02 -4.1664059125364826e-02
      -6.2576660592712996e-02 2.4031666268824504e-02
      4.0771693260629321e-02 -2.8502692479128480e-02
      -8.5266803395931984e-02 -2.8383628813392969e-02
      5.2670435020030680e-02 -6.1450407231327435e-02
      -1.6888169688718348e-02 3.2680858921234984e-02
      -2.6536886331665666e-02 -3.0470097214215792e-02
      -1.5543420228639446e-02 1.5352685445489180e-02
      5.4559749318786453e-02 -6.8007240883603728e-02
      2.3573742850474429e-02 -2.4748712746348475e-02
      -2.1540475407485889e-02 -1.0571645047103067e-03
      7.5263531590337454e-02 1.3025188555267544e-02
      -4.4760807676485033e-03 -8.2095355329795269e-02
      -3.5449115863776776e-02 -3.6665086437622424e-02
      -1.1132755174045498e-02 4.6362870011651292e-02
      1.1067321908991665e-01 4.3340191725020988e-02
      4.8971295565148815e-02 -7.4433641685488230e-02
      1.7961773747316594e-02 3.0939581735300974e-02
      3.7219336243630571e-03 1.3998264217899037e-02
      7.1118456855442580e-03 -7.8540858278968381e-02
      -1.7471534293615660e-02 -6.9468879086095947e-02
      7.0686961415848864e-03 5.0761739832438271e-02
      4.5685605013281401e-02 -5.0788152063480342e-02
      1.1074943097289802e-02 8.7722178162250967e-03
      -5.6621073289421162e-02 9.4341859135366659e-03
      6.3447552952026767e-02 -4.6595067373054848e-02
      5.4683337726849452e-03 -1.1308393178174574e-01
      -6.2328801571113368e-02 2.1881256399489585e-02
      -6.8374518369358180e-03 -5.3795496106544979e-02
      -1.4261538141021834e-02 4.3177713158249517e-02
      -5.5266378796572938e-02 3.1082430025475800e-02
      1.3138397070324874e-02 -4.2853033101619642e-02
      -4.6505729760635509e-02 3.2613085822115119e-02
      9.0270599724579542e-02 8.9605965031712087e-02
      -3.1082485453524846e-02 3.8974935956609183e-02
      -9.4078818904755557e-02 -5.8923265416042633e-02
      1.8023704604216631e-01 1.1692446021218941e-01
      4.2934154103764922e-02 1.3838487163770838e-01
      8.1024798326590375e-02 6.7812035296061501e-02
      2.7813078070024325e-02 9.7336168037959830e-02
      -9.7068341638425787e-02 4.9954596869990424e-02
      1.0949476228949484e-01 -9.4277427567964929e-03
      -2.0316235624212597e-01 2.2381530867208930e-02
      1.8643233644169692e-02 -3.0048087759276580e-02
      8.7611231604014350e-02 -4.3441289192327620e-02
      1.1175060225172348e-01 1.7374608493989488e-02
      -8.2184676066910961e-02 -1.3651426219469154e-01
      2.8327065039269315e-02 1.1829249113059664e-01
      -2.0338170220884862e-02 1.5794715283217676e-02
      -2.8056092325257190e-02 6.5380916605382200e-02
      3.4148027222572999e-02 3.3032894008168889e-02
      -6.5445430478824992e-02 -2.0960611810251554e-02
      2.7795763410696252e-02 -9.5028792014352839e-02
      -1.9254892807283076e-02 -3.2260639531937481e-02
      4.8593953698624480e-02 5.4883459868702002e-02
      6.8870428818678211e-04 -7.0487739911529290e-02
      -9.3999675129847901e-02 4.1282995008636740e-02
      -2.1064873707097066e-02 -1.8490195615596092e-02
      1.4371493370126950e-01 -1.2075103298615561e-01
      6.4793298784660100e-02 -2.4836877731569913e-02
      -1.9075397707890109e-02 -1.7889785604656074e-02
      -2.3702780609946067e-01 -6.6855636062838550e-02
      -4.9738139789601107e-02 -6.0949761542805722e-02
      -7.5643612541323207e-02 1.0458579641954856e-02
      -1.0919218085043135e-01 -1.0442872258984165e-01
      -1.1191421860992402e-01 9.9246761137009337e-02
      7.7668112270781145e-02 -8.7444613226093371e-02
      -2.0145638358618834e-01 -2.9588368972612009e-02
      9.4472615482904684e-02 -1.3032021749688144e-01
      -6.5004411167739487e-02 -3.3052613708110648e-02
      -1.0207371904524273e-01 -6.6897169625042982e-02
      -8.3508566413213886e-03 3.9134773192263272e-02
      3.4245784620691645e-02 -1.5013542777892580e-01
      8.9122554935368498e-02 -4.4734272903796134e-02
      -1.6740603206816182e-02 7.9539717116683159e-02
      1.3379810696528516e-01 1.3694965605503583e-02
      -3.5419700900103504e-02 -1.1549959034992326e-01
      2.5506009190061817e-02 -1.1630149151573184e-01
      -7.6054841669910361e-02 4.7405379764892050e-03
      1.8358659973221828e-01 4.9552348542278031e-02
      8.2084844628035461e-02 -1.0378807926840593e-01
      5.5048221749270210e-02 1.8008271244342101e-02
      5.1761241591548025e-02 4.0660206370512604e-02
      4.7751333008400926e-02 -1.2649489722116938e-01
      -1.1923179574056363e-01 -1.3015994621939608e-01
      4.7689267171471601e-02 1.2473893248356227e-01
      8.1401146611715949e-02 -1.3971319070937344e-01
      6.4079449691262363e-03 -3.5149308221830322e-02
      -6.1990006531073664e-02 4.3571791065288315e-02
      1.0031344230927430e-01 -4.5557158244098325e-02
      1.2632864345626171e-02 -2.1684159429237621e-01
      -9.5453051244988651e-02 3.5218808383250771e-03
      6.1361399843670075e-02 -2.3861206938712864e-02
      -9.5096276471505439e-02 4.2154749676555664e-02
      -1.1492527490632408e-01 1.0963356447950567e-01
      -7.9210242978607764e-03 -9.8905257198435834e-02
      -5.7217283245812496e-02 3.9239451455589935e-02
      1.3627807812009513e-01 1.6235858799443276e-01
      -1.3012829489682431e-01 -1.7299980603032818e-02
      -2.0864585054092184e-02 2.6959557115578514e-02
      -3.1204624082173390e-02 -1.3243997729325187e-03
      -3.0305699450914634e-02 -3.6238681612535163e-02
      -1.8283626043668434e-02 -2.3568211037231907e-02
      1.8960867463308953e-03 -3.3506477407215282e-02
      3.6473802878861636e-02 2.2415723543944926e-02
      3.6178015849721738e-02 -1.2132579944566069e-02
      -2.3375818516557369e-02 -3.0115517495541567e-02
      7.6610419153181888e-03 9.9100358717526312e-03
      3.6499805948374632e-02 4.1927995818465255e-03
      -7.1796201591480084e-03 2.2909592311027238e-02
      1.7237148549952275e-02 -1.0036522534694205e-02
      -3.1629378049112852e-02 1.1723258539076985e-02
      3.2599146871389921e-02 -2.1304632039113060e-02
      -1.7415539835445203e-02 -2.6227931097954498e-02
      -6.9848274708282920e-03 3.0266293584683746e-02
      -2.1205561805054073e-02 1.0991945751261238e-02
      -3.3374200254869570e-02 -1.8905986604084518e-02
      -1.5872665074487209e-02 -2.6339042112136089e-02
      -2.9977266771490541e-02 -1.7811319881955797e-03
      -2.2106935213111325e-02 9.9228830893084031e-03
      2.9034906976331413e-03 -2.5755869271388409e-02
      -2.8499159651535919e-02 -1.3332546972206134e-02
      -2.2823023161150167e-02 -5.7352353816180869e-03
      9.9461468459346204e-03 1.5023283942697011e-02
      2.5490195342507321e-02 9.2861837356564021e-04
      3.9419571060590311e-02 -2.1434373042896485e-02
      1.7424954775650662e-03 -2.9468971815056009e-03
      3.3140058903141792e-03 2.8600838185117973e-02
      4.0206017668646579e-02 -3.0220061235614582e-03
      3.2360466602416253e-02 3.3839661053827193e-02
      -2.6034087301820361e-02 -1.7837486992691711e-03
      2.3004364676729179e-02 -7.1095268122847279e-03
      -2.6657300513951796e-02 -2.7252456538886548e-02
      -4.0076534900193320e-02 -6.0305634291144749e-03
      -1.9385388798871918e-03 2.3492156605803682e-02
      1.8571219959583240e-03 -1.7460192970808294e-02
      -1.4807443933427710e-02 -2.7205066563393304e-02
      2.1749169787069624e-02 -2.3686075865890086e-02
      -1.7646713633580974e-02 1.2214027492856326e-02
      1.1147843716299115e-03 1.4081411783987819e-02
      -8.3373507425399760e-03 -2.8616208610035065e-02
      -5.8145156601575954e-03 -3.0415439978132414e-02
      -8.4055378108198204e-03 1.5309529382103531e-03
      1.2598392054904217e-02 1.1866799065832330e-02
      -2.7547411763242238e-02 2.0800463370804882e-02
      3.3077238287510434e-02 2.3552617734354832e-02
      -1.0041134185319149e-03 3.2835309550526934e-03
      3.9930345768726715e-03 -1.2799596701814402e-02
      2.3406758247184589e-02 -1.3642709236774866e-02
      -9.8474454777804730e-03 2.3713622418560433e-02
      2.8109093731918770e-02 8.2840142186733044e-03
      -2.8023307613032771e-02 1.4090536682743177e-02
      2.7559327910335581e-03 -3.0510986563502564e-02
      1.1814032560751886e-02 1.6797567138979036e-02
      2.0086671913333732e-02 4.7269732701772295e-02
      8.9669101196166393e-03 3.1800938425784450e-02
      -1.6885540565845722e-02 -9.0064577109085203e-03
      -2.1387634760809512e-02 2.2498660420427023e-02
      2.4485974236875832e-02 -2.7403639455735880e-02
      -1.6697406553994234e-02 3.1245974173902413e-02
      1.8326875489505026e-02 -2.8141448638685465e-02
      3.4311400640287752e-02 2.7236383343718532e-02
      -2.1611666454698355e-03 -2.5184543201319516e-03
      -3.3533421111624842e-03 -3.3291335181578924e-02
      2.4933743694281217e-02 4.2400487833593382e-02
      -2.3979620185164661e-02 2.7544228170251650e-02
      -5.0910917328763012e-03 2.0618210918928971e-03
      -1.1447745378362212e-02 3.6135303598806623e-02
      -5.9023588037326921e-02 -2.7305405842616053e-03
      3.1331763599139792e-02 4.9687905236638248e-03
      -4.8623729161296203e-02 3.1091155380703544e-02
      -2.7470497183566547e-02 -3.3100531825230164e-02
      -1.9048370527024704e-03 1.1057967951814679e-02
      1.7101684385443086e-02 1.8332404687164780e-02
      -2.5780835514175614e-02 -2.0781700160165416e-02
      2.5578133479409512e-02 3.8806517856957316e-02
      -3.5481875078138908e-02 -2.4191909868327768e-02
      -1.7011496607852554e-02 5.1597973258733802e-03
      -3.1750675622119612e-02 7.9001364640241926e-03
      -3.8576113052651968e-02 3.4405598563835890e-02
      -5.1831582349210750e-03 -5.6158711437014723e-02
      -2.1051975154453090e-02 -5.3049745779056821e-02
      4.5153369065869725e-02 1.6395333326898007e-02
      -6.6962567792980604e-03 -9.3183829078777314e-03
      -8.2771443373749025e-03 3.8554573293252133e-02
      -4.1535958234524488e-02 3.3490059948618693e-02
      9.4452758551185470e-02 -4.9005616822356650e-02
      1.6519858616391499e-02 1.2219799274458999e-02
      -4.4850668508151304e-03 -1.9778068094708771e-02
      -1.2352881087082349e-01 -6.4080684508541527e-02
      -9.9455451721415806e-03 -3.1237449887579621e-03
      -3.1814787697961346e-02 2.5859927836405224e-02
      -5.3011461889347210e-02 -4.3985563330952264e-02
      -6.2517511073935481e-02 5.0168743572248889e-02
      4.3013085201404525e-02 -5.7715753141072537e-02
      -7.6284239659795819e-02 -3.6571056346481920e-03
      1.3787346402452050e-02 -1.6207350221618580e-02
      -3.9237236997046981e-02 -5.7962252698199445e-03
      -3.5415301858594900e-02 -2.0553891578456593e-02
      4.1431915747690267e-03 2.7078319930943315e-02
      4.3464151964275388e-02 -3.7725363461786267e-02
      -7.8805142779886164e-03 -4.6385749723473896e-02
      4.8165312236831204e-03 -7.1072358041097640e-03
      6.0223405678095983e-02 -2.1336503114437719e-02
      -1.7861021459058046e-02 -4.8744135564748332e-02
      -1.4028194777745900e-02 -5.1695609914501714e-02
      -5.3260170458052536e-02 -1.4973809279847793e-03
      5.4692818952811410e-02 3.3666569250432460e-02
      2.2151720712064293e-02 -4.4794649366877416e-02
      1.4766362313499105e-02 6.8156419515632395e-03
      3.9635425909093357e-04 -1.4520448545771987e-02
      1.1073656406236749e-02 -3.9477028859420685e-02
      -3.2925673730213906e-02 -5.4930166327675722e-02
      1.8588851218142570e-02 4.4470603824901568e-02
      3.6253098508870388e-02 -5.2519288103530945e-02
      2.6578929285430097e-02 1.5782351084753048e-02
      -3.3629158175463761e-02 7.2894116152328187e-03
      2.7847929219787890e-02 -2.8008479962175481e-02
      -9.7933095741071993e-03 -1.0083601175850805e-01
      -5.0560604248779784e-02 -3.0967871985481753e-02
      -7.9312356951382144e-03 -4.6399043473954026e-03
      -2.6143802209465068e-02 4.7947100146657040e-02
      -4.3668622066911827e-02 4.8079351128822889e-02
      -2.6374396428357660e-02 -5.6517068160242108e-02
      -1.7369705710989194e-02 -1.8043159342065881e-03
      5.2948713474667251e-02 2.2740165883709501e-02
      -6.5051310867443271e-02 -5.7841094958929039e-03
      9.4283628882388497e-03 8.5010070931822793e-03
      1.6520870688924674e-02 1.2972015535788667e-02
      -5.6397955522195370e-03 1.5935240696375155e-02
      2.1522194544435647e-03 3.0724449001712846e-02
      -2.5443254380539404e-02 5.3107229812723561e-02
      7.1731402769936760e-03 4.1864904978776818e-02
      2.6563075589990413e-02 -2.1529169063029145e-02
      -6.9954824064085014e-02 3.0361125838354482e-02
      1.1595615524853871e-02 -1.7105575481480673e-02
      3.7807168297983418e-02 1.2818499690913540e-02
      2.6595392938014301e-02 -2.3694231146609668e-02
      -1.0510464061945526e-02 -2.1837422724862908e-02
      -5.5841362244511729e-03 -1.1775709847941811e-02
      -2.3007077276558801e-02 -3.5387194491597100e-02
      1.1305961579846254e-02 -2.2373130116312246e-02
      1.4059020243677804e-02 3.9580180357973629e-02
      -1.9659458053032597e-02 2.5577396138254084e-02
      -1.6708618901578588e-02 -4.2743658755183198e-02
      -5.3560273596971967e-03 1.3655302389961897e-02
      2.4418787940222869e-03 -2.0259094180253526e-02
      1.7590675234359050e-02 -2.0373227899048978e-02
      -4.8241369682825330e-02 -2.3406162812712242e-02
      -3.2150946586568918e-02 3.0085026763705700e-02
      7.2514614360273455e-02 -3.9528801795137847e-02
      2.9373004586128248e-02 -2.4074458298869443e-02
      -3.4543479707026981e-02 2.0804502093157349e-02
      -5.8234789339108473e-02 -3.4035150008596519e-02
      2.2478050479194458e-02 -2.2070025073925807e-02
      -1.6989895141066202e-02 3.9141938641373787e-03
      -4.7895492787907987e-02 -1.7687038299210239e-02
      -4.1975449630476280e-02 5.2287953420307072e-03
      -3.2642234439611513e-02 -2.9298242058831941e-02
      -6.3667962493877503e-02 -2.0634354211306240e-02
      3.4009826801042704e-02 -4.1969325842383894e-02
      -8.7345253370675578e-03 3.0939100728772578e-02
      -1.5266862528987145e-02 -1.1907736419751905e-02
      -2.7741920390761354e-02 3.9004317931378783e-02
      -5.8972390185062810e-03 2.8451450121117334e-03
      1.9918916260494666e-02 -3.4337933829250530e-02
      -2.5111557454548405e-02 4.0930350396814558e-02
      2.7769909453172217e-02 -7.1632056608786424e-03
      1.1090557686211413e-02 -1.7017589396125347e-02
      -2.1166533189255710e-02 -3.2814098277076341e-02
      -4.6768370902519535e-02 1.0406470721185932e-03
      5.4468766550679767e-02 -7.8957234429998299e-03
      3.2832604534424679e-02 -2.2217782334331818e-02
      1.0314864114741777e-02 -7.5328816365152545e-03
      3.7889428542384827e-02 3.4599055329252712e-02
      2.0486135661628321e-02 -2.3720244678925095e-02
      -1.8277032773555156e-02 3.4865457759912749e-03
      1.5180720884718992e-02 2.1278671660663145e-02
      2.4681403866201147e-02 -6.2881479184623522e-03
      -2.5079540053580485e-02 1.4972511103167822e-02
      9.5833203826808967e-03 -1.6755756309408279e-03
      1.6790371600137063e-02 -2.9335995810096174e-03
      -9.9138218034189422e-03 -6.6581432272504099e-02
      3.0373377377541325e-02 -4.6278087603350429e-03
      1.8078906855419845e-02 -4.7215688099903732e-03
      -3.8827823958856124e-02 3.1954675086780161e-02
      -1.3552080252891697e-02 3.6513964454372265e-02
      -2.4318999861108692e-02 -2.0254417235355638e-02
      1.2458312378708473e-02 -1.5736866900935672e-02
      7.1296274675851238e-04 2.4567458751947320e-03
      2.8407638016572749e-03 2.1551529952374145e-02
      -1.5530615634916032e-02 -3.3866491598426335e-02
      2.2038899474497966e-02 5.3857019118521775e-02
      -1.9620517791248571e-02 3.1736631697765298e-02
      3.0371526157778055e-03 -2.0002896380125555e-02
      2.9746363275423345e-02 4.3102954980280224e-02
      -2.4034758483065240e-02 3.1016296195164418e-02
      4.5836980446267418e-02 2.9201612558594006e-02
      -3.8614817778287062e-02 1.9229860329704435e-02
      1.4055621688375092e-02 -1.9930155006401214e-02
      3.2868223599989449e-02 2.1796227643479067e-02
      -1.0230110444130115e-02 -2.3208120876616535e-02
      9.5562836902369965e-03 -5.1539319831042450e-02
      1.3780589815044290e-02 -1.1425999236238762e-02
      -5.9249740863423026e-03 -2.2883386553326820e-02
      5.6205909602914054e-03 -1.9631963538087008e-02
      -5.8670990734313736e-03 4.0779893651833397e-02
      -2.1748231825323549e-02 -2.4396565983727331e-02
      4.2483421412768715e-02 -4.8117891960516891e-02
      -2.3997689924440100e-02 -2.9382588897624871e-02
      3.5881391208297869e-03 3.9490310993005595e-02
      -2.4341514407254096e-03 -2.9137147546894469e-02
      -2.4188386215290861e-02 -4.1682608992008978e-03
      1.4934440966260289e-02 -1.6394135544914399e-02
      7.8767937040565783e-02 -3.4709893406979749e-03
      -1.7375715995219185e-02 2.0464269735353275e-02
      -2.2702461393051140e-02 -3.6454052549017478e-02
      -8.6072675799580944e-02 -1.4797411992353054e-02
      -2.2608182364152213e-02 -3.8956376052646832e-02
      -2.0904537438230699e-03 -8.6152734697936603e-03
      -1.5821597225045170e-02 -1.5719608406950841e-02
      -6.2818405187374873e-03 -1.4660113193461017e-02
      -2.1658682364514046e-02 -4.9399299353892603e-02
      -7.4545158238374168e-02 2.3247579914488444e-02
      -2.0842000377426360e-02 -4.3908000202830630e-02
      2.2832658777616009e-02 -5.0047759714666367e-03
      -1.3101614525368980e-02 -2.1659872799882789e-02
      1.4642886300375278e-02 1.8214519190565805e-02
      1.2038426424198244e-02 -4.5411280335761470e-04
      1.6147577393496440e-02 -2.9047175331732823e-02
      -9.1224541589887253e-03 1.8155158178225583e-03
      3.6764523030366217e-02 -2.9226024921081246e-02
      -8.5906931530327652e-03 -2.8511100237339791e-02
      4.5142636256107968e-04 -5.9281953408558088e-02
      -7.1299004239530825e-03 2.8566933828363507e-03
      4.8971607321917902e-02 2.7558835903101740e-02
      3.2560460177146484e-02 -4.6452606443242103e-02
      -5.9984355345940104e-03 -1.6422937315165392e-02
      -1.0410620425593436e-02 -2.0584366978250637e-02
      4.0146802317257986e-02 -4.7282473401964613e-02
      3.5809918924748500e-03 3.0211799999289250e-03
      3.6146398770753520e-02 1.9599967982034817e-02
      -9.7234359238826985e-03 -3.6261787769654975e-02
      -3.2127333520472562e-02 -3.7133272490439441e-02
      1.6189382905698046e-02 -9.5323495363056222e-03
      4.5121580796030174e-02 6.3034948542893023e-03
      -2.1681482430530589e-02 -9.1175357850588543e-02
      -3.8345441368590166e-02 -4.6423343500581402e-03
      4.0484602969121340e-04 -2.8445133745995301e-02
      -5.0989156559145647e-02 -5.2971492928192412e-03
      -2.6178185206786022e-02 1.9705301965982611e-02
      3.0288903829902972e-02 -5.2228979445215741e-02
      1.5342044458685181e-02 2.8632234272952715e-03
      3.5422183881815117e-02 5.4020254833413918e-02
      -4.1014697716862919e-02 -1.3610904387343525e-02
      -3.4567726544913233e-02 -3.0633400915824106e-02
      4.0311768228030495e-02 -8.2005466760902319e-03
      -9.1993501034199048e-03 3.8428687365146721e-02
      2.5688333562663316e-02 1.3291183117772179e-02
      -7.2276561822970428e-03 3.2112101041538388e-02
      -1.0460914398508554e-02 4.1690490140309774e-02
      2.6239325256946770e-02 2.7914348676406119e-03
      -1.7539112352845165e-02 3.4206292984197542e-02
      7.3852457972292465e-03 -2.3585852653663725e-02
      3.6038991158830538e-02 -3.3219710644036268e-02
      2.0180630984475964e-02 -2.2295182097767575e-02
      -2.1878075287728397e-02 -4.7602514821597247e-02
      3.3573438847834219e-03 8.2475470925177981e-03
      2.5703019056320390e-02 1.9511498707756912e-03
      2.6688074881093135e-02 6.9711218325973446e-03
      -3.5853583199126064e-02 -1.3683062311496529e-03
      2.0186004598507789e-02 3.1091736713169487e-02
      3.7425375246486932e-02 -4.9598225383456838e-02
      6.8851460381280953e-03 -9.9730800561780211e-03
      3.0627179842217956e-02 2.5834261638247626e-02
      3.4386993471123284e-02 1.4658502745997837e-02
      9.5638154487942984e-03 7.7992631675985989e-03
      1.2156977582941854e-02 2.4253693237787286e-02
      6.9747565027725639e-02 -4.5161542844863435e-02
      7.7424528070074205e-03 5.9641966876744839e-03
      -2.6798124177378781e-02 1.4916428651734042e-02
      -1.0284746566705721e-01 -3.5229624486937387e-02
      -3.1733041341654104e-02 4.8661316458681212e-03
      -3.9548302149766290e-02 -1.4825214580908557e-02
      3.1960359446819327e-05 -1.9124725310747815e-02
      5.6360301033681198e-03 -2.0260519035972143e-02
      -2.2157513580566283e-02 -1.7791511098080217e-02
      -5.5470565923994811e-02 3.2013789184366086e-02
      3.2352679374309294e-02 -2.8138797519802680e-03
      -4.2244069301873447e-03 2.2969468958746282e-03
      -2.4252789011243666e-02 5.6732314322815846e-03
      2.0782505713575813e-02 -1.5516243724865552e-02
      -6.0195835540488860e-03 -2.7602620304108556e-02
      -9.7471659581543565e-03 -3.3669497046303357e-02
      1.7465152955995426e-02 2.8533380165554539e-02
      6.4769537555486631e-02 -2.2399163100461333e-02
      2.8932842963602042e-02 -1.7582333554265236e-02
      1.6105218462289985e-02 7.8923285830621893e-03
      3.6469111913527141e-03 -1.9586980544253622e-02
      7.1212161345022298e-02 -2.3023120001971435e-04
      3.5661972524447923e-02 -2.9899726625179087e-02
      -2.4348237264824393e-03 4.0158628935840256e-03
      -2.3231412666845060e-03 1.6002873178561161e-03
      3.1223136592087895e-02 -1.9961182517564749e-02
      -2.3218084308271554e-02 -6.0265957660752892e-03
      -6.0726113882616248e-04 -1.7788329546350866e-02
      -1.6689157428584660e-02 8.0167328495967440e-03
      5.0904234434334924e-03 -1.9915653289272077e-02
      -1.0917703944903578e-02 3.6715277368042254e-02
      3.5693112389953943e-02 -5.3033224623098875e-03
      -3.1592355303820915e-02 -4.7695394853376497e-02
      1.7245346618280723e-02 -1.0340746640667619e-02
      2.2121231716865412e-02 -3.3552393656066735e-02
      -4.7193064406974038e-02 2.8162044041702004e-02
      -4.1694647991202212e-02 3.3226612337521888e-03
      3.4031973219218033e-02 1.9991014582639383e-02
      -2.0193728123566478e-02 4.1420827789343771e-03
      1.5304136768385464e-02 2.9500405636334638e-03
      -4.0014280071461336e-02 7.1189959266442253e-03
      -1.7712531184600703e-02 -2.5815826446962394e-02
      6.7697798978718160e-03 1.4420262507940373e-02
      2.8570137234798895e-02 3.0460368332520225e-02
      -8.4180290575798641e-04 -2.0450074104458850e-02
      -2.5336313096445955e-02 -2.2484017184647456e-02
      -1.3302159272195888e-02 1.6868002263879561e-02
      -1.7340197841109552e-02 -3.0771481022978223e-02
      -3.0791413615440355e-02 -1.6445991468967573e-02
      2.7707389061717366e-02 2.8539558264703370e-02
      1.9099511130798306e-02 2.6244946949496355e-02
      -7.2518227644489067e-03 2.2376433116808897e-02
      -1.4830252146146262e-02 3.3972761478715585e-02
      3.0244454319724865e-02 2.3023937928841769e-02
      2.7899330277650170e-02 -2.2425966019481630e-02
      -3.7995246087440794e-02 2.8196602196970465e-02
      2.0399686012468950e-02 -3.4845577925417440e-02
      -1.1309417858401578e-02 -8.0568066642336279e-03
      3.1471973690815974e-02 -9.0271185441593849e-03
      -3.1867880169988212e-02 1.1765551894730202e-02
      -4.0399736852644299e-03 1.9015094791140004e-02
      6.6823921131509891e-03 -3.7476168747857244e-03
      -9.5768111503961740e-03 6.3888548096188071e-03
      -2.4437998088230675e-02 -6.5751991997183342e-03
      4.4652638211511726e-02 2.4400845783963832e-02
      2.0384300618420111e-02 9.5794922387545476e-03
      4.5787520035156715e-05 -3.1484484322714945e-03
      1.0296088909509862e-02 -2.2913410715419226e-02
      9.0816293201156570e-03 1.4111400097952734e-02
      3.2005530120539027e-02 2.2519179578770879e-02
      3.5319057655494958e-02 2.9169187406284072e-02
      1.7083561337225748e-02 1.3975818379653643e-02
      -2.0556377630546512e-02 2.2726057080659442e-02
      -3.5064718940274443e-02 3.5333396577380750e-02
      4.1149036120944130e-03 -1.3926753476165335e-02
      -2.4280436252659264e-02 -1.1064257955109421e-02
      3.5359156110212848e-02 4.1399504387709965e-02
      3.1424055455002799e-02 3.0943565118673178e-02
      2.2895512177394047e-02 1.1002269857644212e-03
      3.0494280177301960e-02 1.4863822273987932e-02
      1.5185190303827725e-02 2.6380170924875747e-02
      -1.0348804067351168e-02 -1.4661612367516895e-02
      -1.0578806099727576e-03 1.8359564991291481e-02
      -2.6217052325623769e-02 -1.3386613891428496e-03
      -1.4079249424355395e-02 -5.4439704865520428e-03
      7.6227816156120157e-03 -2.2009759422052409e-03
      3.2499933671024440e-03 2.1176760958013543e-02
      -1.4904784507387603e-02 4.6494127967106830e-03
      -5.7304751020210744e-03 3.8129864506845475e-02
      2.4273753829651985e-02 2.0220729807160852e-02
      -2.1881965439793757e-02 -1.3658784731624274e-02
      -3.6060238321568239e-02 -3.0732198392605645e-02
      1.4345384824379696e-02 1.1397272747815223e-02
      -3.0039643837085499e-02 5.4514406090265654e-03
      5.1273424740996823e-03 -2.5372874332169375e-02
      1.2604897308346505e-02 -1.8322504649751752e-02
      -2.2178410596924967e-02 -2.8837918501549483e-02
      3.7984987142770980e-02 -9.3867307122811640e-03
      2.3622559105697317e-02 -7.7776924670943876e-03
      -1.7639214938312268e-02 1.7590866887673390e-02
      -1.6616454508484327e-02 1.8439479044275904e-02
      4.0974675887625413e-02 1.1061803231216600e-02
      -3.2456854912399365e-02 -3.0757797602622754e-02
      -3.0065756793521328e-02 1.4188648339651052e-02
      -2.1818189170550183e-02 4.8811883395855149e-03
      -8.7563123692739539e-03 2.4252258902540774e-02
      -6.8786575122824958e-03 -3.3578178830752300e-02
      6.6811482489557194e-03 -3.3699473530285046e-02
      -2.7350740158734881e-02 -3.1218723721423796e-02
      2.4963203676319330e-02 1.6711059600131844e-02
      3.9127465590841702e-02 -1.5405089969193488e-02
      2.0697274384156247e-02 3.6343912943318089e-02
      2.8022558746400545e-02 2.8947223432409280e-02
      -3.4174721605337903e-02 3.3270538975511035e-02
      1.8496784668852781e-02 2.8775005320402806e-03
      1.4843045441792874e-03 1.8944120814782181e-02
      -2.1289111782108128e-02 -2.7832759964363997e-02
      -1.5440913200505262e-02 1.5594308269529490e-02
      9.1645775901260176e-03 -1.3598795980478957e-03
      -2.7192785963070502e-02 2.5849874797835921e-02
      -3.3105655065893344e-02 7.9348899542391726e-03
      2.2941603336572497e-02 5.9965789021365875e-03
      5.3820786583067878e-03 3.8563908301103754e-02
      -1.6772856482505767e-02 2.5990564181289581e-02
      2.0424261919426034e-02 -2.0514213206574799e-02
      4.1090242833311558e-02 4.9654714541785784e-03
      -2.9045794515107789e-03 -2.7556075949888105e-02
      1.6255076144308499e-02 1.6768558195663828e-02
      1.6260403737005887e-02 -8.4854733897412585e-04
      -4.6439403698792089e-03 3.0342848555860884e-02
      -2.4622120100336632e-02 -2.2395846517589815e-02
      -8.1600761993175890e-03 -1.6596042858031949e-02
      -3.1823733759561858e-02 1.3795001415950373e-02
      -1.1151735903156748e-02 -4.4832670634295170e-02
      -3.3949144423450636e-02 -1.5971979475969480e-03
      -2.6106833142259183e-02 -3.5660720195874615e-02
      6.0289909232354687e-03 -5.9474708096515427e-03
      -1.8243915251554626e-03 2.6489826807825932e-02
      -1.9437567862123886e-02 -6.1850429821047551e-03
      -3.1143436569099972e-02 3.7897149961317649e-02
      -6.0690690612969925e-03 5.5566458331471466e-04
      5.5897760888514421e-03 -6.3001160181333817e-03
      1.5238036538314693e-02 1.0680149541588588e-02
      5.3118369486056874e-03 1.8238565456151757e-02
      3.2524502599688393e-02 2.6416455583256001e-02
      7.1099240289669271e-03 -2.3301281202069216e-02
      -9.6293987095312020e-03 2.8376763446720079e-03
      -3.1447944586316466e-02 2.4568233177475439e-02
      -1.0971028530078197e-02 4.9379948585999694e-04
      -4.3277697345476115e-03 1.5109965381936995e-02
      1.1089501741378852e-02 2.9905518615907629e-03
      2.9600258984846320e-02 -3.0528969216113835e-02
      -8.0911690046022635e-03 2.0345970183602430e-02
      -1.2514179753239138e-02 -2.5172204118977630e-02
      5.1793061168237675e-03 6.5870178695717698e-04
      -1.8697086453360746e-02 -2.2216097074754543e-03
      -1.5916962941202532e-02 -1.1524347901471126e-02
      -1.8191278107237436e-02 -4.8532440648927791e-03
      -1.0652211836299554e-02 -1.9670677253159762e-02
      8.4501105864851246e-03 -4.1337095916339512e-03
      2.4788245639269867e-02 2.9485217337679455e-02
      3.8199740616400225e-02 -1.5450442555701742e-02
      -6.7492157503121989e-03 -1.8127799317986130e-02
      1.9138071666188004e-02 7.7862813320186868e-03
      1.1224067500698090e-02 -3.5977692478941788e-02
      3.5056621925915930e-02 -1.5527021410728271e-02
      1.3590960014105539e-02 2.1643119291392510e-02
      -3.1603620294728650e-02 -6.6376176400514174e-03
      5.8273464502496906e-03 -7.4985296875660140e-03
      -2.8690450826117965e-02 -2.2110753357835231e-02
      2.3392437245256414e-02 4.3235683956149011e-02
      8.3665203062258282e-03 -7.4739277235031194e-03
      -1.7348384173407415e-02 -2.2484062221011004e-02
      7.1340391896189638e-03 -3.4538778309423299e-02
      -2.1584412295872758e-02 -1.7392606920111926e-02
      3.3316963258581279e-02 2.9910502359964845e-02
      -2.9912036952308946e-02 -1.8842077170151583e-02
      3.0213542729832139e-02 1.5569428556079581e-03
      1.2320986655377007e-02 -4.1366323976245647e-03
      3.8313946915054749e-02 -9.6451983968357385e-03
      9.6064454546790044e-03 -2.7146408526705422e-03
      3.4185807474122615e-02 2.4618462840180797e-02
      8.6970572648521326e-03 -3.0346506973646169e-02
      2.6637352973087950e-02 3.3993073523914355e-02
      -1.8230855342089292e-02 -8.5379469204915209e-03
      9.8224277895163081e-03 -1.5006835795064309e-02
      -3.1993402186260896e-03 1.1240664645278198e-02
      1.1582443581624483e-02 -3.5935529040971768e-02
      1.3446338651066779e-03 1.9651726208543118e-02
      -3.9649605222676319e-03 -3.6318591164703505e-02
      1.6816701058149829e-02 8.5458511358763398e-03
      -4.1654379350620580e-02 1.8758042376204424e-02
      4.7407036267114247e-02 -3.0153781358970011e-02
      1.2845119488325441e-02 7.1602274830035095e-03
      -2.9463869113796778e-02 2.5655350230644403e-02
      -2.9609408443570476e-02 -1.7696634926522802e-02
      1.7714740697166408e-02 1.9727302241548953e-02
      3.3627452665908257e-04 -7.1242047396670987e-03
      -1.7704833268796499e-03 -3.5182047716897501e-02
      -1.3903317513978265e-02 -6.0450367848515867e-03
      -2.4552933759816462e-02 -7.2777493023056935e-03
      -2.5172249110337875e-02 3.9386437363349595e-03
      3.4633843257037132e-02 2.0116145401640986e-02
      1.1975850109940765e-02 3.0703975819848794e-03
      3.0373578190306370e-02 -7.1616189149412207e-03
      3.2046532015398567e-02 1.5466913159690334e-02
      2.8145975952362821e-02 1.4872280894425367e-02
      1.8726516309502120e-02 -1.9242088510302943e-02
      -1.0803610261625775e-03 2.5323876541132266e-02
      4.6052562970206297e-03 -3.5856142859884116e-02
      -3.3860211482594334e-02 -1.4514947489854111e-02
      -3.7905453575949197e-02 -3.3038397583658015e-02
      6.7944416992441704e-03 -2.9389661679390170e-02
      -1.5264709652647890e-02 -2.9665298794389998e-02
      -3.2201827401216826e-02 2.4821835984807489e-02
      -2.0608286822023550e-02 1.4088046616750310e-02
      3.5353221571651709e-02 4.1050984268888299e-02
      5.7189766536146509e-03 -5.5281284103560889e-05
      -8.7615398929281218e-05 -6.8060120191384260e-04
      4.2202997671387209e-03 2.2940044719610673e-02
      -1.7105196031490152e-04 6.5731149387586764e-03
      1.8988167046827976e-02 -1.4568698938294256e-02
      -2.9726893507648613e-03 2.0268509610930355e-02
      -2.3353236762082955e-02 -3.5181856995360833e-02
      -1.3407762923475765e-02 -8.3294360575130733e-03
      2.7008315329860269e-02 -2.5597153242941283e-02
      -2.9112702993567649e-02 2.5751803688628304e-02
      -2.1360193282649884e-03 3.9641682198015794e-03
      1.0027411817986380e-02 1.8958702083050685e-03
      4.0875161073180510e-02 -3.6819916577947531e-02
      -7.1799814214781150e-04 -2.1548633811724838e-02
      -2.1746629760583024e-02 2.8447857381105758e-02
      1.9343988532507239e-02 3.0734784248958601e-02
      -1.2307588839300210e-02 -1.7733316968159298e-02
      1.5243071628449173e-02 1.4663156711474334e-02
      4.6572526628067219e-02 1.3521081408995913e-02
      1.1784731987908491e-02 2.1935933781058636e-02
      -2.5468977339266237e-02 -1.0876262844281351e-02
      3.3380846034203625e-02 2.3460256762055934e-02
      -2.2340433565758874e-02 -3.5693670491344230e-03
      -1.5321048052085406e-02 3.0192941021903761e-02
      -2.9530841632916416e-02 -4.7143087654415855e-03
      3.3429814223608764e-03 2.7518105296266290e-02
      2.5940981613961467e-02 1.9850995277267917e-02
      9.2943806116101136e-04 3.1948026082956986e-02
      3.3557773512343902e-02 -4.0532418478580579e-02
      1.6230520851656514e-02 -3.2772718399699578e-02
      -4.5166238250364680e-03 5.3377464823298418e-03
      -3.2932701859885359e-02 -2.0515953802823627e-02
      3.8783457911741925e-02 4.8538784183214632e-03
      -1.3107286477906360e-03 -1.2346757652461090e-02
      -1.9033407382448037e-02 3.9011560068635859e-03
      -3.9499066714920199e-02 3.0345742473499068e-02
      7.0579735334495930e-03 4.2972496428490388e-02
      2.9341357564121241e-02 -8.5150716333430940e-03
      -2.8508407180206870e-02 -2.7892986961660426e-02
      3.5388322775228777e-02 1.1510059353625944e-02
      2.3855641432031990e-02 4.0230760730452647e-02
      2.9139882193477649e-02 -2.3417162882855943e-02
      -7.7114547609471226e-03 4.9272050508743859e-03
      1.0488017317702368e-02 1.0993609455367799e-02
      -2.6789778246890860e-03 -1.0322899788603518e-02
      -2.3723736475150946e-03 -1.9034045447813355e-02
      1.6170793180694677e-02 -3.7372148459292792e-02
      -8.2216605166880816e-03 5.9942947779692583e-03
      3.5369903774164491e-02 -1.1456456920783745e-02
      -3.8854149106656556e-02 -2.5609848853558784e-02
      1.0630816160490986e-02 -2.1206227076060485e-02
      2.0133283437942070e-02 2.6901906041523930e-02
      3.2204076215863277e-02 3.0846975049650976e-02
      1.6422557739683763e-02 -1.2523426997411231e-02
      -2.1675403890177355e-02 -2.7243123883219831e-03
      -1.2950369558400145e-02 -1.1334628999025131e-02
      -5.9365058330295411e-03 -1.7591436812488856e-02
      -3.4821744423953250e-03 -1.7439224666107499e-02
      -3.4273170677065465e-02 -2.3239893393019830e-02
      1.5540367576892804e-02 6.1712642491322358e-03
      -2.1705443705243677e-02 6.2815265082980572e-03
      7.8470577757276377e-03 3.5981162276820002e-02
      4.0448495424012229e-02 1.5645353002129759e-02
      1.0985219018442969e-02 -7.4980362707881250e-03
      2.0541343130248507e-02 -1.6663185496424968e-02
      -1.7021595873944907e-02 3.8675932822090594e-03
      1.8613728043906676e-02 -3.5325233637457036e-02
      2.6707382250433707e-02 -5.6064552954926249e-03
      1.9137537659404909e-02 -1.7601641881222155e-02
      -2.0172627110393022e-03 1.8193641260954210e-02
      1.9426722586443231e-03 4.6731801577269442e-03
      2.7346212973302329e-02 1.7372991430966555e-02
      -9.0775403540086744e-04 -2.2414766582786887e-02
      2.4667983176422333e-03 -2.5413334353438389e-02
      -1.7668615126554564e-02 7.8276779007098677e-03
      -6.5707193410003686e-03 -3.4226635950046227e-02
      4.5034851462784103e-02 7.3344133056693888e-03
      4.7051099230366730e-03 3.0937827487190737e-02
      -1.3811787237580591e-02 -4.5913249909874741e-02
      3.1260822434989294e-03 3.1433513868172044e-02
      -4.4326115280569527e-03 2.4175001301807836e-03
      2.1659677289621530e-02 1.1926320990072181e-02
      3.0538830637357847e-02 3.0102749998935096e-02
      -2.8877691386749515e-02 1.1821783916166232e-02
      -2.7549059809830488e-02 2.7116141092609149e-02
      -1.7438285319148025e-02 2.4233271983570240e-02
      -3.5558224626914270e-02 3.6716259297756626e-02
      1.3404750444053978e-02 2.7416873954011101e-02
      2.9057595558275355e-02 1.8322320143646053e-02
      9.2163100340117571e-03 -1.8481613131311178e-02
      -2.8736509703900334e-02 -6.9936867959529692e-03
      -1.2644261956494972e-02 -2.8416643001466144e-03
      -4.9195294918368609e-03 -7.0752354282361237e-03
      2.8784598527316317e-03 -1.6678529549358802e-02
      3.9104300932820248e-03 3.6045673550214062e-02
      2.3406110376642530e-02 2.3596210307382227e-02
      -1.5246111952523490e-02 -1.2934207204349792e-03
      -1.6935976517282306e-02 -7.2576249301528435e-03
      -2.5161515804873961e-02 -2.0952322464964587e-02
      -8.0171217856919476e-03 2.8645731561356524e-02
      -3.6923445460895252e-02 9.2266283558367877e-03
      3.8884511358759106e-03 5.8519722556692648e-03
      1.3810050869995800e-02 -1.9468772048809001e-02
      7.4886403402623100e-03 2.6236764204776861e-02
      -1.2158086551423725e-02 2.1151692405451091e-03
      -9.3459374905337407e-03 -2.3322047249910122e-02
      1.3273166238171130e-02 -1.5724311925588465e-03
      2.8232035819183193e-02 1.4761106342198294e-02
      7.4274762451798666e-03 2.6248516095549419e-02
      -9.8992975803294178e-03 8.0839216413203952e-03
      1.3004233503631606e-02 -1.6045408337621438e-02
      2.0512304216149045e-02 -1.1859029529290440e-03
      1.2157119240021630e-02 2.2325131226536353e-03
      1.3960670501870456e-02 1.9499551407245092e-02
      1.4790409011438119e-02 -2.7750820543130997e-02
      2.7183994669680873e-02 1.5465375246622488e-02
      2.1785335873803470e-02 3.2397044144966032e-02
      2.9743747876206747e-02 1.5546602041659870e-02
      3.0626021276791135e-02 1.4464147370974090e-02
      1.7223915224872814e-02 -6.2706519376169246e-03
      2.4832815556773094e-02 -2.9589908450970918e-02
      2.5164813215716963e-02 -1.9812388165229216e-02
      5.8091416112146200e-03 -3.6343431197680645e-02
      1.9081119868667673e-02 -2.1695763853993674e-02
      2.0010632990842003e-02 -1.1810434425984777e-02
      3.6617779311383380e-02 -1.6497611070106926e-02
      8.5439419675758677e-03 -3.5748018136134707e-02
      -6.8748468118477301e-03 -2.8763417097341027e-02
      1.0931772437951411e-02 3.3219625050881239e-02
      -1.9204885975490350e-02 1.7914225542773516e-02
      2.2362999052441240e-02 3.8677903863574198e-02
      2.9529446415431784e-02 -4.3938699048949245e-02
      1.0689112382815304e-02 -1.7895977128299812e-03
      2.8662085334699640e-02 -1.8777954794790609e-03
      -2.0653742420698989e-03 2.1783903511954947e-03
      -3.2871461678442550e-02 -1.2994428264927358e-02
      4.2861233815031496e-03 -2.8562544335033906e-02
      1.6296328596171132e-02 2.1535910608940058e-03
      -1.6963076578441993e-02 3.4954747209017992e-02
      -2.9048422069696844e-03 -1.8255716302820760e-02
      -5.6908420524240510e-03 -2.2179986135250723e-02
      1.2748909658107212e-02 -1.3198289771926051e-02
      -1.7565174549148688e-02 -1.3235093611020685e-02
      -3.1230867705539768e-02 -6.0076956878212214e-03
      -3.2872524363819058e-02 3.7870523704656820e-03
      3.7735221575440889e-02 -2.7298204063766138e-03
      -3.9430718267751286e-03 2.9100591292635061e-02
      8.8658528116762562e-03 1.1449959753853843e-02
      8.8129333037322184e-03 5.0848828663113375e-03
      -3.6378251511336314e-02 -5.0516718689763923e-03
      2.8065580577090574e-03 -8.2866170715830308e-03
      -3.1624591430362274e-02 -1.2040474260720736e-02
      -1.1138124253009847e-02 -3.4558914992488227e-02
      1.6145790280052582e-02 -2.9714678942368688e-02
      -1.3770353662677646e-02 -1.4469764481918045e-02
      -3.6591205821087949e-02 -5.7823250730160439e-02
      3.7766548519079970e-02 2.3384692675567857e-02
      -7.0562891656732671e-03 2.2295999729359667e-02
      2.3613086326427488e-02 3.4152157928277561e-02
      8.1310324681053599e-03 4.8412937935889619e-03
      2.2420984356476468e-02 -3.5729917287047261e-02
      1.5517146587083416e-02 -5.0662980670686836e-02
      -8.5038664705256225e-03 6.5575633099913102e-03
      5.1597162318478031e-02 3.8586696255929677e-02
      -1.5117280738865724e-02 -1.1720831067957673e-02
      -2.3877794042717487e-02 6.0793825361497974e-04
      -3.3656051036847198e-02 4.9116057200151008e-03
      3.1333628739202833e-02 -1.7721448872743677e-02
      4.1313052791945949e-02 -3.1287057656021328e-02
      -4.6346102426126018e-03 3.6478719062677818e-03
      -3.5563518907795175e-02 -5.2446250186936931e-02
      2.6338987532858707e-03 -6.1723227603830508e-03
      -3.4124434884491416e-03 -2.6761981733984742e-02
      -3.2795791479365261e-02 -9.4107345291971223e-03
      -5.7793324404026736e-02 4.7246563205287993e-02
      3.5986632859868056e-02 9.4218331060474808e-03
      -1.8269437514856914e-02 1.4889822283583511e-03
      4.9464889362535125e-02 -3.5598150881155373e-02
      -4.5587475966482334e-02 1.7430179528072430e-02
      -1.2935197893421005e-02 -2.5887155437756857e-02
      2.5830741889824569e-02 3.5777741461731516e-02
      2.0737932743871337e-02 -3.5962747838559558e-02
      3.9896886582164705e-02 4.0652695063872601e-03
      -2.4496934053337482e-02 5.1814049601039101e-02
      2.5160571847200688e-02 -1.6687947231702062e-02
      1.0942549138353412e-03 -6.0666292861677818e-03
      4.1611615772070582e-03 -5.8848386871793279e-02
      6.4225981129250606e-03 -6.5397410843151217e-03
      6.9855415477995753e-03 -1.0794831132231841e-02
      3.0883738840890847e-02 -3.7279563433271494e-03
      -2.2699968406065574e-02 4.3737633874853084e-02
      4.3046175649581922e-02 -3.0657198561230892e-02
      1.8899240950537671e-02 -2.5769276130055058e-02
      -1.9430966679217117e-02 -5.6600351390296351e-02
      -1.8944320264755100e-02 5.8968806983716225e-02
      2.0337240328162530e-03 -8.3337584033410621e-03
      -1.2337726325166535e-02 1.4893029839555205e-02
      -3.3166234926442419e-02 1.6067123417187433e-02
      3.7567548685423849e-02 -3.2988797964235622e-02
      1.4573234506904335e-02 -5.5152506491879243e-02
      -3.0179611386369751e-02 -3.2126887204382880e-03
      -1.1676825796078663e-02 1.2971508283790704e-02
      1.1758194964231555e-02 9.8023257875764335e-03
      -7.0818941081458614e-02 2.6088837738418847e-02
      2.2718007411906167e-03 7.5125876365056792e-03
      -4.4764235880860301e-02 1.7248017919363753e-02
      6.7910713691984897e-02 5.7822344620570655e-02
      3.3577447976393528e-03 -6.9683942241481394e-03
      -2.1631467830920587e-02 -1.9358114177585380e-02
      6.0232039713685924e-02 -1.0296836288117672e-02
      -3.4776549946632186e-02 4.0969999046747911e-02
      1.5275553952865397e-02 1.0369740107098483e-03
      -1.9133738204477359e-02 2.0066038634843245e-02
      -1.2235643343911739e-02 1.3889118056557509e-02
      -2.0209337524572858e-02 2.2017578097597600e-02
      -1.6128922125264216e-02 -1.3422310658702414e-02
      -2.1546505435898422e-02 2.3073778776923671e-02
      3.5339919912986922e-03 2.0881564951633978e-02
      1.6811526876614941e-03 1.0685938475988263e-02
      -4.5760746988938367e-02 -3.4493606970928271e-02
      2.2768730038462633e-02 3.3844440333824902e-02
      2.9708462003274299e-02 2.2534380141334794e-02
      -2.3783045923829231e-02 1.5706787509779382e-02
      1.5946141695524785e-03 -1.0784755314669383e-02
      -3.7653813825183700e-02 -5.5505667709215443e-03
      -1.7327641909446981e-02 -1.4439289776212672e-02
      -3.1821042412748225e-02 3.4387474312025150e-02
      2.8508304216094946e-02 -2.3655835315188202e-02
      3.6821546685535368e-02 -2.1639469501806875e-02
      2.4565789801194723e-02 1.6399983838680764e-02
      -2.1765026988155422e-02 1.9882476761350479e-02
      -6.2604971876962338e-03 -4.2851646138903736e-02
      -2.0832099183413680e-02 -1.1935874007217170e-02
      1.0446112579545860e-02 1.2720011758077349e-03
      -6.4696990852042280e-02 -2.7218828252411110e-02
      6.1392599176378891e-04 1.2067076674857702e-02
      -2.6362064356544805e-02 4.3571184826060302e-02
      -4.0925898121011023e-02 -2.3506103663445778e-02
      -4.3233607622819928e-02 3.8641472604010435e-02
      1.4690513297173071e-02 4.4445340865480283e-03
      -2.7792171769223779e-02 -7.5440881534609991e-03
      -4.8731996316176080e-03 -3.4280568118420375e-02
      2.8673326676358250e-02 -2.3318967354698888e-02
      -2.5899073711938014e-02 -1.8531560720906483e-02
      4.3767468200873643e-05 3.1815907287772976e-02
      1.9710096311816982e-02 -3.6342376385589313e-02
      -6.6847553739586849e-03 -4.3309097521778944e-02
      -3.2394005455281517e-02 9.1185383708980734e-03
      4.8574516912159998e-02 3.2605000633789391e-02
      -2.3495550807576850e-02 -1.9063427427977224e-02
      2.8518586443375929e-03 -5.1079181514953878e-03
      1.9508937968805932e-02 -1.2026970252039220e-03
      2.8325378883336007e-02 2.2695826426195401e-02
      -4.3386489021465906e-03 1.9668130789723764e-04
      -1.9591347943818414e-02 -6.2748316098793794e-03
      -1.1970801013093901e-02 3.6950604262758549e-02
      -1.5400441395776314e-02 1.3020107464142908e-03
      -1.7450777525505102e-02 -4.8936781948518505e-02
      3.3859735213485918e-02 4.4222081086468044e-02
      3.1115141176508442e-02 -1.3196376445476100e-02
      -2.7288444078186980e-02 -4.9606856967973102e-03
      -4.4219800989517957e-02 2.0747539927807583e-02
      3.6350339255021874e-02 6.7679326127054239e-04
      2.0866474047886958e-02 -1.3624559259080075e-02
      -5.0131098036912972e-02 1.4797719167397076e-02
      2.7751148316090830e-02 -1.7734995236376751e-02
      2.0210775831736381e-02 -8.8852970528141631e-03
      -1.5279679689110270e-02 -7.4583493451500704e-03
      2.5016249817388897e-02 4.5423999857702639e-03
      9.3909326364423427e-03 -1.9211193760630102e-02
      2.0968113682402440e-02 -7.6211794923331739e-03
      3.7817867179698538e-03 -2.7168112121094996e-02
      -4.1316796521778899e-03 4.5110194958257266e-03
      5.8843368678150348e-02 6.7747373820836274e-02
      -1.8951589501671497e-02 6.6837253789893053e-02
      2.9141742958024620e-02 3.4259608743257459e-02
      -2.6757727640345268e-02 2.6931292619392234e-02
      -4.0582669796376848e-02 2.7698096946873779e-02
      4.5929819928378850e-02 -3.3428293984120505e-02
      -6.1373722079878491e-02 2.4126914555481446e-03
      2.9073012343549542e-02 -6.3807820736689327e-03
      1.4476510590650754e-02 -1.0895339393749152e-02
      1.8320216066610800e-02 1.1051405384315479e-02
      -3.2976012346459999e-02 -5.7533635437515225e-02
      1.0425491668766870e-02 4.3497271612711885e-02
      2.8438670962076616e-02 9.8811348462010500e-03
      -9.6942894512575123e-03 2.7148687614458496e-02
      1.0805412209265550e-02 2.6260051456753235e-02
      -1.2244480002420646e-02 -1.2944203083321382e-02
      1.6032905267769182e-02 -1.0626400489902026e-03
      -2.1688582851424497e-03 -9.5372789912519761e-03
      5.2837120745151490e-02 2.3845603065344376e-02
      -2.6833818851694515e-03 -4.9512799564172122e-02
      -5.5163123083090501e-02 2.4851306193679649e-02
      1.6754481767422644e-02 2.5235280511613896e-02
      -1.3012649530572309e-03 -1.6970228041722560e-02
      1.0837572235452685e-02 -6.1241890329528882e-03
      2.6547569478068682e-02 7.5907507140353242e-03
      -6.3366168412667206e-02 -2.8067124783263779e-02
      -1.3712554954807294e-02 3.0822760584673036e-03
      -2.7598127977012017e-02 2.6092823424578974e-02
      -2.4837891466205061e-02 -1.3755525306927354e-02
      -3.7026629799962858e-02 4.0030068832886005e-02
      4.2271069223946647e-02 7.5822243365516158e-03
      -2.2750615098117540e-02 5.5939454158758914e-03
      -2.8415189260016516e-03 -3.0553492007051635e-02
      -1.4412128245201080e-02 -1.6266928602199138e-02
      -3.6687277001492364e-03 -1.5299068295644034e-02
      -2.8584784612776450e-02 6.8738254753104525e-03
      9.2624808280104762e-03 -7.1209185442091316e-02
      3.6805927907585887e-03 -1.9997422958528417e-02
      -7.2054026908191030e-03 3.5987419182079171e-02
      1.7296836573661808e-02 -1.9504884663409577e-02
      2.4791865424400442e-02 -5.5774078038532578e-02
      8.5854952959763513e-03 -5.5518242154131738e-02
      -1.0019273591650505e-02 -2.1677927663226140e-02
      2.4963073003642384e-02 2.6677244319553015e-02
      1.9771140821377712e-02 -5.6513666314807746e-02
      -7.7583976343449405e-03 2.0127375153564012e-02
      9.7785951105574011e-03 -4.1515382708639224e-04
      -2.1897799394725723e-02 -1.1953883865289712e-02
      -2.0081510042080062e-02 -2.4141505135065255e-02
      3.0060431966716730e-02 1.8120042071763973e-02
      1.4094609260482470e-02 -4.5633336633290771e-02
      2.3206997819677716e-03 -3.3312379816763722e-02
      -1.6211655286879619e-02 3.4150880154696722e-02
      2.6547771615652360e-02 1.5133383098165806e-02
      1.6545629834196631e-02 -2.5399789777870881e-02
      -4.8112424175772654e-02 -8.0447267317327702e-03
      3.1973363136578010e-02 -1.5342155791253555e-02
      -4.6483041998645662e-02 -3.0212957313815382e-02
      -3.8954609918208566e-02 7.6770183178092319e-03
      4.8569003383507996e-03 -7.9505757651626343e-03
      1.3346176002390240e-02 -1.9200201993083161e-02
      3.5727577143992044e-02 3.4176455750800257e-02
      -5.3813152283192278e-02 -3.1648860451554302e-02
      -1.2433584904596661e-02 6.5110947416036572e-03
      6.6292085256459072e-03 7.8134356015945074e-03
      3.8330267566595827e-02 1.2023942413272938e-02
      -3.4355411868697033e-02 -2.3209345880441545e-02
      5.3231759621240977e-03 -4.4428840300596649e-02
      -1.1149074387534846e-02 -2.7668742207553144e-02
      -1.1300800721878616e-02 -3.4709490544669996e-03
      -1.7208378732754111e-02 -3.4800265116676603e-02
      -9.5463579177514221e-04 -8.6941240051572732e-03
      -3.2682804766150049e-02 1.1755453177249941e-02
      -2.5233869681320492e-02 2.4066421664006129e-02
      2.2126798460283773e-02 -4.2503320746223646e-03
      2.0553835593297029e-02 -2.1294564252390879e-03
      -8.1531938126358592e-03 -7.1193720923127292e-03
      -9.4095748726704728e-03 6.0292655210827219e-03
      -3.8704511544157320e-02 -3.0049094039393244e-02
      3.3830318413640828e-02 -1.2005670896492310e-02
      -2.2937459870005502e-02 -1.2480496617784217e-02
      -3.4472308406874104e-02 -7.1944321140692581e-03
      -1.9477916937288994e-02 -2.2763822724953590e-02
      3.9497739575905362e-02 3.4529540565955238e-02
      -2.6929405183009167e-02 1.4919200833456731e-02
      -2.4081594894506371e-04 2.3133513370808888e-03
      -8.0993559619957408e-03 1.2866433631862888e-02
      -3.7177176687172610e-02 -1.4169395163974705e-02
      -2.7739331462433049e-02 8.9417464403216233e-03
      3.8585353057685727e-02 1.3207592726495829e-02
      -3.1343392261592558e-02 -2.4774400388243963e-02
      4.2663662597973190e-02 2.7153856309827043e-02
      3.4041027301603272e-02 4.5669497891498663e-02
      2.0094395033846062e-02 -3.2890955494273497e-02
      1.5585928463344291e-03 -8.1970649320359038e-03
      -2.0125640360648824e-02 3.0313655237646928e-02
      -2.0012960659111411e-02 -2.1748573251529648e-02
      6.1462014848332903e-03 1.4325144145606974e-02
      -1.2720883490320413e-04 -2.4727175129853694e-02
      2.6063170739336155e-02 -1.3979527191317759e-02
      3.6010073027462543e-02 6.4083237221921436e-04
      -2.3093596904973548e-02 6.5838880486769093e-03
      9.9690438867956071e-05 2.9434617919171877e-02
      5.3374584322521601e-03 7.4961850732069872e-03
      2.2075291536502044e-04 -4.6675790055331345e-03
      -1.8720620638172890e-02 -6.6324852106432733e-03
      2.4568754553242637e-02 -1.7006564974249357e-02
      -3.6183292703187472e-02 -1.5236973782628683e-02
      -2.8168659652829872e-02 -2.0198823431443372e-02
      -3.0640328388040178e-02 3.2613070248921530e-02
      1.9840134843102226e-02 3.3672991017128583e-02
      1.0542870646889153e-02 -2.9834216887196608e-02
      1.9901214234940401e-02 1.8407315401803046e-02
      3.3775495998160186e-03 -1.5743783000922395e-02
      2.0574907601528330e-03 4.6047181327394507e-02
      -6.3163739396026393e-04 1.7153424948022467e-02
      2.0808139704809291e-03 2.2296631227537788e-02
      -3.1685479900554835e-02 -3.1201650051539721e-02
      -1.7377564188235817e-02 -1.0337310273468389e-02
      1.5120398188159564e-02 -4.0570351057247567e-03
      2.6182829070793244e-02 -6.5108844171654001e-03
      -1.2519809462580958e-02 1.3533429831964450e-02
      1.4938779248484526e-03 1.9773618429745791e-02
      -2.7050773833700380e-02 1.4309573018807273e-03
      3.2946336067281423e-02 7.2931329269651485e-05
      1.2170271262633214e-02 -1.1442753490903403e-03
      -4.9466970546099840e-03 2.6529469695836267e-02
      -9.8083742118723854e-04 -2.9084763100591101e-02
      6.5346181470977609e-03 -1.1465908900198028e-02
      -2.4765975055274982e-02 2.2155144949946332e-02
      -7.4899612469677803e-03 -3.3518723365960408e-02
      -2.0058796610540150e-02 -1.4852435623915087e-02
      3.6712006901560325e-02 1.7315677645468996e-03
      -2.3986183262158570e-02 3.1555205515666901e-02
      -4.3047199985572267e-03 1.7982923563038843e-02
      2.6744967509110991e-02 4.2278091657454157e-02
      2.0141100392740890e-02 3.5767491243406002e-02
      -3.0487997178992824e-04 3.9709001097973047e-02
      1.2582142218891295e-02 7.3474937461370073e-03
      2.1780614057269495e-02 -4.3412895053143954e-02
      -3.3135232497835503e-02 6.2271776669542579e-03
      2.5463688582505434e-02 2.8982418579977017e-02
      -7.6143575564995621e-03 2.5829868659190902e-02
      4.0574286328192981e-02 3.3568695940761180e-02
      1.5120090967215278e-02 2.0506299089463595e-02
      -2.1092251524493608e-02 7.2301733825869434e-03
      1.0734231634459673e-02 -2.6032400441587077e-03
      8.3343638471388357e-03 2.6284906192400440e-02
      4.5443230630680664e-04 -6.8012411077460590e-03
      -3.2128556795711589e-02 -1.2888831778727714e-02
      -2.4866525741696604e-02 4.2147053493277083e-02
      -7.3365301669381039e-03 7.0776660083587105e-04
      -3.1565696913216923e-02 8.7543927827426864e-03
      1.7613768801919491e-02 -1.3543124058156957e-02
      -2.5928218583519406e-02 -2.1038897647550066e-02
      2.1115657250894961e-02 3.6542516651290693e-03
      -9.2716291082862567e-04 4.7945338148815603e-02
      1.1834906497317674e-02 5.8326426057878633e-03
      -1.6662145757142203e-02 -5.5294366268080590e-03
      7.3252394779284155e-03 3.0727905784952429e-02
      4.6329087264178554e-03 -9.5405208994804435e-03
      -2.8090035432165538e-03 -8.8426996722076739e-03
      -2.8636529079311555e-02 -1.8337615343655560e-02
      3.5396998106677853e-02 3.3102869265677487e-03
      1.6822390560972511e-02 -2.1565300892047085e-02
      -8.8279874169583383e-03 8.0448490346107029e-03
      -1.6027964104055593e-02 1.8424855736037433e-02
      2.2248947152765614e-02 -3.0586908522680187e-02
      1.0237758864142339e-03 2.6232677145219267e-03
      -2.8875253878028081e-02 2.4819500315940293e-02
      -7.2064907541496545e-03 -2.6294051765433719e-02
      -2.8181545593572634e-02 -2.4207831283156973e-02
      -2.5193436585175300e-02 3.2255613513420666e-03
      1.3669795678402838e-02 -2.7854997434240240e-02
      3.2829426515762490e-02 -3.3566531773302701e-03
      2.9795601644387239e-02 2.7978585683534299e-02
      -5.0817071908690059e-03 -2.0636481424183167e-03
      9.0055942757621930e-03 -3.1934993968070167e-02
      -1.4092763663348521e-02 1.3040508650522984e-02
      -6.8242486212101352e-03 1.5066558918834558e-02
      -1.1623498827457689e-03 -1.7175964522796467e-03
      -8.6592935408081597e-04 -1.7210537594453835e-02
      2.8575929605690327e-03 1.7661939757005089e-02
      1.6404834345056296e-02 2.9522022462820909e-02
      -2.1426967297922192e-02 2.4770620697111068e-05
      1.1503603448211839e-02 2.8841547871200444e-02
      3.7743584993204349e-02 -3.1436725326492200e-02
      3.7158288185122464e-02 -2.3791013194332689e-02
      -7.8193047537228107e-03 2.1049919722121831e-02
      -4.2138731702670684e-02 -1.8106092856504039e-02
      -3.5270905694968859e-03 8.1443673818949805e-03
      -1.8420198931395234e-02 -2.4484933100190908e-02
      -3.2518905774899486e-02 1.1201542112896571e-02
      1.3147867444426409e-03 -1.8570455397423364e-03
      1.8096830432301429e-02 2.8292335245226627e-03
      -2.1415147676565098e-02 -1.6098071379877690e-02
      3.3216658228781802e-02 9.4966514028467335e-03
      -9.6235264190720361e-03 4.5026791800239184e-03
      -1.4991270580660900e-03 -1.7775698717665149e-02
      -3.0819708540361208e-03 -4.2669701732826774e-03
      -3.4039092801588136e-02 4.2946738752385895e-02
      3.5370211707558444e-03 2.1179801051823901e-02
      2.4190951406635550e-02 3.5237346680490098e-02
      -6.1014208382086472e-03 -9.4301450152770392e-03
      -1.1793950987928552e-02 -2.7368892858531942e-02
      3.7651536763647117e-02 3.0901460680646614e-02
      -1.7731409153554792e-03 -8.3959990272646137e-03
      -6.4044376386400703e-03 3.9667847083391064e-02
      -8.6385227984493457e-03 -5.7732246870100022e-03
      2.0939429516866843e-02 1.6272725621826977e-02
      -3.7884618476429134e-02 1.5027021615951543e-02
      1.0453899290397068e-04 -2.0015740947085796e-02
      3.9286575737903513e-02 2.6200808619693542e-02
      1.2980552910763844e-02 -1.8152242996188162e-02
      2.4193338171177303e-02 -1.2373526358380064e-02
      1.7165208621300675e-02 -2.3888129351551195e-02
      -1.4289738235278550e-02 6.7933035637058161e-03
      -1.9802690583319703e-02 2.6375288464290852e-02
      2.7031526507341596e-02 3.2575647021921020e-02
      1.5875965992418470e-04 -1.5021461889727902e-02
      -9.5315897934816346e-03 -1.7115308656671140e-02
      -1.9059002288435191e-02 -3.3297482652185302e-02
      -5.0677710864570943e-02 1.0470338356320805e-04
      2.3384044494433764e-02 -1.0803711070614487e-02
      -4.2749628726348583e-02 -2.0517637360514100e-02
      -1.3923475496358821e-02 1.8406910888735147e-02
      -1.9172592469393578e-02 1.8877562412064137e-02
      1.8585323096946989e-02 2.8517446505216548e-02
      -5.5497105990960785e-03 -2.6264085245048769e-02
      -9.1127032098038720e-03 1.9115658062293612e-02
      1.3648953166312907e-03 -1.4496241687216357e-02
      -4.2344731583842631e-02 -3.8980226297718037e-02
      -2.2316379667426833e-02 2.5952476204016781e-02
      2.7111393149535918e-03 2.0384060652119236e-02
      4.6104437937295939e-03 -1.8887501471204313e-02
      2.9408086564108381e-02 -2.4042003444217367e-02
      -1.8230053582390448e-02 1.5269641014501548e-02
      5.8315287688589235e-03 -3.1034012058258356e-02
      2.6627799478576509e-02 5.9866625311359408e-04
      3.4393443232411535e-03 1.0675681228192522e-02
      -2.3992975457415314e-02 -1.3381975826453859e-02
      2.4029451232366529e-02 5.6947958534612096e-03
      -2.5769502061068681e-02 4.1596388049450018e-02
      7.7106876575931144e-03 -1.5789306219880707e-02
      -2.3265460166984536e-02 -2.4212171072415301e-02
      1.6816408063839952e-02 -3.4637496419052671e-02
      1.4513050244740771e-02 -1.7633474067478339e-02
      3.5520554026884317e-02 -2.4927539984106052e-02
      2.1518889544673476e-02 -1.8922980552319450e-02
      6.6758764052751709e-03 -3.2405049757356023e-02
      4.8237558477846172e-02 1.8568427826816027e-02
      1.0864313281439598e-02 2.4882401675204464e-02
      3.7234847055139991e-02 1.6651058587969860e-02
      -2.3563485357655824e-03 -3.1168869173911668e-02
      -1.3479236440765681e-02 2.6401068896140877e-02
      2.7696925616508525e-02 -8.3447260201559813e-03
      -1.6447247058279935e-03 3.8763175103993905e-03
      2.7992747878605437e-02 -4.6805674691592296e-02
      -1.2916538465729063e-02 -1.1651482218660775e-02
      -3.0237256625687235e-02 -2.7017532344461276e-02
      2.1863828863545560e-02 1.2430442609811316e-02
      -9.1493302249014900e-04 1.0282145962942508e-02
      3.1559275514776657e-02 -2.5933683427144895e-02
      -3.0159996330166874e-02 3.2284478416796256e-02
      -3.2962857034273749e-02 3.4028280475734959e-02
      -2.7977844911714553e-02 2.8873340839030443e-02
      2.9911921789514653e-03 2.9194662506488136e-02
      2.1278884585371919e-02 -1.2113307666237716e-02
      2.5064435788107369e-03 -3.1062140325097368e-02
      -3.6905826334548412e-02 -1.0302468407010644e-02
      -2.8565075048127473e-02 -2.5076772155936500e-02
      4.0770280642902210e-02 -2.2492527999601143e-02
      -2.9109236239190608e-02 -5.6176213121152925e-03
      -2.5271025553427931e-02 2.4177877845278233e-02
      1.2208130266363275e-02 1.2372353007247592e-02
      -1.7237377547964779e-02 2.2986418597836927e-02
      -5.9421878521455484e-03 -1.6191563683054230e-02
      1.5714653992235500e-03 -3.6124332530523997e-03
      -1.1005503265726828e-02 1.4378656224489412e-02
      -2.8714788244644143e-02 -1.7443277881668912e-02
      -1.9683374045241633e-02 4.0763453654537596e-02
      2.7421612136906456e-02 -1.9036874808111316e-02
      -2.6274458846590977e-03 -1.1959339806629611e-02
      2.9440743689730934e-02 -3.1344667132990216e-02
      3.0042192321560739e-02 -2.4118916516680210e-03
      3.2869645808072854e-03 1.4072502656095236e-02
      -4.9980333731206070e-02 -8.0528401068511411e-03
      -1.6223697565053017e-02 3.1110570534736821e-02
      1.7660141388208610e-04 -3.4151877403186628e-03
      3.7460495018484953e-02 1.2198597392352847e-02
      -9.1585388372291646e-04 1.5994065517928778e-02
      -8.3192863845592754e-03 -4.1663162587140617e-02
      -6.0170605757613009e-03 1.1853198462906063e-02
      1.8845796407933289e-02 -2.1752656018961765e-02
      1.2474421195934378e-02 1.7565503764046444e-02
      1.6974255082688812e-03 -2.5300439242709489e-02
      1.8146091085942038e-02 -2.3617716184889250e-02
      -1.6982883234660635e-02 1.9043280236622280e-02
      3.1362114588362702e-02 2.0151696696917527e-02
      9.8995628247617144e-03 -7.2775724006420676e-03
      -2.7991655955270225e-02 -1.7567262825654304e-03
      -5.0813227227980333e-03 -1.2031763808188550e-02
      3.1648544007314768e-02 2.1496946768693410e-02
      3.5722801970454721e-03 2.9587261709046197e-02
      -2.2711440227011062e-02 2.7333176613770795e-02
      -2.8779624224087051e-02 -4.0595516705998598e-02
      2.4901453262209466e-02 4.2005125793237640e-02
      2.0632521465246183e-02 -1.7917329811776926e-02
      3.2072531560442367e-02 -2.0192767965785661e-03
      8.6309074531540301e-03 -2.2252619426859879e-02
      1.9811477658473596e-02 1.0105114707349499e-03
      3.2685393686814286e-02 -1.9207944347565621e-03
      2.4286640609165255e-02 6.5377259612689077e-03
      -1.7709467764103471e-02 1.9836999047678355e-02
      5.1447012017688448e-02 1.2171728837761331e-02
      2.3084510531787387e-02 4.4217886398045782e-02
      -1.2561246441279478e-03 -2.7974197190890785e-02
      -4.9936991421426448e-03 -3.1394328334246949e-02
      -1.4359339536869426e-02 1.9575466489137518e-02
      -4.2635485438832083e-02 -1.9284189646067203e-02
      3.1528908390235491e-02 4.6410335894612291e-02
      1.1905777837162360e-02 5.8394277764290854e-02
      3.5383079746983924e-02 2.5992724814511359e-02
      -4.8490091381633415e-03 -8.6071699901673938e-03
      -5.2409384847236316e-03 4.2827270921479484e-02
      2.8721401475460494e-02 3.7392403713165968e-02
      -5.0831626215051995e-02 -1.1911454158613832e-02
      2.1548367799137876e-02 2.2527443922723954e-02
      1.5150358086202687e-02 3.1866097455271608e-02
      3.0471861907186024e-02 2.6797400914302673e-03
      -4.6292567675056809e-02 -4.4168206942962855e-02
      -2.4191236582813719e-02 2.1515941017530911e-02
      -2.8368816975564308e-02 1.3352900010949315e-02
      -3.3514904880639441e-02 -1.1169654230711161e-02
      -2.2590630230078963e-03 -2.2754739084584488e-02
      -7.1018916024892260e-03 2.5576608117377511e-02
      3.1648995849964959e-02 -5.1283987130725212e-02
      -8.8538358370184055e-04 -4.2823753361485910e-02
      6.5303114443378404e-03 4.9071158847128560e-03
      -1.4454542710741990e-02 -1.3739494058063292e-02
      -2.7931771165309323e-02 3.3500161366886411e-02
      2.8206705764923214e-02 -1.7488544478438225e-02
      1.0497537673185531e-02 -4.0889477983136115e-02
      2.3952170712697545e-02 1.2951020221899680e-02
      1.9310606111553590e-02 -3.8055323579450871e-02
      -3.5521787854108630e-02 -4.1261914759809601e-02
      -1.7315429593278461e-02 6.4378934112360687e-03
      -2.5494809688506865e-03 3.6701791503538944e-02
      -1.8810252052619849e-02 1.4120297212259289e-02
      1.2993787265914866e-02 2.4382290543240450e-02
      1.9544904993324435e-02 1.7426595126773935e-02
      -5.0081867693751912e-02 -1.1535821350747688e-02
      2.9383902978863577e-02 -3.4599290809514280e-02
      -3.7063228475649669e-02 5.9645914877499689e-03
      -4.7476114488747369e-02 -1.6750011977410238e-02
      9.3071273925995606e-03 -1.0272352310969254e-02
      -2.3698869060968540e-02 -1.6235714601804039e-02
      -2.4829208159744987e-02 -3.2779842529730110e-02
      1.8646306647684106e-02 1.3820934124349489e-02
      6.6264223484872389e-02 2.3485392066311610e-02
      1.2351827289472764e-02 -2.8236516804391820e-02
      1.4889048448934926e-02 4.2593672472091238e-03
      -2.2660703882768040e-02 1.5792714219885651e-02
      1.1579030376543538e-02 -6.0410243428454784e-03
      -2.4707045224898954e-02 -5.1360690586319487e-02
      -5.1012485646700859e-03 1.0805643648958045e-02
      3.7193310963813592e-02 3.9899518985305145e-02
      2.5740028126664059e-02 -2.6712573338213537e-02
      5.8683074921494650e-03 7.6791140313760388e-03
      -1.7917202790043555e-02 -2.0781275806188199e-03
      3.9569161546951587e-02 -5.0091746306429492e-02
      -1.6549089794292617e-02 1.1610849751275401e-02
      -4.3441449930457572e-02 -1.2735598582719023e-02
      2.9614587065292269e-02 2.4674449325742934e-02
      1.4806053736964513e-02 -8.0738584424422055e-02
      2.1321679806837301e-02 -2.4214042237290121e-03
      1.5747103396197816e-02 2.3998160438337496e-02
      -3.6446859814307474e-02 4.7343300696965705e-04
      -4.7220419854409626e-02 1.4123914404623201e-02
      2.9136568815487988e-02 -4.3467530852529064e-03
      -8.9270030033964682e-03 2.5974121918389367e-02
      1.6863333141987825e-02 5.0372979726825529e-02
      -1.8653773671511648e-03 -8.6371999715474015e-03
      -2.7344038219006491e-02 -2.2753870085724867e-02
      -1.2485791378807369e-02 1.9635558876256225e-02
      -3.8084816156407895e-03 2.4307484973046745e-02
      1.0486301016589461e-02 -1.5382223945590027e-02
      1.0575172771804241e-02 -1.7740264307328089e-02
      7.7833703728711380e-03 -1.8780156451809846e-02
      7.1333519487154192e-03 -1.1589661196451303e-02
      -2.7070915034597593e-02 1.8649233293223791e-03
      1.7928640342780279e-02 -1.2428018552773364e-02
      -6.1919652390263966e-03 -1.1088268957618812e-02
      3.3840814637168946e-02 -1.8293608546755772e-02
      -3.0206920789133014e-02 2.0661797788857090e-02
      -5.8143769065666382e-03 -2.4454115338710149e-02
      -3.5619200145314688e-02 -3.2499061032504363e-02
      3.6212144158518651e-02 -1.7337395895149082e-02
      -2.7462546795763810e-02 -9.0539994538345984e-03
      1.5754963297489766e-02 3.2283056440655877e-02
      -2.7214983520893885e-02 -2.8557972513587441e-02
      -2.2229146708360844e-02 3.3241633330755079e-03
      2.7198358326829781e-02 2.1461171046672240e-02
      2.0972230536758424e-02 1.4524477656002757e-02
      3.7272657386628288e-03 -8.4730803582182667e-03
      -1.0043427829871979e-02 -1.6255686434362825e-02
      4.1809308875114401e-02 -2.5503268797902271e-02
      -3.1981856984961518e-02 3.6324193749075959e-02
      -3.1242297685618154e-03 -1.4876951402988645e-02
      -3.0034454788880914e-02 -9.2998838764764905e-03
      -2.5891891841568922e-02 -1.7841929884631277e-02
      3.1007401485870670e-02 2.0163783669506739e-02
      -6.7156043636335590e-03 -3.3557865147188781e-02
      -2.9243729921793263e-03 -1.0411340633499560e-02
      1.4842589101879111e-02 6.5254277471912781e-04
      1.4352618009354130e-02 2.3664073223533848e-02
      1.5221420338187609e-02 -2.8753045057828167e-02
      -2.2060969821615785e-03 1.2069637034159690e-02
      1.8675755455185270e-02 7.4060755924266362e-03
      2.9048785524997012e-02 -2.6058389112401572e-02
      -6.2583324593155406e-03 1.3671736755873902e-02
      2.2738302378266885e-02 -8.7138471059230380e-03
      -3.1133329921254241e-02 -1.5547042588562441e-02
      2.5405009032188196e-02 3.1231187071817799e-02
      -2.6640547681132477e-02 3.4237166125952866e-02
      -2.9058583531615056e-02 1.7995229463694067e-02
      -2.0673869080321837e-02 -3.4557757435026613e-02
      -4.0575632486340467e-03 -2.7463073505157469e-02
      7.4806367810122745e-03 -3.6728104315662820e-02
      5.5590219453487246e-03 2.9022823880699319e-02
      -4.6202834774814105e-03 -4.4376853941140194e-03
      -3.0438469741173594e-02 -1.0024692825629448e-03
      -3.9230331593198891e-03 -1.6006485201328174e-02
      -8.4294345049729085e-03 1.6589096874029964e-02
      -8.0400356641154910e-03 -2.1990423729342023e-02
      2.6032577931098290e-02 -7.1858198864231809e-03
      -3.7259350435130525e-02 3.0833138359901691e-02
      1.1613036483155835e-02 -9.5862968680838698e-03
      1.0690011968553129e-02 -4.6705752379206551e-02
      1.1701653134643471e-02 -1.8593425862321662e-02
      2.6377435388311849e-02 2.2908346339681078e-02
      -4.1027788522051099e-02 4.5282207984783784e-03
      3.6383648351812133e-02 2.2626052074048879e-02
      3.7367619438289104e-02 2.2263181193922794e-02
      -1.5872668941262713e-02 2.1230943700375659e-02
      -3.1064832030512527e-02 -1.9345304170512986e-02
      -3.1407106649323911e-02 -9.3626589074798372e-03
      -3.5914317792197455e-02 -2.0103764121908847e-02
      2.3198884424520363e-02 -1.1488030154271018e-03
      2.4866150987508415e-02 -1.8101857005433642e-02
      -5.0863733424272792e-03 -1.9410728553576447e-02
      -2.9606225141269229e-02 -4.8884665554062533e-03
      -1.2229374625522531e-02 -7.2363953265425140e-03
      -1.0613198723638897e-03 -1.8855736214678967e-02
      -2.9983954208199978e-02 -1.6743500224502255e-02
      8.8051695594912154e-03 -4.9092223322410216e-03
      -1.0027008453795913e-02 -1.4220458252195416e-02
      -2.2412030801490058e-02 1.6188039797577547e-02
      9.8543342086259041e-03 -4.8194776935383939e-02
      2.1680467339146841e-02 2.9989823272111991e-02
      -2.1479082864438382e-02 -2.3772542915701959e-02
      1.5809414593345564e-02 -1.1099077075920092e-02
      2.1431346162845186e-02 1.8444839136706696e-02
      2.0654240122269579e-03 -3.2833321793713870e-03
      -2.2214216757761644e-02 -3.0807082594957038e-02
      1.5941296901821885e-02 -1.6563957436362253e-02
      1.0186541542302623e-02 -3.0880296969720281e-02
      -1.9358920802872825e-02 -2.5110409525020201e-02
      -1.5511534022766027e-02 5.6755835731792459e-03
      -1.2554961682876243e-02 3.2144536322774385e-02
      2.4866698292681001e-02 -1.2316041035397058e-02
      -2.9324910254508292e-02 -2.4523554161976262e-02
      2.6440059526701008e-03 -1.9064676825167907e-03
      -6.0139112913877940e-02 -3.4491496153590803e-02
      -2.8077076866956582e-02 1.6645708416672903e-02
      -1.5200419466713399e-02 5.0175786417758017e-03
      -3.6078332137184956e-03 -2.3890661073006313e-02
      7.2474320867983921e-03 -2.7215870521660111e-02
      6.5758865761597670e-03 -3.9511773878785107e-02
      -2.4086319626352385e-02 -3.1792854500049372e-02
      -1.7725095919154651e-02 -3.7326505553514286e-02
      -2.4286128994300247e-02 -3.0692812234421368e-02
      -2.2786793767023611e-02 2.0768356843989703e-02
      1.2216790994895869e-02 2.1348989898664399e-02
      -5.7742232589130431e-03 -1.3192609982566904e-02
      -2.9730294335638532e-02 -2.6098747932190868e-02
      1.5462786900223353e-02 2.0785278086793202e-02
      3.7918415908215243e-02 1.5727406749923494e-02
      -3.2092570043641383e-02 -2.5837059144730626e-02
      -2.7863702471650032e-02 -2.5159408601987964e-02
      -1.7431941414353117e-02 3.5265851349369728e-02
      3.6274607144377552e-02 8.4244301573769050e-03
      -5.6787052087608871e-03 2.3291098938863990e-02
      1.9624241208883583e-04 2.8620904906517058e-02
      -3.7508492910870730e-03 -2.1931115788145403e-03
      -8.2909468183674020e-03 1.5621579238789431e-02
      9.0782648446237103e-03 1.8398192972510885e-02
      -1.4457052970489465e-02 1.1398110085815313e-02
      2.2204754672784897e-02 7.9164780943093756e-03
      1.6675068949248101e-02 1.4563011012658925e-02
      -2.3782167164619304e-02 -2.9054864980733959e-02
      2.1094805212587563e-02 -1.7487213507667961e-02
      6.3251491189898808e-03 -2.2193519703404815e-02
      1.6583058681555383e-02 2.8866500882689310e-02
      3.1303923349871941e-02 2.0001869568235148e-02
      -1.6781172472546610e-02 -6.5959531565087321e-03
      1.3651640647088346e-02 1.9524535157323178e-02
      2.3596196857286415e-02 -1.3715013598532505e-03
      8.8223743226225389e-03 -1.6287500025896382e-02
      -2.3257030573378499e-02 -8.0087198088904816e-03
      -4.2216126970111088e-02 -3.0973139084758374e-02
      2.1896233550589957e-02 2.8676096267737709e-02
      2.4733675263552603e-02 2.2745243016792926e-02
      3.8056414803962296e-02 2.7690328378097703e-02
      -2.2062270999747336e-03 2.7171681454550123e-02
      -1.8776947179508466e-02 3.2756662738027846e-02
      -2.7172657051556779e-02 -7.8804874810380881e-03
      1.0808240883892607e-02 -1.3414992696315070e-02
      -4.1893100475854143e-02 -2.9999164148904349e-02
      3.1246868624645176e-02 3.3865839938845725e-02
      2.9957316765626778e-02 3.0971585104113460e-02
      3.5489208349021709e-02 6.3575457359880518e-03
      -3.0200753824682295e-02 1.2449919613492094e-03
      2.4581062847531154e-02 1.9479636492923790e-02
      -3.6510249548227396e-02 1.7518053095040988e-02
      -1.4921262481568881e-03 -3.6972967517429969e-03
      2.1841598745812339e-02 2.8465709102665403e-02
      -1.8857258791580792e-02 -2.4895298612045836e-03
      2.8129702919645495e-02 2.9273894017401020e-03
