%YAML:1.0
---
opencv_ml_svm:
   format: 3
   svmType: C_SVC
   kernel:
      type: LINEAR
   C: 100.
   term_criteria: { iterations:100 }
   var_count: 233
   class_count: 5
   class_labels: !!opencv-matrix
      rows: 5
      cols: 1
      dt: i
      data: [ 0, 1, 2, 3, 4 ]
   sv_total: 10
   support_vectors:
      - [ -1.05658501e-05, -5.77796454e-05, 2.41325091e-04,
          7.57403977e-05, 1.02051228e-04, -1.92184321e-04,
          3.15263751e-05, 4.66107740e-04, 3.84378684e-04,
          -1.10738765e-04, -1.57881310e-04, -1.28649961e-04,
          -3.45228295e-06, -8.66918072e-07, -6.07476977e-04,
          -7.49364204e-04, 2.76051374e-04, 4.09179956e-05,
          5.64521994e-04, -2.59553763e-05, 1.07361528e-04,
          -5.31661615e-04, 6.61145430e-04, -4.19998018e-04,
          -1.33694077e-04, 2.05424774e-04, -9.01608109e-06,
          -4.44599253e-04, 3.75021424e-04, 1.99847636e-04,
          -6.40147409e-05, 1.41462388e-05, -3.93001937e-05,
          -1.10501940e-04, 5.31807964e-05, -1.02952115e-04,
          6.79765144e-05, 5.19921414e-05, 2.63762806e-04, 1.08569846e-04,
          9.67340093e-05, -1.56297698e-04, -7.23831035e-05,
          2.49729728e-05, 6.29206625e-05, 1.16272546e-04, 1.19185843e-05,
          -8.40881112e-05, 2.11001316e-05, -1.87095531e-04,
          -2.11921724e-05, 5.26790318e-05, 1.24326602e-04,
          -1.61343356e-04, 1.00219520e-04, -4.29977990e-05,
          -1.54763620e-04, 1.20547709e-04, 2.18361631e-04,
          9.73205752e-05, -7.41235854e-05, 8.86642447e-05,
          -2.05734133e-04, 9.79461183e-05, -3.45496155e-05,
          1.10050314e-04, 2.03017713e-04, 1.12479742e-04, 5.67134975e-06,
          2.46233067e-05, -1.71763109e-04, 8.25104362e-05,
          2.07763849e-04, -9.11284005e-05, -1.87500351e-04,
          -6.53608295e-05, 1.71527063e-04, 1.09959627e-04,
          5.13827435e-05, -6.35016258e-05, -2.25107491e-04,
          -1.70825515e-05, 6.53506868e-06, 1.32369649e-04,
          -1.12401111e-04, 6.99614566e-06, -7.88223315e-06,
          7.99203190e-05, 1.52684443e-04, -2.33771061e-05,
          3.17445898e-04, -1.34008063e-04, 3.63246872e-05,
          -5.69035874e-05, -2.68175572e-05, -1.47279352e-04,
          -2.36122723e-05, 1.09301283e-04, -3.31720207e-06,
          -1.43745245e-04, -1.21019555e-04, 7.11496614e-05,
          1.31554203e-04, -5.38537679e-05, 2.98190134e-05,
          1.08734181e-04, 6.20232240e-05, 4.04768656e-07,
          -3.82448452e-05, 1.97928908e-04, -4.30844811e-05,
          -1.65842255e-04, 1.21453770e-04, -1.02743215e-04,
          -4.61060299e-05, 1.58389463e-04, -1.69576626e-04,
          1.32019879e-04, 7.95008600e-05, 4.98938207e-05,
          -1.81390293e-04, -7.33143825e-05, -1.39637923e-04,
          -2.25710930e-04, -7.98779874e-05, 4.30057707e-06,
          -8.11536011e-05, -7.32778281e-05, -1.06488471e-04,
          1.05423183e-04, -5.11282769e-06, -7.77515197e-06,
          8.22854345e-05, 2.09043326e-04, -2.32666534e-05,
          5.52894526e-05, 8.23684823e-05, -4.93933730e-05,
          -6.29536153e-05, -2.15966327e-04, 6.80424855e-05,
          -4.31194421e-05, -1.86903071e-05, -4.70071536e-05,
          -1.39866548e-04, 9.37645891e-05, 5.91342941e-05,
          -8.54778118e-05, -2.01113744e-05, -9.14574339e-05,
          -6.66553387e-05, 2.15963119e-05, -8.74714824e-05,
          7.02575999e-05, 5.00530405e-05, 4.92799263e-05,
          -8.82826771e-06, 4.74624285e-05, 9.69118337e-05,
          -2.80749337e-05, 4.49973304e-05, -1.10946676e-05,
          -1.54051464e-04, -4.50993648e-05, -1.31254987e-04,
          7.36063794e-06, -1.62679658e-04, 6.23249362e-05,
          3.83799015e-05, 8.60243672e-05, -7.61604824e-05,
          -3.55274751e-05, 8.51314981e-05, 1.06117775e-04,
          5.54341532e-05, -1.21526689e-04, 4.50859916e-05,
          9.32966286e-05, 2.48824358e-06, 6.33561503e-05, 9.55090800e-05,
          1.03525686e-04, 2.72816724e-05, -2.05439501e-04,
          -4.62092248e-05, -6.37460971e-06, 3.02500412e-05,
          6.38556885e-05, 2.92736950e-05, 1.65248657e-05,
          -3.35602890e-05, 4.07335501e-05, 1.63504039e-04,
          1.12846305e-04, 6.69985529e-05, 4.45973383e-05,
          -1.71268461e-04, 1.71719905e-04, -8.90517331e-05,
          5.71284254e-05, -4.99811431e-05, 4.95062632e-05,
          5.20806789e-05, -2.30229380e-05, 8.28974298e-05,
          7.44268982e-05, 1.26314617e-05, -3.24289722e-05,
          2.50415433e-05, -5.51094017e-05, 8.88665672e-05,
          -7.46964797e-05, -9.49113528e-05, -8.88876893e-05,
          -6.74414014e-06, 6.77760763e-05, -4.94646556e-05,
          8.08803634e-06, -1.24741346e-05, -1.17719239e-04,
          -8.91488253e-06, -1.64834455e-05, 6.47697452e-05,
          -2.22480194e-05, -7.21633660e-06, -2.10797389e-05,
          1.52599023e-05, 4.14404258e-06, 3.61882012e-05,
          -4.27367959e-05, -2.84597045e-05, -3.85728163e-05,
          1.47105036e-11 ]
      - [ -7.78254835e-05, -1.21779394e-05, 1.23700374e-04,
          1.62571829e-04, 2.14300017e-04, 2.72037287e-04, 1.53358887e-05,
          2.65944749e-04, 2.66247953e-04, -1.13997863e-04,
          -2.10167200e-04, -2.75198399e-04, -8.61421358e-05,
          3.23608874e-05, -4.76989051e-04, -8.18280561e-04,
          3.54383774e-05, -3.75425698e-05, 2.62910180e-04,
          -1.73902463e-05, -3.92681424e-04, -1.04342173e-04,
          -3.34949073e-05, -7.55093177e-04, 3.11976881e-04,
          2.31759492e-04, -1.85967492e-05, -4.95620188e-04,
          2.98164756e-04, 2.05328950e-04, 4.41606506e-04, 1.79617666e-04,
          1.55749643e-04, 3.01930064e-04, 2.83458503e-04, 6.63085521e-05,
          4.64923010e-04, 1.00799640e-04, 7.77914247e-05,
          -2.10691302e-04, 2.36420194e-04, -5.93646364e-05,
          1.93144326e-04, -9.58034580e-05, 2.92491255e-04,
          4.18151030e-04, -2.05500022e-04, 3.70010093e-05,
          -7.49143510e-05, 1.29304593e-04, -3.26638474e-05,
          -1.49558575e-04, 6.31726725e-05, -1.99413626e-04,
          -4.64365934e-04, 3.87224100e-06, -7.55191431e-05,
          8.13548613e-05, -7.99740592e-05, -1.87383957e-05,
          -3.39653452e-05, -1.32240908e-04, -1.19077806e-04,
          -6.28115740e-05, -2.27004770e-04, -5.63318754e-05,
          2.49445846e-04, 2.54138606e-04, 1.79596937e-05, 1.03590057e-04,
          2.36520409e-05, 9.66639127e-05, 2.36357970e-04, 1.32093905e-04,
          -1.50961598e-04, -3.02495289e-04, 1.64109355e-04,
          1.47555140e-04, 4.55491274e-04, 3.36335434e-05,
          -3.85804189e-04, 3.46258821e-05, 2.51661386e-05,
          -1.33089692e-04, 1.34148562e-04, -5.33235507e-05,
          -2.24963020e-04, -6.23404267e-05, 1.87703234e-04,
          1.21214143e-04, 2.70137825e-04, -2.47717195e-04,
          1.85874058e-04, 8.56875195e-05, 2.07475765e-04, 2.81551038e-04,
          -8.46224211e-05, -2.43312315e-05, 1.25520994e-04,
          -2.35496937e-05, 5.55123879e-05, 7.31908804e-05,
          5.48768148e-05, 2.21477876e-05, -9.25027052e-05,
          8.24935196e-05, 1.19437600e-05, 5.56523810e-05, 3.10738324e-05,
          -4.34057074e-05, -5.04527961e-05, 7.71816631e-05,
          8.11236241e-05, -3.11095937e-04, -1.06122570e-04,
          -3.32652926e-05, 4.82670366e-05, -2.76910636e-04,
          1.95157518e-05, -9.02315369e-05, -9.57548109e-05,
          -1.10563509e-04, -2.34748557e-04, -1.66854457e-04,
          -5.75408849e-05, -1.12497282e-05, -1.32254409e-05,
          3.87897526e-05, -1.29439926e-04, -1.22922036e-04,
          -3.61469938e-05, 2.84427748e-04, 2.34280888e-04,
          3.30330076e-05, -3.44799373e-05, 9.13249023e-05,
          5.97946600e-05, 6.78837532e-05, 1.65549063e-04,
          -2.04523356e-04, 1.33540365e-04, 2.10778366e-04,
          -1.13382885e-04, -1.13360156e-05, 5.02171097e-05,
          5.72489262e-05, -7.04697959e-05, 1.41663433e-04,
          1.32913474e-05, -1.65591395e-04, 1.41370401e-04,
          -1.45322861e-04, -1.05864696e-04, -6.19002094e-05,
          -9.73136994e-05, 1.69999868e-04, -2.85722082e-04,
          1.50876207e-04, 6.45297259e-05, -6.96478237e-05,
          2.19224530e-05, -2.30106059e-04, 7.86699602e-05,
          8.20970818e-05, 2.36733686e-05, -1.33841741e-05,
          2.87436542e-05, 7.64086799e-05, -2.15388849e-04,
          2.34257212e-04, -1.17290474e-04, -1.80427578e-05,
          -1.11598565e-04, -5.18241795e-05, 3.14984354e-05,
          6.38287020e-06, 3.30842922e-05, 3.70209200e-05, 1.17718475e-04,
          -1.88226586e-05, 8.22242055e-06, 4.42272431e-05,
          5.71759483e-06, 1.22082547e-05, -4.35733309e-05,
          -2.99867370e-05, -1.94512395e-05, 1.23891077e-04,
          6.67934364e-05, 1.15680843e-04, 1.60144089e-04,
          -9.98328978e-05, 1.23848600e-04, -8.26847172e-05,
          2.08840611e-05, -7.99658155e-05, -3.04640471e-05,
          1.05477513e-04, -1.09802379e-04, 5.49202741e-05,
          -4.44139841e-05, -3.77049255e-05, 8.38811102e-05,
          -5.15125648e-05, 2.99718340e-05, 1.34278043e-05,
          -5.47203854e-05, -9.33654810e-05, -4.18644886e-05,
          1.02366030e-04, 7.45358993e-05, -1.37967581e-05,
          -1.35266877e-04, -6.19338607e-05, -1.81985539e-04,
          -9.12744144e-05, -6.57210912e-05, -7.08011357e-05,
          -1.22217434e-05, -3.99537421e-05, 3.98623852e-05,
          -3.83794468e-05, 3.57781391e-05, -6.45652153e-06,
          2.66911065e-05, 7.12026813e-05, -2.61614005e-05,
          -1.16354613e-05, -1.06780408e-06, -2.51523325e-05,
          -5.59919863e-05, -6.20629507e-05, -7.86380613e-11 ]
      - [ 4.87934849e-05, -1.53713743e-04, 1.90592342e-04,
          1.71402760e-04, 6.36001059e-04, 5.50259865e-05, 9.78030039e-06,
          5.77507308e-04, 1.71142412e-04, 1.88573213e-05,
          -5.02835261e-04, 2.13290725e-04, -6.57469063e-05,
          9.16401987e-05, -1.49130516e-04, -4.86995805e-06,
          -8.77556977e-06, 1.78099202e-04, 2.69351785e-05,
          1.80005969e-04, 5.22868822e-06, -6.81316524e-05,
          4.24757862e-04, -3.61710525e-04, 3.45174776e-04,
          1.93016240e-04, -1.17997108e-04, -2.92454002e-04,
          4.32216359e-04, 3.04987334e-04, 7.94959415e-05,
          -1.17576135e-04, -2.81809247e-04, 4.83703770e-05,
          3.92894290e-04, 1.43731368e-05, 4.07915475e-04, 1.10336601e-04,
          -9.50862704e-06, -1.01651240e-04, -6.69371275e-06,
          5.27924130e-05, 2.98025334e-05, -1.05752652e-05,
          3.65088381e-05, -1.05542771e-04, 2.89415679e-04,
          -2.83052759e-05, 2.04281489e-04, -6.85089326e-05,
          1.63686738e-04, -1.56717579e-05, 2.85010174e-04,
          -9.77857635e-05, -1.30819419e-04, -1.59549527e-04,
          4.15900940e-05, -5.94910089e-05, 3.05518683e-04,
          1.13684611e-04, 8.72233359e-05, -3.27648886e-05,
          -1.63328019e-04, 1.52886059e-04, -1.69408799e-04,
          -1.45473648e-04, 1.03600491e-04, 2.78938969e-04,
          1.44899809e-06, 2.45516203e-05, -1.48944586e-04,
          -1.07999069e-04, 8.98415456e-05, -1.39614072e-04,
          -1.63810197e-04, -7.35097055e-05, 2.74262100e-04,
          1.76872141e-04, 1.89354207e-04, -1.82068852e-05,
          -3.20523512e-04, 1.21838348e-04, 1.79320938e-04,
          -1.02380480e-04, 6.27540021e-06, 8.73520985e-05,
          -2.80595035e-04, 7.08319785e-05, 2.61610039e-05,
          1.31768116e-04, 2.45989970e-04, 2.13726216e-05,
          -1.60189174e-05, 1.02079888e-04, -1.66546197e-05,
          -3.80107667e-05, -2.29951911e-04, -6.73322647e-05,
          1.66531419e-04, 1.26456958e-04, -1.61762837e-05,
          9.33844785e-05, 9.68163149e-05, -3.56707933e-05,
          -5.38569184e-05, 1.25370561e-05, -1.90748506e-05,
          4.33938148e-05, 4.64687400e-06, 5.47501368e-05, 9.05604757e-05,
          8.66089613e-05, 7.60035327e-05, -1.43705431e-04,
          -1.94860302e-04, -2.67675132e-05, -3.53205429e-08,
          -1.64000914e-04, 3.16868318e-05, -1.53408255e-04,
          -8.46980329e-05, 3.28551396e-05, -6.24866516e-05,
          -2.76589737e-04, 1.96278386e-04, 1.36026181e-04,
          -1.77553156e-05, -7.53609856e-05, 6.24718596e-05,
          -7.53011336e-05, -4.45408259e-05, 7.61319316e-05,
          8.50737997e-05, -9.24422784e-05, -1.37242358e-04,
          1.26813829e-04, 8.55895851e-05, 5.29908793e-05,
          -3.81528262e-05, 3.04877085e-05, -6.54531614e-05,
          -3.82694161e-05, -9.94553484e-05, 1.28769578e-04,
          8.98984508e-05, 7.79139591e-05, 2.48294182e-05,
          -1.33105554e-04, -6.90705565e-05, 1.04837159e-06,
          -3.35665572e-05, -1.55018526e-04, 7.67599340e-05,
          1.16613381e-04, 8.56437737e-07, 2.44447747e-05,
          -1.32280184e-04, 9.15912533e-05, 8.35411774e-05,
          -1.63066812e-04, -2.09694758e-06, -4.19134958e-05,
          -1.33883674e-04, -1.30836954e-04, -5.96843784e-05,
          1.10715024e-04, -6.45560503e-05, 6.83506587e-05,
          -6.48319547e-05, 2.20418253e-04, 3.77738434e-05,
          -1.28128740e-04, 6.68150024e-05, 4.73129658e-05,
          -1.36064351e-04, -2.81690463e-05, -5.63553658e-05,
          7.99138361e-05, 1.02282349e-04, 3.05336689e-05, 1.08149994e-04,
          -3.84834129e-05, -8.30792414e-05, 7.86830569e-05,
          2.11509123e-05, 5.89869524e-05, 1.72995060e-05,
          -2.52535847e-05, 2.76227511e-05, 4.34978683e-05,
          5.04442432e-05, 5.29736863e-05, -1.71825504e-05,
          1.27915468e-04, 9.75491712e-05, 9.99894037e-05,
          -1.30686601e-06, 9.30060414e-05, -1.83713928e-04,
          6.35209653e-05, -3.29493159e-05, -4.67771788e-05,
          -2.88175015e-05, 1.44751306e-04, 6.50705333e-05,
          -8.13399165e-05, -9.46105501e-05, -1.91693089e-05,
          -1.37267692e-04, 1.29336304e-05, 1.25364822e-04,
          -6.34065191e-06, -4.03198537e-05, -3.30049443e-05,
          -1.95715274e-05, 1.96069977e-05, 8.46238891e-06,
          -9.00132818e-06, -4.24657374e-05, -5.21965994e-05,
          1.25401548e-05, 3.97415897e-05, -1.66179816e-05,
          -9.67888409e-05, 1.75705336e-05, -9.70871770e-05,
          3.55500124e-05, -4.70061786e-05, -3.10046416e-05,
          -1.08130436e-04, -4.55074151e-05, 5.28971468e-05,
          -5.70506108e-11 ]
      - [ -1.65984111e-05, -4.44315847e-05, 2.94948986e-04,
          -4.07878615e-05, 5.50249766e-04, -2.61587818e-04,
          1.11983318e-04, 2.72196223e-04, 2.70908640e-04,
          -2.13296415e-04, -4.63319448e-04, 3.85993946e-04,
          -4.15073242e-04, -9.82252022e-05, -2.56186002e-04,
          1.82081378e-04, 1.16176263e-04, 1.61241951e-05, 1.60361797e-05,
          3.05687514e-04, -2.55150837e-04, -1.06928099e-04,
          -2.15597356e-05, -5.16968663e-04, 2.87418312e-04,
          -5.51928824e-05, -2.76855455e-04, -5.58101630e-04,
          2.68139032e-04, 3.13555007e-04, 9.42350525e-05, 7.93018480e-05,
          -2.75017519e-04, 3.94397721e-05, 1.53652712e-04,
          1.45691200e-04, 2.67729512e-04, 3.41644831e-04,
          -9.66929147e-05, -8.21463182e-05, 2.01723902e-04,
          7.33611741e-05, 2.34451785e-04, -1.28600790e-04,
          2.02488111e-04, 9.83237042e-05, 1.64777157e-04, 4.57771620e-07,
          -1.90144085e-04, -9.52230184e-05, 7.84901858e-05,
          7.62866766e-05, 1.11895562e-04, -3.02509434e-04,
          1.32466785e-05, -3.49457579e-04, -4.59866933e-05,
          2.90912198e-04, 3.57735436e-04, 1.51163855e-04,
          -2.33294923e-04, -2.23778238e-06, -1.91767671e-04,
          2.84125737e-04, 6.25525427e-05, 1.02053338e-04,
          -5.30073994e-05, 1.53615212e-04, -1.82600430e-04,
          5.28931560e-05, -2.84325011e-04, -1.41323935e-05,
          3.42791172e-05, 1.72086322e-04, -9.75166549e-05,
          -3.55248412e-05, 5.00992337e-06, 1.88452061e-04,
          3.44896107e-04, -4.46216545e-05, -1.54554014e-04,
          -1.85391793e-04, 8.55939725e-05, 1.14939263e-04,
          -3.86303254e-05, -2.37178669e-04, 4.79271705e-07,
          -1.77641879e-04, 2.20491056e-04, 6.37419071e-05,
          1.73689536e-04, -3.82281032e-05, -7.02049947e-05,
          9.33077317e-05, -1.86835838e-04, -5.19936148e-05,
          -2.90144089e-04, -3.86439860e-05, 8.35896208e-05,
          -3.10683754e-05, 1.09640816e-04, -6.63694227e-05,
          1.08984103e-04, -2.12245519e-04, 7.33826673e-05,
          -4.71638414e-05, 6.45966647e-05, 4.96004686e-05,
          -5.56752893e-05, -2.75337754e-07, -7.76189336e-05,
          -7.11107277e-05, 9.59808167e-05, -2.06757177e-04,
          1.62405231e-05, 7.58543611e-05, 1.07719425e-04,
          -1.40106553e-04, 7.72646090e-05, -1.55249887e-04,
          -2.31530081e-04, -1.37803727e-04, -1.31565379e-04,
          -7.43361088e-05, -9.60868492e-05, -1.79253781e-04,
          -6.64470717e-05, -1.19619421e-04, -1.29380742e-05,
          9.00980958e-05, 9.88139946e-05, 1.91987783e-05, 7.60826224e-05,
          -1.41795249e-06, 1.34207032e-04, 3.28725241e-06,
          3.14564531e-05, 9.77138698e-05, -7.93920262e-05,
          -1.28239364e-04, -4.90124512e-05, -5.60646185e-05,
          -1.65545469e-04, 4.55098161e-05, 5.17338303e-05,
          2.04556796e-04, -3.79606827e-05, -1.63960693e-04,
          -6.60528385e-05, -9.45927459e-05, -1.08378015e-04,
          -7.26502840e-05, -5.15434258e-05, 1.44708407e-04,
          4.60100600e-05, 9.91017587e-05, 2.35373827e-05, 3.55544398e-05,
          8.47832343e-05, -1.77227994e-05, 1.06307169e-04,
          -1.45234997e-04, -8.36782929e-05, 1.26367868e-05,
          4.80829767e-05, -7.10579206e-06, 1.55078033e-05,
          1.42641919e-04, -1.37560623e-04, 1.64188532e-04,
          -2.09493628e-05, 1.34628272e-05, -8.79777508e-05,
          7.31572291e-05, 3.79229241e-05, -6.30936775e-05,
          -2.80377444e-05, 2.37094318e-05, -1.63059594e-05,
          2.08143574e-05, 5.02621588e-05, -7.77259775e-05,
          9.90533008e-05, -2.30656478e-05, 2.41999787e-05,
          1.93385567e-04, -2.99240423e-06, 1.39908652e-05,
          5.30633151e-05, -5.96871942e-05, -4.48189057e-05,
          -9.53275958e-05, 2.48464348e-05, 5.47705713e-05,
          9.01024978e-05, 8.65740149e-05, 7.89332698e-05, 1.22019752e-04,
          4.31209373e-05, 3.48747089e-05, -1.22183037e-05,
          -1.33643698e-04, -4.26518418e-05, 7.78431495e-05,
          9.31946124e-05, 2.79736159e-05, -1.09944711e-04,
          7.17980729e-05, 1.41737895e-04, 2.73025307e-05, 1.11662404e-04,
          -9.04032640e-05, -6.43168751e-05, 1.91363488e-05,
          2.10480011e-05, -5.44636350e-05, -3.70426715e-05,
          -7.37079245e-05, -3.80925667e-05, 4.19306380e-05,
          -4.99044181e-05, 5.09169658e-05, 1.20978562e-04,
          -3.95688658e-05, -1.16463989e-05, -4.59067778e-05,
          -1.16268920e-05, -4.65118064e-05, 3.38899663e-05,
          2.88700494e-06, 1.04206505e-04, -5.52085794e-06,
          2.85242420e-11 ]
      - [ -3.19704159e-05, 9.72928756e-05, -1.23790087e-04,
          4.22692174e-05, 3.28054331e-04, 6.02954475e-04,
          -1.80322866e-04, -1.41725424e-04, -2.53049628e-04,
          -5.04105301e-05, 4.59064577e-05, -2.41597241e-04,
          7.78759713e-05, -6.35740507e-05, -4.96439534e-05,
          2.50225530e-05, -2.93206773e-04, -2.04837517e-04,
          -4.64103126e-04, 8.87710703e-05, -5.09663543e-04,
          5.10276936e-04, -5.46323077e-04, -3.09088646e-04,
          4.38938936e-04, -2.42323164e-04, 4.89663216e-05,
          -1.72195229e-04, 1.67960185e-04, -1.18182004e-04,
          7.82699281e-05, 2.89936201e-04, 3.85391613e-04, 3.05972615e-04,
          9.09205046e-05, 2.98055267e-04, 8.93353717e-05, 3.03790963e-04,
          -1.33411217e-04, 3.63239487e-05, 1.29437303e-05,
          -1.41879689e-04, 8.99140941e-05, -3.14642762e-06,
          5.29051613e-05, 1.11938578e-04, 1.05776007e-05, 3.69962392e-04,
          -1.38704301e-04, 1.43373443e-04, 1.02659997e-05,
          -2.41370464e-04, -4.88966107e-05, -8.16717875e-05,
          -1.85206518e-04, 6.10121206e-05, 1.83756536e-04,
          -6.95372873e-05, -4.35029593e-04, -9.16028439e-05,
          3.08418006e-04, -2.40194233e-04, 2.24938194e-04,
          -1.59744130e-04, -1.42358494e-05, 9.30160604e-05,
          -3.21533531e-04, 1.97005447e-05, -4.33579553e-05,
          3.47599052e-05, 2.09507096e-04, 6.06519643e-05,
          -1.75594087e-05, 2.90596567e-04, 7.58640599e-05,
          8.23782539e-05, 5.60142653e-05, 1.22941172e-04, 9.42769038e-05,
          2.28053017e-04, 8.84385227e-05, 2.48886663e-05,
          -1.15227951e-04, -1.60410244e-04, 1.45394370e-04,
          1.03611550e-04, 6.57224809e-05, -9.46066484e-06,
          -1.66075974e-04, 1.03307728e-04, 7.17128205e-05,
          -2.45692445e-06, 4.20521828e-05, 2.26274977e-04,
          1.74019369e-04, 1.74242770e-04, -4.53020803e-05,
          -1.00158040e-05, 3.33968273e-05, 8.30718927e-05,
          3.07177863e-04, -2.36255019e-05, -1.28731408e-04,
          3.00286647e-05, -2.13952990e-05, -4.19967437e-05,
          -6.75275878e-05, -6.65808038e-05, 6.93494803e-05,
          4.81510469e-05, 1.23783000e-04, 2.20447124e-04, 1.54371774e-05,
          -2.42408190e-04, 1.97273228e-04, -2.18582834e-04,
          5.29585814e-05, -1.70912856e-04, -2.98740269e-05,
          -2.12343075e-05, -8.54410609e-05, 7.56503287e-05,
          2.26001157e-06, 2.06290395e-04, 6.91690366e-05,
          -5.29043027e-05, 8.54680402e-05, -7.71496343e-05,
          -7.23032063e-05, -1.52721215e-04, -8.77154089e-05,
          4.61336494e-05, 1.13298527e-04, 7.48956518e-05, 1.88307513e-05,
          -4.77875001e-05, 4.38815150e-05, 8.21817885e-05,
          1.87556041e-04, 2.08126930e-05, -1.03648799e-05,
          7.66864032e-05, -2.36307806e-05, 1.72346299e-05,
          5.76910825e-05, 8.08576588e-05, -2.30024289e-05,
          6.76479904e-05, -5.93223958e-05, -1.87688071e-04,
          7.19790332e-05, -1.37526862e-04, -4.97502042e-05,
          1.31403576e-05, -3.77329270e-05, 9.13469048e-05,
          -1.64186204e-04, 9.42174447e-05, 3.30237599e-05,
          -7.92230367e-06, -1.35086259e-04, -1.27354258e-04,
          1.75200505e-04, 1.86087527e-05, -2.73668520e-05,
          2.62210888e-05, 1.96101711e-04, -2.59827830e-05,
          -1.74962581e-04, 2.73170735e-05, -5.78011532e-05,
          8.09099438e-05, -1.06915264e-04, -5.00543974e-05,
          -5.20004978e-05, 2.19027643e-05, 2.42594415e-05,
          -9.46387809e-05, 8.30664212e-05, -3.40224688e-05,
          8.58119456e-05, -2.28694225e-05, 9.19302329e-06,
          2.59194174e-04, -2.47425287e-05, -3.23105196e-05,
          -3.99957171e-05, -7.40521209e-05, -1.11882051e-04,
          4.80409071e-05, 8.77162602e-05, -9.73849455e-05,
          7.06776264e-05, -2.37362801e-05, -3.40260558e-05,
          -1.58698476e-05, 1.95246655e-04, -5.06129727e-05,
          1.88185677e-05, -8.90914889e-05, 3.86012725e-05,
          -9.83198697e-05, 2.71631761e-05, 7.31744221e-05,
          -1.14687473e-05, -5.73722973e-05, -1.59265383e-05,
          -2.73112728e-05, 7.19142845e-05, 2.71266144e-05,
          -4.89879640e-05, 1.43861296e-04, 5.82816610e-05,
          1.05224608e-04, -9.13088152e-05, -6.10503921e-05,
          -2.36143078e-05, -2.97524348e-05, 5.70752172e-06,
          6.99477459e-05, 4.85995261e-05, 7.56663285e-05,
          -1.18217671e-04, -3.10836294e-05, -7.97318135e-05,
          3.69322406e-05, -1.22914178e-04, 4.03016056e-05,
          -3.36750418e-05, -8.75528931e-05, 1.15594721e-05,
          6.05555688e-05, 9.07163025e-11 ]
      - [ 6.50892616e-05, -7.84017975e-05, 5.08101693e-05,
          1.75492445e-04, 7.25828926e-04, 3.11658747e-04,
          -5.40042311e-05, 2.36591295e-04, 2.29930138e-05,
          2.10823036e-05, -4.06363222e-04, 2.58751068e-04,
          -1.09447727e-04, 2.31005586e-04, 3.18266939e-06,
          5.97875274e-04, -2.67632480e-04, 1.33506022e-04,
          -4.53983608e-04, 3.85295658e-04, -1.50390246e-04,
          5.12644474e-04, -1.42090808e-04, -2.59882916e-04,
          4.67613747e-04, -1.45218844e-04, -1.00655932e-04,
          -4.47853236e-05, 1.21728925e-04, -2.34386989e-05,
          7.50975887e-05, -1.33979906e-04, -2.16961256e-04,
          6.15741883e-05, 4.19410935e-04, 1.16080882e-04, 2.60488712e-04,
          3.17025348e-04, -1.07098342e-04, -2.24027346e-04,
          -2.42430076e-04, 2.08536876e-04, -1.08468856e-04,
          2.20068032e-04, -2.41589987e-05, -1.75382535e-04,
          1.27730091e-04, 2.23216019e-04, 1.46029297e-05, 1.11044850e-04,
          4.68436083e-05, -2.43170362e-05, 2.69388809e-04,
          -1.38370437e-04, -1.62945333e-04, -9.20981838e-05,
          1.42170422e-04, -4.38493698e-05, 6.13942684e-05,
          -1.40225922e-04, 6.97629293e-05, -6.37562989e-05,
          -9.53980634e-06, -1.29972512e-04, 1.23253834e-04,
          -7.64042125e-05, -1.79225992e-06, 7.00223609e-05,
          1.19766737e-04, -1.53776142e-04, 7.29237217e-05,
          -1.69351653e-04, -1.23680424e-04, 1.87135674e-06,
          -5.46298470e-05, 3.71648057e-05, 1.36640141e-04,
          2.56964850e-05, -9.42565530e-05, 1.21421574e-04,
          -4.16541734e-05, 6.87145075e-05, 2.66538264e-04,
          -1.17202828e-04, -8.32668229e-05, -4.14013739e-05,
          -3.71926981e-05, -2.33211085e-06, -1.22973433e-04,
          8.18664048e-05, -6.21108047e-05, 1.61449192e-04,
          -6.20412757e-05, 1.22459591e-04, 2.78965726e-05,
          1.57544942e-04, -6.57859928e-05, -8.83566681e-05,
          -9.02559532e-06, 2.14932399e-04, 1.06094296e-04,
          -4.60604406e-06, -1.37706666e-04, 1.26010433e-04,
          -9.33772972e-05, -7.40823816e-05, -4.27987034e-05,
          -6.99252341e-05, -4.10988559e-06, 4.64580517e-05,
          6.80673766e-05, 2.43940565e-04, -1.09705426e-04,
          5.06398555e-06, 2.12275991e-05, -2.72555189e-05,
          5.08919366e-05, -1.67939274e-04, -1.49646425e-04,
          -2.52243306e-04, -1.19979450e-05, 1.13847469e-04,
          -2.22279923e-05, 8.18373082e-05, 1.55085421e-04,
          -6.55366748e-05, -4.47236744e-05, -3.65209380e-05,
          1.41152690e-04, -9.84000726e-05, -1.69908453e-04,
          6.40742364e-05, 5.94321136e-05, -1.47672850e-04,
          2.72823672e-05, 2.37704371e-05, 2.69199190e-05,
          -1.06682324e-04, 1.30016197e-04, 6.07168658e-05,
          -1.89172133e-05, -9.51283655e-05, -6.43853200e-05,
          1.44046164e-04, 1.09275672e-04, -1.48794561e-06,
          -2.68342537e-05, 1.21898029e-05, -1.80572424e-05,
          1.52258563e-05, -4.75665511e-05, -9.08902948e-05,
          2.09254285e-04, 8.66999253e-05, -4.22724152e-05,
          -6.22635634e-05, -8.19786437e-05, 2.75876409e-05,
          1.42116492e-04, -1.88282749e-04, -1.26476851e-04,
          -1.55276022e-04, 1.00160980e-06, -8.75807018e-05,
          5.48369171e-05, 5.62886307e-05, 8.06881217e-05,
          -4.91210194e-05, -1.65875986e-06, -1.70214844e-05,
          -2.44577568e-05, -4.16252224e-05, 3.62405558e-07,
          2.63051370e-05, 3.85828980e-06, 2.63818602e-05, 6.34541284e-05,
          6.55043768e-05, 9.42718325e-05, -1.91508025e-05,
          -4.25033468e-05, -3.26009904e-05, -1.14292678e-04,
          1.59931878e-04, 2.45460342e-05, 2.27661003e-05, 6.21412255e-05,
          6.35689503e-05, 1.83250711e-06, 1.61215976e-05, 2.17567822e-06,
          5.73538546e-06, -7.40480391e-05, -5.04609998e-05,
          -4.01945908e-05, 1.20385776e-04, 1.10766770e-04,
          -5.28279816e-05, -6.78009092e-05, -5.27016928e-05,
          1.70570602e-05, -6.27846166e-05, -8.95245321e-05,
          9.41197359e-05, 9.53946146e-05, -4.05384635e-05,
          3.85360863e-06, -5.66967992e-06, -8.30140634e-05,
          -4.68110875e-06, -3.86111315e-05, 9.87906824e-05,
          3.98329830e-05, 3.54999429e-05, 1.34877118e-05,
          -4.40695439e-05, -2.38027606e-05, 3.76752760e-05,
          5.66030940e-05, 1.33564230e-04, -6.03175567e-06,
          2.32693292e-05, -1.30487111e-04, -4.68521466e-05,
          5.99187624e-05, -1.40977709e-05, -4.79629671e-05,
          6.15517929e-05, -1.26367304e-04, -1.36455943e-04,
          7.34935675e-05, 1.47743878e-04, -1.44595588e-12 ]
      - [ -2.02778774e-05, -1.19552296e-05, 4.31484987e-05,
          4.58413087e-05, 4.07930987e-04, 2.56401236e-05, 1.39457014e-04,
          -9.65352665e-05, -1.31454770e-04, -1.63247285e-04,
          -2.57540174e-04, 3.26331850e-04, -3.13274621e-04,
          -9.88817192e-05, 1.74686778e-04, 7.37332099e-04,
          -2.20210903e-04, -2.70995486e-04, -5.89444360e-04,
          2.99787585e-04, -2.46086682e-04, 4.56092879e-04,
          -6.50756003e-04, -2.77972140e-04, 4.84999357e-04,
          -3.27488262e-04, -2.38566761e-04, -1.45708371e-04,
          -1.65244230e-04, 1.05387451e-04, 9.85658335e-05,
          -8.29254859e-05, -8.75516926e-05, 2.18684363e-04,
          1.69623003e-04, 9.16117497e-05, 6.77932476e-05, 4.27443534e-04,
          -3.81125457e-04, -2.06378667e-04, 5.00924034e-05,
          3.10703726e-05, 2.05280900e-04, 9.79981560e-05, 1.55005037e-04,
          1.83728025e-05, -7.55483197e-05, 5.49840661e-05,
          -1.92490901e-04, 1.28003041e-04, 1.16420699e-04,
          9.78443713e-05, -8.25081879e-05, -1.23017933e-04,
          3.71724309e-05, -3.20186402e-04, -4.26246661e-05,
          1.58569364e-05, 1.20083925e-04, -2.22881272e-06,
          -1.08371365e-04, -3.13912424e-05, 6.05446257e-06,
          1.28636611e-05, 1.61728196e-04, 4.86241042e-05,
          -1.88856939e-04, -1.14279326e-04, -1.38417265e-04,
          -1.37473653e-05, -3.39493454e-05, -1.29097767e-04,
          -2.28685283e-04, 1.46713850e-04, -3.71820133e-05,
          4.56994712e-05, -1.95175729e-04, 9.58584496e-05,
          2.05079687e-05, -2.65972049e-05, 1.64091602e-04,
          -1.29221691e-04, 6.12766817e-05, -6.98703952e-05,
          -1.42709141e-05, -1.83639713e-04, 1.03738632e-04,
          -1.00613812e-04, 6.74626644e-05, 1.06845371e-04,
          -2.67961179e-04, 7.24131314e-05, -1.82067219e-04,
          1.42837147e-04, -1.05850551e-04, 2.14665866e-04,
          -2.58659536e-04, -8.86862908e-05, 9.65718136e-05,
          9.71462869e-05, 1.97079833e-04, -1.82603217e-05,
          -4.50890911e-06, -5.53187419e-05, 2.40162376e-06,
          -9.19423110e-05, -6.98477209e-07, 7.26715916e-06,
          -1.01595368e-04, -5.68863397e-05, -5.32575250e-05,
          1.04737919e-04, -1.06531254e-04, -2.08337980e-04,
          1.06604581e-04, -3.59563965e-05, 1.21051562e-04,
          -1.22700760e-04, -8.04973170e-05, -1.55749498e-04,
          -3.39276557e-05, -4.14134302e-05, -6.86342173e-05,
          2.36561958e-04, -5.47700147e-05, -7.65847071e-05,
          -3.39111211e-05, 1.37942352e-05, 7.36341972e-05,
          -2.43726154e-05, -1.66563095e-05, -6.04345623e-05,
          5.04402560e-05, -9.54165371e-05, 4.49598447e-05,
          -6.65108601e-05, 5.28859964e-05, -4.54938272e-05,
          -1.43179232e-05, 6.57436249e-05, -9.53770141e-05,
          -1.29982345e-05, -8.26825562e-05, 6.20171159e-06,
          8.56609549e-05, 9.55437354e-05, 6.05248024e-05, 3.54590920e-05,
          -5.17696799e-06, -3.19024934e-06, -6.42380110e-05,
          -8.22489674e-05, 5.11587205e-05, 1.00495236e-04,
          1.99639635e-05, 4.44254911e-05, -8.85690315e-05,
          3.54795957e-05, 1.20573881e-04, -1.72401087e-05,
          -1.33689373e-05, -1.45507554e-04, 1.04070066e-04,
          1.02514150e-05, 7.23720514e-05, -1.37330426e-05,
          1.11475209e-04, -3.61876700e-05, -2.13293024e-05,
          -5.40629480e-05, 2.36558135e-05, 7.05185448e-05,
          -1.25747276e-04, 5.01226350e-05, -1.42201879e-05,
          -2.16435164e-05, -5.95228776e-05, -1.14458235e-04,
          8.36625077e-06, -2.60212619e-05, -9.99211989e-05,
          -6.48420828e-05, -4.25728140e-05, 7.38961753e-05,
          1.33452468e-05, 1.30390341e-04, 3.22712258e-05, 4.86171575e-06,
          8.88328395e-06, -4.63803262e-05, -2.10411345e-05,
          -5.81854511e-05, -9.76256852e-05, 1.99284932e-05,
          1.01621890e-06, 4.49289437e-05, 1.22226877e-04, 1.87188198e-05,
          -7.82903589e-06, 4.60078718e-06, 4.79967166e-05,
          -1.09284476e-04, -2.45432257e-05, 6.01977845e-05,
          6.35187898e-05, -3.38869067e-05, -3.84087980e-05,
          6.38475613e-05, 6.45956470e-06, 9.74811846e-05,
          -3.70872658e-05, 6.08151822e-05, -7.25634163e-05,
          5.70154589e-05, 2.83206246e-05, -6.65798943e-05,
          -4.42935489e-05, -1.20087871e-05, -7.57491489e-06,
          1.51289947e-04, -5.19784726e-06, 4.40592594e-05,
          -8.43094604e-05, -1.16067977e-05, -1.93620072e-05,
          6.35216711e-05, -1.01396625e-04, 3.22821434e-05,
          1.06275884e-05, -6.58131612e-05, 1.71364081e-04,
          5.37932356e-05, 2.77385111e-11 ]
      - [ 1.06326435e-04, -2.06858283e-04, 1.77286551e-04,
          2.44607625e-04, 2.42255497e-04, -1.95043904e-04,
          1.95736400e-04, 3.80457263e-04, -6.18932791e-06,
          -1.41090495e-04, -3.38904618e-04, 1.80549003e-04,
          -1.90778243e-04, 1.73572946e-04, 1.10096866e-04,
          6.85441366e-04, 7.41743497e-05, 1.62123717e-04, 1.13522161e-04,
          1.50989217e-04, 3.93950060e-04, 1.31241919e-04, 7.19201984e-04,
          5.92693723e-05, 2.06542434e-04, -1.70934756e-04,
          -1.03090315e-04, 2.72116944e-04, 8.29247074e-05,
          9.94879301e-05, 1.80151066e-04, -3.99211334e-04,
          -6.35161938e-04, -4.41166456e-04, 5.31400619e-05,
          -1.70475570e-04, -1.21186436e-04, -1.13463640e-04,
          -1.59722636e-04, -1.52655077e-04, -3.82987957e-04,
          1.51731394e-04, -1.46738719e-04, 5.63915637e-05,
          -1.68248196e-04, -6.18392020e-04, 3.26210429e-04,
          7.25989084e-05, 2.49399862e-04, 5.86230235e-05, 1.24259159e-05,
          3.03432433e-04, 2.83030706e-04, 4.86989884e-05, 5.64406655e-05,
          -2.18882051e-04, 2.32158069e-04, -2.37888526e-04,
          3.04761896e-04, 9.44439380e-05, -6.75956398e-05,
          -9.08235161e-05, -2.55804247e-04, 1.15236478e-04,
          -2.10835969e-05, -5.19142341e-05, 1.93395987e-04,
          8.81813321e-05, 3.18750790e-06, -5.85431371e-05,
          -1.54142908e-05, -3.39897670e-05, -8.82110471e-05,
          -3.35761360e-05, -2.50441226e-04, -4.30589680e-05,
          -1.18441436e-04, -6.15799727e-05, -2.13828622e-04,
          -2.22592294e-04, 1.84095028e-04, 8.25853203e-05,
          3.11023090e-04, 1.33103149e-05, 8.68804855e-05, 1.41971241e-05,
          7.22247787e-05, -6.48906207e-05, -1.12376867e-04,
          9.21333594e-06, 3.52599091e-05, 1.86532488e-04,
          -1.35474893e-05, 2.26740649e-05, -2.25286480e-04,
          -1.02838014e-04, -5.09268066e-05, 4.24420687e-05,
          -2.27540677e-05, 4.42531855e-05, -1.17867588e-04,
          5.45529438e-05, 2.04318421e-05, -7.24489801e-05,
          5.30924517e-05, -6.40011349e-05, -1.45180544e-04,
          -8.15121803e-06, 4.27297491e-05, -1.45221038e-05,
          3.17102458e-05, 2.20487782e-05, -1.27168125e-04,
          1.42400619e-04, -6.06164940e-05, 1.33645517e-04,
          6.16413236e-05, -2.13900294e-05, 2.51995116e-05,
          -1.60840704e-04, 7.16318755e-05, 9.43871419e-06,
          -3.23178256e-07, -9.16559875e-05, 2.15483204e-04,
          6.12506774e-05, -3.20358436e-06, -5.52181809e-05,
          2.57286913e-04, -8.18209992e-06, -8.65647307e-05,
          -9.49259338e-05, -7.17855946e-05, -1.35824637e-04,
          -2.58063865e-05, 1.09184031e-04, -1.23113796e-05,
          7.65686491e-05, -1.53647816e-05, 3.80144120e-05,
          -1.33367765e-04, -1.34670845e-04, 1.89788389e-05,
          2.19533977e-04, 3.77268734e-05, 1.24400567e-05, 1.27783671e-04,
          -7.93479994e-05, 2.51492293e-05, 4.35706716e-05,
          -7.08259831e-05, -8.93913602e-05, 2.52023601e-04,
          1.80600855e-05, 8.72779783e-05, -4.21727746e-05,
          1.13415865e-06, 1.37093875e-05, -3.00547231e-06,
          -1.14400864e-04, 9.73289061e-05, 5.16634900e-05,
          -5.66609378e-06, -4.52832974e-05, -9.70130495e-05,
          6.55993645e-05, -1.26624524e-04, -8.43463022e-06,
          5.02289113e-05, 5.73514117e-05, 2.27243636e-05,
          -4.12655900e-05, 2.22790895e-05, 2.19402355e-05,
          -7.90722333e-05, 2.67975679e-06, 7.09318329e-06,
          9.79442266e-05, -2.31826525e-05, -4.25153303e-06,
          -1.88843896e-05, -3.49694346e-05, -1.85971494e-05,
          -4.03861031e-06, 7.22397162e-05, -3.62062274e-05,
          -5.54850658e-06, -5.97303515e-05, 5.59687360e-05,
          -1.28240335e-05, -7.13044283e-05, 7.78506146e-05,
          -8.64987524e-05, 4.26811221e-06, 3.83806281e-07,
          1.61681470e-04, -2.42272145e-05, -3.43502834e-05,
          -1.35887021e-04, -1.57992308e-05, -4.28258063e-05,
          -4.69334045e-05, -2.67326523e-05, 6.43147723e-05,
          6.16450707e-05, -2.85858987e-05, -3.11984877e-05,
          1.65617967e-05, -1.49197032e-04, -4.02494334e-05,
          4.39770411e-05, 5.84186237e-05, -2.94028050e-05,
          -2.80226723e-05, 7.28409868e-05, 6.03991211e-05,
          1.16099407e-04, -1.87092901e-05, 1.45840258e-05,
          -1.07391152e-05, -4.63739962e-05, 8.54994653e-07,
          -2.26179309e-05, -6.12044023e-05, -2.89378986e-05,
          -1.10265821e-04, 2.68282711e-05, 5.69339863e-06,
          3.71298884e-05, -3.59482256e-05, -4.56353082e-05,
          6.64651816e-05, 2.10107244e-11 ]
      - [ 1.02509613e-04, -1.11373971e-04, 1.81177602e-04,
          4.74322005e-05, 1.56913025e-04, -4.99893678e-04,
          1.56763650e-04, -4.54299079e-05, 1.08805478e-04,
          -1.64035911e-04, -1.71835607e-04, 5.81859087e-04,
          -3.07678856e-04, -2.79308995e-04, 1.88615188e-04,
          1.06433639e-03, 2.05425604e-04, -6.57144337e-05,
          -5.25233263e-05, 1.40940654e-04, 3.13391123e-04,
          1.09844579e-04, 3.01241089e-04, 1.94502034e-04, 1.29483102e-04,
          -2.02569005e-04, -5.74496225e-05, -5.09307620e-06,
          -2.71512516e-04, 4.45351070e-05, 5.69183467e-05,
          -7.91554194e-05, -7.30135769e-04, -2.68236647e-04,
          8.10399870e-05, -9.38957455e-05, 3.34868564e-05,
          1.53954446e-04, -2.42100839e-04, -1.25657723e-04,
          -9.75301009e-05, 1.25744278e-04, 1.49950531e-04,
          -1.08003864e-04, 1.11193163e-04, -5.29558492e-05,
          2.25704032e-04, 6.99877637e-05, -9.78188909e-05,
          -8.97872305e-05, 1.82890493e-04, 2.83973699e-04,
          5.77345054e-05, -2.06031211e-04, 6.54260220e-05,
          -3.97395197e-04, -1.34619931e-05, -1.99679998e-05,
          3.46941903e-04, 2.23901970e-05, -2.09406178e-04,
          1.68928280e-04, -4.34050489e-05, 8.28025441e-05,
          -7.59125987e-06, 4.28747480e-05, -1.79418439e-05,
          1.72276395e-05, -7.18737210e-05, -4.95039385e-05,
          -9.64968081e-07, -6.66781125e-05, -1.49123458e-04,
          -5.23950985e-05, 1.07071503e-06, 4.90193415e-05,
          -1.88016187e-04, 1.06297222e-04, -1.25082021e-04,
          -2.18479807e-04, 2.45972071e-04, -1.50995591e-04,
          1.83555210e-04, 9.74961440e-05, 3.30341027e-05,
          -2.36803258e-04, 1.77483584e-04, -1.60184529e-04,
          1.10679393e-04, 2.12445651e-04, -2.12264029e-04,
          1.53927773e-04, -1.19301294e-04, 1.46207458e-04,
          -2.35286789e-04, -1.39142532e-04, -1.44587582e-04,
          1.52270179e-04, 2.70731471e-05, 2.80813947e-05,
          -1.91029085e-05, 7.60008043e-05, 9.47748049e-05,
          -8.35854880e-05, 2.05573713e-04, -3.81832797e-05,
          2.23460629e-05, 6.45042237e-05, -1.10150919e-04,
          -5.50070654e-05, -1.34546979e-04, -5.95183847e-05,
          -8.48427007e-05, -2.60570978e-05, -1.59252832e-05,
          2.94606507e-05, 3.35070945e-05, 1.25738457e-04, 2.94701531e-05,
          -5.37220549e-05, 1.18414137e-05, -1.03841296e-04,
          -2.38908087e-05, -6.49089561e-05, -1.26089450e-04,
          5.07605837e-05, -2.72856614e-05, -1.21019497e-04,
          3.07440337e-06, 4.23190031e-05, 5.21949332e-05,
          -4.72413085e-05, -5.22073788e-05, -1.11310597e-04,
          8.27579788e-05, -5.83055953e-05, -8.53232123e-05,
          -2.16008425e-06, -1.53290312e-04, -6.20067294e-05,
          -3.02136559e-05, -1.48369625e-04, -6.43678577e-05,
          2.77243671e-05, -5.15451502e-05, -8.79531399e-06,
          1.61909120e-04, -5.82096873e-05, 4.24550453e-05,
          1.35640134e-04, -8.90402298e-05, 1.14452727e-04,
          4.33875903e-05, 4.98965492e-05, 7.35799331e-05,
          -6.92701506e-05, 6.85985506e-05, 3.74540423e-06,
          4.81528041e-05, -6.42103851e-06, 7.01881436e-05,
          6.29573769e-05, -5.11537546e-05, -5.81452587e-05,
          7.57427406e-05, -7.26771977e-05, 5.58899010e-05,
          5.03638221e-05, -5.84958616e-05, -4.40579606e-05,
          3.70308408e-05, -5.83967558e-05, -4.51941814e-05,
          2.59095723e-05, 3.84322448e-05, -4.96964676e-05,
          -1.87768419e-05, 6.57019154e-06, -7.18238371e-05,
          4.12538102e-05, -1.58262439e-04, -4.70772175e-05,
          3.03593533e-05, -6.98647855e-05, 1.02945341e-04,
          7.21878241e-05, -1.07125059e-04, 6.43499015e-06,
          1.38236195e-04, -9.44570565e-05, -6.43555686e-05,
          -3.30110997e-05, -7.02794132e-05, -5.85242879e-06,
          5.78236140e-05, 9.74039285e-05, 3.21990992e-05, 5.72632525e-05,
          4.40421400e-06, -7.91091152e-05, 2.00840568e-05,
          -7.38457893e-05, 4.08678170e-05, 5.60036715e-05,
          4.81059215e-05, -5.80456908e-05, -5.36354892e-05,
          1.51839922e-04, 3.90638415e-05, 1.19186652e-05, 6.90261149e-05,
          -4.15598515e-05, -1.05081861e-04, -2.37313470e-05,
          5.96271238e-05, 9.99164695e-06, 1.16398996e-05,
          -9.93497906e-06, -7.55757947e-06, 2.15116088e-05,
          1.79011913e-05, 2.94777510e-06, 4.28361272e-05, 4.41936209e-05,
          2.51228103e-05, -2.97586284e-05, -7.63936168e-06,
          -2.13903877e-05, 2.81413286e-05, 6.36820769e-05,
          1.18195188e-04, 9.34169179e-07, 1.15603386e-11 ]
      - [ 3.15269463e-05, -2.26396332e-05, -2.63916081e-05,
          -2.30322228e-04, -1.28986110e-04, -2.49812379e-04,
          8.29347628e-05, -2.67282943e-04, -1.40168850e-04,
          -5.86099632e-05, 7.00473756e-05, 5.65539631e-05,
          -3.36580095e-04, -4.47684521e-04, 2.44711555e-04,
          6.26744411e-04, 2.80720469e-05, -2.53045524e-04,
          -1.52456778e-04, 6.36948562e-06, -2.84020953e-05,
          -3.95575262e-05, -6.85157429e-04, 1.01586258e-04,
          1.62329870e-05, -2.27712968e-04, -1.23597609e-04,
          -3.34015203e-04, -3.85893218e-04, 4.13820671e-05,
          2.10023471e-04, 2.74274818e-04, 3.76150092e-05, 3.51331430e-04,
          -1.77055990e-04, -3.61742786e-06, -1.47457118e-04,
          3.67969798e-04, -2.37249886e-04, 1.86964477e-04,
          2.63061142e-04, -1.44428326e-04, 2.00169859e-04,
          -1.76055270e-04, 2.93022837e-04, 3.42688698e-04,
          -2.35417087e-04, -8.30101199e-05, -2.70140463e-05,
          1.44417078e-04, 1.05988962e-04, -1.06867892e-05,
          -3.62475228e-04, -3.54608259e-04, 3.82714905e-04,
          -6.72808557e-04, -3.31129559e-04, 2.77841464e-04,
          -1.21902362e-04, 1.39584197e-04, -2.87116010e-04,
          3.05974565e-04, -1.07330998e-04, 2.88676820e-04,
          -6.62419334e-05, 2.61509849e-04, -1.36901217e-04,
          -8.53679448e-05, -3.08118353e-04, 2.53065547e-04,
          -2.90675925e-05, 2.60629546e-04, 4.31254739e-05,
          1.30682252e-04, 2.44088500e-04, 9.12894102e-05,
          -8.33785543e-06, 3.83421248e-05, 1.39190146e-04,
          -2.10991682e-04, 2.86099355e-04, -1.95506291e-04,
          -1.92367894e-04, 2.81744957e-04, 1.34513713e-04,
          -3.46232468e-04, 1.35203125e-04, -1.53673376e-04,
          2.17430585e-04, 1.94661479e-04, -3.82196828e-04,
          -3.22792883e-04, 4.36441114e-05, 7.39116731e-05,
          -3.56932724e-05, 2.25651209e-04, -2.63872702e-04,
          1.66406229e-04, -4.78803886e-05, -2.83902074e-04,
          1.28409403e-04, 2.98911309e-05, 2.73719139e-04,
          -5.76861021e-05, 1.98171620e-04, 1.79316718e-04,
          1.73110777e-04, 3.28352995e-04, -1.50505759e-04,
          -2.65262152e-05, -1.75415538e-04, -1.49035084e-04,
          -2.93700159e-05, -1.84900695e-04, 1.37689829e-04,
          -1.90245657e-04, 8.31561047e-05, 1.93125597e-04,
          -5.99357145e-06, 1.07692285e-04, 3.25396286e-05,
          -1.15945470e-04, -3.00218962e-05, 8.79856525e-05,
          -1.91723942e-04, -7.64335418e-05, 1.59137431e-04,
          1.23128149e-04, -2.41702597e-04, 7.33266133e-05,
          2.17399443e-04, -1.32110974e-04, 3.79944649e-05,
          -2.64653977e-06, 1.54424881e-04, -1.04828308e-04,
          8.34845287e-06, 1.85241559e-04, -1.13639268e-04,
          -3.23908353e-05, -3.93521259e-06, -1.41246337e-05,
          -3.72895192e-05, -1.45861763e-04, -1.22508616e-04,
          -8.37579428e-05, 1.29742053e-04, -6.05025571e-06,
          -1.36280913e-04, 1.50510488e-04, -6.90865490e-05,
          2.04808006e-04, -1.20233075e-04, -3.01168275e-05,
          8.03266739e-05, 1.94468394e-05, -2.36756023e-06,
          3.38406935e-05, -5.20636313e-05, 1.37144762e-05,
          1.25543302e-04, 1.32719388e-05, 1.43798490e-04, 1.35532609e-04,
          1.95044413e-05, -1.06385371e-04, 9.46508153e-05,
          -1.33587000e-05, -6.30414024e-06, 3.87569489e-05,
          -3.08896451e-05, 3.41155974e-05, -1.97738394e-04,
          1.00227771e-04, 9.87344029e-05, -8.68254356e-05,
          1.55512535e-05, -1.78552553e-04, -1.18077798e-04,
          2.21662958e-05, -1.80285817e-04, -2.85572969e-05,
          3.12200100e-05, -7.43612181e-05, 1.95061511e-05,
          8.37494663e-05, -6.85183186e-05, -8.41959918e-05,
          -4.61918171e-05, -1.37270530e-04, -6.01966240e-05,
          -6.93464681e-05, 1.13410802e-04, -8.86648650e-06,
          4.59425173e-05, -9.60865655e-05, 1.48527279e-05,
          7.26748694e-05, 9.83176069e-05, -1.38692831e-05,
          8.64203612e-05, 1.91510753e-05, 3.13033197e-05,
          -9.13320764e-05, 5.07396435e-05, -1.89785569e-05,
          4.89090507e-06, 1.03944776e-05, 1.67298451e-04,
          -1.75405762e-06, -1.70114527e-05, -2.56023632e-05,
          -1.05307226e-04, 3.86752254e-05, -2.41991565e-05,
          -2.60708221e-05, -8.57907435e-05, -2.30973401e-05,
          4.10463581e-05, 8.23466398e-05, -1.37913448e-04,
          -1.79210783e-05, 1.17240661e-05, 4.41448865e-05,
          -2.57217725e-05, 3.39231265e-05, -9.41255421e-05,
          -1.86666566e-05, 7.90030026e-05, 5.77498686e-05,
          1.46042395e-04, -9.21251703e-05, 1.71724995e-11 ]
   uncompressed_sv_total: 206
   uncompressed_support_vectors:
      - [ -3.13343872e+02, 2.22842056e+02, 8.96476990e+02,
          -1.18458351e+02, -8.87392822e+02, -8.96633240e+02,
          -1.03361397e+02, 3.70029205e+02, 3.65918091e+02,
          1.88568425e+00, 1.56120621e+02, 7.49075851e+01, 2.53195602e+02,
          1.58051529e+02, -3.31490082e+02, -1.80764328e+02,
          -7.84137039e+01, 1.96921387e+02, -5.06738373e+02,
          1.50718185e+02, -1.32803116e+02, 9.49734955e+01,
          -1.22278908e+02, 1.55701065e+02, 1.34039505e+02,
          8.88164825e+01, 8.31575241e+01, 1.60306976e+02,
          -3.84923019e+01, -3.35673187e+02, 3.91562271e+01,
          1.13706604e+02, 2.35398560e+02, 2.60344788e+02, 2.07772141e+02,
          -3.50970642e+02, -3.69725380e+01, -2.28943802e+02,
          -1.35960474e+01, -9.67738628e+00, -4.76660538e+01,
          1.43231323e+02, -1.90603119e+02, 3.81809052e+02,
          6.64118118e+01, -3.02843811e+02, -1.34123047e+02,
          -1.10013588e+02, 1.46179321e+02, -1.08935539e+02,
          -1.97658020e+02, 7.18312607e+01, 2.20873184e+02,
          7.77116776e+01, -1.41611490e+01, -5.00029907e+01,
          1.00115158e+02, 8.72142715e+01, -1.14299240e+02,
          1.40780731e+02, 9.66079636e+01, 1.53935501e+02,
          -2.17754242e+02, 8.57096786e+01, 1.46302811e+02,
          6.84344940e+01, 4.10057716e+01, -1.46489685e+02,
          1.38770752e+02, -7.34645157e+01, -1.27862076e+02,
          7.79202042e+01, 5.71479187e+01, 7.49082870e+01,
          -3.80031776e+01, 3.68390656e+00, 6.35895157e+00,
          1.78310089e+01, 3.90654564e+01, 1.60312328e+01,
          -1.53005554e+02, 4.88518562e+01, 2.48668022e+01,
          -1.06421692e+02, -1.86136719e+02, -1.78033810e+01,
          4.98295746e+01, 6.24558334e+01, -2.30545349e+02,
          -5.85184212e+01, 4.81603966e+01, -1.64170578e+02,
          3.40981407e+01, 3.88680305e+01, -2.87166634e+01,
          9.77090073e+01, 9.12726746e+01, 1.18656063e+01,
          -6.26611595e+01, 2.71217976e+01, -1.29746628e+02,
          -1.22974129e+01, 4.83579903e+01, 1.25813934e+02,
          -1.36483124e+02, 1.17135706e+01, -3.65432358e+01,
          -1.11646919e+02, 5.76284790e+01, -6.81365356e+01,
          5.34693985e+01, 1.16797533e+01, -3.75500336e+01,
          7.62639999e+01, -8.71228104e+01, 4.47093697e+01,
          6.03669662e+01, 6.08431702e+01, 2.87972317e+01, 1.53677826e+02,
          -4.79566078e+01, 9.47631226e+01, -9.11511459e+01,
          -8.65827370e+00, 9.70653610e+01, -5.19001122e+01,
          2.64493680e+00, -9.77467918e+00, 2.14765759e+01,
          2.83309174e+01, 6.93354082e+00, 1.14427061e+01,
          -1.37378919e+00, 2.15550089e+00, -8.87913132e+01,
          1.28449600e+02, 9.62916183e+01, -5.53061485e+01,
          2.12551689e+01, -1.34624376e+01, -5.74381447e+01,
          8.14898224e+01, 9.78894958e+01, -1.43467531e+01,
          -2.92111349e+00, -6.26741934e+00, -8.46610794e+01,
          1.18410778e+01, 2.83802166e+01, -1.35431244e+02,
          5.38035851e+01, 4.88678284e+01, -4.22793999e+01,
          -1.72149323e+02, 2.82214940e-01, 1.23657570e+02,
          -8.59794464e+01, -4.92772026e+01, 1.56668463e+01,
          -1.22176750e+02, -1.93373451e+01, 2.50598106e+01,
          1.24155607e+01, -2.54673939e+01, -6.87097168e+01,
          -6.26120377e+01, -1.83334484e+01, -1.28702484e+02,
          3.47152519e+01, -1.06199951e+01, 2.03590469e+01,
          -1.05613937e+02, 9.84687347e+01, -2.34238358e+01,
          -1.91588821e+01, 3.12619476e+01, -7.54984741e+01,
          -2.08719673e+01, -9.77059078e+00, 2.01915207e+01,
          5.41913910e+01, -8.38543854e+01, -5.94166374e+01,
          8.84922600e+00, 2.28376503e+01, 1.92348557e+01, 1.83326599e+02,
          -3.65723991e+01, -9.01063766e+01, 1.57259083e+01,
          6.03650246e+01, 9.76894379e+01, -5.38837929e+01,
          1.22018082e+02, -5.40576515e+01, -6.37761841e+01,
          2.92508621e+01, -1.30353790e+02, 2.89848843e+01,
          1.06723793e+02, -2.26060791e+01, -2.92423630e+01,
          -9.78421783e+01, -1.41117020e+02, -9.29274368e+01,
          9.50757751e+01, 1.06726112e+02, -8.37287674e+01,
          -8.41404953e+01, -2.36201878e+01, -7.79211807e+01,
          -1.05753395e+02, 1.63961136e+02, 3.73565292e+01,
          -1.76857208e+02, 7.00560522e+00, 1.84837246e+01,
          1.25992289e+01, -2.39652748e+01, -9.61108780e+01,
          -2.03243454e+02, -2.34476013e+01, -8.62550812e+01,
          5.18141479e+01, -8.44179306e+01, 1.56950150e+02,
          1.03119171e+02, 3.75709648e+01, 1.13939095e+02,
          -1.62311981e+02, -1.42582886e+02, 3.99297218e+01,
          3.63953412e-04 ]
      - [ -8.38382492e+01, 1.04653442e+03, -2.96204004e+03,
          -7.55787125e+01, 8.02219177e+02, -4.90033173e+02,
          5.69307434e+02, -1.34022552e+02, -6.26110291e+02,
          1.86634598e+02, 9.36695496e+02, -6.60889099e+02,
          8.50586365e+02, 8.26835083e+02, -8.75574036e+01,
          1.58813400e+02, 6.99727661e+02, -1.10068201e+03,
          1.96063690e+02, -5.16868835e+02, 2.40863342e+02,
          -1.57347046e+02, 1.98816986e+02, -7.50844727e+02,
          6.04885483e+01, 2.20622040e+02, -3.80427132e+01,
          7.69127686e+02, 9.71709671e+01, -4.80580353e+02,
          -5.80960815e+02, -8.78323746e+01, -1.70771088e+02,
          5.12236862e+01, 1.54937347e+02, 1.51356766e+02, 4.83605133e+02,
          -6.70650330e+02, 4.18120972e+02, -8.08449554e+01,
          -2.92115784e+02, 1.04721088e+01, 5.24536316e+02,
          -3.93284882e+02, -3.03441986e+02, 2.50960480e+02,
          -4.81828796e+02, 4.27675964e+02, 3.29834564e+02,
          7.01718445e+01, -2.84945526e+02, 1.58476730e+02,
          1.17112961e+02, 2.94525574e+02, -2.37013412e+02,
          -2.11927963e+02, 4.91769287e+02, 1.64417801e+02,
          1.70999283e+02, -1.76072273e+01, -5.67279236e+02,
          3.81258789e+02, -5.26925392e+01, -2.23149841e+02,
          2.02310562e+02, -1.23339691e+02, -4.05525635e+02,
          6.15939217e+01, -5.93422508e+01, 2.69665070e+02,
          1.20580933e+02, -2.15270828e+02, 1.64176445e+01,
          8.29116287e+01, 7.01970062e+01, -2.33014984e+02,
          -1.10055611e+02, -1.00686615e+02, 4.02604294e+01,
          1.46178848e+02, -4.06170502e+01, -1.15336113e+02,
          1.59545151e+02, -2.66067352e+01, -4.55842285e+01,
          -1.61173035e+02, 1.85951675e+02, 2.04547852e+02,
          -1.94971790e+01, -2.23584778e+02, 1.10110352e+02,
          5.46018639e+01, -1.01328629e+02, -1.68986191e+02,
          2.94824352e+01, -1.66047607e+02, -2.42530022e+01,
          3.51826134e+01, -4.80845909e+01, 1.78655472e+02,
          7.73024216e+01, 1.93000900e+02, -3.05608887e+02,
          -1.04239624e+02, -2.58894711e+01, 3.22861206e+02,
          -8.78652496e+01, 7.12296143e+01, -8.76489487e+01,
          -9.98622131e+01, 3.02387791e+01, 8.17809906e+01,
          1.56425339e+02, -4.55545387e+01, 7.85682678e+01,
          -4.67920990e+01, -2.86047516e+01, -1.50043716e+01,
          9.73598785e+01, -7.15729980e+01, -9.61010590e+01,
          4.92536697e+01, 3.26689529e+01, -5.68336716e+01,
          -4.98755264e+00, -1.66021366e+01, -8.69480743e+01,
          -3.32294273e+01, -1.67324051e+02, -4.14199524e+01,
          -9.16388626e+01, -2.05381332e+02, -1.34432049e+01,
          5.84851799e+01, -5.57696571e+01, -8.94833603e+01,
          -1.12318832e+02, -1.16100891e+02, -6.48846512e+01,
          -1.10591515e+02, -1.69176731e+01, 5.72863541e+01,
          -4.56761398e+01, 1.20459206e+02, 2.49776192e+01,
          -4.68882990e+00, 4.47970848e+01, -6.90616226e+01,
          4.10862350e+01, 1.24499489e+02, 5.44818077e+01,
          -3.38306770e+01, 9.09072037e+01, 3.18667889e+01,
          -2.75618382e+01, 4.56344261e+01, 2.78133144e+01,
          3.75386353e+01, 1.23245338e+02, 1.07742508e+02, 2.25018196e+01,
          5.11712227e+01, 4.74796104e+01, 2.21934204e+01,
          -6.67834320e+01, 4.69620667e+01, 1.91973686e+01,
          -6.84824677e+01, -1.42435141e+01, 9.39008102e+01,
          -6.25433779e+00, 2.03198647e+00, 1.18623552e+01,
          -7.92540131e+01, -6.07502022e+01, -1.03038643e+02,
          -3.11246948e+01, 3.75387115e+01, 5.55205154e+01,
          2.71391928e-01, -4.49147034e+00, 1.83696508e+00,
          -3.01158161e+01, 5.45430870e+01, -5.16194077e+01,
          3.81732788e+01, -2.97991123e+01, -2.01357174e+01,
          -1.11563044e+01, -3.77129936e+01, 6.59576645e+01,
          -2.67156811e+01, -2.34538288e+01, -1.67424278e+01,
          -3.43786469e+01, 2.20755844e+01, -7.58383656e+00,
          -2.42936468e+00, 2.48221989e+01, 6.17018166e+01,
          1.30350475e+01, -5.47566452e+01, -2.08712635e+01,
          2.97843552e+01, 2.53451366e+01, 3.21101570e+01, 1.25917835e+01,
          4.56648483e+01, -2.36555481e+01, 1.04572201e+01,
          -2.91443863e+01, -2.64781570e+01, 2.11186523e+01,
          3.04387932e+01, -1.87169285e+01, 2.33174286e+01,
          -5.89797134e+01, 2.35313034e+00, 5.12156830e+01,
          -4.79614067e+00, -2.90928345e+01, -1.62285652e+01,
          -1.90970886e+00, 5.56407261e+00, 1.31518221e+00,
          3.04419651e+01, 1.86705322e+01, -1.29163399e+01,
          1.96195831e+01, 2.04374504e+00, 4.46463728e+00,
          -2.71362820e+01, 3.40759754e-04 ]
      - [ -2.24871411e+03, -9.71745422e+02, 7.01963501e+02,
          -1.38294946e+03, 2.61640961e+02, 2.66060516e+02,
          6.33604614e+02, 9.92902710e+02, 3.22713898e+02,
          -4.88639191e+02, -2.02786774e+02, 1.47272675e+02,
          2.53449493e+02, -1.08608406e+02, 5.69586906e+01,
          -3.82175018e+02, -1.65070419e+01, -2.02811295e+02,
          -1.34773270e+02, 2.55933105e+02, 4.39507538e+02,
          3.65129883e+02, -5.79641785e+02, -3.20879547e+02,
          -2.95235901e+02, 4.20468719e+02, 3.08633301e+02,
          -2.62948975e+02, 2.88389496e+02, -1.76708801e+02,
          -2.14584610e+02, -1.85996872e+02, 8.47246552e+01,
          1.09825722e+02, -5.76145081e+02, 3.92786377e+02,
          1.01475019e+01, 2.05113922e+02, -7.25320358e+01,
          -3.74176292e+01, -6.36743317e+01, -6.56044388e+01,
          -1.37988501e+01, 1.37281357e+02, 6.82773666e+01,
          -5.75719476e-01, 3.43996857e+02, -2.17752800e+01,
          1.52552948e+02, 7.05855713e+01, 4.46070282e+02,
          -2.97518890e+02, -6.51951752e+01, -2.61902191e+02,
          5.88446999e+01, -1.39657043e+02, -2.71955719e+02,
          -7.05362396e+01, 4.03204285e+02, 1.60478989e+02,
          -3.12277557e+02, -5.40751877e+01, -8.16630707e+01,
          -1.81765671e+01, -1.74204712e+02, -6.44385757e+01,
          -2.96115265e+02, -5.43821640e+01, -7.50623093e+01,
          1.32697357e+02, -8.56640854e+01, -1.75351257e+02,
          3.09041504e+02, 1.24652233e+01, -2.30710953e+02,
          -2.31865433e+02, -2.27663254e+02, -5.19593287e+00,
          2.64990025e+01, 1.02255974e+02, -6.96108551e+01,
          5.76618843e+01, 1.98578857e+02, -6.35017319e+01,
          3.69481323e+02, 2.02999008e+02, 7.06004486e+01, 7.32999725e+01,
          -2.46013153e+02, 5.64679565e+01, -6.54629898e+01,
          1.85957748e+02, -6.13638496e+01, -1.18273525e+01,
          -2.42144814e+01, 1.16105042e+02, -6.58664627e+01,
          1.16773956e+02, -7.72820950e+00, -4.65178032e+01,
          3.19952774e+01, 1.71666656e+02, -1.67536743e+02,
          1.96772614e+01, -5.70261765e+01, -2.95622864e+01,
          -1.48437548e+01, 1.52022949e+02, -5.63596001e+01,
          1.44545898e+02, -1.94553619e+02, -6.14248428e+01,
          7.50227661e+01, -7.81745300e+01, 7.29076922e-01,
          1.65947403e+02, 1.86583130e+02, 1.26848038e+02,
          -1.92545364e+02, 2.31387207e+02, -1.28468735e+02,
          2.16247826e+01, 1.27345839e+01, -4.40958176e+01,
          -4.59424438e+01, 3.64142822e+02, -2.29357357e+01,
          2.91442986e+01, -1.68138306e+02, 1.26630730e+02,
          -5.98624611e+01, 4.13644257e+01, -6.40825882e+01,
          -1.31901749e+02, 5.07661095e+01, -4.60823250e+01,
          -7.53401489e+01, -2.89589195e+01, 2.57184845e+02,
          -1.89270126e+02, -5.53930283e+01, -3.60150414e+01,
          5.67876930e+01, -8.04885178e+01, 1.19423737e+02,
          -9.31460571e+00, 6.78160629e+01, 1.06948967e+01,
          3.80841713e+01, 1.03335289e+02, -9.08614826e+00,
          -3.02456903e+00, 7.67182617e+01, 4.55839539e+01,
          -8.60906525e+01, -3.10710812e+01, -6.69789581e+01,
          -2.62008209e+01, 5.07063484e+01, 5.14414215e+01,
          3.96640167e+01, -1.10303108e+02, 1.15663567e+01,
          -4.52433929e+01, 1.01406273e+02, -2.34780769e+01,
          -1.27278824e+02, 4.72476921e+01, 3.59358444e+01,
          -8.28335495e+01, 2.80428338e+00, 5.97753830e+01,
          2.16634277e+02, 1.59222412e+02, -1.02414688e+02,
          2.26675491e+01, 1.91018951e+02, 3.09315548e+01,
          -3.84580765e+01, -1.01259583e+02, -6.00431595e+01,
          1.00287266e+01, 4.10406685e+01, -1.88438778e+01,
          -1.66076019e+02, 3.61809196e+01, -1.71708954e+02,
          -4.34899597e+01, -1.72880249e+01, 1.77287884e+01,
          5.33278894e+00, 1.22476559e+01, -1.55109520e+01,
          1.08307465e+02, -1.99006348e+01, -6.35876770e+01,
          1.26657425e+02, -2.00007935e+01, -2.11718559e+01,
          -2.23500767e+01, -9.76869125e+01, 2.31439514e+01,
          1.04323645e+01, -6.60100327e+01, -2.62083549e+01,
          2.53285944e-01, -1.53247643e+01, -5.44153023e+01,
          3.47576561e+01, 5.06595879e+01, 5.25709534e+00,
          -1.78480959e+00, 5.76191292e+01, -6.66999435e+00,
          -5.36420097e+01, -1.09050808e+01, -2.05493145e+01,
          4.78903542e+01, -8.95772858e+01, -7.31494064e+01,
          -4.32269402e+01, -4.59178276e+01, 8.75405502e+00,
          -2.96699467e+01, -1.27666645e+01, -2.98392487e+01,
          -1.19340897e+01, 4.81906700e+00, 8.84921610e-01,
          -1.94221172e+01, -1.15535326e+01, 5.36518974e+01,
          4.25189734e-04 ]
      - [ 3.13353613e+03, 8.80398254e+02, -1.52082507e+03,
          -2.60796280e+01, 2.88324615e+02, -7.03865234e+02,
          3.77441711e+02, 5.29505798e+02, 4.83899353e+02, 1.48352173e+02,
          -2.74418915e+02, -2.26823883e+02, -3.21656113e+01,
          -7.14709167e+01, 9.96548615e+01, -6.07083801e+02,
          -5.11548004e+02, -1.65659088e+02, -4.71662659e+02,
          9.14628418e+02, 9.39619202e+02, 3.21670258e+02, 1.24041733e+02,
          5.17445984e+02, 9.74080276e+01, -9.77100983e+01,
          -3.43314423e+02, -2.36342773e+02, -1.79916794e+02,
          5.66701660e+02, -2.92119171e+02, -4.61257477e+02,
          -6.34430603e+02, -6.78281174e+01, 2.51321381e+02,
          -2.52481781e+02, 1.59850983e+02, 2.05155823e+02,
          -2.76310669e+02, -5.21423950e+02, -9.69553604e+01,
          6.86893768e+01, 1.84643921e+02, 6.19198486e+02, 2.46956177e+02,
          -1.85961761e+02, -1.44684143e+02, -1.44175425e+01,
          2.33509888e+02, 2.93911438e+02, -5.81565430e+02,
          -2.17649796e+02, -1.58716547e+00, 1.62073807e+02,
          -6.15060043e+01, 2.00828674e+02, 1.23440216e+02,
          4.77679176e+01, -2.27592449e+01, 3.70194946e+02,
          -6.46906891e+01, 2.92121552e+02, -2.56988403e+02,
          -2.19664291e+02, 6.97281799e+01, -1.11699776e+02,
          -7.63004303e+01, 2.47851517e+02, 3.51988647e+02,
          1.59582886e+02, -1.15885620e+02, 1.79842438e+02,
          -7.48559265e+01, -2.80273376e+02, 3.02173370e+02,
          3.00680389e+02, -1.96549683e+02, 1.03528061e+02,
          9.16261520e+01, -3.76336975e+02, 1.53231415e+02,
          -2.35953140e+02, -3.80226593e+02, 1.85265335e+02,
          -3.04041252e+01, -1.18296881e+01, -2.34239922e+01,
          1.61124466e+02, 1.14199738e+02, -2.73572693e+02,
          -2.24495029e+01, 4.59023399e+01, -8.58752823e+01,
          1.38808243e+02, -2.23714737e+02, -3.11345581e+02,
          5.48519135e+01, 2.29944504e+02, -5.91941643e+01,
          -8.60648651e+01, 2.21638813e+01, 3.49148064e+01,
          -1.47277496e+02, 7.77972946e+01, 1.60108185e+01,
          -3.27086067e+01, 2.95051849e+02, 9.55802994e+01,
          -8.01560059e+01, -4.91402855e+01, 3.74391899e+01,
          -1.31269440e+02, -8.24419556e+01, -1.68945221e+02,
          1.93206009e+02, -5.07732582e+01, 1.45824631e+02,
          4.53724365e+01, -7.65321808e+01, 2.74454060e+01,
          -1.04915154e+02, -4.72839308e+00, 1.96465637e+02,
          8.61390533e+01, 1.86351379e+02, -8.92057266e+01,
          7.27708435e+01, 6.26831360e+01, -1.00753914e+02,
          -1.24452774e+02, -2.05481300e+01, 5.35536118e+01,
          6.88741684e+01, -2.92661476e+01, 1.06043449e+02,
          7.43193817e+01, 5.68825073e+01, -8.27349396e+01,
          1.79545258e+02, -6.24350510e+01, 6.97639008e+01,
          1.52747049e+01, -1.04056656e+02, -6.68674927e+01,
          -1.33927078e+01, 3.78082047e+01, -2.16572113e+01,
          -1.89112148e+01, 5.45199203e+01, -1.61112732e+02,
          1.18804916e+02, -1.07506859e+02, 9.95800400e+01,
          -3.15869808e+01, -8.31825943e+01, -8.03084488e+01,
          7.61104202e+01, 3.04370117e+01, -1.31562030e+00,
          -2.77262419e-01, 5.85886879e+01, -7.18287354e+01,
          3.90982170e+01, -4.52882737e-01, 6.60761032e+01,
          -3.24668274e+01, -3.26103668e+01, 6.92670298e+00,
          4.18671188e+01, 6.08293228e+01, 4.04868927e+01,
          -1.11767166e+02, 2.39119053e+01, 2.98027210e+01,
          -1.16234238e+02, 1.52691851e+01, 2.66681557e+01,
          -5.93992348e+01, -1.26428070e+01, 5.34795332e+00,
          2.03593483e+01, -9.89066887e+00, 4.07793388e+01,
          -1.15648556e+00, -5.06914139e+01, -1.18145432e+02,
          5.35734253e+01, -4.25931282e+01, 9.56040878e+01,
          -7.10833130e+01, 3.00693512e+00, 2.02266769e+01,
          4.55168343e+00, 3.05575218e+01, -3.39358749e+01,
          -6.80133133e+01, 2.51944904e+01, -1.89466400e+01,
          -1.17651844e+00, -2.89812756e+01, 9.30398254e+01,
          9.07187843e+00, 2.36751213e+01, -2.06883097e+00,
          1.16291351e+01, 1.02054653e+01, -1.07681847e+01,
          1.14417009e+01, -5.38679276e+01, 1.01451321e+01,
          1.50265903e+01, -2.71020927e+01, -4.27557945e+01,
          -4.48103600e+01, 1.41703596e+01, -1.19926538e+01,
          2.77033234e+01, 2.02624683e+01, -6.16370916e+00,
          -4.83708992e+01, 2.91563873e+01, -3.27380829e+01,
          3.61704445e+01, -2.82375088e+01, 3.00527382e+01,
          -1.30265570e+01, 1.14575157e+01, -1.28772068e+01,
          -2.82110462e+01, 2.87487774e+01, 5.52944851e+00,
          6.38799000e+00, 2.68861651e-04 ]
      - [ 5.58791626e+02, 1.66242932e+03, -5.58816528e+02,
          7.30328735e+02, 8.18806213e+02, -5.95600891e+02,
          9.10137268e+02, 6.72012634e+02, -9.13337421e+00,
          -5.91103882e+02, -5.60371887e+02, 4.94599945e+02,
          -3.75219360e+02, 3.49581299e+02, 2.66503357e+02,
          -1.78245220e+01, 3.50023834e+02, 3.87575104e+02,
          -6.31121445e+01, -4.21765327e+01, 1.42906815e+02,
          2.25431366e+02, 6.18450195e+02, -2.14798126e+01,
          1.62950699e+02, 1.11333839e+02, 1.74921753e+02,
          -4.35521637e+02, 3.55520325e+02, 9.88253555e+01,
          3.79816589e+02, -1.18183678e+02, 9.68076782e+01,
          -8.70875359e+00, 4.09901398e+02, -3.72058655e+02,
          1.19170204e+02, 9.53736725e+01, -8.67291031e+01,
          -2.84872040e+02, 3.70474243e+00, 5.22257423e+01,
          -3.10506226e+02, -4.28492706e+02, -1.03091911e+02,
          5.45756950e+01, -1.90701752e+02, -2.32982071e+02,
          3.96387390e+02, 7.76814499e+01, 1.46931717e+02,
          -5.38449364e+01, -1.73488892e+02, -2.41502838e+02,
          -3.78408630e+02, 2.82077942e+01, 7.20147247e+01,
          1.16622215e+02, -2.40258804e+02, 5.55046196e+01,
          -2.93882416e+02, 6.71362686e+01, -1.15176399e+02,
          -1.37486771e+02, -2.32119675e+01, 1.80390717e+02,
          -1.02066742e+02, 5.36072121e+01, 3.75765839e+01,
          1.80499363e+00, 5.34567566e+01, 1.27053001e+02, 2.36962021e+02,
          -1.80429031e+02, 1.45767685e+02, -6.99938812e+01,
          -1.24630005e+02, -5.15905113e+01, -4.05995178e+02,
          1.44665085e+02, 1.20031952e+02, -1.33781738e+02,
          1.44632690e+02, 1.31751083e+02, -8.71692429e+01,
          -1.56989746e+02, -3.20669327e+01, -2.80984619e+02,
          8.98832321e+00, -2.15081909e+02, 7.72909012e+01,
          -4.36607742e+01, 7.14859543e+01, -1.33207901e+02,
          -3.63224030e+01, 1.23751431e+01, -9.28622665e+01,
          -1.41322021e+02, 7.89176102e+01, -2.13161407e+02,
          -1.75679855e+02, 6.31129265e+01, 4.54247932e+01,
          1.44254593e+02, -1.49826309e+02, -5.60057526e+01,
          4.00281096e+00, 2.08958492e+01, -2.16940765e+02,
          -1.71265884e+02, 2.80796671e+00, -1.29005768e+02,
          -1.39020126e+02, 1.33572769e+02, -2.67468750e+02,
          6.24568291e+01, 1.38790604e+02, 1.41301071e+02,
          -1.35552689e+02, -3.94175072e+01, 1.22543213e+02,
          -1.66063061e+01, -1.67750626e+02, 1.71646255e+02,
          -1.14935808e+01, 1.31314743e+02, -6.06013179e-01,
          1.01346931e+02, 3.71307259e+01, -1.21676620e+02,
          -1.44336487e+02, 9.05591812e+01, 2.74495850e+01,
          7.18770828e+01, -1.30479156e+02, -2.08857986e+02,
          -1.51619919e+02, 1.99504974e+02, 1.37435322e+01,
          4.71140671e+01, 1.37661987e+02, 1.20233238e+02,
          -1.74570572e+02, -1.06094837e+01, -1.83882996e+02,
          5.03283653e+01, 2.88953590e+01, 7.95048666e+00,
          -1.17631760e+01, -3.90638428e+01, 1.67174625e+01,
          5.83590508e-01, -7.74322033e+00, 5.98655739e+01,
          1.11637754e+01, 1.53511820e+01, 2.94089355e+01,
          -4.73022985e+00, 1.60710037e+02, -1.33399134e+01,
          -1.08419861e+02, -1.26373703e+02, -1.37547699e+02,
          1.51238907e+02, -1.01619774e+02, -4.90050278e+01,
          -9.98497086e+01, 1.58194790e+01, -1.67240768e+02,
          4.51598892e+01, -7.78020554e+01, 5.61323128e+01,
          1.56972122e+02, -1.28065704e+02, 4.80617371e+01,
          -1.02990662e+02, 2.01098418e+00, -1.38255768e+02,
          1.63646591e+00, -4.05189723e-01, -1.23413391e+01,
          1.78612423e+01, -9.66465530e+01, 2.22695303e+00,
          3.18787651e+01, -4.63221016e+01, -1.02225479e+02,
          1.26228683e+02, -9.27544174e+01, 6.55804443e+01,
          3.54713745e+01, -5.54380703e+00, -3.66037979e+01,
          -2.53925800e+01, -9.29436111e+01, -8.40589218e+01,
          -2.14881039e+01, -3.31136589e+01, -8.90857124e+00,
          -1.94446468e+01, -1.62532501e+01, -7.52192917e+01,
          -5.10034981e+01, 1.32830572e+01, -3.25114708e+01,
          -5.41182556e+01, -1.61800671e+01, 9.22408342e-01,
          4.37426949e+01, 3.49692421e+01, 4.64015770e+01, 3.38565636e+01,
          -3.31700439e+01, 2.75654030e+01, 7.77682648e+01,
          -1.49959915e+02, 4.80911598e+01, -3.40083466e+01,
          -5.74747620e+01, -2.79614182e+01, -5.75765467e+00,
          -4.34086323e+00, -4.15093384e+01, 4.86743784e+00,
          -1.22185318e+02, 2.67184162e+01, 4.48368263e+00,
          -3.06154976e+01, -3.22866516e+01, 7.49176168e+00,
          -2.34483223e+01, -2.65923443e+01, 1.80665404e-04 ]
      - [ -8.74752502e+02, 3.90878223e+03, -1.79768079e+03,
          9.11199402e+02, -3.35765411e+02, -1.67318115e+02,
          1.12323010e+03, 5.77675171e+02, -9.74194336e+01,
          2.51256714e+02, -7.38054871e+02, 2.79399536e+02,
          -1.05343414e+02, -1.80138367e+02, -3.02205627e+02,
          -3.09201050e+02, 4.07227478e+01, 1.61278107e+02,
          9.82562408e+01, -3.78766998e+02, -5.22520370e+01,
          -1.91674622e+02, -2.98814972e+02, -1.12092903e+02,
          1.49775486e+01, 7.05513144e+00, -5.61102295e+02,
          2.00716309e+02, 7.15369263e+01, -2.05006226e+02,
          3.22119713e+01, -1.82123737e+01, 1.27525078e+02,
          1.52236938e+02, -1.26833946e+02, 1.84059772e+01,
          -2.58916321e+02, 2.36214569e+02, -1.56858582e+02,
          2.92188629e+02, 3.73012199e+01, 9.60773239e+01,
          -5.78213120e+01, 1.00973946e+02, -1.19821312e+02,
          1.58509933e+02, 3.21371307e+01, -8.96835709e+01,
          7.12922440e+01, -9.49795380e+01, 4.01463356e+01,
          -7.30696945e+01, -1.31694168e+02, 4.74581871e+01,
          1.23268471e+02, -1.85610657e+01, 9.53653336e+01,
          6.35730934e+01, 2.78314400e+01, 3.29486008e+01,
          -7.55580521e+01, 3.95852661e+01, -1.47590027e+02,
          -9.13202286e+00, 4.95358429e+01, -5.75929680e+01,
          -1.95966110e+01, 1.02832443e+02, 4.97872925e+00,
          2.57481422e+01, 6.72159958e+01, 9.89132233e+01, 2.57184296e+01,
          -1.74794281e+02, 8.42933578e+01, -7.28096542e+01,
          -1.87342407e+02, -3.63957329e+01, 1.78173065e+01,
          -6.43177872e+01, 1.45785637e+01, -1.98843575e+01,
          1.02968769e+01, -1.04364944e+02, -1.24851158e+02,
          -7.26458817e+01, 3.82613983e+01, 4.96090851e+01,
          1.71685066e+01, -1.05112862e+02, 1.55044451e+01,
          -1.77439087e+02, 1.67349224e+01, 9.58073273e+01,
          2.41721611e+01, 5.53666830e+00, 3.37194023e+01, 1.11176186e+02,
          -4.34975395e+01, -9.20441284e+01, 1.05265265e+01,
          -4.32933731e+01, 8.87704563e+00, 3.82845917e+01,
          -2.87516575e+01, -4.71493645e+01, -1.46903244e+02,
          -6.07733727e+01, -1.36576872e+01, -9.66347504e+00,
          -1.15897736e+02, 1.97985168e+02, -9.55257263e+01,
          5.96141510e+01, 1.36603836e+02, 1.34267626e+01,
          -2.08657398e+01, -4.88568544e+00, 5.94234085e+01,
          1.05533653e+02, -1.48149195e+01, -5.96164932e+01,
          2.89276104e+01, 3.86142044e+01, 4.17874451e+01, 2.70859394e+01,
          -2.45822220e+01, 6.61140671e+01, -7.42582550e+01,
          9.47748337e+01, -3.41083145e+01, -1.04918213e+02,
          -2.44783649e+01, 2.77853718e+01, 7.78239059e+01,
          7.15624008e+01, -5.83313513e+00, 9.05455780e+01,
          -3.88264313e+01, -6.94292908e+01, -2.66080952e+01,
          -1.28634644e+01, 3.44200745e+01, -3.47069397e+01,
          -1.72838001e+01, -1.42071524e+01, -3.59650345e+01,
          8.39825516e+01, -6.33227921e+00, -1.58214254e+01,
          1.93059330e+01, 4.84450798e+01, 8.29965973e+00,
          -3.41464767e+01, 6.95926361e+01, 5.74908714e+01,
          -1.03776878e+02, 1.68476852e+02, 7.53395767e+01,
          -2.01524296e+01, 4.70419979e+00, -3.23456383e+01,
          4.90830917e+01, 3.44734688e+01, -5.84239655e+01,
          -5.74675102e+01, -1.29762100e+02, -4.92271576e+01,
          4.27614927e+00, -1.35777264e+01, -7.81256485e+01,
          -2.33470306e+01, 9.05689163e+01, 5.03322372e+01,
          8.65567398e+01, 9.73729095e+01, 8.88950920e+00,
          -1.40700474e+01, -2.22756748e+01, -1.40141556e+02,
          -1.82320919e+01, -3.03547955e+01, 7.61485443e+01,
          -3.33656006e+01, 3.74877129e+01, -2.95843945e+01,
          1.69774490e+02, -1.12876862e+02, -3.49047327e+00,
          6.02343216e+01, 1.87231083e+01, 3.29109120e+00, 4.56010103e+00,
          4.16208305e+01, 6.18497887e+01, -1.05267174e+02,
          -6.20251274e+01, -1.05877747e+02, 5.26799774e+01,
          -7.16118317e+01, -3.45839958e+01, 7.88878784e+01,
          -8.65008392e+01, 3.85790520e+01, -5.03108444e+01,
          -1.28335739e+02, -1.47056446e+01, 6.03230190e+00,
          6.84039536e+01, 5.76456738e+00, -4.10145226e+01,
          5.31617775e+01, -3.75023985e+00, 1.06982918e+02,
          -7.19594803e+01, 5.61854744e+00, 3.59674759e+01,
          -6.79836197e+01, 8.33412094e+01, 2.49045143e+01,
          4.37620010e+01, -3.93259506e+01, 8.11831131e+01,
          9.30185089e+01, -1.22880898e+01, -8.79651871e+01,
          -1.99979370e+02, 4.09060860e+01, 2.97163879e+02,
          1.38854950e+02, 8.21330185e+01, -1.92355896e+02,
          3.66091728e-04 ]
      - [ -4.15617188e+03, 8.45324951e+02, 4.95294525e+02,
          -2.34742627e+03, 6.68599854e+02, 1.29685059e+02,
          1.13045898e+03, -2.01015823e+02, -8.92218567e+02,
          -5.78584778e+02, 4.76712914e+01, -2.08449036e+02,
          -4.76678650e+02, -8.75290039e+02, 7.16326782e+02,
          -2.60964172e+02, -1.68665161e+02, 1.77611893e+02,
          -1.15647270e+02, 4.83928741e+02, 5.72370422e+02,
          3.05902557e+02, 3.06477478e+02, -1.31629501e+02,
          -5.57241028e+02, -1.35870361e+02, 1.15451645e+02,
          -9.72460651e+00, 3.94132233e+02, 2.20742981e+02,
          5.17729248e+02, -2.38304886e+02, 1.38094788e+02,
          5.76082458e+02, -8.33386078e+01, 6.94277716e+00,
          -3.59456177e+02, -5.79524597e+02, -8.28160000e+00,
          1.47292145e+02, 3.64513435e+01, -1.85047134e+02,
          2.38104797e+02, 4.17950928e+02, -2.11532379e+02,
          2.39707901e+02, 1.56734177e+02, -2.28842697e+02,
          -3.76656769e+02, -5.78508728e+02, -1.10283173e+02,
          1.46568939e+02, 5.61851692e+00, 1.44609009e+02, 1.34814978e+01,
          -2.42576752e+01, 1.78231674e+02, -1.49430725e+02,
          1.35708481e+02, 2.03972427e+02, 3.49278946e+01, 4.90100922e+02,
          4.47515228e+02, -3.19702576e+02, 2.01271317e+02,
          1.18526276e+02, -9.29682922e+01, 3.21008606e+02,
          7.02187061e+00, -3.84935021e+00, 2.24328888e+02,
          -7.30197191e-01, -6.06783371e+01, 1.04163406e+02,
          -1.01903671e+02, 2.13073303e+02, 1.90152084e+02,
          5.39408035e+01, 2.05239892e+00, 2.04129745e+02,
          -4.09209900e+01, 1.11172043e+02, -1.43558456e+02,
          -2.99988708e+02, 6.19499826e+00, 1.09444737e+00,
          -1.81896118e+02, 1.52448608e+02, 6.81508942e+01,
          -1.50234512e+02, -1.97340744e+02, 7.32427139e+01,
          -1.05993698e+02, -1.93361755e+02, -1.06999578e+01,
          -2.27550003e+02, -1.31032425e+02, 2.04577980e+01,
          1.31533691e+02, -7.10127411e+01, 1.66946030e+02,
          -4.91034966e+01, 1.81007023e+01, -5.85158825e+00,
          -1.73190811e+02, -2.07087753e+02, -1.51332733e+02,
          9.88641968e+01, -2.47440777e+01, 4.19256401e+01,
          -1.62179153e+02, -2.43230408e+02, 1.40132431e+02,
          3.62527313e+01, 7.10619049e+01, -2.22964420e+01,
          -7.22715073e+01, 2.42722656e+02, -1.37282318e+02,
          8.02385406e+01, 1.22294502e+02, 2.15025501e+01,
          -1.25552658e+02, 1.05707932e+02, -1.16305664e+02,
          -7.60030136e+01, 7.40110931e+01, -6.17445087e+00,
          -7.56483688e+01, -6.14684563e+01, -1.83884430e+01,
          7.08922729e+01, 1.22191132e+02, 7.31140366e+01, 7.88214569e+01,
          -1.03439217e+02, -9.88042526e+01, -3.64198112e+00,
          7.66514511e+01, 1.43182190e+02, -6.68539734e+01,
          -2.43659325e+01, -1.38480896e+02, -1.51732742e+02,
          -1.13253738e+02, -6.33870392e+01, 3.31453171e+01,
          -4.72447777e+01, -1.64758244e+01, 6.26332569e+00,
          -2.64213257e+01, 3.32839241e+01, -8.60209560e+00,
          -1.65657902e+01, 8.19243526e+00, 2.27385086e+02,
          -8.84900475e+00, -7.60202637e+01, -7.67351990e+01,
          -1.26702713e+02, 1.22919151e+02, 2.79356842e+01,
          3.01249847e+01, -3.62499619e+01, -4.24697380e+01,
          2.19842892e+01, 2.21959801e+01, -4.97580795e+01,
          -4.18687515e+01, 1.23500862e+02, 6.48526230e+01,
          -2.58530617e+01, -1.61824432e+02, 1.40437717e+01,
          1.43083359e+02, -6.55263977e+01, -2.12568169e+01,
          4.88095551e+01, -5.34385800e-01, -6.15731964e+01,
          -3.05700722e+01, -7.19451904e+01, 4.37547302e+01,
          -4.18827782e+01, -7.49288635e+01, 3.37708321e+01,
          -3.43483047e+01, 2.51267109e+01, 8.52681122e+01,
          1.43827791e+01, 6.83718338e+01, -7.89514828e+00,
          -7.21844673e+00, -3.11898766e+01, 3.34642143e+01,
          7.58302917e+01, -2.75756226e+01, 1.81524920e+00,
          -1.08658400e+01, 1.16258440e+01, 2.00487442e+01,
          7.23037567e+01, -6.52986679e+01, 1.02409058e+01,
          -7.16110535e+01, 5.90461922e+01, 4.30036831e+00,
          6.43925171e+01, 3.70350647e+01, 4.46760597e+01, 1.50852995e+01,
          2.11514072e+01, 5.95849752e-02, 3.52152710e+01,
          -7.60692825e+01, -2.76187267e+01, -8.66452312e+00,
          -1.27985725e+01, 3.39980125e-02, 4.07270164e+01,
          -5.14538908e+00, -3.65519180e+01, -1.58276582e+00,
          -2.83030558e+00, -2.68107090e+01, 1.90180779e+01,
          2.17144909e+01, 9.39905624e+01, -6.58739030e-01,
          3.80970078e+01, -2.90767555e+01, 8.66853142e+00,
          4.77939844e-04 ]
      - [ 1.08412488e+03, -1.76049829e+03, 1.63518774e+03,
          1.23872485e+03, 8.33038208e+02, 9.88065033e+01, 4.88185638e+02,
          -5.52045105e+02, -5.34949036e+02, 3.47242706e+02,
          2.81676300e+02, -1.87665329e+01, 7.06750031e+01,
          -2.60615204e+02, -1.69018269e+01, 3.80711426e+02,
          -2.42274033e+02, 7.06881104e+01, 7.52734146e+01,
          2.51254692e+01, -2.31028595e+02, 2.68295959e+02,
          -1.47134262e+02, 7.63437195e+01, 3.22697601e+02,
          -2.57550446e+02, 5.12915087e+00, -5.38944626e+01,
          8.48171844e+01, -8.74591522e+01, 2.27492504e+01,
          -3.00805969e+02, -3.87407532e+01, -5.97093544e+01,
          1.61156502e+01, -2.11659565e+01, 5.82021999e+00,
          -3.73120087e+02, -9.05943680e+01, 1.22321312e+02,
          -1.97081924e+02, -1.50074814e+02, -8.39636993e+01,
          -3.51548805e+01, -1.92278900e+02, -2.72000031e+02,
          -2.00521412e+01, 2.06220856e+02, 2.15672672e-01,
          8.19926453e+01, 1.00684402e+02, 1.25089409e+02,
          -5.27506332e+01, 2.96670651e+00, -7.21551437e+01,
          1.52351517e+02, 2.60416489e+01, 2.40195679e+02,
          -2.08002747e+02, 6.98396454e+01, 1.95963211e+02,
          6.77627487e+01, -3.10490727e-01, -2.39896271e+02,
          4.83476067e+01, 9.93941650e+01, -1.07986130e+02,
          -5.12712479e+01, -2.03452511e+01, 2.38042358e+02,
          -5.96820335e+01, 2.52638893e+01, 3.44685555e+01,
          1.64922653e+02, 2.86764278e+01, -1.65720688e+02,
          -4.85606499e+01, -1.33670441e+02, 2.78208752e+01,
          -8.71436691e+01, -5.01880608e+01, 1.60700439e+02,
          -1.01831665e+02, 7.14407587e+00, -7.72389679e+01,
          1.01767073e+01, 1.02047432e+02, -1.01449516e+02,
          -6.61349945e+01, 1.95039963e+02, -1.87686737e+02,
          3.44469223e+01, -1.91711273e+02, 6.21871328e+00,
          -4.38863754e+01, -1.73353149e+02, -1.03512703e+02,
          -2.11075073e+02, 8.88845673e+01, 1.19726234e+02,
          7.32938080e+01, 5.23877373e+01, 7.49438629e+01,
          -4.37732353e+01, 2.41052513e+01, -1.05361557e+02,
          1.95286560e+02, -3.35940971e+01, 2.60954895e+01,
          1.13247967e+01, 1.85583916e+01, 1.51973419e+02, 4.99465141e+01,
          3.26324463e+01, 6.35469284e+01, 1.08728546e+02,
          -5.98671989e+01, 1.04788727e+02, 1.14375053e+02,
          8.07470093e+01, -2.43710251e+01, -9.47846756e+01,
          -9.03504181e+00, 4.32717743e+01, -5.20905762e+01,
          -2.09659088e+02, -5.67850227e+01, 1.26122566e+02,
          3.12748470e+01, 2.44142342e+01, -3.87593384e+01,
          1.73978516e+02, 1.14353378e+02, -1.66587921e+02,
          -1.13826157e+02, 3.23826065e+01, 1.11868513e+00,
          -6.82791595e+01, 1.18729485e+02, -1.04043293e+01,
          -8.59965515e+01, -1.42900009e+02, 8.11979065e+01,
          -1.05884941e+02, -1.66229919e+02, -1.51226931e+01,
          -3.69432373e+01, 5.55215340e+01, -9.23609009e+01,
          9.99622040e+01, -1.01658630e+02, -1.42873228e+00,
          -1.35602249e+02, 1.22011978e+02, -6.05044327e+01,
          -6.23134880e+01, 1.02103090e+01, 4.65567474e+01,
          4.60846977e+01, -2.09156815e+02, 9.05167198e+00,
          2.00909851e+02, 1.43088516e+02, -3.49833794e+01,
          1.55753374e+01, -9.76293488e+01, -1.86268425e+01,
          -1.39841263e+02, -3.51228256e+01, 5.97238541e+01,
          -6.86971512e+01, -1.22168716e+02, 6.39198036e+01,
          -1.76064835e+01, -7.27134781e+01, 5.27409134e+01,
          1.93661594e+01, -5.18065300e+01, 8.16935883e+01,
          -1.42599777e+02, 3.47997818e+01, 7.24663315e+01,
          -2.78457069e+01, 1.31127136e+02, -7.02754974e+01,
          2.67661476e+01, 8.62447739e+00, 4.27786255e+01,
          -3.83002129e+01, 4.74967346e+01, 9.61741638e+01,
          5.30975800e+01, 1.43624020e+01, 1.10467506e+02,
          -7.66988831e+01, 1.39371857e+02, 1.10936234e+02,
          -4.34002914e+01, 5.26206665e+01, 2.93179455e+01,
          -1.35887642e+01, -1.49992065e+02, 1.10448418e+02,
          -1.55429871e+02, 8.78143845e+01, -1.71466274e+01,
          -2.06060486e+02, -9.48136520e+01, 7.71491547e+01,
          -1.39650253e+02, 7.75093460e+01, 2.00518322e+00,
          -1.72415314e+01, -6.53315964e+01, 2.58333321e+01,
          -6.18090363e+01, -6.56995697e+01, 8.01941071e+01,
          8.15412521e+01, 1.26927347e+01, 7.10474319e+01,
          -3.52359047e+01, 6.90389481e+01, -2.64906883e+00,
          -1.18420990e+02, -1.46433573e+01, -4.68148232e+01,
          -8.99690704e+01, 3.34560089e+01, 1.12059639e+02,
          -9.76460648e+01, -8.21739674e+00, 5.11929393e-04 ]
      - [ 1.21102893e+03, 1.05051099e+03, 5.07750336e+02,
          -1.10149878e+03, -3.85068512e+02, -1.51104199e+03,
          -1.57216309e+02, 1.86775406e+02, -9.03515396e+01,
          1.65569138e+02, 2.81215382e+01, 3.55302696e+01,
          -1.02528430e+03, -1.55976028e+02, -7.89550232e+02,
          6.40688660e+02, -1.56904404e+02, -3.71035126e+02,
          1.53001846e+02, 3.61491211e+02, -3.89821045e+02,
          -2.55925537e+02, 4.04822113e+02, 1.93315353e+02,
          4.44303680e+02, 7.67969084e+00, -1.80552185e+02,
          9.37638321e+01, 3.62668495e+01, 2.18008423e+02, 3.64272400e+02,
          1.25858826e+02, 4.08062897e+01, -8.51139603e+01,
          -9.32668076e+01, 1.02277321e+02, -7.57806091e+02,
          -1.84948303e+02, 9.64929276e+01, -7.86400909e+01,
          -1.09514320e+02, -1.23538239e+02, 3.70125183e+02,
          -5.78886938e+00, -4.94759460e+02, -2.50389881e+01,
          8.18823853e+01, -7.96133881e+01, 1.70423935e+02,
          8.52536850e+01, 4.30926275e+00, -4.69100952e+01,
          4.19541245e+01, 7.52872314e+01, 4.14870026e+02,
          -1.67059540e+02, -2.29667923e+02, 2.23954025e+02,
          -3.59702240e+02, -4.64750252e+01, 5.85075569e+01,
          -1.98376907e+02, -1.16495270e+02, -2.05156631e+02,
          1.00741074e+02, 1.49094070e+02, -1.02797852e+01,
          2.63199951e+02, -5.50030670e+01, 5.41094513e+01,
          2.35918533e+02, 1.42179016e+02, 7.30855408e+01,
          -8.40401611e+01, 2.30109131e+02, 4.73451385e+01,
          2.36249069e+02, 4.25236626e+01, 2.42302994e+02,
          -3.18971832e+02, 1.23186592e+02, 1.28327332e+02,
          1.06752647e+02, 1.41910355e+02, -1.83749420e+02,
          3.68714783e+02, -5.41294060e+01, 1.75241898e+02,
          -6.01925621e+01, -1.89194733e+02, -2.94175018e+02,
          2.28519028e+02, 2.63427399e+02, -8.09617004e+01,
          3.12874756e+01, 1.54332153e+02, -2.49619274e+01,
          -1.24657715e+02, -8.77227592e+00, 1.48104506e+01,
          6.44717026e+01, 4.14601402e+01, 4.49569092e+01,
          -1.11659081e+02, -1.18790245e+01, -1.23782768e+02,
          -1.68831039e+02, -1.24854462e+02, -1.11373177e+02,
          -1.68633995e+01, -1.45551300e+01, 1.08840942e+02,
          3.13414955e+01, -1.60450546e+02, 3.67803535e+01,
          1.03382507e+02, 1.97114471e+02, -1.75248795e+02,
          2.35518017e+01, -9.06380005e+01, 1.10871296e+01,
          -6.17467499e+00, 3.06371002e+01, -3.39789085e+01,
          2.14229469e+01, 9.66703415e+01, -6.79027557e+01,
          -5.11959381e+01, 2.17746124e+02, 7.86144104e+01,
          -2.25476456e+01, -7.89057922e+01, 3.03757324e+01,
          9.17775879e+01, 1.12943710e+02, 9.27755203e+01,
          -6.85947342e+01, -4.68052368e+01, 3.75918312e+01,
          -1.03065010e+02, -3.47043190e+01, 1.39429235e+01,
          -5.93116417e+01, 1.69505310e+01, -6.75137787e+01,
          -8.41805115e+01, 1.01678780e+02, 7.14094543e+01,
          -4.25242500e+01, 1.10988289e+02, 5.88056946e+01,
          8.71955037e-01, 2.55825596e+01, 2.09114502e+02,
          -6.67314224e+01, -4.80426369e+01, -4.20383415e+01,
          -6.68464890e+01, 4.46964836e+01, -2.11244640e+01,
          1.55548737e+02, 6.53428078e+00, -6.94090652e+01,
          3.84323120e+01, -7.53586884e+01, -1.64722183e+02,
          -7.95589905e+01, -5.14622421e+01, -3.89549294e+01,
          -1.03988510e+02, 1.61942017e+02, 2.18497467e+01,
          1.68244877e+01, -3.06948471e+01, -2.62732639e+01,
          2.20605717e+01, -7.47835693e+01, 8.05991669e+01,
          -1.23477287e+02, 6.70854950e+01, 4.31579552e+01,
          8.69896317e+01, 1.66386929e+01, 9.36761856e+01,
          -1.72901974e+01, -5.88099403e+01, -1.13124557e+02,
          -2.15141430e+01, -6.89220428e+01, 7.06720505e+01,
          2.07474346e+01, 5.32246590e+01, 1.25755516e+02,
          -5.62144585e+01, -1.47617233e+02, -2.24778957e+01,
          -9.11352730e+00, -5.60662308e+01, 4.09010658e+01,
          2.72400208e+01, -1.39179640e+01, -1.37538742e+02,
          -1.89586754e+01, 2.98818302e+01, 2.52835579e+01,
          -1.51950617e+01, 4.83260231e+01, -3.76207519e+00,
          8.50973415e+00, 1.15205711e+02, 5.44543648e+01,
          -2.75107861e+01, -3.23875465e+01, 4.64655495e+01,
          -4.72089233e+01, 9.67994843e+01, -8.27891541e+01,
          -1.00952568e+02, 1.26184797e+01, -4.16937485e+01,
          -9.31574917e+00, -1.05404968e+02, 8.04970245e+01,
          -4.31192131e+01, 2.06658916e+01, 2.33136196e+01,
          5.71468849e+01, 4.35802956e+01, -7.67302036e+00,
          -4.24346848e+01, 3.69527435e+01, -2.09553409e+00,
          5.33267856e-04 ]
      - [ -2.83563867e+03, 4.23741577e+02, -6.78232117e+02,
          -3.52311584e+02, 2.47998138e+02, 1.68263550e+02,
          -2.55651062e+02, 1.02065759e+03, 6.31614952e+01,
          6.79712677e+01, -1.01850960e+02, -1.79920197e+02,
          4.57148712e+02, 6.39236717e+01, -7.83293030e+02,
          3.31223297e+02, 7.68411560e+02, -4.34123802e+01,
          -5.25029831e+01, 1.99843201e+02, -3.45793030e+02,
          -3.70129128e+01, -1.19436493e+02, 1.10797867e+02,
          -1.25026016e+02, -5.74672791e+02, 1.95441605e+02,
          2.96650467e+01, -3.30653564e+02, -1.82669487e+01,
          5.38886566e+01, 1.16296806e+02, 1.96337433e+02, 2.65214264e+02,
          -3.68484528e+02, 1.40477707e+02, 5.05113190e+02,
          5.87311707e+01, -3.65144745e+02, -4.65244171e+02,
          -2.03260345e+02, -3.69376068e+02, -1.42848694e+02,
          2.82175140e+02, 2.11151703e+02, -1.54698166e+02,
          -1.29568539e+01, -2.82572632e+02, -6.19601555e+01,
          2.83333557e+02, 5.47122437e+02, 3.02376770e+02, 1.08640564e+02,
          -3.40326782e+02, 2.19881287e+02, -5.17620239e+01,
          -1.14461464e+02, 1.49240524e+02, 3.47498566e+02,
          2.18903412e+02, 2.40768814e+01, 6.33190804e+01,
          -1.39358688e+02, 3.50724792e+01, 5.96623764e+01,
          -9.95844727e+01, -6.04989395e+01, 7.37889481e+01,
          3.55651337e+02, 5.48713341e+01, -4.01461609e+02,
          2.09970810e+02, 1.52242996e+02, 1.10976648e+01,
          -1.05437439e+02, 7.77095642e+01, -3.15777130e+01,
          -1.93722534e+02, 2.71662964e+02, -9.90828171e+01,
          -3.55059937e+02, 2.78781891e+02, -2.14451508e+02,
          1.90257935e+02, -1.59673691e+02, -1.01278496e+02,
          -1.99968292e+02, 3.49833221e+01, -1.32382904e+02,
          -8.26986237e+01, 1.36223969e+02, 1.32049255e+02,
          1.53124115e+02, 1.53064911e+02, 1.15071907e+02,
          -1.40879335e+01, -7.77217407e+01, 1.97882080e+01,
          5.59404236e+02, 9.21060104e+01, 1.77570129e+02,
          -1.18180061e+02, 8.88947144e+01, 7.47889996e+00,
          9.50418091e+01, 3.62986908e+01, -3.66107330e+01,
          9.30678101e+01, 6.90142593e+01, 2.96694580e+02,
          -3.27031708e+01, -1.34186966e+02, 7.45239716e+01,
          -1.17250122e+02, -9.41743774e+01, -2.54135704e+01,
          -3.03789490e+02, -6.01161041e+01, -5.27633095e+01,
          -9.32821655e+01, -6.40772247e+01, 1.64618073e+02,
          -1.32375992e+02, -6.08831253e+01, -5.56172829e+01,
          1.34553024e+02, -9.87400970e+01, -1.91030331e+01,
          -5.07428932e+01, -1.23006088e+02, -3.03403969e+01,
          -6.91992645e+01, -3.40089340e+01, 1.44324005e+02,
          7.17350388e+01, 1.67875671e+02, -1.47760880e+02,
          -4.32145920e+01, -2.22942413e+02, 3.85781898e+01,
          -2.42227997e+02, 6.53504257e+01, -1.98037842e+02,
          -1.43975520e+00, -6.95896387e+00, 1.26167679e+02,
          -2.70372639e+01, -1.03229523e+02, -2.69467759e+00,
          -1.52447937e+02, 4.14191055e+01, 8.71842117e+01,
          -2.93138847e+01, 1.20590691e+02, 6.26720772e+01,
          -1.60450562e+02, -8.40672150e+01, -4.27950554e+01,
          1.00037781e+02, -1.28076226e-02, 4.35683784e+01,
          -3.19193816e+00, -1.20462090e+02, 5.64780045e+01,
          -1.18210815e+02, 1.55090313e+01, -5.43900337e+01,
          6.86669731e+00, -2.06778507e+01, 1.18319130e+02,
          -1.50512955e+02, -7.38833389e+01, -5.44169092e+00,
          -1.17637009e+02, -1.85580406e+01, -8.34818344e+01,
          5.57705078e+01, -2.13785763e+01, 3.13077106e+01,
          1.41101748e-01, 1.08345787e+02, -5.84959984e+01,
          1.08031759e+01, 5.82012749e+01, 3.30202408e+01,
          -1.28890781e+01, 6.80280781e+00, -2.47245808e+01,
          6.52192879e+00, -3.01472092e+01, 6.39776516e+00,
          -2.61828461e+01, 3.04680729e+01, 3.21148834e+01,
          1.30669317e+01, -1.38240194e+01, -5.04723778e+01,
          -4.76591444e+00, -4.90028620e+00, 2.74643154e+01,
          7.82322998e+01, -3.13647518e+01, 1.29088583e+01,
          3.45066986e+01, 1.15591660e+01, -4.44857140e+01,
          -4.76982841e+01, 3.44385910e+00, 2.10660696e+00,
          4.36320257e+00, -5.92682791e+00, 1.03226137e+01,
          9.90573692e+00, 1.18538465e+01, -1.54675341e+01,
          1.44072180e+01, -1.28974762e+01, 3.82738686e+00,
          3.98512688e+01, 1.32389593e+01, -1.22281017e+01,
          -1.08402061e+00, 3.07693596e+01, 1.41502762e+01,
          -1.29616823e+01, -1.32680464e+01, 8.41065216e+00,
          -1.59930372e+01, -2.36967602e+01, 2.58410950e+01,
          1.00597012e+00, 6.38789940e+00, 3.92019749e-04 ]
      - [ -9.45426636e+01, 1.39414783e+03, -1.44910986e+03,
          1.58934045e+03, -1.03031238e+03, 4.29370544e+02,
          -1.27701485e+02, 5.96963074e+02, 6.05382629e+02,
          7.62990845e+02, -1.21939934e+02, -2.23493210e+02,
          -1.79288971e+02, -3.91584045e+02, -2.86168854e+02,
          -4.01505432e+02, 3.39297455e+02, 5.92127869e+02,
          -7.78322327e+02, 1.66218738e+03, -2.13887009e+02,
          2.04853546e+02, 4.10456024e+02, 2.89344727e+02,
          -2.68655365e+02, -3.83494476e+02, 8.97399902e+02,
          -3.01349213e+02, 1.45059555e+02, -3.33832916e+02,
          4.31477600e+02, -4.40766296e+02, 6.99505157e+01,
          7.97201965e+02, 4.19211761e+02, 2.99729797e+02, 2.92015198e+02,
          -9.62880783e+01, 9.19645081e+02, -1.52252365e+02,
          -4.60629242e+02, 3.39830536e+02, 3.45107178e+02,
          7.68434381e+00, -3.50868073e+02, -1.45019943e+02,
          -3.95485611e+01, 1.61977448e+02, -1.33763077e+02,
          -1.92756195e+01, -2.27237740e+01, -1.36964447e+02,
          1.58943161e+02, -3.75148682e+02, 2.10158325e+02,
          -2.69647644e+02, 3.14594025e+02, -2.02004886e+00,
          5.99648819e+01, -5.24453087e+01, 3.33485229e+02,
          -9.60932007e+01, 2.10485352e+02, 1.32863266e+02,
          -2.29544418e+02, -7.53042831e+01, -9.23304367e+01,
          -3.40772171e+01, 1.18781029e+02, 3.46836792e+02,
          1.99626541e+01, -1.24329674e+02, -6.56967010e+01,
          -9.87699509e+01, 1.58285080e+02, -7.29508972e+01,
          2.33263672e+02, -8.94211884e+01, -4.05147095e+02,
          -1.05470856e+02, -2.44134964e+02, -7.59960022e+01,
          -1.82784073e+02, 3.88998909e+01, -3.10174198e+01,
          6.74881983e+00, 2.13251057e+01, -1.89031082e+02,
          2.74799328e+01, 1.24673660e+02, 3.18888611e+02,
          -2.31966995e+02, 5.06185875e+01, -2.59830841e+02,
          4.17139130e+01, 1.57198074e+02, 1.52994537e+02, 7.43378525e+01,
          2.30742474e+01, -7.33291473e+01, 3.90676956e+01,
          3.34656639e+01, 1.79756424e+02, -2.15337300e+00,
          2.31642258e+02, 7.67793198e+01, -2.03239960e+02,
          8.38378601e+01, 3.29064331e+01, -1.96845360e+01,
          -1.43513546e+01, -3.58134918e+01, -3.40700378e+01,
          3.45078316e+01, 1.81769653e+02, 6.05941048e+01, 9.17230682e+01,
          -7.04890747e+01, 1.54970383e+02, -5.10048332e+01,
          6.36681404e+01, 8.64075089e+01, 1.91526764e+02,
          -1.51197571e+02, 1.57594128e+01, 1.70686050e+02,
          -1.20614677e+02, 5.71488380e+01, -2.92498016e+01,
          -1.34176655e+01, 1.61394257e+02, 5.66119499e+01,
          -6.42157745e+01, 3.17436886e+01, 3.61782227e+01,
          -1.63503323e+01, -1.33480988e+02, -5.81823730e+01,
          6.14403992e+01, 1.13767271e+01, 1.20679977e+02,
          -8.21743317e+01, 1.00059303e+02, -1.48927841e+02,
          -9.57797241e+01, 1.11747551e+02, 6.93289413e+01,
          -8.10747528e+01, 5.50940514e+01, 1.49783752e+02,
          5.56918983e+01, 4.14176292e+01, -3.91039848e+00,
          -1.10376106e+02, 1.20543900e+02, 4.85481071e+01,
          -2.51608300e+00, -1.42675056e+01, -5.26251068e+01,
          7.19830093e+01, -2.44838200e+01, -3.85762253e+01,
          3.18554516e+01, -1.12015533e+01, 2.57994995e+01,
          -5.11310310e+01, -3.46329880e+01, -1.34944344e+01,
          -1.09220953e+01, -1.70703907e+01, 1.13874359e+02,
          5.86131706e+01, 4.37768745e+01, -6.18454399e+01,
          4.51316547e+00, 8.23052063e+01, 1.64608498e+01, 6.30364799e+01,
          1.68265700e-02, -1.33011532e+01, -2.66705399e+01,
          4.04220467e+01, -1.77104683e+01, 2.83305759e+01,
          3.15290813e+01, 7.01443911e+00, -3.11782017e+01,
          -1.23650522e+01, 2.93725719e+01, -8.25238800e+01,
          -4.06089439e+01, -2.18324528e+01, -1.91672745e+01,
          -3.88642616e+01, -1.97713470e+01, -3.55821724e+01,
          -1.74292297e+01, -6.14742966e+01, 1.10184155e+01,
          1.50662508e+01, 3.79021034e+01, -1.67388401e+01,
          3.18554344e+01, -7.31535006e+00, 3.10822201e+01,
          1.10558729e+01, -4.78309364e+01, -5.07386684e-01,
          -1.12263632e+01, -2.51349392e+01, 3.58288498e+01,
          -1.12536612e+01, 6.33372593e+00, 2.68330765e+00,
          -1.63366814e+01, -2.48260288e+01, -5.24564362e+00,
          1.78130798e+01, 6.51208572e+01, 2.84879837e+01, 4.48682442e+01,
          2.53920536e+01, -5.28140450e+00, -1.10240402e+01,
          -1.42343879e+00, -2.30636616e+01, -2.29795017e+01,
          2.86388731e+00, 3.14485054e+01, -1.48278732e+01,
          -1.16384287e+01, 2.04676151e+01, 3.38800251e-04 ]
      - [ 2.65848438e+03, 3.77583588e+02, -1.13931747e+02,
          9.77096558e+02, -4.07962128e+02, 1.47428024e+02,
          -3.38819244e+02, -2.91112305e+02, -1.89862183e+02,
          1.17506836e+02, -5.05660217e+02, 2.82885376e+02,
          -2.10034683e+02, 5.99268188e+02, -2.07381897e+02,
          4.87964081e+02, -2.15050797e+02, -2.16759735e+02,
          4.17243713e+02, -8.43008347e+01, -1.77241272e+02,
          5.82135986e+02, -1.95119537e+02, -1.90697357e+02,
          -4.62996857e+02, -3.44119987e+01, -2.53359665e+02,
          -3.76546082e+02, -7.37175522e+01, -3.47263756e+01,
          2.44563004e+02, 1.77338791e+02, 2.62522766e+02, 2.79161255e+02,
          1.11167511e+02, 4.41071472e+02, -4.48318825e+01,
          7.79775543e+01, -1.41209366e+02, -3.34789085e+00,
          -3.37017426e+02, 3.42846558e+02, -2.22159683e+02,
          2.88855724e+01, 1.51764164e+01, -1.95704186e+00,
          2.65233124e+02, -1.03042557e+02, -2.14039429e+02,
          -2.34639492e+01, 1.13269089e+02, -4.97747183e+00,
          -3.57774353e+01, -2.77000488e+02, -2.27125137e+02,
          2.49757538e+02, -5.32639923e+01, -3.30535278e+02,
          1.20943804e+01, 9.60556335e+01, -1.39519272e+02,
          5.16866989e+01, -1.90970093e+02, -6.17962608e+01,
          2.89830200e+02, 5.46354370e+01, -1.26169884e+02,
          1.24038116e+02, 3.69317055e+01, 4.69638748e+01, 2.89895691e+02,
          1.87453812e+02, -6.63291473e+01, -2.54541901e+02,
          -7.83118896e+01, -5.89530907e+01, -1.96880219e+02,
          -1.38403559e+01, -1.14696283e+01, 1.03742851e+02,
          -2.09399147e+01, 1.18624672e+02, 6.67636337e+01,
          -3.54063454e+01, 2.13990234e+02, -3.19793915e+02,
          1.49815979e+02, -2.67980682e+02, 1.34809608e+01,
          -9.26400299e+01, -9.66883774e+01, -4.11327629e+01,
          -2.90170776e+02, 1.35887360e+02, 9.39017868e+00,
          1.97553482e+01, -4.24153099e+01, -1.00933128e+02,
          -1.16087814e+02, -8.65477295e+01, 2.50703674e+02,
          6.80427628e+01, 8.71019897e+01, 1.67008575e+02, 7.19695740e+01,
          2.73025909e+02, -1.10059517e+02, 9.10396957e+01,
          1.27676857e+02, 2.92302876e+01, -9.27043381e+01,
          -1.69298615e+02, -1.49494677e+01, -7.90898056e+01,
          5.21142006e+01, 7.97132187e+01, -7.72369232e+01,
          -2.19489395e+02, 3.27664795e+01, -1.05679569e+01,
          -5.57363319e+01, -1.04045349e+02, 2.55078583e+02,
          6.35281372e+01, -3.80824585e+01, 1.11694351e+02,
          3.63607979e+01, 6.49593887e+01, -1.88115196e+01,
          3.60766335e+01, 8.02592010e+01, 6.82047501e+01,
          -1.62020859e+02, -1.34330807e+01, -1.25799088e+02,
          -8.89034348e+01, 1.09435364e+02, 2.49337840e+00,
