<?xml version="1.0"?>
<opencv_storage>
<stage5>
  <maxWeakCount>5</maxWeakCount>
  <stageThreshold>-9.3405336141586304e-01</stageThreshold>
  <weakClassifiers>
    <_>
      <internalNodes>
        0 -1 448 3.0430469661951065e-02</internalNodes>
      <leafValues>
        -8.4276729822158813e-01 4.1666667908430099e-02</leafValues></_>
    <_>
      <internalNodes>
        0 -1 120 1.2425487861037254e-02</internalNodes>
      <leafValues>
        -8.6757832765579224e-01 2.2298876941204071e-01</leafValues></_>
    <_>
      <internalNodes>
        0 -1 492 1.2907659634947777e-02</internalNodes>
      <leafValues>
        -8.1253349781036377e-01 2.9849621653556824e-01</leafValues></_>
    <_>
      <internalNodes>
        0 -1 188 3.0935201793909073e-02</internalNodes>
      <leafValues>
        -6.3617348670959473e-01 3.6570444703102112e-01</leafValues></_>
    <_>
      <internalNodes>
        0 -1 541 1.2246379628777504e-02</internalNodes>
      <leafValues>
        -7.6325535774230957e-01 3.3868736028671265e-01</leafValues></_></weakClassifiers></stage5>
</opencv_storage>
